{"layersSizes": [784, 30, 10], "layers": [{"weights": [[0.011969145611438881, 0.054188519426936144, -0.03575225698235256, 0.011642991999375263, -0.033712551397461994, -0.00868559008476225, -0.04367695464869943, 0.09293542544187759, -0.03564568118575149, 0.009176629430136281, -0.019164547762522393, 0.04346186839163803, -8.885659963693074e-06, -0.002076880713590621, 0.04278029264644399, 0.008406981704776093, -0.01432232620016271, 0.0429659638505891, -0.009378923085868254, 0.027870860676111657, 0.1039052619564052, 0.051671322881838594, 0.09128917611051156, 0.03704392899808843, 0.10777546424605418, -0.07866131802191773, -0.03329943322014211, -0.06704455861567396, -0.05378921880027368, 0.008782510939798427, 0.08526322257031749, 0.047484553228859035, 0.0817085879992714, 0.0035588417426928786, -0.044144798733658855, 0.054901144153467134, -0.08787029436516539, -0.0005171734442762388, -0.07289790333251808, -0.080924772481041, -0.016869643633881416, -0.04259037986872424, -0.03027551523549302, -0.03626445385297876, -0.008479277954519231, -0.06256115317976851, 0.061657252836667405, -0.029962873981124717, 0.04289168981702216, -0.06452996425294337, -0.04488679758068122, -0.011447100602881687, -0.02616975664738902, -0.0184969017719577, 0.010958761376762667, 0.07335940906730622, 0.026167053262139934, 0.002111608210208926, 0.10038560813459847, -0.08974192124139067, 0.024483741197176858, 0.07675349872726203, -0.04532420084368643, -0.036950255832641235, 0.07694740010198511, -0.08584035339269155, 0.03728507772367557, -0.01723684090748207, 0.001587031243413146, -0.008915981631148295, 0.03870981570375159, -0.1270943923859948, -0.06469695398619058, 0.04085069954136708, 0.001713955385332982, -0.011300598059484033, 0.020628170271956677, 0.026996968388904436, -0.0006830407477511133, -0.009904879490701643, -0.011474054684331913, 0.0006139240793764816, 0.057336087940153976, -0.004073992005753111, 0.001956768709020875, -0.01731475751954802, 0.018133496912530772, 0.03985045255311438, -0.03195182073661433, 0.0004896331116189262, 0.00256091812214096, -0.0663829552570535, 0.09850410737435013, -0.0059363541135596465, 0.050382623941158396, 0.09814833405411777, 0.01368828399225915, 0.11524188949930826, 0.1511201864129555, 0.17492438649687936, 0.1254628106899442, 0.062396870509758694, -0.05692439156198959, 0.04135303847661251, 0.09357026648777998, -0.10833836596021125, -0.0875971693968085, -0.012898954750688097, 0.05001827645195795, 0.02114405679559956, 0.0035580403526468355, -0.06054191892726641, -0.021681060706472664, 0.029334378731956837, -0.020449112502784045, 0.04253179085327954, -0.11095807482176587, -0.03297935563369318, 0.02885295891850661, 0.051582345055915205, 0.05791607284515257, 0.09367663443284531, 0.09788274821570979, 0.12297999246307086, 0.09587376544987677, -0.008182224093459839, 0.13539538755193323, -0.0009639922932559863, 0.1295711266239989, 0.042950972651387274, 0.03552021501712588, 0.03715481440616848, -0.07205547099552838, -0.03414889574875841, 0.06882649311330839, -0.015314413034645532, 0.028816392858519044, 0.054370354384894785, -0.044654385777536956, -0.006614202501961461, 0.034176161955438634, -0.017177921495126834, 0.04197705932490078, -0.08423983122391777, 0.003831821942618907, 0.016134454576288513, 0.08660105591391132, 0.09105639267097654, 0.045864312301970626, 0.013080484072134812, -0.0655953163955865, 0.063871690687833, 0.02744220003133491, -0.0004180535952829763, 0.04824129473147897, -0.12399941822411466, -0.054025032149423856, 0.01641599626106279, 0.034090666742412234, 0.01309536706702797, -0.07202512631753212, -0.0751126016530154, 0.027700299462208536, -0.09944741775786359, 0.027036866134100817, -0.0127330726458259, 0.005771553368804571, 0.05161736579375525, -0.007784499278739213, 0.0023544353965769447, 0.04076001463560786, 0.031070177250748374, -0.00198650056983064, -0.022862819288628815, 0.041289532519101585, 0.03124414550508834, -0.04336621550703698, -0.08872369937828818, -0.01988236023952088, -0.035151276776126165, 0.01269371186857522, 0.04620977269822111, 0.13040823994774509, 0.046820633462275184, -0.057278670721705734, -0.03707102174201846, -0.10503494056808474, -0.14655567485147808, -0.045715703422335774, -0.02216886870039443, -0.1015017023211603, -0.08832947196876702, -0.08865932119521142, -0.04160557155671082, -0.04613224838185602, -0.022818264251090667, 0.051764355559852544, -0.013688971036979256, -0.007633831457391565, -0.07995238547864389, -0.04188020287742972, 0.13631169354882391, 0.07263896906525831, -0.01735162096070651, 0.10420369082539928, 0.11663193194628364, 0.00922348862096888, 0.12354613268099748, 0.02542031839948075, 0.06347868062502288, 0.1263492259333244, 0.14035741965608256, 0.10151955226311368, 0.024055075143266824, -0.04878282644855176, -0.009758761331600323, 0.029976738489502035, -0.062348795764466114, 0.07395964205285323, -0.10652263241456603, -0.07736937261493367, 0.06582024765160868, 0.06344202569974643, 0.09342626584769993, -0.10256985297466174, -0.05519373712282533, -0.002250740880441991, 0.0033271982562371526, 0.012842087318038261, 0.009613341579131122, 0.1418384098153367, -0.01690975715372333, -0.007419711725046152, 0.032615886039011874, 0.04830527301587493, -0.026837500174531383, -0.013671665890828837, -0.01758455556824845, -0.04744467479490669, 0.009728681347292278, -0.054284099346041365, 0.05210302001481834, 0.02582384211501077, -0.03603552912759338, 0.079714674185867, -0.055969209431200366, 0.05487172877320819, -0.013423758023549535, -0.08893756869673816, -0.07113844834572929, 0.014890971424498297, 6.882523036902733e-05, 0.04110011587584213, 0.044311776379937155, 0.027520760954495495, -0.03646094908434548, -0.014484738493421698, 0.15673873342825909, -0.03690265936590262, -0.010498654773779823, -0.007176086777422204, -0.07688395653503255, -0.07910758507483305, -0.16348313397187061, -0.1485091544057705, -0.14760914945478276, -0.05981068364918124, -0.0590064705970847, 0.15721908066204998, -0.007401592892881457, 0.03243012069392152, -0.008317259028066957, 0.006854569513999201, -0.06766099976486618, -0.007844807007362384, -0.12839492197333527, 0.023149580070274636, 0.011103663186748453, 0.020378285901728542, -0.001431252459970805, -0.00973331184691266, -0.10333017854656239, 0.06711008181838266, 0.031947299849911466, -0.0289348701361992, 0.03094081156915685, -0.0996924688979517, -0.11685867625535348, -0.1932218335771781, -0.21376066219485004, -0.19213991994916907, -0.16813490493013827, -0.1507193508255283, -0.27676895118298434, -0.16716533546232232, -0.05520556655794249, 0.011043415880171081, 0.0608048491296236, -0.03052902597041039, 0.10011878522122472, 0.052355675596684775, -0.01898762208095795, -0.021697357164114285, 0.008686449925058102, -0.00014590452011157716, 0.05608916915245063, 0.001901089797142275, -0.0028488624228465323, 0.00031778325900584653, -0.0014476722520873125, 0.026492435476627663, -0.0034390830647823708, -0.07870247313766685, -0.10504199103092411, -0.19708005055634883, -0.17951924896096152, -0.17758103089668348, -0.22046900056757898, -0.1994318892698483, -0.16150479172135027, -0.13210828007320508, -0.11339799045713637, -0.058427393122211464, 0.012026921347172186, -0.02072354223197687, 0.041664213395582614, -0.07200848812578056, 0.07222330888719519, -0.011009282034566793, -0.09295278726731084, 0.02445145281210423, -0.030923378629521145, 0.09217687309896393, -0.049298986560260605, -0.043606799549453006, 0.002658719790034623, -0.031028877002959507, -0.042818265513583274, 0.010678376924142845, -0.035743427918301963, -0.09587167697632375, -0.07027670962920184, -0.1082802746889154, -0.17796756868859945, -0.18800415782688554, -0.11659892261626079, -0.09166555895456237, 0.03086636026474243, 0.028600615316051337, -0.004777761237599382, 0.03272148229793082, 0.09491332006654486, 0.1046732050559574, -0.007425366864376367, -0.02210501562480562, 0.00961470222133157, -0.027782260703824252, -0.1059334430496411, -0.1363371090796233, -0.1660846655789468, 0.045672900612154975, 0.024123708426288377, 0.06771511524898932, 0.020079572751918694, -0.036536160306482816, -0.05788947098393724, -0.004327522514208275, 0.060596996529294234, -0.1429139354498345, -0.06670021679669293, -0.09889646487774915, -0.18140720112628717, 0.003967858271907872, -0.03511355237293546, 0.09311084624531496, 0.11737695277547353, 0.0873124137839224, 0.12754746806626405, 0.10699355435918508, 0.05859057747380531, -0.010364190033868835, -0.05937814074685124, -0.018714234527907693, -0.029687760623185108, -0.09054377827662553, -0.07272748141709483, 0.002224713798257691, -0.07075761925304783, 0.012962422316115685, -0.07339386639167331, -0.0441592429740406, 0.05230095898976116, 0.008366937034025497, 0.02148874796426054, -0.018897257818876526, -0.003537210484352872, -0.041090270791710085, -0.03937796797437763, -0.08696629033927075, -0.0243347151268873, 0.17961672364606351, 0.22364051753879505, 0.11656806805723043, 0.17183770167711346, 0.17017145973168468, 0.12348960614710126, -0.023700813998553942, -0.023821643435845183, 0.0564164788781334, 0.017305815215614025, -0.039025474419557706, -0.09225665691641738, -0.11018012539160524, -0.07528885477271781, -0.08619124364477945, -0.0031326664314287045, 0.08001192620510385, 0.06078768137603023, -0.025362183331904785, -0.03293264023208895, -0.0322649308624434, 0.0021444674878415555, 0.08875956406193677, -0.018242199817997563, 0.06518891343105303, 0.08278790783091428, 0.05957846752048777, 0.07257778678376621, 0.07053632252161746, 0.046637906148036784, -0.00787530657999897, 0.1098932440761168, 0.03278630245727904, 0.05480314050034564, 0.08564387790171496, -0.008795858022561238, 0.06254300641077212, 0.0555582657768531, 0.05750282190959846, 0.039964397553835435, 0.06272925912909133, 0.002789379447911633, 0.04423578727925781, 0.05094952266449488, 0.15101766765895758, 0.07234021707917586, 0.04585723879042574, -0.0770167319451023, -0.025512936061034473, -0.03433904820869241, -0.024310216262964052, -0.03426920199236037, -0.007671887903899418, 0.056677745041488654, 0.16398050726418428, -0.07595985575198765, -0.02564315404345259, 0.02899187205062909, -0.02512619096650781, 0.0685334239164876, 0.05097001614042717, 0.06575333274364985, -0.01655880760509282, -0.0006856890836510186, 0.12113474572138816, -0.07669214473474671, 0.07273395894073066, 0.03619860811561047, 0.11843873939271114, 0.08268157414112426, 0.09090811288927937, 0.017809689388460326, 0.05914095119302161, 0.037754824542470415, 0.05952703821142038, -0.02537460814228074, 0.032860599242146, -0.026214247286691403, 0.07306699145683461, 0.07835764058570577, 0.12754562141917372, 0.10377631714920865, -0.07376499126830954, -0.07417848027608791, -0.09481325808614416, -0.10702901533765503, -0.11910329620395621, 0.013567249620775757, 0.01653463609924231, -0.02850725466245582, 0.02608374709075857, 0.06652262728396977, 0.0065169538076124325, 0.10510366222379822, 0.013895606510820335, 0.03442428726615353, 0.03204431298620028, -0.002900704099421358, 0.012881292887286247, 0.002871456571260622, 0.00530516068404023, 0.08981772887317152, 0.10466238414628415, 0.041962015152612255, 0.1127755308901406, -0.015838095841468006, 0.009076448813898203, 0.05005893763552614, 0.04222953714554482, 0.14735876270416542, 0.04254561978823428, 0.007472476698914493, 0.04888409809799011, -0.1409406438462724, -0.11102981947768543, -0.04596865493754173, -0.11962526024647442, 0.021720647700074047, 0.15536495496824482, -0.04641303530263306, 0.048656319757276294, 0.17794388572314773, 0.10894850689350216, -0.06427343678082759, 0.005008267919223607, 0.07009350613237689, -0.005523699090705284, -0.08725755598079749, 0.09320818127415652, -0.0010757939901674491, -0.021979602863328715, -0.056345037248379026, 0.035402575927563046, -0.013613461675837171, -0.015568536394166292, 0.10587696481118329, 0.07977465748761536, 0.1655709583020146, 0.08242971869969713, 0.13921440093564671, 0.14743075202550596, 0.048760634200519966, -0.003838050654775175, -0.017932153795408044, -0.01965530029690543, 0.05222845949421082, 0.02279768816996775, 0.010729928782746215, -0.011411762206016297, 0.10378181948286871, 0.03329230622187408, 0.04967142248163417, 0.05968700840987554, 0.0446399184159717, -0.01773441635996789, 0.064561419789101, 0.14080410030406834, 0.021531959456820172, -0.03715706597775841, 0.028569492669093925, 0.12370794046659918, -0.0031179147966071416, 0.020299213118496254, -0.012390147084001275, -0.0438974280683657, 0.026685106956556053, 0.11284294863870728, 0.04046228870071176, 0.026234747608610026, 0.15360433853354108, 0.013170978531506105, 0.08832363806593478, -0.09904645633551845, 0.023360456279401167, -0.04185733122362744, -0.06589606430288447, -0.06667919630521009, -0.0450345985605937, -0.05972914582631354, 0.13480634395369498, -0.009552444386996052, 0.04990234063823709, -0.04186342977000694, -0.05158863427670851, 0.0032727785059456656, -0.09216775934883101, 0.024256665653342363, 0.028539543477354642, 0.01426273307338811, -0.00509458308135089, 0.009594975113093028, 0.03240422659098022, 0.09553896269880498, -0.025269043519779936, 0.1084498655922906, -0.020495023542060672, 0.08158205426921002, -0.003649946963654687, -0.04413790438489365, -0.01510323745887542, -0.02703168356723371, -0.021325539977610504, 0.007382697421843143, 0.0007941821197817646, -0.12268830211841907, -0.02449083545474827, 0.004629801096215717, -0.004847287479809013, -0.13984198424521554, 0.04161363236726099, -0.0468645042178898, -0.04598194379424691, 0.027626373611444204, 0.006807965080359463, -0.037029861546084564, -0.11719071203939205, -0.013502030107690098, -0.07874072049277886, 0.010864084174291773, 0.012072606116583187, -0.011373538091405129, -0.05102994546258944, -0.03387644887795631, -0.014071682324630576, -0.058277952607146626, 0.022528798777344608, -0.03407342294174535, -0.08244254635145742, -0.10306089842877596, 0.019849130528220554, -0.15585582061141562, -0.0742698125434961, -0.013659429544390075, -0.08868265954600807, -0.09027871848255148, -0.06924234501748056, -0.1500634979669509, -0.049409694302730615, -0.004975452742915253, -0.025940011840005443, 0.010972268270153709, -0.09094491489449562, 0.11026253947806165, -0.04201171327278757, 0.03298148415012514, -0.04538464357514627, -0.023359783265733316, 0.012184506089410848, 0.014356649884063493, 0.016563735074148597, 0.021539489685049998, -0.033618129895823544, -0.007920272895823944, -0.11969820445653606, -0.07597346780027761, -0.09106653030938776, -0.08174616261258963, -0.04426496009493817, -0.0826844906931562, -0.09105874566198198, -0.16424465112972958, -0.1262015362750512, -0.019370736236317646, -0.10114908367288489, 0.002678405390331119, -0.035625229536961636, -0.02169382259322536, -0.011960914949389903, 0.011229645692931493, 0.026981299502594525, -0.07854395256759736, -0.06515090347860712, 0.02015894462107868, 0.023741890738046684, -0.014630270478410293, 0.04116303344686863, 0.1405011789329698, 0.03966726220247702, 0.0202249696947921, 0.020030133418445933, -0.0057700581065317485, -0.045397322353644964, 0.003902016457361204, 0.025188924117253562, -0.014888041924387772, 0.07387305133249099, 0.024970126777777296, -0.010026250799429518, -0.17902078047908393, -0.003570568209420405, -0.06746205102736708, -0.029084992927578414, 0.012422776449207923, 0.03308421821972054, 0.04200115623513597, 0.05317267576920948, -0.04022743587632412, 0.07041041207636796, -0.012247405631416537, 0.03426289156042265, -0.007584082362800357, 0.0003561077834096436, 0.06910361485817737, 0.08333788031487503, 0.09069597643185381, -0.03525534369631846, 0.01315280699040811, -0.04437954994280698, 0.1353913154587601, 0.003180757950097416, 0.1391337424033999, 0.04125098946612116, 0.11018521598532746, 0.08327900453352494, 0.03943128680216486, 0.02233508205093041, 0.04015830066826265, -0.011945487621138565, 0.037165531178039, 0.1055263126659941, 0.12203140692359842, 0.0752466064798572, 0.03826203644336264, 0.0016098934643901746, -0.09110070101647597, 0.08367142563900114, 0.053765469959068536, 0.03280599034994929, 0.02831900702285044, -0.009667362730971749, 0.030496304470808974, 0.011229685156698166, -0.001049085833918029, -0.10760938768443463, 0.031682839775872704, 0.02721451895466201, 0.02941883406314542, -0.009752240508215678, -0.027739024952751292, -0.026274086924156597, 0.0556521934523776, 0.0004071022304651185, 0.08303815766671048, -0.005334264353139132, 0.0004381635938533354, 0.05025630404141096, 0.04657652818515373, 0.006473266248478359, -0.0010985810920726507, 0.06981277121541136, 0.11548555523761182, -0.011153517165446313, -0.020572056548505465, -0.023607209808474233, -0.10219533470178613, -0.04065849061429234, 0.12203546133016552, -0.026129815201310105, 0.02540384235581928, -0.034903181959960054, 0.0377196211119838, -0.048199108537327666, 0.05487507581413209, -0.0015331701890644786, -0.030166920565496323, -0.019545692987952088, -0.030872923457495816, 0.09657496903984385, 0.02852752177344565, 0.07233551119165904, 0.02717917521008344, -0.054105066311049874, -0.0020013910187161583, 0.030542113400512917, 0.06325921496598369, -0.03321518492411363, 0.005981406865856045, 0.08740087674335972, 0.010232979885848845, -0.010168391822553639, -0.04675878560119074, 0.10210709512202229, -0.03299257194631752, -0.024090642959185005], [-0.0010933606316086925, 0.005189622439160397, -0.030329181075986675, 0.024374162196680687, 0.04362882072084185, 0.04365990129557987, 0.04855636912266921, -0.07020515775361687, -0.005652209488859978, -0.07237683747852647, 0.08548619065319636, -0.008973423899518987, 0.03439558489119325, -0.044113288887046714, -0.01176581327719066, 0.005270329308810288, -0.040176833894517865, 0.03920023705703904, -0.0200566539745081, 0.010049124489243914, -0.007480770881367901, -0.07551580981771218, -0.015681400876277545, -0.04853322155065145, -0.014986251711010765, -0.017368393666531385, 0.09899993082244467, -0.06262804265299131, -0.0006987082009557712, 0.015732729809951274, -0.02126088713247146, 0.02880830068072741, 0.02535242147955856, -0.08435749404300853, -0.03570885653592566, -0.09555740011985976, 0.061445309592878174, -0.047767197433763106, 0.04920053651799848, -0.10224765891632233, -0.010025853309921172, 0.047064945305706776, 0.04896747096280654, -0.004700283793734611, 0.07152535321235227, 0.008738010396839769, 0.08402046943828417, -0.024346834479702966, 0.02620561032755236, -0.04994190364893004, 0.05494762138852961, -0.004519806323677245, -0.006280776048403341, 0.008528901929897132, 0.037178694272096746, 0.1277849161917283, -0.02859375451784779, -0.001825244885433939, 0.008396524399440754, 0.06910245909593919, -0.07721383571129875, 0.030992134138192913, 0.07998005449900311, 0.045875903681090034, 0.07485884768484458, 0.0821544817433471, -0.029300741592571285, -0.0209404714673269, 0.014668883835835934, -0.012471880993694704, -0.011213109911141612, -0.008945089738444044, 0.00982923559325929, 0.005169783972393441, 0.03677420240988573, -0.12388011935082921, -0.053062781335028654, 0.05702893436939079, -0.04040599815728381, -0.032798596789183045, 0.03072084856880498, -0.05061537602465684, 0.05079540837224035, -0.01238639101783962, 0.023204098876031247, 0.026964985346446747, -0.009169185485153733, 0.09411340212993345, -0.04945546191541016, 0.06499868194143024, 0.015494058000314444, -0.08231137831061007, 0.031220398829167408, 0.04949491090287785, 0.0333013638355416, -0.005111351009198387, 0.009125831324913633, 0.023826520059279023, 0.10869151606527185, 0.0712731379151506, -0.011040837545140219, 0.01272751235105202, -0.051006578450595204, -0.08649559190017568, 0.046911290439121726, -0.020535844069470746, 0.03699429617819323, -0.05968074674167353, 0.05266054717880807, 0.03195541087946787, 0.021649948836266225, 0.05338889541516942, 0.029374036343378106, -0.010370526470992281, 0.004979652827400396, 0.10359663615996617, -0.032695996996699714, -0.04889699979647448, -0.077004405126233, 0.023424117582160387, -0.07008333407114566, 0.050010811566290864, 0.08425060906375804, 0.03942048769433921, 0.008686487557751525, 0.016332575886591368, 0.07934938924272797, 0.0343168585066024, 0.06866660371956242, -0.050115989259619714, 0.0034802435930070138, -0.010172268329896723, -0.030520232512244415, -0.017761412583531557, 0.01506692230129316, 0.02782904066046288, 0.12683934717835044, -0.005619003274519213, -0.0175643371017224, 0.10397462464468446, -0.029561147678885888, -0.04329365669797336, 0.015942920999014006, -0.006057593914641378, -0.05132876204329771, 0.07949057812460454, 0.03423309038146985, -0.06913769588275658, 0.0017001465167831005, 0.08899578465076691, 0.019202129972212247, 0.011689241874455556, 0.07576347672834736, 0.10370329738944008, 0.12619269636978778, 0.07367564527801258, 0.028338282056306622, 0.13439288687787918, 0.0309762967158007, -0.10313329883404328, 0.024224348228427763, 0.03432317494164307, 0.03277122215339791, 0.01554661666286025, -0.10298119597995459, 0.0029062635558786422, 0.10455632387035016, -0.024084654350861948, -0.04475899761526942, 0.00769565057550608, -0.061651562298423085, -0.08284007478389187, -0.014025500313534863, 0.0671389801295629, 0.04669129114102925, 0.01414673078460735, 0.021197378945948753, -0.011037852532788934, 0.054450850543842966, 0.19275149851083764, 0.12765315671886499, 0.07088774750708209, 0.16116882877657568, 0.09160024620653234, 0.20678913855406364, 0.09816429224173538, 0.020879867544303057, 0.17154169771703076, 0.028947557653925277, 0.048442841877871304, -0.046873274934790564, 0.04142770756946892, -0.08983922717219127, 0.03309915514468221, -0.042951977478164885, -0.0026336646163391507, 0.014844486968060719, -0.08790042298658139, -0.02020505611658499, 0.07694935321443444, -0.04054469594203159, -0.008899983265045482, 0.015963056733235666, 0.04352247638267826, -0.09414537036125485, -0.05013470984887768, -0.061095995303499434, 0.023703188934242704, 0.009163900487934841, 0.09631761855355335, 0.09257155090003777, 0.06056647294271004, 0.07010244511889047, 0.10188979972074202, -0.007531319266136635, -0.01280923217131088, -0.01080453099353016, 0.02279688588806479, -0.05488004936044024, 0.10459798933373025, 0.042839974887317764, -0.0028973630005809585, 0.02781014214990788, -0.044701822745643764, -0.002850488362018642, -0.037241204502121664, -0.004671171709070437, 0.011877076436926235, -0.035530579971441455, 0.09830006588015056, 0.03600813379627806, -0.0712701683660766, -0.09052307948539295, 0.06299745091184186, 0.020264182680967614, -0.08879255288685527, -0.030233791842908038, 0.023703889955219236, -0.02265378202423893, 0.11180207952718461, 0.11548509133508716, 0.061253116390267905, 0.06538325375388808, 0.0420858559797096, 0.018161027766611285, -0.029618232835391743, 0.07628964450768079, 0.213516604623419, 0.025685066602899664, -0.020184951893882787, 0.020769684694871237, -0.04306840684239085, 0.008027953989660204, 0.007326611957537697, -0.04360484835305348, -0.014351624774271397, -0.03082152744411447, -0.11736931980995294, -0.09360472228524365, -0.07484875864922337, -0.021817782153944934, 0.003350497341550493, 0.022965313135577536, -0.04811264152562133, -0.06959179075065103, -0.03689160705682716, -0.0693128684639623, -0.007972538324773962, 0.015075973683556993, 0.06049121189119691, 0.10636220173056844, 0.11081733827210377, 0.09297832150481214, 0.1329172723454624, 0.1079210695056314, 0.22216685155542099, 0.1073116589780059, -0.13530983193845364, -0.03668151009925755, 0.011746588094357545, -0.0633481515010112, -0.0739386501218486, -0.01887565305828668, -0.04641323125278067, -0.002634393759906266, -0.0097222468839769, -0.022964649395552147, -0.04502490331924906, -0.05316024614033825, -0.020231013506068502, 0.012401743469745964, 0.11549049895116131, 0.01334567512524842, -0.07515963861381134, -0.01313865857753218, -0.03514879218920916, -0.010379795958801136, 0.15998055663045208, 0.15005193889143784, 0.11132034489368836, 0.11423885260892096, 0.07986561449683731, 0.10590021814276623, 0.1724831528564608, -0.02306110763103394, 0.06973566887180947, 0.017668214408007754, 0.03099772071152596, -0.026660771310258975, -0.002267366322777877, 0.023906886153457766, -0.04192114772074724, -0.053355132779027, -0.10976765778637959, 0.026856261646398642, 0.03441375043610901, 0.02597486996260929, -0.0981290187648031, 0.016983187528474705, 0.003790361612083135, 0.06530377031785639, 0.059979838903883496, 0.03996137821572478, -0.026418309376173295, 0.05796579490289829, 0.06819515177857624, 0.13267849470061144, 0.05089011121535257, 0.12196395158654785, 0.05704740996900912, 0.1479438638846573, 0.1582267162230743, 0.09828913362569652, 0.0347070878047259, 0.013396326858597919, 0.08315614585651392, -0.0053234809831414305, -0.02014055923609182, 0.005369844267095289, 0.08361783408642334, -0.11436002710458791, 0.027400490055436974, 0.12292576320237766, 0.121175815266087, 0.07345360108472056, -0.08426906705369723, 0.030522228164908564, -0.028197817933936976, 0.17446261817913958, 0.059196917817286775, 0.08277051871973921, -0.027012524374429622, -0.07998961449001993, -0.016208672089874844, 0.07868561104670559, 0.05604040208130385, 0.06378181419216811, 0.07169611094001596, 0.0692042976829936, 0.25054949119711184, 0.1394781130635801, 0.09130218414706455, 0.0004360639950325714, -0.04015462677271876, 0.0024488719657994778, 0.07131670646031722, 0.01711807010723474, -0.03245902832673508, -0.017599206429963425, -0.005666151416708456, 0.021153223856298628, 0.09930064668410973, 0.09689342174306692, 0.0960563482710445, 0.008225488778775951, -0.07873845294455287, 0.13014423040651338, 0.13205652578808036, -0.023699720963247878, 0.0746264059785134, 0.010202000103667163, 0.015427517596888318, -0.03413848970832, 0.13932757096565174, 0.08306504768231203, 0.008018450490016085, 0.053619274886228266, 0.0453791933455501, 0.05838311286575756, -0.01253739117145046, -0.08473009364151754, 0.011222576480967174, -0.0842158207765665, -0.052050660853037764, 0.030847637980443696, -0.039805008367248026, 0.0504094700019317, -0.02857890995526687, -0.028278402945826366, -0.05415895584913319, 0.06062391803627111, -0.07942525860686758, 0.09292429344882318, 0.07212704711603814, 0.07018779096005683, 0.00608874914690518, 0.08217484681424522, -0.10585252894715111, 0.01100411507345646, 0.027534645320803512, -0.07191282532686803, 0.12689712893955155, -0.07802115186212637, -0.03810814205478495, 0.01895759153567963, 0.025108126398365876, 0.05392801091620391, 0.058718375432002146, -0.07186278277647686, 0.04299084716981564, -0.08084069528960244, -0.007176196882878217, -0.011252040018388688, -0.05690015697157792, 0.08530796311232629, 0.06190945433090904, 0.04924065618530195, -0.017153430539381603, -0.004514225960143878, 0.06570438981276576, -0.02637026400344662, 0.05960909234972141, 0.14275322110090177, -0.03875418171096431, 0.01252414215639337, -0.01852122567524665, 0.0026244923490869243, 0.027808294193405494, -0.013998642429513366, -0.0041370991282923325, -0.11456178317646255, -0.09314677575997209, -0.023725442814177815, 0.0514288656849884, -0.08153979461043007, -0.021011764576095493, -0.026795521329743423, -0.04894207460620895, 0.05914247253119124, 0.01604393395285111, -0.05788499826283471, 0.008884378038004601, 0.009503302081473338, 0.12708171066069596, 0.057100477859306706, -0.0005677373776926995, 0.08227530465746395, 0.03534074949110534, 0.05896217341098596, 0.02680021813295689, 0.0412359495904548, -0.07483733856491996, -0.05260537575931346, -0.038454443626547895, -0.02658470716246489, 0.12183146450244796, 0.10262104461290694, 0.11214315194579223, 0.12522433533555496, -0.011452334521309374, 0.043412301849342375, 0.04051929536708993, -0.046285549953218694, -0.012344468811840804, -0.0194532427878562, 0.0706145878509269, 0.021259898852512962, -0.06202835594981546, 0.037274661368957636, -0.025218718005514857, -0.03272337848522009, 0.03724363573255577, 0.0799165766012666, 0.08368357780324233, 0.09201859794728712, 0.016212103652409972, 0.07894049173608111, 0.008793121355266966, -0.14322649363943107, -0.07961201121429079, -0.0761570526159309, -0.048410902642718974, -0.029503455201849788, 0.013953520341492238, -0.05796475681432885, -0.05799010564878351, 0.014878974802604153, 0.044451812129361, 0.06597457754806156, 0.17570213105069915, -0.004731169343770003, 0.030476761084954094, -0.07080261220073814, -0.00941314292367181, 0.07145687773365066, -0.061208018481333545, 0.05885887998153154, 0.04952364329402702, 0.06411125697591757, -0.023634136530080965, 0.07053289440007361, 0.09739196081831206, 0.18937113018262308, -0.01091324843487153, 0.05818813208499015, -0.011109175634046606, -0.17023731506717135, -0.08823570613831289, -0.09902530656803273, 0.0051059606394984035, -0.07355364431179273, 0.03072858571858149, -0.06909485191196361, 0.04244020548764151, 0.02462984135949768, 0.10824395840137759, 0.11640284019133691, 0.012429747614524407, -0.07102850103460985, 0.07155035295777558, -0.05425291526492422, 0.04583134523515018, 0.026403837839217213, 0.0022127100954769164, -0.11275254875865996, -0.019488263596448136, 0.013002829373066216, 0.012959082278039252, 0.07837898328534011, 0.127550366692756, 0.1428353322238601, 0.11552957350374515, -0.005903660971913498, -0.044661186672725464, -0.014621109558753674, -0.11323908107111567, -0.06904827153211589, -0.04584201953963286, -0.008177113602064686, -0.011732490922773928, 0.02316523026325754, 0.06298884361273638, -0.025153118934451844, 0.1249394848619821, 0.1285079438585213, -0.011169751737433228, -0.059367657112775314, -0.034547954816575195, 0.044094540146734994, -0.020835386945191457, -0.03511109996538021, 0.017407403740299723, -0.04147827178843824, 0.053596633078505804, 0.002788436937690928, 0.03161713630574034, 0.019538950547590736, 0.08224415513581201, 0.107150319953167, -0.009874366949814596, 0.04046224617856911, 0.03204209912901964, -0.03293469496918568, 0.008607056188596586, -0.0328570334793871, -0.043493558967886765, -0.017840105028208764, 0.021823173312857585, -0.021821486505211242, -0.10159303758927388, -0.005216026055719237, 0.0445163900425807, 0.0563237456855773, 0.029116008951067137, -0.010312655211861923, -0.024736551076246466, 0.040553732991938665, -0.09767037257732682, 0.03835401125325247, -0.019820203552110498, -0.03915529005709813, 0.023760412647559646, 0.07370307001612665, -0.0029204317327895606, 0.022005989536661576, -0.042821743965711444, -0.025892552153605836, -0.03806095002637444, 0.019381752239397296, -0.04765768901338714, -0.0315655892443974, -0.13917892622215935, -0.03865833358267339, -0.09647107762307995, -0.11210892010612707, 0.05354639182824114, -0.07844038940677706, -0.13096752478118115, 0.041490893812487786, 0.048024296208803094, 0.059600829171495055, 0.039676000940375156, -0.026253430947885778, 0.03861750735311697, -0.035291604652108274, -0.01545928701002992, 0.002337825015005683, -0.01672841752670439, -0.08343784362924116, 0.034233404827533453, 0.06498346603590674, 0.019979128325291015, 0.010130373238000414, -0.027005419412748918, 0.09529807598498093, -0.04598810508482419, 0.10927068404868188, 0.07442714321178902, -0.05386399750855706, 0.14143236101248297, 0.05463390072067005, -0.03789905053496631, 0.08486539869876993, -0.04459145123403292, 0.044369412809527865, 0.035771496559488546, -0.0036273413861229024, -0.03201992697200403, -0.020066299357589447, -0.10918053721801702, -0.0865959446491801, -0.02830211714202458, 0.004103250363444137, 0.07296437306100725, -0.04561596531335051, -0.08486231156659634, -0.05322388479332182, -0.019459723009268574, 0.04766384392786896, -0.002884978183053499, -0.027147248787837232, 0.04803654955400506, 0.046519874562064016, -0.007496383897018049, 0.14683216694859283, 0.2001913255720581, 0.005258475969564514, 0.13676204094393846, 0.08870736078890117, 0.03744968073579301, 0.06913332025820591, 0.022944739189911533, -0.07374667155208088, 0.01175336968170045, 0.03894545383580878, 0.15475952669677137, -0.06016861710969898, 0.07014847681582152, 0.020892895016520665, 0.013668321986395433, -0.03580078405518403, 0.05678355754520933, -0.0365368616338777, 0.03980477224206777, 0.05126630187450585, 0.03270621644751465, -0.06159202510521743, -0.03115701006446604, 0.04718560239083356, 0.016543021386881802, -0.03403532573461034, 0.06437049397223125, 0.16919685813956517, 0.16828327709455823, 0.1364270853969623, 0.1299875845113198, 0.07450161785467896, 0.09716143618882471, -0.0013997387915484045, -0.03704530231158405, 0.04923348601399659, -0.026900691151010667, 0.02518002208460198, 0.022754488746143064, -0.05619748822104138, 0.06942849812492491, 0.07096960666953381, 0.01598848210399715, -0.00397507690210866, 0.0163503017226297, 0.08403787946613399, 0.08703233723647065, 0.03517852503191908, -0.01420462541945003, -0.0019444966837020375, -0.04250990795268476, -0.006621618225508167, 0.008917639859316904, -0.004441415868345383, -0.013916123731442196, 0.031987967668872276, -0.002403323751613273, -0.02340956314689669, 0.0061402509027172645, 0.03698985688969661, -0.01677685144299385, -0.027255206051538628, -0.09080889401636008, -0.017001548264289134, 0.006605721181575153, -0.02062855742419485, 0.03809986281524717, -0.019377531258721305, 0.03484568896092451, -0.04492338831857147, -0.04028097434127798, -0.04443975519939661, 0.015638302374573244, 0.0006695499586041423, 0.03396730609182316, 0.06039117055547891, 0.023111828879976842, 0.022077622881213368, 0.04613346138854897, 0.022960534263781914, 0.016407260617674554, 0.00803285738915342, 0.06643979418563664, -0.06311200114916053, -0.012530390864309564, -0.0330624939057004, -0.019753624052804977, -0.0486533563821697, -0.00741116498486087, 0.03981130454771245, 0.01253700966127107, 0.027751550547255477, -0.01902040348599355, -0.007446870762258131, 0.07246128016055817, -0.0376734428261269, -0.032328663471770984, 0.007989321506220297, 0.044990800090118875, 0.0789078077063404, 0.003916660299835907, 0.012005768989265943, 0.008479310814237983, 0.003029218928192664, 0.011225686291654215, 0.023516688523866448, 0.009326168760784619, -0.08907593964214311, -0.007624621311300847, 0.06572616513018853, 0.019330488994990666, -0.025679090691833852, -0.018177237766437725, 0.01122045782890427, -0.10609183556015599, 0.05149759874978124, -0.03130538548643934, -0.015208430463239124, 0.08719221902608716, -0.03725277895085306, 0.08946052905598381, -0.054977912882076, 0.09785915166883483, -0.015185360059119362, 0.05154451041002369, -0.0740054419269805, 0.00777823540855234, -0.04434356532300065, -0.011423973084442233], [-0.0027777421288458256, 0.014797651113106696, 0.0587727242949512, 0.06880428999778856, -0.0006474895656840092, 0.017505196999108772, 0.040220152668313795, -0.027841042617994128, 0.0722754804936877, 0.07177862319885835, -0.05237210399139494, -0.07261859778772072, -0.04235645549066225, -0.07210226629926693, -0.06995783123224862, -0.023467211482472224, -0.12473716367595675, 0.11929920882146203, 0.014530959412348063, -0.04131441053372068, -0.038125112156579405, 0.002258606621115749, 0.0640876542952463, 0.06472153433205981, -0.02814990136829965, 0.08760637803241275, 0.04948421078271469, -0.021450535421252633, -0.009627217679130948, -0.05988451614149616, 0.023114167081333993, -0.0622134911368726, 0.036893522821464665, -0.016382704227051223, 0.022419942145163303, -0.05540622284518372, 0.1185138834316826, -0.015436653805138291, 0.10592693713806371, 0.03024713402318367, -0.06268194152570088, 0.004699098886143395, -0.024286702135196046, 0.05243650250434638, -0.056021783102726215, 0.0010046352849790731, -0.009189194613325586, -0.05190904296292559, -0.09937063035108086, -0.03097678512310275, -0.059102391940025166, -0.08939371682508951, -0.09700614480947896, -0.03365894154081749, 0.03498728933328167, -0.03848051411339334, -0.02704505426494573, -0.02988402153537464, -0.030851667449231717, -0.012250432677361067, 0.010826260278386924, 0.016501091689183452, -0.04697655427973642, -0.03010698631536956, 0.009395385002182772, -0.09217534834513466, -0.07665147174070301, 0.025523081483518274, 0.04033184175167537, -0.0404819790703581, 0.06985007568151545, -0.0005051458889814079, 0.06519361264565811, 0.04439258170219951, 0.032246406582631885, 0.020128671802238044, -0.004416486781337014, 0.05041286752779581, -0.019831766051491936, -0.11003826746171692, 0.02485536995811885, -0.008560008896676154, 0.08482141573473008, -0.04590324047729532, -0.08138930269057082, 0.026665565660261837, 0.004616857722743134, -0.026701730599126276, 0.10082777105700302, 0.052633469000557584, 0.027142043772378697, 0.028086611166817082, -0.10718597410030034, 0.06398231286433913, 0.06741301119837531, -0.0580899751258102, -0.113729663858885, 0.05284762730800595, 0.01110075931203165, 0.038320773229657164, 0.05267248140256382, -0.021832912899602836, -0.009124445701045675, 0.004651530897804023, 0.0524610961502599, 0.022270217336132356, 0.011233131982355645, 0.04477173860170051, 0.0229623823815659, -0.043417576230735194, 0.011811651170545365, -0.10697505307428828, 0.07953971464617139, -0.04525768064829433, -0.013140069976270183, 0.001879945131021889, -0.08418330401533144, 0.010815656548024964, -0.055915938272998206, -0.027483312791331285, 0.019940422812008793, -0.12062880020781201, -0.0337404053551345, 0.10170456833421204, 0.09149568361720664, -0.005761159703177021, 0.07589275638260252, 0.029035992625327363, 0.04592361279712816, 0.04333717766029769, 0.10291915472584394, 0.11968122678588886, 0.0016443357606296595, 0.12547758136684634, 0.020169878490927114, -0.03812823448533487, -0.056577092126556316, 0.09977863154144842, -0.048361422575877056, -0.047175170324153436, -0.018270062536671093, -0.09732291742948504, -0.0352867539492031, 0.11464972105005646, 0.055526581332371955, 0.0035489720842950363, -0.08140115955006633, -0.06792297898519058, 0.02805729595761611, -0.14790005592587135, -0.046904972558963254, 0.0758416772732448, 0.11534818808371339, 0.16507700746909051, 0.17843951588631768, 0.15479280580251573, 0.11332358621765029, -0.017033237065156182, 0.07687720849743854, 0.11792849576618733, 0.048167116876795646, 0.06848943614673927, 0.07872516162507302, -0.06115032260389742, -0.05119635646501216, -0.009711048707706912, 0.009324891149683379, 0.018839299361309392, 0.05074955824168019, -0.05193320435990849, -0.004543553046848049, 0.012711198284158017, -0.004703968250553701, -0.03811803653801672, -0.10129157469400037, -0.11086134881804481, -0.06977338323500486, 0.02342131471523588, 0.05483622519636102, 0.04726666207367872, 0.13927857979252473, 0.21020916185249205, 0.22132983648854535, 0.11137271536054914, 0.1555399648302234, 0.2053627524545226, 0.13585737270259787, 0.17220353017230747, 0.05060164927030991, -0.028839721459804523, -0.044604490971843505, 0.021424883888719302, 0.0033000500531206794, -0.022635228008630534, 0.025834329012765802, -0.02021541391101671, -0.048580453788380815, -0.012978672370414779, 0.04892081418222248, -0.07418065599267015, -0.06128061530778703, -0.05903374700601805, -0.09686859247623841, 0.049793251984810306, 0.06569597326193048, 0.12943400177114536, 0.15502887788190395, 0.1357682519889402, 0.19638573135025364, 0.2967746400824825, 0.21244550252260036, 0.07807920440139168, -0.007657526306275359, 0.06378232707018021, -0.06485992025956397, 0.041029341886545154, -0.07034365006256293, -0.0877530004790255, -0.1418708726831982, -0.024083720143857405, -0.09546586770327486, 0.027401575743500457, -0.014761583254224078, -0.004035942071695788, -0.009279125679470916, 0.05965727554692566, -0.020708244261645796, -0.13806246801575128, -0.018282290927522968, -0.026951078466837666, 0.04073058758571317, -0.025982527865119155, 0.1476930436249341, 0.0978607354339501, 0.14904621870869056, 0.08180245436682018, 0.16629220304879322, 0.016052194808273388, -0.022073200599790843, -0.12625113764671017, -0.13574538216410445, -0.0964636589216842, -0.20734887871936147, -0.14564503004651821, -0.13540477864217346, -0.09543274717466295, -0.15284648530210118, -0.02004518591955549, -0.08208629930934147, -0.12680971153246168, -0.00258248750005747, 0.03322507993842826, 0.051682447353695704, 0.07066819506089908, 0.009940447589480962, 0.0490562923892003, -0.048096345803564505, -0.0501813144287013, 0.1358174319736718, 0.03744298105043209, -0.028670554077840634, -0.011700600124782488, 0.12510013055743124, 0.04450138855179313, -0.05218954451816479, -0.19434804570974576, -0.17491338237823847, -0.13808993304214803, -0.21516626774715183, -0.20820722596881236, -0.22996152011252408, -0.26891636956148074, -0.21528826444138938, -0.23782441849091263, -0.18234822951618176, -0.05527259126679073, -0.03456657493912174, -0.009462528861594315, -0.014800964052020015, -0.09887785256325436, 0.0529084629743781, 0.03127895961440057, -0.03605656002433374, 0.0035865777322428272, 0.06883293199955227, 0.07409144583104775, 0.03030222817932663, 0.09216244732747209, 0.10382560220884947, 0.028882385598669662, 0.05372133568660147, -0.03567362203503944, -0.13640122860085524, -0.23565205967364342, -0.23009563538659608, -0.14272715000291805, -0.09633318330773147, -0.046796187254428814, -0.10340974176515899, -0.17416179224322323, -0.15293106563767425, -0.16206013853438384, -0.10593230065074107, -0.02696782517724008, -0.004870109558464618, 0.05067072515213844, 0.04969450209760932, 0.027961128933050316, -0.04908557487242965, 0.010347478082128962, -0.02099367814349603, -0.0327730756935084, -0.009311030101850915, 0.07202132478789867, 0.08372362863406584, 0.11077866441699263, 0.15524313843440632, 0.08093784310899944, 0.10095056931841406, -0.021147604954825743, -0.16326639814040358, -0.11376645430340748, -0.10143280344949263, -0.04538392931008184, 0.03840720803142989, 0.20695844972768734, 0.08649989590440303, -0.08403913228252467, 0.03666456859946502, -0.15207879893111811, -0.0883925939851449, -0.015492588588297492, 0.0292324286102997, -0.06976043945451885, 0.06236616616494113, 0.0008934892106586437, 0.06610550134995606, 0.07397980736690349, -0.02968732186898876, 0.031941718457768366, 0.06032641919579101, 0.09218955364324757, 0.09689633081872003, 0.0242554177736004, 0.10329703221338715, 0.0058907440242445, 0.09910728559481669, -0.06510860975369792, -0.11537144770861067, -0.11833961350789972, -0.040609835956757975, -0.02885865375768419, 0.05629387110611546, 0.09563387263070683, 0.0032748020817159945, 0.06306514417295798, 0.05596160500678975, -0.04353362247152957, -0.07415136244514786, 0.03445528173687621, -0.011209843467961132, 0.007420889109438767, -0.03184993579936029, 0.03307862488938019, -8.767223120767528e-05, -0.07916513831360705, -0.11542639210735188, 0.09537267623103218, 0.044831830146937555, 0.02816906571587202, 0.018973139091101356, -0.0025523356212463822, -0.078091736466906, -0.18146777636488212, 0.005535200651898658, -0.16262152932632218, -0.12105246577668848, -0.041071910387881674, -0.059874410834578756, -0.11779265766967315, -0.010713619380673002, -0.0026319765237729745, -0.06651171483765919, 0.12471832342591108, 0.07611018387854575, 0.11078162660595585, 0.02024675657385805, -0.02302175659465223, -0.07664129897457105, -0.03262481294920508, 0.02510170837971046, -0.0423236707632144, 0.07342365365768466, -0.036736252865125316, -0.008769310506644869, -0.08758628202531345, -0.008656234261235943, -0.023079812642582336, 0.0025892283357624207, 0.054889490359286, 0.031468405787110625, 0.01922434899374853, -0.09918712897250359, -0.15363807212590244, -0.1089062331244513, -0.0739037938117226, -0.147587743390006, 0.041882301463195215, 0.04876874775627597, -0.10823437846902223, 0.010827901188909176, 0.027000729236824336, 0.10950807524136125, -0.015431767709960674, 0.055333098639676476, -0.003260938219624043, -0.04422714934777517, 0.005280819497544432, -0.03903461717202753, 0.04130870588894838, -0.026066067794882995, 0.08345017255022877, -0.024341445569428143, 0.09405466889986723, 0.05770634667399392, 0.053739278290163645, 0.04717446256368393, -0.024494378242739274, 0.11232205382388465, 0.025933561753609825, -0.08843595052412606, -0.036361549203516606, -0.1417882550131613, -0.20666326804791843, -0.12071597099281399, -0.03481164901241116, -0.02168558432303968, -0.013194048432663502, 0.053057562708798044, 0.09213322147014873, 0.12600721744494145, 0.0638365249273367, 0.031777151859732046, 0.03936359405676121, 0.0655255480646916, 0.04585904053387058, 0.0723240298876142, 0.06668318172590865, 0.06634400135182301, 0.08413621357222154, 0.029444809407044692, -0.011755310422426052, -0.1146611732911368, -0.04273984192557269, -0.13500536037228858, -0.06485016693878135, -0.02095618159338629, -0.11652336364937259, 0.03254131779989436, 0.054893677711006846, -0.027872318033890387, -0.11831107045591581, -0.09866413471091753, -0.08058862486029847, 0.01697600254407327, -0.000627320659566117, 0.0862343314271345, -0.0780706922824568, 0.15342464683369447, 0.12472372202176212, 0.03834219652158657, -0.007782776219764759, -0.0006207392692823565, 0.04147902229034025, 0.00012524511786022246, -0.02975036956204555, 0.03731495536573306, 0.07400508716972647, 0.14223220725884198, -0.04959809101451912, 0.007434486804728637, 0.07703485068068812, -0.02108204186125333, -0.009262938481656649, 0.001172577990332181, -0.006834112135103405, 0.06122039440015907, 0.06408917879055875, -0.014723065597307445, -0.07296663921794296, -0.06972560440516574, -0.04789897007214308, 0.03202656633863429, 0.07079596731192146, -0.009194771261776934, -0.004974151220816129, 0.10667833710842614, -0.0488001896008028, -0.015352916782135056, -0.027772062001519788, 0.0725466563806537, -0.07994983856344388, 0.03445867665630039, 0.06305639289363123, 0.08609057279601529, -0.04076175610149041, -0.081039031570288, 0.08081316808888732, 0.038131324273862975, -0.0023151020264267413, -0.0954044424628101, 0.017816726962668058, 0.03236187418182653, -0.01644884784849368, 0.04438935321588631, -0.0855211983269526, -0.10135198348029521, -0.06943213365087825, 0.027151320637931752, -0.09278340075070078, 0.02391805405019169, 0.09240109088095018, -0.060542416489464485, 0.06288339454632398, 0.10280425430388815, 0.0015281166705339625, -0.09008979255126531, 0.03474601809019763, -0.00401406655027426, -0.0020791470807479755, 0.002036177370100449, 0.02585622563638271, -0.058933436801757, -0.013307879024640772, -0.1358962149614429, 0.002511899519602122, -0.03664158563077989, -0.027432178475886995, -0.09666899509122659, -0.03645524671755645, 0.03764882948311046, 0.08280760675651586, 0.08404315226625647, -0.07653790658443166, -0.12032328473262394, -0.1417575027803613, -0.01679526932139224, 0.04696856552456095, 0.0042634386428221736, 0.03409215840972713, 0.11255450936077982, 0.11446533375867811, 0.008848474447168759, -0.06197998290038525, 0.021690691848591893, 0.1320110095611554, 0.047272337272923376, -0.00841922014807996, 0.08050182941735937, -0.07710548495793175, -0.017055802194379428, 0.029777100690962056, 0.003121078637917848, 0.06402766845414735, 0.06104189742302491, 0.0360296598116661, 0.021022257680974328, -0.05753548740018469, 0.08143079824456198, 0.03452757574793385, -0.06465404086385458, -0.0470111259110489, -0.08989496648258978, -0.05591132059386499, -0.0600398982035944, 0.059345767728451335, 0.07844539115759709, 0.04887186345497728, 0.050203595919600295, 0.043968592098017074, 0.028287679551981547, -0.06575749158786727, 0.045575702105668296, -0.03258501551166551, 0.061700138841767935, 0.052476302212580615, 0.002256573757601194, -0.021850474253808125, -0.014753376889060003, -0.022280648082199206, 0.04977831463930589, 0.0124895127527173, 0.09417089050870585, 0.05898423406236095, 0.030417152113249708, -0.021479391525161772, 0.013247075355776709, 0.0010023070936490774, 0.05646694170330881, 0.11199705062510346, 0.06132097268810219, -0.04121466802496042, 0.03174859492132425, 0.03589723240896393, 0.14111592478552212, 0.057139072665194766, -0.012538047106702872, 0.07177243588455175, 0.13163157863402217, 0.07076369205833742, -0.019787087651578935, -0.054456556664828404, 0.017712056388169004, 0.02859274460080332, 0.023367813946242533, 0.049038551465936435, 0.00911747119128628, -0.04710445992529914, 0.033771944148572444, 0.04362705650544765, -0.017759455726247174, -0.05593749100999372, -0.037269185762473726, 0.10288316198081882, 0.07851900650434067, -0.010137125057345398, -0.017934352114743757, 0.01887249145691122, 0.06657189115619287, 0.041809822865148, -0.02147845061936165, 0.16131130426702373, 0.1174570762857941, 0.09858064676512811, 0.027304641315803915, 0.10909229710466893, 0.0003325421170290243, 0.0515406651398635, 0.014903269225984372, 0.07397196780753446, 0.04033006867397457, -0.015261641559913556, -0.011804691737974373, 0.00895475199192397, -0.0646531386419926, 0.04105439073694938, 0.01769239559406238, 0.03457592032250037, 0.0022478820228791644, -0.043416616465680916, -0.00043857356324263297, -0.12157065873390654, 0.020793315162197876, -0.11062695334843022, -0.0024770121380109154, -0.036393077345917964, 0.06532025002457557, 0.031484809282722834, -0.02963735137981908, -0.11449067885842674, 0.13256904690963553, 0.03073658904689276, 0.044598809604630966, 0.07825802255174828, -0.053293623267559105, -0.06621051539240952, -0.03963079703718496, 0.05397242634286926, 0.005584742650083155, -0.05383139233084455, -0.0643654207179724, 0.024609705026449862, -0.013786320135646919, -0.02407731636490899, -0.01349481879694695, -0.07881395812763128, 0.03216539190888459, 0.02963542742526736, -0.06940281281799501, 0.06915538765713468, -0.07669608708117603, -0.07508468199256643, -0.11671621341895717, -0.08699125592850357, 0.06837170124625243, -0.040807910471259506, 0.024893131045941153, 0.026853548204082416, 0.014588570972688756, 0.09485227300377745, 0.0755952381180864, 0.06396877770151706, 0.03235991291667407, -0.0821203984259532, -0.027101881026567045, 0.06572908878088995, 0.09603531981943488, 0.017482743020213316, 0.055506635121520674, -0.020946355264755002, -0.06123153110107172, -0.005310935126967959, 0.019978948698271114, -0.037171187660093016, -0.03997246380047803, 0.004290985371835329, -0.014172440498819576, -0.07476707613748577, -0.040420938323659346, 0.05122431354225504, 0.06777827728656254, 0.0029829186184182834, -0.03098206628063972, -0.07483189729936929, -0.04219123119527442, 0.10999056173437685, 0.0627000397009977, 0.061419450750874446, 0.03018976828611893, 0.08565601648553522, 0.07442121307283152, 0.03721892946406714, 0.028221271304444715, -0.010666977853029171, 0.061388780840600184, -0.019555105373664058, -0.033705630301141064, -0.02552928393036635, 0.05916724997471047, -0.008488370450320033, 0.013600884979044056, -0.04869649589628001, 0.028916326526395683, 0.07608856051904223, -0.047647597507874014, 0.008523299523588133, -0.09518166026173257, -0.0983103787476869, 0.029086528098705898, -0.04333105651635809, 0.11329046501343285, -0.007876181619271363, 0.005107698988148924, 0.0340885742880156, 0.07066331314155636, 0.0056687710488805415, -0.07022915662427516, 0.00408834161041434, 0.03387488550372188, 0.02283793521804741, 0.05398443730825889, -0.039374379619257736, -0.040199051445793374, 0.06962570217912445, 0.0015029642852634906, 0.009663411281818439, 0.04472614726394193, 0.01252414338087945, -0.01908139942413151, -0.07663941556381647, -0.005997197388533537, -0.15431489200863538, -0.02234765681388632, -0.011223679159544685, -0.10982767201885958, -0.04964299924775707, 0.08894170314263343, -0.0622350165264462, -0.02412073476353476, 0.04502073143639273, 0.026993139941765255, -0.006406115365023732, 2.2136949045092153e-06, -0.08055384429483647, 0.04620054855327977, 0.01642760410006233, -0.01269022089888839, 0.04277965497197258, -0.034135847847318324, -0.05823974948091364, 0.009554801597407849, 0.017734959441009033, -0.08540090299738383, 0.0669400907044007], [-0.050142092685017015, -0.04865828379902286, -0.009218391177192415, -0.11101148932279957, -0.02687028082567177, -0.06813254635552406, -0.0043588272207236625, 0.04112281205182571, 0.042657105939484616, 0.036471725595374184, 0.0014792149520342652, 0.027005193844488795, -0.023513254846805533, 0.08717267771450973, 0.15425967314799272, 0.024971208774867925, -0.05601529623848063, -0.0035372901252113333, 0.12538006926467793, -0.0358080427573567, -0.008078571428896765, -0.020845647063278655, 0.013486725247205194, 0.018021931992226986, 0.08644644369561985, -0.051380238915999195, 0.07190286018149279, -0.05659408162149996, -0.026245456582661808, 0.026053139830576215, -0.03297753138316897, 0.10321647855075645, -0.003194731015926365, -0.06590565068204632, -0.03262863193613857, -0.0686729370647918, -0.0513042281518497, -0.08675760413836262, 0.0023210719533460476, 0.0417533432555599, 0.034535914126317444, 0.03415753558003281, -0.004975040134322209, 0.021036201619962006, -0.0033236647307222176, 0.057157895165023224, 0.006043409821089832, 0.054532759360508894, 0.014521781785934867, -0.0029663181846010097, -0.0002852583755647739, 0.03462772850273034, -0.014140883147506656, -0.024957343891171352, 0.02578141516889077, -0.010239878933001514, -0.03360540270555155, -0.10788985720775517, 0.025231622656319615, 0.03938550590592737, 0.012492522807330092, 0.002731534977362537, -0.016831158516591147, -0.09216230505927264, 0.0010835346598600812, 0.03918508510612347, -0.07498838954848243, 0.0019643216471375855, -0.0760433412061026, 0.026142147935393045, 0.06987791453242923, 0.06155579440940867, -0.05799175955688811, -0.017265212681415742, 0.04518250418058946, 0.021475818715482375, -0.04449502247254276, 0.027879771682510036, -0.009168056564300708, -0.04421387861954181, -0.01735389759263841, -0.02205741519340626, -0.015354757286631793, -0.03156680700168447, -0.009182299005083343, -0.032458254897357264, -0.09203584214325759, -0.04633437061112442, 0.061967717534195256, -0.0550988474416865, 0.06190280925485684, 0.0222811040323463, -0.04229297148649274, -0.009266247286401026, 0.04881789871205115, 0.08661564844070703, -0.002620630749631112, 0.04415208480035955, 0.030985089688560515, -0.06060082024509685, -0.005269263925405713, 0.07066708748067611, 7.459827074288837e-05, 0.0393405866747879, -0.04443422458292502, -0.016832880244922858, 0.008043552565535952, -0.024683580001675132, -0.09965562437698816, -0.0009762992290238533, 0.047270540474675514, -0.04622451752673352, 0.010141436556169631, 0.0232922617072948, 0.05312830545733296, 0.004581700651718999, 0.020185838937653463, -0.016410347876019932, -0.019850150810289156, -0.014817085765705867, 0.13116454896707658, -0.02237598741429791, 0.022632545357820534, 0.0022552431338727238, -0.01585640708293062, -0.04099042585140898, 0.011618279187744319, 0.04871464648612215, 0.10616559101517442, 0.06957232441880438, 0.10280894336559394, 0.1292096103142442, 0.13001148042798177, 0.020741832067836644, 0.0011905951753259124, 0.05175037969651344, 0.017880686474577936, 0.060409263553356844, 0.05683214062235911, -0.025902971079949693, -0.00645410623934745, -0.019722879696345983, 0.10144042164425242, 0.0767042485592631, -0.042637177358539224, 0.0771165259912418, 0.08447931263359405, -0.009970399703289818, -0.07854176056718477, 0.03440139303703999, -0.06596114505694642, -0.13212611909785418, -0.02710752431332048, -0.059264847101578505, -0.08281490282534125, 0.017304311218977034, 0.03139709398004478, 0.05465893599884765, 0.13369607081278329, 0.18983453406897088, 0.17803115562573452, 0.11880170046474223, 0.03600285035615632, 0.05734036196469912, 0.04922893321658395, -0.06071873050445622, -0.02817583353151824, -0.044027839210978706, 0.034229050342866524, 0.04597047970412153, -0.048819337237636526, -0.08090133720210652, -0.01751388261911254, 0.025661746943263553, -0.04945472970982833, -0.038208221070169926, -0.012833292303956552, -0.0900476465682535, -0.04597984216552634, -0.0006759139881620459, -0.031679702468910935, -0.12935291710878896, -0.11171765072355189, -0.026348167410245524, -0.058620940536101805, -0.025349351657662084, -0.0674908858054309, 0.015611940296616049, 0.03106458541394009, -0.014207488933358341, 0.14036693842156023, 0.09518153867982476, -0.09875776756915165, -0.03403629800776714, -0.06372697156959192, 0.036260243000016595, -0.017390850810287586, 0.02937438835791125, -0.07055297239862676, 0.04213231416153902, 0.06184535918901783, 0.0632231692834869, -0.039119746576845305, -0.05003356149463101, -0.09099639030721042, -0.20944967843383194, -0.10736271734061298, -0.015734551829114093, -0.06230924428286751, -0.2099718847402271, -0.14521486398978764, -0.06549535794019276, -0.19789957283071288, -0.007979944471548466, -0.11747824511219067, -0.04450155591845574, -0.06926266036535544, -0.012870005652108846, -0.05320657963704491, -0.07359715834671685, 0.022847599987530418, -0.05730048918461013, 0.027170035439076177, -0.03175796438356318, -0.021083992248452896, 0.04059307917187561, 0.07751284691239926, -0.041464103641169966, -0.03126296013396479, 0.008591381986404486, -0.06425717608809765, -0.11078581837955574, 0.0002676360219697235, 0.09963163184405743, -0.0956094077840596, -0.08892355636115255, -0.014308633035486922, 0.07180229463959824, -0.10226262843223861, -0.12638975427697002, -0.11751322955835956, -0.1230509303488206, -0.04656363497120706, -0.07924584455446705, -0.03248988933146327, -0.058078938759754284, -0.048424936144803796, -0.0752737198931133, -0.08291355094872295, -0.024372795283246065, 0.029400282807734105, 0.04927834654692697, -0.04717476952858544, 0.05209747951756496, 0.027929120415985928, -0.006562153860102009, -0.0020464232472160765, -0.0049044275126277105, -0.032268860578247405, -0.07806526814498016, -0.10307851921709978, -0.01955147514085292, -0.03512871029596936, 0.07411672650922334, -0.04409249611400175, -0.0789564334397886, -0.2492865254370625, 0.014868119536333761, 0.0667199660631625, -0.07404722965435907, -0.23137208132222536, -0.07673887078983853, -0.08376247530660405, -0.11784734140037907, -0.04721604253775487, -0.10956410826596197, -0.15804760807549728, -0.04702416826148734, 0.010644236338351024, -0.03027536731293078, 0.02593315262647055, -0.00850676043084956, -0.06007146626566839, -0.032740215791760514, -0.028881984528526708, -0.06375524301622615, -0.1296830810019173, 0.008343410588606858, -0.0412969882261457, -0.08498297227822724, -0.07105384714837061, 0.025412745236669292, 0.04122823166519328, 0.02888316981541514, -0.0306011265088623, 0.02530948550715382, -0.053932654327682926, -0.02575213643716514, -0.07339051305745638, 0.014561640915058184, -0.11052592814672393, -0.12590974280225908, -0.09454346753172019, -0.1332661125136788, -0.08708873551163303, -0.11568731915500864, -0.006819846266657312, 0.010936084124371007, 0.11245401893290348, -0.04526452646675025, -0.07165455740601755, 0.05070535177724516, -0.013731679690903303, -0.08222681820161265, -0.15178044900166818, 0.041020832088444724, 0.07243052358659757, 0.02602798942914967, -0.0016801365014187351, -0.011464271147557195, 0.03733346889095115, -0.022404662770148697, -0.1351908323766272, 0.03205564504439611, -0.03496187716289647, 0.0243342063068844, -0.0024293601249953116, -0.013813924830069189, -0.11217714140849369, -0.12893138163134507, -0.07828067802141547, -0.02252125346437731, -0.08869279616614306, -0.012268399301645173, 0.05150088623453431, -0.019571344708746833, -0.020788780549610236, 0.03368751661076222, -0.026200898490847373, -0.04026910005419898, -0.038857900669619916, -0.04104045394170381, -0.06056844428911531, 0.0006093056326276539, 0.07020834987913861, 0.08335543081967903, 0.03925437459979874, 0.07908627243401825, 0.12285413425277009, -0.01196518814006928, -0.05824829953699444, 0.01140741119861729, 0.15723364125766015, 0.07671305117722026, -0.09375501389787039, 0.053275810802634445, -0.06148629990455261, -0.007176102959126442, 0.018123970229113398, -0.0898662751782767, 0.06301397963543298, 0.008472363120311998, 0.025255591557304172, -0.13651301093272386, -0.04096267998649476, -0.06452212033244135, 0.01969409758614735, 0.09806771969643903, 0.03219965966372578, -0.012072519440498333, 0.058550152754238055, 0.11559407238493523, 0.0590229568446338, 0.0189999776811187, 0.07599748703825035, 0.10303654139183444, 0.10234255159208652, -0.01389401965647941, 0.06324524405593271, 0.14010254532732289, 0.09099001345063763, 0.04945174484363736, 0.06145484756364133, 0.011054865635489419, -0.03627399761095967, 0.027593015372886887, 0.04661591143970694, 0.052304024745588255, 0.0451234423091004, 0.017482583330147856, 0.036697040248753296, -0.006662418942247836, 0.017006703394059543, -0.05012540361201919, -0.047495879799834925, -0.03705268204150754, 0.05382325850454035, 0.0006016336559285518, -0.0194421774243915, 0.1007439010640332, 0.05260915192599286, 0.02410067952961551, -0.04527967276898347, 0.037018004316556115, 0.013217507147902733, -0.03593097722982576, 0.11337335241043088, 0.1150164904339434, 0.15067084378191967, -0.08715702163769407, 0.044292989984965406, 0.010218394170149725, -0.06260231298394761, 0.05068420319455311, -0.018570920647666956, 0.0004537382568651916, -0.022293462574664892, 0.007017484064311736, 0.026365486699199355, -0.016669746736550164, 0.14899656146009027, -0.015934395838940334, 0.026251035256807262, -0.031337918285707894, 0.04339580892102779, 0.017784734114977385, 0.06426363472011351, 0.18600133845490632, 0.17934033536429012, 0.09201156886287677, -0.061976630556340534, 0.0835222475880354, 0.05942121616045698, 0.10159885357917335, 0.21072475256522402, 0.1682345249432001, 0.10761737957876852, -0.0601162030814526, -0.06634988581758175, 0.06578398619876541, -0.05612293197298699, -0.062442203559194595, -0.08453779272182409, 0.010515563791938269, -0.006842328012805169, -0.06561623365384417, -0.04411317247650905, -0.013935892167944242, 0.09328523182305921, 0.006432888642583509, -0.032479683824895855, 0.022386865211199678, -0.0452023728602218, 0.12178263014355314, 0.12290985635912535, 0.04154568897050925, 0.035844877039695425, -0.018362469056603475, 0.018894410283014054, 0.03225556207366266, 0.07108489342680646, 0.16100020296252152, 0.25241511472259104, 0.16404923454587242, 0.14032090953506976, -0.03501774934812246, -0.05969649006460039, 0.03214797216561027, -0.06085543390180796, -0.025726874757962925, -0.009807178878607893, 0.04979808030831851, -0.06919782831881235, -0.034703522131547586, 0.020394373305562437, 0.0688427414899735, 0.01572163211067899, -0.07515352692681121, -0.06286017714704463, -0.0012208591382017774, -0.1420382793587356, 0.024118398971688788, 0.09575346915504675, 0.05283486119385417, 0.10522512557906397, -0.03203810035305985, -0.006486012491935343, -0.009140228584196594, 0.12710306831305662, 0.07051101894022142, 0.14762003914402386, 0.08833451224901823, 0.014699735602171297, 0.018091250276613367, -0.015452949378434739, -0.0073270782264928435, -0.03101014682805898, -0.12217253791268799, 0.0021248208305005545, -0.012090563130847297, -0.005029712714489016, 0.0001417154181711952, -0.04742856916315499, 0.0604393461010514, 0.014993540233258251, 0.03522576502657321, -0.012834311075931729, 0.0065685861134627335, -0.04060503370796426, 0.020843235065513225, -0.019151091618184367, -0.028682200655019557, -0.05626324931961235, 0.12025552561323996, -0.034240865220117225, 0.014426388581628691, 0.23602881750688104, 0.11904139177274527, 0.033003638748253884, 0.1636402299843032, 0.0005272188217399421, 0.03132422754588273, 0.04586722841780748, -0.07590014922917054, 0.015591971544637066, -0.03781133227451297, 0.02176241112411533, 0.10865759175156671, -0.047712517294873344, 0.0002783991935055755, 0.053746002566541495, -0.030023543916631815, -0.040811644212280646, 0.01365177544281519, -0.00752013253260979, -0.0044465326335514045, 0.07625831408485449, -0.0550894273330523, -0.002366123339658565, -0.01543878467362829, -0.08841448431743068, -0.05015016980710201, -0.0362342501338647, -0.08142320422898193, 0.10205649724526805, 0.06564444556171485, 0.09867442192127235, 0.011473991960702645, 0.0874251851215684, -0.0014919439571155176, 0.09113227821058337, 0.14308222694344083, 0.027410873842524636, 0.03100201762992318, -0.05535544412713573, -0.12360685636483366, 0.08978079224617384, -0.04140572399166974, 0.13101598557849983, -0.040794018716241824, -0.05964642660732643, -0.07780634264561778, 0.030897388855876597, 0.026938189721952444, 0.04163476168199999, 0.01465040630629851, 0.022610833991476176, -0.008985980628023514, 0.00022726918034812044, -0.08214572762881824, -0.014432046891496207, 0.06694656151958461, -0.0661331572304909, -0.02975140578316668, 0.038386998922953136, -0.03295759858771314, 0.062084437487509754, 0.025558138471614526, 0.14153180076718502, 0.04414697837751727, -0.019051803962903298, 0.08268761466967603, -0.10788194543690971, -0.10161978512298454, -0.025382259875114284, -0.04723571946442783, 0.04805164892992374, -0.11573010856698034, -0.01527375806180649, 0.039955468097300384, 0.07341222647770972, 0.06255456384539297, -0.05929358110602085, -0.06698416507996707, 0.0057092857675293, -0.023464112763813605, 0.009147677771347456, 0.0486047427920647, -0.011286207141425173, 0.09670246494525998, 0.02310396750817169, 0.06898264134920458, 0.08912204426020605, 0.1662725467427825, 0.08258756897549875, 0.1590791467702856, 0.11615544033699818, 0.12185748659764306, 0.03775715004972253, 0.08000088822150453, 0.028347962014849206, 0.02129416559104121, -0.06368436630470573, 0.06565153711678995, -0.05803169279589182, 0.04079953357795649, 0.026094875322798767, 0.03435960219878662, 0.04276415380187674, 0.020775912672955175, 0.01798309995853005, -0.038906899314733616, -0.0844419852043024, -0.05417178167569726, 0.025975588965253454, -0.017244004373333108, 0.010292053090754257, -0.037382662009153064, -0.028954084652247806, -0.07503308069766378, 0.024425125147756823, 0.06560465697979428, 0.08240117588328505, 0.19537697394075618, 0.17894622329217866, 0.0222852407318498, 0.008579138496488479, 0.08161572507044373, -0.042617631395251265, -0.03415924325039798, 0.03137584625403018, -0.06026856399432246, 0.022891792359927218, -0.07971810965367036, 0.04370603412363862, 0.0009027234168756745, -0.005952368482239237, -0.12563473857262286, -0.001592490387149973, 0.016979702157211334, -0.021692133060634635, 0.06193265143037224, -0.04683621584550138, -7.374121814671721e-05, -0.038354026825291404, 0.08362614330427597, 0.03202285191712271, -0.08565691108545277, -0.0490336801148427, 0.027497114752345803, 0.057869816203479425, 0.040404694366065065, 0.062255859817026984, 0.004082740710874685, 0.06676067944458536, 0.09702477704828881, -0.0037752035889321877, -0.026746049540188825, -0.15486423519326345, 0.017712647803736367, 0.04235908502916474, 0.04994760706036778, 0.04050301541356587, -0.04037220996594296, -0.05812240727457138, -0.00958297396751383, -0.062400559308933894, -0.02148274185989409, -0.06771665723672093, -0.08012227399545066, -0.10080080804553196, -0.054511889312580435, -0.189953943029, -0.15688316980340175, -0.1274926139456225, -0.03554061298303181, -0.03745239615712419, -0.07541428293198507, -0.01616528926266838, 0.0042386348542309635, 0.07305146120731777, 0.006795586670613899, 0.05681656091636972, -0.002186220219966471, 0.009647859256649948, -0.009831013960174856, -0.04923695672325508, 0.049493244977043396, 0.02173261324803139, -0.06628966351181188, -0.02478619694877882, 0.011839687639462684, -0.04141427378060365, 0.08981288629066628, -0.0538290068647343, -0.013065062375734685, -0.05422088195142741, -0.09130347743851254, -0.08031558030226799, 0.015134967421932221, 0.021899818670811616, -0.07074564919257945, -0.09722829711836006, -0.10543834919733804, -0.09483582647413169, -0.004844191611579137, -0.05788580116390452, -0.16379237656987108, -0.05951275117331632, -0.12614697384631235, -0.03173345126151565, 0.0680692242351438, 0.017555329197533706, 0.04995630383490901, -0.06068528470173156, -0.04369056526905243, 0.0354996194124337, 0.039247479784830945, 0.004370038982704341, 0.035268428029004546, -0.024152454941302578, -0.05061317679982018, 0.0892983253416668, -0.06199214193898822, -0.02293806737315207, -0.03358553082810405, -0.026078188662666795, -0.046614264514658395, -0.05595367290556809, -0.012798728656086758, 0.002372587779930492, 0.017735275956638704, -0.03645992996302265, -0.04323441806570415, -0.059788075142824394, 0.07072332459477318, -0.0924223669581221, -0.02158183075262859, -0.028092155538707402, 0.05590176194630057, 0.026848169144893994, -0.03758178832913413, 0.03649713188710124, -0.05500956226850324, 0.01971568692059026, 0.006664929544195173, -0.09433055532227942, 0.01913794215875676, 0.09691560434805294, -0.04434467044918918, -0.0023875171020749657, 0.051226192540901605, 0.04235142833004408, -0.04628195569890307, -0.06168115859312447, -0.04486441407808743, -0.01747325266789564, -0.04461087783899359, 0.0396102604149195, 0.03167649832565629, 0.06577736925765117, -0.01985038487405968, 0.07090153014948074, -0.031075152598471552, 0.02428878057908628, 0.03159495269133975, -0.024654215429910087, 0.032216900670545036, 0.09528873488036692, 0.004669567353636952, -0.044953685861392166, 0.03607891026176498, -0.09118227534867683, 0.09365258828206001], [-0.011702607735083349, 0.003195855934562363, -0.014066104407303057, 0.08319181953737792, 0.012854379902528558, -0.03646582641683212, 0.028027877885360524, -0.008331506875314622, -0.008895812491155819, 0.004328741282877588, 0.01872929217917794, -0.016712867392943347, 0.0390947529651369, -0.0598908684708601, 0.08832529912204821, 0.09184859125758277, 0.03821364435279683, -0.00878408149417697, 0.016571576253089255, -0.0191087559609617, -0.06128012500978807, 0.017773471643616527, 0.0014498748370794312, -0.03774710739621805, -0.032915125186067117, -0.10193603485247686, 0.038653426092604894, 0.060554333245552795, -0.04640481897961855, -0.01691859967224905, -0.06677529494309922, 0.06188912059590379, -0.04009008350449484, -0.03246639546506723, -0.027916206766927736, 0.03712208416681479, 0.023867169074405448, 0.05180486225187566, -0.024026917964548304, -0.04175917643225057, 0.009186138681656224, 0.04776288954750023, 0.030193545541277615, 0.005787401175479256, -0.035829674742992715, 0.07252527380407915, 0.00421787275292912, 0.005736587041388657, -0.06765015073607593, 0.014899175633854405, -0.044982386371257496, -0.03108163601591918, -0.030138969947965406, -0.022961568829189264, 0.01693648838867904, 0.021120522287989996, -0.0484660952129702, 0.002577237056238766, -0.09647664754867054, 0.015033596021570922, 0.0205423010297819, 0.005362887610019831, -0.03173738493928522, -0.10231467712866282, 0.013386351438353783, 0.062130855835226255, 0.04995202292506596, 0.01168617127455816, 0.1439323437268687, -0.011268944663322709, -0.010329059179372603, 0.004720223748995926, 0.06277059333043045, 0.10417766444564683, -0.07299861837578783, -0.08131502684727507, 0.011379022501806987, 0.025415707590066165, -0.01744352203111092, -0.08618657313345449, 0.016473798666158165, 0.021435997109178165, 0.05593722378989357, -0.012264810014430454, -0.07862121833715699, -0.02918654874891895, 0.11495364178939803, 0.016543936875323927, -0.04984931990343621, -0.007714208372572814, -0.0058759216939423455, 0.09336005944966924, 0.042945197454945024, 0.08960460038794045, 0.04417578329556353, 0.12516989472163362, -0.034522242698953105, -0.045374267490338585, 0.009265654514413085, 0.0021498338343608567, 0.06617999252115972, 0.005473396334721733, 0.019728612809112218, -0.0437422263302426, -0.04811089063342472, 0.09165097805168428, 0.0061490574817993585, 0.07718804786031278, 0.01910888717705106, 0.07737733377579761, 0.013411025950073756, 0.0635009167163676, -0.030472768753732535, -0.07135052284724348, 0.004171112460610497, 0.036948362147280825, -0.0476980610732695, 0.009776884656868856, 0.008513344629142043, 0.009275494347750244, -0.017703278447639685, -0.027503342069804378, 0.10017354033895626, 0.07473263575146488, 0.056792102248852575, -0.01834003059775188, -0.018618019512158197, -0.04059628495452898, -0.01897585333131692, -0.014165072525831502, -0.044315725060164325, 0.06574343234401946, 0.1868568341487794, 0.018718624891045536, 0.05517910969844717, 0.025882167289238634, -0.04784220510900448, 0.0413455304913487, 0.03076412516383717, 0.07570920742865817, -0.061262847765273847, 0.034167572861672955, -0.027228790922465485, 0.03553904680313096, 0.13097145775405808, 0.0007289613791972928, -0.020337422153606767, -0.048891708935961724, -0.09454201923637232, 0.02018767072078759, 0.01601763612066527, -0.012113418500300585, -0.12323261733154586, -0.15270458637039258, -0.07380984411169224, -0.10669045868760504, -0.07584593890569513, -0.13125503234930325, 0.07024452041874063, -0.04390301993732551, 0.11157726917650766, 0.04937749595529876, 0.05808638009584374, 0.04025949951519745, 0.028154021914660994, -0.04421895922547447, -0.05543788922609628, -0.015514422752883422, -0.09381356682159234, 0.023788348872352854, 0.07568309270463164, 0.02550990328554705, 0.05203595690596699, 0.007603173987002899, 0.07792243590004111, -0.051054249986952766, -0.0318754887097724, -0.07517761830578157, -0.08622090891855708, 0.0031357413868664946, -0.13014800593986495, -0.09773628218532267, -0.11623508333664538, -0.13276175821075142, -0.14092317470498483, -0.12927947751480265, -0.14535010756622918, -0.21635888234850573, -0.12306403311116719, -0.1030632137543057, 0.0287580478833185, 0.06013584546257574, -0.016573331566170267, -0.001541357332008148, 0.0379436579468108, -0.009580375297369683, -0.05386345196295677, -0.03164764710470924, -0.011746684185267215, 0.0038818196251088413, 0.09816008501848578, 0.014157546190001187, 0.010397232759199456, -0.045825441815155535, -0.07430084945618282, -0.21210349342487708, -0.08589951061242998, -0.19133992897528088, -0.22862470894407047, -0.20710998358560387, -0.13136005787278546, -0.226684850091104, -0.33786644704539276, -0.24885943124587495, -0.22816996121376087, -0.22429329965092693, -0.20302771069160486, -0.07825214939133042, -0.09086203289525736, 0.026716027065202635, 0.07528980456720621, 0.049042023616693374, -0.06674498534627797, 0.0018694791928311565, -0.05095347601307684, 0.015778100348523862, -0.056982460412763225, 0.007294669958019579, 0.05409438901572646, 0.027300572931386956, -0.0067907056340820015, -0.06371939494278474, -0.07810848662269831, -0.006961656343641607, -0.14696754950074192, -0.18429556948187673, -0.17855680564522197, -0.10403017062068771, -0.1635315607519802, -0.1966227162230699, -0.1956015355100112, -0.12309716699990643, -0.1646898908208834, -0.20406379645501835, -0.06777887665718292, -0.102967194200165, 0.018108943837698083, -0.10488365250355514, -0.06023484331625296, 0.031248466943498223, -0.035550823105707195, 0.10722978640635586, -0.013839545535611118, 0.034604210908898335, -0.05711574097247966, -0.06875696258757512, -0.04539982291493259, -0.04203750583424105, -0.10747008609140277, -0.0888239435154004, -0.1040134944934335, -0.20944678366675176, -0.09324699677451988, -0.0696878833678004, -0.20374396320197313, -0.16903997207574553, -0.2019675069006957, -0.04372712343287322, -0.07615967387765031, -0.14289956711689938, -0.05734652834092968, -0.03667898269366562, 0.017156925018590896, -0.11422693172853535, -0.11881975238295442, -0.0733785298595203, -0.10509739204284116, 0.030633355669938717, -0.02733926184968688, 0.07086870067056109, -0.03993672802956709, -0.04371401295874994, 0.042618069583195466, -0.09245621791570804, -0.017433593592542245, -0.044476334781495507, -0.08955970630354011, -0.055526097870068035, -0.09457910807031833, -0.09117186542019201, -0.0680546869127463, -0.09288156713345103, -0.04409010211409675, -0.019332063996459353, -0.025380116675193683, -0.03191558048226751, 0.03349739839220725, -0.037406955523286246, -0.05527580141664996, -0.011993493029379205, -0.048183150433169626, 0.004592102177074954, 0.0479370251893699, -0.07153843742897296, -0.10670433050888076, -0.01410906466171645, -0.014380277675195032, 0.05488586017051168, 0.04006704163633416, -0.012450772726857476, 0.10360758962421283, 0.08392736451867971, -0.06490289616220637, -0.05314865848936642, -0.0274440481210439, -0.08974050374709423, -0.07659114212070241, -0.020826758521304285, -0.13177941543720942, -0.08078928121033709, -0.013066325932727954, -0.014971184528016579, 0.004100900459262065, 0.12367479865368992, 0.036233555476525986, 0.11788041170125092, 0.019572610876492147, -0.0397400521601269, -0.15038799580766912, 0.03598594117964253, -0.10462931576467349, -0.05627584374004972, 0.011151035611348383, -0.12411233412227789, 0.03251706117478928, -0.03145041469116122, -0.06767080090239003, -0.06152241268081791, -0.01998961260458529, -0.0845129177050111, -0.11960524070354218, 0.003389149519176215, -0.10920676981734806, 0.01083095253799801, 0.13978532571302368, 0.011342607373895018, 0.035530133611817616, 0.08815390666590776, 0.25258161465664647, 0.1576580373801445, 0.06809277565494899, 0.0681024897671959, 0.013669778240639658, 0.03022031181361376, -0.1293552817779699, -0.043745440431468004, -0.04303878178087015, 0.06752146718217357, 0.0898008973194098, 0.037092254356670365, 0.13298339966253545, -0.0322248251352833, -0.09226549133289148, 0.04623346055024393, -0.0025744726847018603, 0.06043956061296514, -0.04545466643371206, -0.024312335556261527, -0.01860719603712541, -0.004749581274746511, 0.06139060696268606, 0.06495912047189616, 0.0573950458894937, 0.09249657718398663, 0.04423074791704606, 0.1188659651415424, 0.2493324780714206, 0.22088634178362623, 0.06422239716087395, 0.08041552885797651, 0.10687975541717779, 0.02901663567209789, 0.19030501382412504, 0.047277007189074856, -0.028696369133381642, 0.11526423621893526, 0.10351588609617614, 0.12425029215001991, 0.1703005388377061, 0.04309635182753503, -0.01870508251506126, -0.03632985489492795, -0.061724721276474735, 0.01469764519507087, -0.046035497267913346, -0.04159562361362574, -0.0547572783689935, 0.016604443020924654, 0.05401420753290176, 0.1477804258479, 0.1616554370003415, 0.08214710237715772, 0.09074581323123182, 0.17720149147003028, 0.1913024791660974, 0.2613178032698852, 0.0979864771259758, 0.06296706057381564, 0.10384919563081417, 0.04035941124094994, 0.030834548058317698, 0.01989541267512333, 0.08946643425155199, 0.1826372326895656, 0.041983574295323865, 0.129278389022045, -0.01789629190737697, 0.07516258692916555, -0.06292969226175521, 0.0306980328602172, -0.013685828861994556, 0.007149578031680815, 0.04432279399735096, -0.0439709723319018, 0.0718203058798331, 0.13113056273667759, 0.0010010883225600549, 0.16031317614223434, 0.11700193515542817, 0.09056436814695787, 0.045959141015060254, 0.048687615500717825, 0.07396203734284076, 0.09500733157188061, 0.17172276506577325, 0.05300623067830235, 0.20316708452648607, -0.1009406871736817, 0.1120564662895475, 0.08340215858210824, 0.18525203139605742, 0.1530707705954838, 0.09487335740903668, 0.07430237286466641, 0.044171269578704195, -0.0859493094742701, -0.07505425270328868, 0.08930097049395143, 0.009218925807739161, 0.013023214588821337, 0.011450994518439273, -0.05050847410916187, 0.044636213202905846, 0.027750106948335233, 0.023856186280007772, 0.023944811296839563, 0.024513363087399258, 0.0447586788956449, 0.013404991496636287, 0.10133511744944723, 0.09620622570753781, 0.0939768364922221, 0.2720458649088127, 0.11904294482965921, 0.12255737375112889, 0.014128892149504744, 0.10923940585507638, 0.18830382950826507, 0.10842006062870897, 0.10125121328743754, 0.03242869219492311, 0.02180651729693334, 0.06642388635781844, 0.09416419945250078, -0.10697767164202851, 0.049924222009741, 0.003336282634374603, 0.021714824509674914, 0.001595929855213328, -0.019502140504055358, -0.06917365056970304, 0.06571624596813633, 0.15962241323609577, 0.221533616591563, 0.03247025997341299, 0.029662043258022804, 0.08818304012184533, 0.06545056084073911, 0.02004213640665261, 0.161654826725492, 0.16165943528499258, 0.012103270212908232, 0.11027067235284459, 0.171644290560788, 0.1940948724737883, 0.1501304879218185, 0.0651538415624489, 0.08059146743737677, 0.027851594967639857, 0.030142759407772994, 0.19787799916743476, 0.06583069071891147, 0.041853374558228684, 0.17074338551003274, -0.01834227240239304, -0.1118355397637618, -0.005393833329633844, -0.08503765884488078, 0.09775843043552014, 0.11357519223677731, -0.017140277152929415, 0.12311581150348558, 0.011787144969032855, 0.11006708392961717, -0.06915702638379483, -0.026937512135157337, 0.15597171961515077, 0.18044715037697753, 0.1005540447156507, 0.18431208263277893, 0.20907106157785554, 0.12602475740668076, 0.07218975442434568, -0.003967459604321795, 0.01695346975167362, 0.05963249198878303, -0.009355687168839498, 0.1232203002867632, 0.01741408946636847, 0.02338369642471139, 0.01704661581931982, -0.004537405920085545, 0.06933623842598303, -0.017293362182495827, 0.006661979668887516, 0.08773379148671578, 0.1034320046196689, 0.012607824031192306, -0.12955405963073963, 0.08659612123913804, -0.028065465359028808, 0.026002268478754836, 0.029401319521690148, 0.20408256135682667, 0.23326540762631487, 0.29096705078818424, 0.08885278620459088, 0.2233620601668026, 0.18350993588510445, 0.04357667033130571, 0.1165129109770822, 0.003373863621585477, 0.07911557392041274, -0.0062253918199699455, -0.07784796296368615, -0.018274281305025855, 0.07316430541651177, -0.004385511090123705, 0.08565245163344841, -0.05793491973320627, 0.030317255862385255, 0.0013877554252416109, -0.06489219467839936, 0.006558378391872572, -0.000940338877031326, -0.0987636501127325, 0.07929946246698953, 0.023831754195929044, 0.015873395523760346, 0.2022285974760509, 0.09070275442771364, 0.19503364615950927, 0.1093362945062631, 0.0724996427082828, 0.10418254627981832, 0.14346223178877196, 0.09724393463463528, 0.12999163426590782, -0.004922518736909563, -0.035427353851851966, 0.04982318058177641, 0.03319069893546197, -0.07732250306208613, 0.01441263910452954, 0.046800039006494557, 0.04270857745420465, 0.05782098587754884, -0.09194264227446977, 0.06462163469080193, -0.0027498961366884144, 0.11309329246266511, 0.04281606158633351, -0.021703719291435154, -0.042803983359897664, 0.04678820227984527, 0.04727536948774937, 0.09115571440904388, 0.06178007829292257, 0.06407925892819437, 0.11091133119704359, 0.13166603916323588, 0.1361096257002596, 0.13656901450281542, 0.1835295617944891, 0.17613797007495985, 0.12033648235725046, 0.0411661083908279, -0.02924118979569552, -0.04377334335882815, -0.08275456238440189, -0.0896080978806779, -0.02323798438933046, -0.009146910815360726, -0.007938288178305752, 0.0863361285600464, 0.09633832949823172, -0.031243587862083085, 0.038279659529213285, -0.07727760917375957, -0.12297550424113118, -0.12912180607704135, -0.09082226625132381, 0.008114425751942921, 0.09846111248044373, 0.06683107083709827, 0.04931790654091343, -0.09067295270917276, -0.02403202206019798, -0.09467517176912459, -0.0869159628661478, -0.05184187315661029, -0.04257104467113558, 0.002411123397388239, -0.005523223009399214, -0.08887470858254433, -0.07288202431715603, -0.11011736794526863, 0.023318805518795584, -0.07832475497673935, 0.02552217882151434, 0.005159736414620813, -0.07187823827426287, -0.07989470110730931, 0.016662332214446338, 0.11011591242854783, -0.0011958902764140575, 0.08524048433176915, -0.12401773852686797, 0.012813263162223304, 0.16043568062360952, -0.0004862060294806514, 0.05149004575861817, -0.028245643464862885, -0.07755859592362248, -0.12295520809485663, -0.06391121821725047, -0.08845821884820135, -0.1586879129044603, -0.12293128849934841, -0.24212864205591675, -0.11820907828397313, -0.12485036546804296, -0.107343214805683, -0.0349547783639403, 0.06479141004214725, 0.006305338607022309, -0.062283170615995385, -0.020887953743028462, -0.01583593403190369, 0.0201695355024035, -0.05543483487524228, 0.0690802993609079, 0.11371227686282416, 0.02502343721192815, -0.019554295582520656, -0.03938766234940458, -0.004420019786677654, -0.04730458247106671, 0.009577653959597197, 0.0077537370702857634, -0.16271897253854095, -0.06127053339981609, -0.1859699317735771, -0.1558849979940183, -0.11351590488383169, -0.1856478700226056, -0.2109304415829395, -0.22544708820359938, -0.2096028665858237, -0.26498853225614477, -0.09713935945544215, -0.18255401887722675, -0.00900270715708136, 0.0021761628144925486, 0.013574462090016831, -0.038826950309306905, 0.026616825617231943, -0.028667867442219903, -0.033428722219414536, -0.044052710524574545, 0.005700036778424107, -0.008247924976325413, -0.024067460465026565, 0.02217841410399645, 0.04670884271085708, -0.1053570520460517, -0.08757248738457946, -0.03157367003721874, -0.1296859806492714, -0.07029279185902451, -0.12551012349389573, -0.08480189437494137, -0.1461232041958234, -0.10327323316114129, -0.28525050380251743, -0.12192063669196604, -0.14143275665284977, -0.10980139784057191, -0.102469050862023, -0.10397272277599053, -0.0355162017334079, 0.02166376947612554, -0.0326410320113332, 0.020231229971742745, -0.022956990977788763, -0.030243637581575826, -0.031061374280115864, -0.023952237440703777, -0.050699472810423314, 0.06829052987440126, 0.0738732191627312, -0.06571523295988489, -0.04765179119921448, -0.15724255227902403, -0.0666609208314187, -0.021123317434021613, -0.08109203695545553, -0.18660001114368013, -0.026457427377975185, -0.07696705832455847, -0.06807691078138561, -0.05145560155759465, -0.22013037329981278, -0.14317941966763403, -0.03162362435252764, 0.0013712541465984729, -0.14852000391089448, 0.013572664704296565, -0.03242442257261484, -0.09191724717791792, 0.06922879973875462, -0.0252798101760239, 0.004178863690245957, -0.08899422137086252, 0.11837064028683827, -0.01910756422202717, -0.014484531998215942, 0.00687824373411215, 0.06409013373359926, -0.09196617614306277, -0.0047258425792490325, 0.035925942707339564, -0.0820605466952881, -0.02901650437586288, 0.026859828363589657, -0.010529744297765072, -0.023714997765091717, -0.11523403411790503, 0.01614980413299452, -0.022853511472960997, 0.05568677363868846, 0.04003809340067516, -0.02988644510010328, 0.012464074381052355, -0.0015849767529973393, -0.00940472881178267, -0.030983627391958476, -0.008179631097424, 0.021048625776107662, 0.038862666604754806, -0.013454516327576469, -0.05558328721379899, 0.021010891589098683, -0.07138398424255037], [0.010164326255061232, 0.06087160139444146, 0.004082697195722133, 0.014267401320170339, -0.08396578018368021, 0.014555527733574374, 0.0017036713137027857, -0.02258159713191751, -0.008381039767611929, 0.060137648538659653, -0.0017925654100845432, -0.0004100993580966242, 0.05569241204057729, -0.015585532845097724, 0.01146224822737507, 0.04015000873562254, 0.029448516946642033, 0.04486503074843433, 0.02938289791883831, -0.036384624459880076, -0.03982600836969921, -0.05344309970120304, -0.0283668123908964, 0.12842835096256647, 0.08826165683873533, -0.07056132205179175, 0.010287624408591732, 0.011239140567298805, -0.025627003741678592, 0.02253448286796581, 0.03853102552769914, 0.0036318133644636682, -0.006639895794362684, 9.827365770058625e-05, 0.02866476078729662, 0.02999301400654949, -0.05714628423298643, -0.04979228261600403, 0.014688828993156194, -0.05321686609136897, -0.13697967218891904, 0.03474033984229355, 0.03240474367629506, 0.05908358037871483, -0.02199379576028238, 0.05429516394883781, -0.001337940264866865, -0.0821518408887601, -0.02371804264742434, 0.03825762404037377, 0.07993496731839177, -0.009554215555602819, -0.05044936929242404, -0.029299986911268335, -0.016951836523233562, 0.04848516369713271, -0.0025932088245924074, 0.03231141671610823, -0.03401937395109121, 0.00044391094243751485, 0.008573727992869155, -0.020237209098263858, -0.06034384934503926, 0.04394589936256829, -0.024008199334191155, -0.03729271565857958, 0.07614372005345854, -0.005935125238630204, 0.13775070166613643, 0.09282290294409526, -0.07120070400304168, 0.03772259031795028, 0.014940535334825276, -0.0001619735440957571, -0.006329992844228058, 0.016494101650576347, -0.09045011161906095, 0.09522239064466352, 0.03702298717099854, -0.04515194343781192, 0.06332651417600833, 0.05219265002793819, -0.0013113814888903973, 0.08534286520861516, 0.05885245598817272, -0.06266371082940726, 0.028138447744671474, -0.028865488102946108, 0.023644642716010116, -0.01066209006431986, 0.05150476217083916, -0.014183581501197974, 0.005860115602659663, -0.015008962457775965, 0.14338434348802045, 0.06712781570524776, 0.19879681265994273, 0.14480377689141133, 0.09198516897704749, -0.11855318660880647, 0.1422452016344414, -0.0052062319800460196, 0.005628187706549702, -0.04482677700503014, -0.04859153938164035, -0.030124800821762717, -0.06406032870001513, 0.10094526228248672, -0.022254100029196196, 0.08767293732267809, -0.04040260417968018, -0.0016779027156197846, -0.037145694553439836, 0.04482501149659509, -0.008329610532391306, -0.024149602255473714, -0.06796950987986236, 0.04221831156799233, -0.0005164748983073005, 0.1471681025112155, 0.12577888007346652, 0.05436409622633979, 0.07608230282772808, 0.09696312287232958, -0.012685634651717419, 0.051882516290189154, -0.008138967189345274, 0.04981190410617474, 0.04054841921490712, 0.07313266008258053, -0.11057722652079287, -0.03895594483016008, -0.0077077478841827245, -0.07625090226928259, 0.013247570997774866, 0.0494375826729105, -0.03172255579728433, 0.017012009537319666, 0.10707528350355193, 0.03633979574774579, -0.08434101127769188, 0.06827905502900894, 0.015903773397314653, -0.01855847393556906, 0.08721048789062784, 0.017754012541393565, 0.0053131917014946125, -0.04494560628590186, 0.04513488739088738, -0.005203242533238026, -0.0747615969826954, 0.023625910580694808, -0.051799291821552296, 0.18234087842208307, 0.0841390189308359, 0.07210151173150219, 0.12465956956690258, 0.12678209401992735, 0.024897943120971277, 0.011832283638119253, -0.1122991808322524, -0.08084915957126639, -0.08738708166032802, -0.029578997738728036, -0.11629317627814928, -0.030582585766318737, 0.03366091218337508, -0.033355010763004, -0.084391280549512, 0.10255095639754987, 0.08535942831516234, 0.012325575559568477, -0.015076562015554535, 0.057690406726719615, 0.026425217808292094, 0.0736295714233921, 0.00026515347940692455, -0.06308503286004219, 0.03694770423245271, -0.10983970748244995, -0.05083684968351081, 0.12729686662240658, 0.1706754047579744, 0.03503384982111375, 0.09772286758346639, 0.0689672194612277, -0.03550288957179829, 0.054598845418730765, -0.0029401260299157807, -0.026067558952128703, -0.08399043160252087, -0.12335257551661291, -0.08814993398720886, -0.12152267094156939, 0.018876157230445202, -0.06292197820477828, -0.050366146444745324, -0.05959139786203361, -0.007046225974696842, -0.06938055863657053, 0.03687020376628617, 0.021853136377919604, -0.08442989563507211, 0.05475569443300484, -0.010605704360022481, 0.06453037255987368, 0.03248637582039359, 0.010996855094934291, -0.06688592868459914, -0.03949796194638336, -0.0006621350511896351, 0.040315014463736344, 0.10673884119414363, 0.11674336023895346, 0.1491614627326582, 0.10227975943795804, -0.019031989879159432, 0.00605638214519043, -0.07368352289939412, -0.11984188678602645, -0.19674431791577662, -0.1384649675250588, -0.021850895172158692, -0.0736952816790714, 0.006220714815415247, 0.030433647326846412, -0.05305892258245565, 0.07538948852127002, 0.012527684273493211, -0.04906598524326298, 0.00442925993451582, -0.011582360413982456, 0.0667107101879674, 0.004312918192660714, -0.08813754454738466, 0.021874394209689924, -0.015515999053132664, -0.16606493194848373, 0.00017536080346604253, 0.09759973672665576, 0.11674992414384479, -0.00504175216113414, -0.04286905953566466, 0.024071143223456156, 0.1604904809709014, 0.08453451875071005, 0.04758485053286263, -0.13415919884557262, -0.06886564264826532, -0.03430944791608462, -0.03380450693534963, -0.022982082858740472, -0.03374158481731445, 0.0011286364722319937, 0.02893543339398834, -0.009234910065864611, 0.0630163690768833, -0.005382805381379421, -0.03312800842243842, 0.016532931057459635, 0.03319451676592398, 0.05152242569170029, 0.10650998005081276, -0.1322723808242559, -0.08515347847622323, -0.08942080344434698, 0.014833324280246028, 0.040278207855259054, 0.0575039213868657, -0.08826078010956105, 0.07255061056910848, 0.10041634668808808, 0.11117046052371385, -0.04026352388182514, 0.08856347265200187, -0.0038515073264588622, -0.023639194917861737, -0.10682848692509246, 0.019737977233480124, 0.015452177384764223, 0.07983306722226771, -0.039074117389904316, -0.05750734574632281, -0.09029061054479184, -0.035845386133990964, 0.1334954847900739, 0.05721429292547227, 0.02807018104758524, 0.07464239355597316, 0.11300948692400564, 0.044111346599579555, 0.03682687826652512, -0.03962609182252272, -0.052617399846707144, -0.06903804444847017, -0.0829794303471527, -0.14207653595174072, -0.07849790632082028, 0.115747017975374, 0.017046684034858817, 0.061642386770361116, 0.015146932021155898, 0.0664311866882129, 0.014898825536124805, -0.11436936567745017, -0.0933570147945864, -0.07767935921664611, 0.006572856859642489, -0.02212677648741245, 0.006719260454688544, -0.06630412004231682, 0.011161544076399738, -0.023141710162139697, 0.03143991542401875, 0.049666751906890176, -0.01981834455810151, -0.011466083249344415, -0.11578046938702609, 0.00805889290559089, -0.11507769341781836, -0.17448740573652116, -0.04958391995059897, -0.07132066874862963, -0.10502956099698817, -0.062492871721694244, -0.168280128055148, 0.004639775998357895, 0.08538691132137, 0.08657648831499246, 0.054377536750425996, 0.030251680787932684, 0.0030740805288989766, -0.05833017546772699, 0.010161137171234874, 0.013901926875378305, -0.021653017774981773, 0.08626080489573854, -0.07871828837241102, 0.03491750211683764, -0.021787558086448833, 0.06013990640206806, -0.0395060881651203, -0.020311649454448442, -0.025130657043067026, -0.10982144711772476, -0.004187474005873443, -0.12190897385485581, -0.06635505755084135, -0.1894440156430858, -0.1469710931162699, -0.23749858749930947, -0.20433504031683566, -0.1253999077312347, -0.02930888138028014, -0.0374890783054617, 0.11334370411182441, 0.07810598651109503, 0.027127900400689246, 0.09071694915439886, 0.11450603949920016, 0.07998449707834913, 0.016533000174569705, -0.03416422325361236, 0.01871773819092963, 0.01632241547204202, -0.06425943447721238, 0.006207046501295041, -0.03820698082665203, -0.03918773932308168, -0.03228767902497581, -0.02517884659288906, -0.1376115567998407, -0.04890254263790365, -0.01238956158532641, 0.12964238038776527, -0.023077988294938217, -0.0681514318584746, 0.06934668110000745, -0.1032344634517888, -0.1362853686139009, -0.010145202470346655, -0.041643255310752275, 0.02394311167266372, 0.0012584706080603894, 0.0033115914574623983, 0.026021181271648847, -0.04772130163422894, 0.13169088242659452, 0.10692467667617914, -0.06582334126138653, -0.0744833727581043, -0.054947918016545944, 1.3544473036541765e-05, 0.07338953346702459, 0.0074453711700801254, 0.009550838548540207, -0.049216452771302606, -0.12125577470371038, 0.048864074664863366, 0.02964680299253594, -0.02747181751692176, 0.07365671336578382, -0.026862976795040346, -0.021343206096889115, 0.03143727039086469, -0.00355948419149818, 0.07712429333431622, 0.027020787530436463, 0.0033877358843771147, -0.019942688980458322, -0.007950342362869874, -0.00404862330230551, 0.003308734303213119, 0.03710616526375421, 0.08741158376517741, 0.06341759356398181, 0.014005131136812028, 0.0325761170791055, 0.03558073048650208, 0.06994613636786005, 0.08716765152141868, -0.030328767262060546, 0.05123582627760355, 0.04149248731370306, -0.07273028143580332, 0.059462347493444846, 0.12935072045009774, 0.06589673486311286, 0.08931624937461793, 0.05769758225745933, 0.0003341472532311168, 0.021844379718876445, -0.09554372843898383, -0.010112425417363844, 0.03742209170841521, 0.027125631108620114, -0.0034826518387481346, 0.0784965326427284, 0.1459201857892731, -0.05651859105458924, 0.05072127448257663, -0.053071646124490134, 0.01636054739295045, 0.046173263662163185, -0.02851488540796079, 0.07412025833572604, 0.10177404925512853, 0.05330821367586636, -0.1368766208595658, 0.009958385654175313, 0.07146923251571938, -0.0376707254959234, -0.03116974933850261, 0.09288920362261244, 0.05473142231821842, 0.004360115401139838, -0.01904132180266333, 0.09737956555526806, 0.1697977638318809, 0.11469147135778558, 0.08717178219586022, 0.03212369336238415, 0.007446002193184017, 0.008388965234282522, -0.048981973444714395, 0.04468363502306291, -0.01686190429900173, -0.06193348240374998, -0.07537709581357639, 0.008996683286074255, 0.009279180365179903, 0.05605246077782328, 0.003780399903773846, -0.013676860244215234, 0.02340069551828417, 0.013959625711216023, 0.00919920863495501, -0.0014477376666593431, -0.07298698070068924, -0.03209464738726569, -0.046261646671267254, 0.005610593970701614, 0.09442800608242792, 0.1486103344888119, 0.05361485152092548, 0.07187837001445684, 0.2759473791876475, 0.08114488659271443, 0.11727594525941597, 0.034491237290487524, 0.019433279475500675, -0.02685383330787988, 0.05338065611769181, 0.046965039968290864, 0.03175112094386366, 0.11261741878181879, -0.05869787201232868, -0.16340024949251178, 0.13463613863300541, -0.06186623625987049, -0.0012808412430833742, 0.12884543078614333, 0.008956639967561547, 0.04476841987772201, -0.030395044225022972, 0.056299525108456, 0.013114635320068126, 0.08470182746020671, -0.030838581074294436, 0.06369067470280733, 0.07992353955828406, 0.10576838885377306, 0.19586178156869466, 0.08710064610995683, 0.125503801356457, 0.09480681485536045, 0.073867991606703, -0.043556380803500154, -0.03551234638774227, -0.07468735323176715, 0.05191837178600638, 0.12309153831563012, 0.08258372314352141, 0.02431081854960079, -0.05222581023396887, 0.02745596509352792, 0.037743890410423135, 0.033139639646440434, 0.0977182477214375, 0.03572768061012628, 0.048435611427491386, 0.04410700363201075, 0.028050330133019722, 0.024780497004764042, 0.04892507482111695, 0.02542496215822864, -0.08804759244486654, -0.030316106968267982, -0.035990271106292215, 0.06256537855050966, 0.028064238082554947, 0.10069760013877335, 0.2440941353538432, 0.179688436129444, 0.0335236643049771, 0.07084780564499125, 0.032559952393336256, 0.01784494650736302, -0.05347632267449297, -0.02578866812365209, -0.027085539585253313, -0.050764836654348944, 0.008428866711085455, -0.040766412006885765, 0.1361862854148401, 0.06896553428855377, -0.03807356163357896, 0.017925797019032907, -0.020820829055440256, 0.046830256078956904, 0.038646078728243445, 0.04026534762339732, 0.13941404506563526, -0.1153780535816003, -0.050994833467540905, 0.10299107302539212, -0.007530653407509555, 0.12642521113379704, -0.015087722452943991, 0.02786585607429266, 0.0874520718070179, 0.06717292517000706, 0.06615218835763463, 0.05718559196407834, 0.05864749036066206, 0.07577910849156805, 0.10790817057581237, -0.0940224999928661, -0.06347273505166265, -0.034574326508323136, -0.034915760833748435, 0.06028724594733419, 0.0007871399437263627, 0.1741073854871321, 0.07806828116172176, -0.043774988919953836, 0.06201083799503818, -0.02934070321025448, -0.011048367270459276, -0.06582818527100079, 0.045941642747505236, -0.04879805515015992, -0.047210575009631585, 0.012304508634285914, 0.06638030688332631, 0.1445101461758339, 0.12473223814551468, -0.04435034991255643, 0.14267974897765762, 0.05593279113492609, 0.18914516430450634, 0.1534996431016944, 0.01987273186655216, -0.067754390144879, 0.038528789944175995, -0.0585102121212314, -0.026401145270505202, 0.005737834003002264, -0.058048853697133154, -0.03289179501804602, 0.009131564222282803, 0.07248550569103301, -0.02332391552595588, 0.029441269189860817, -0.023964611454892926, -0.0025643083882409333, 0.08237688477818415, -0.046045435282489965, 0.0003901637357798368, -0.005563089184072217, -0.004923268391821824, -0.05595776351801461, 0.009293252363649133, 0.11493413429251695, 0.1854223539929004, 0.05941737343077385, 0.0900165929894772, 0.08527506059169213, 0.09933528599150235, -0.05519877341105238, 0.0006069282105393772, -0.01366992996375693, -0.049066933700471146, -0.06295314426237364, -0.01776628435874114, -0.06326971604665783, 0.03135781031515057, -0.05377177388015097, -0.02719805773284976, 0.034985960401003276, -0.10729223795293938, 0.03499394341048268, 0.06737216817897598, -0.028843987966520577, -0.03988216623826824, -0.07476677943865943, 0.08433983080190197, 0.02044104810045026, 0.0101571032358986, -0.027741604813836824, -0.09294670934544384, 0.07190504631235868, 0.06574711445800772, 0.11290544274601497, 0.059309358865530494, 0.16953228625748964, 0.005839844466519313, 0.09960086078423828, -0.05182747617055577, -0.052298006591047025, -0.0035299114158598524, -0.06411225570582421, 0.04277386641877962, -0.0499545517320992, -0.011117254940027207, 0.044765115853797235, -0.02487458667903823, -0.0325227003592046, 0.015105421903623201, 