{"layersSizes": [784, 30, 10], "layers": [{"weights": [[-0.0388874575548903, -0.011641897173887358, 0.02804012516668073, -0.04490278749089712, 0.08327877373524868, -0.022610374828351848, -0.003680706237622602, 0.030425987107009236, 0.050437061254864135, -0.12124699799289386, -0.02014268238907074, 0.06943450906722114, -0.054077258487071254, 0.07460967505802568, -0.0012367621762254762, -0.010766291563169132, -0.028075152132481337, 0.04457145933734331, 0.036913984846898014, 0.006692838713877815, 0.007992464029496956, -0.050729996804342634, 0.060712240264240956, -0.018103197977373912, 0.03030436881516081, -0.010037194746527402, -0.0379374094554146, -0.05287183203882943, -0.004702156222286829, -0.010532190046703702, -0.026598625372032548, 0.009951690255476039, 0.012644694211714437, 0.03234680618973316, 0.017348779543166708, -0.0029070085403505577, -0.04046583999117883, 0.06770113571510308, -0.03906736194048857, 0.10060530528311165, -0.05571506496657537, -0.004336584355927072, 0.06966326570503717, -0.10114715013194, -0.036606916432176444, -0.004571533060723873, 0.058459509937114906, -0.002111690093497327, -0.026903800595465703, 0.0537687988390344, 0.01941819034765432, -0.04368868622929816, -0.06037565281432099, 0.03224623977594665, -0.0005351585745106309, -0.024336116980951016, 0.03583807197164236, 0.07584683539782046, -0.07054817218237087, -0.0018152245651433768, 0.007193218379724293, -0.08668244467509922, -0.047959376407133034, -0.04887395596063919, -0.024005905326146784, 0.03952153647396016, 0.040945905917576936, -0.030577538044990627, 0.017878409320354678, -0.041710119225434605, -0.0869825827197436, -0.006440251657913966, 9.754630462092769e-05, -0.014170346227762864, 0.07303403310936317, -0.01683940169660533, -0.050588690693104614, 0.17078958593231278, -0.06341587674574264, 0.05725544666047646, 0.005456794105126277, -0.013859228421524478, -0.03603216923196173, 0.02111190757645019, 0.05953540861091881, -0.0438155697042685, -0.06340940146974897, 0.05586734959765053, -0.001268978975512679, 0.0687125407010381, 0.06302542264110232, 0.050915645215547665, -0.026909008793588908, -0.00307947824508901, -0.004243017971915863, -0.0508763272318702, -0.010114520098322465, -0.15315566616770213, -0.09407077106889845, -0.089597301225834, -0.08841306180202312, -0.04771918276370798, -0.07000154216818293, -0.036699847801331856, 0.010027930235052895, -0.01549152908130518, 0.11740372694419136, 0.08565722595427382, -0.06643836126978922, -0.027887465379273384, -0.08178020276324614, -0.025423244782110443, 0.03898383535669094, -0.0033865542886652306, -0.034899430222164726, -0.006945165613436191, 0.02575445845068188, 0.03692164844137056, 0.0011235128213091914, -0.03975273157960505, -0.02457801000232807, 0.002033103771024086, -0.18093802591147784, -0.08736330874814131, -0.1840872173396411, -0.11509064753758312, -0.13514992682739915, -0.139600280151355, -0.10317237830827954, 0.02992245662974545, -0.09282445888699332, 0.025627719328516624, 0.01777450482913478, -0.03242594123664483, 0.0120590746436775, -0.033530571750249254, 0.026254127974979852, -0.05056015159014845, 0.008109114778043514, 0.03758040131052397, -0.04021134146392283, -0.020646764543165247, -0.05494519147868448, 0.014247097593777349, 0.00924394674106519, -0.014307183793480944, 0.05279827145784077, 0.013613697346247289, -0.06047212584206788, -0.16555061619660952, -0.20769437249097508, -0.20052416361716618, -0.21462712049554342, -0.08676056331146097, -0.11290484075311522, -0.08478859704580365, -0.060800607983805294, 0.08411461793068087, 0.06759827639507657, 0.11467911496342298, 0.039924888929208896, 0.056305836823425444, 0.12613193586262478, 0.02612758773984918, 0.15711051730121184, -0.00913915240205495, -0.022313140777459904, -0.038856541183674126, 0.04707045133736656, -0.028273564961342795, -0.006824829355343461, -0.0134294347079399, -0.0124123567066722, -0.024828477865851545, -0.006894226912359076, -0.04382559974535884, -0.1127909262622823, -0.1746699452023115, -0.21015418022176516, -0.14285342432970993, -0.18140997991560823, -0.12057791653678752, -0.12814152939782247, -0.04810053310421758, -0.0036396872622845686, 0.0833315790930423, 0.14636832439593342, 0.05173786693408531, 0.22999485608136633, 0.10586284236938327, 0.07010630442310885, 0.13171818057884047, -0.007854519490269656, -0.020320316294588442, 0.1223881878763643, -0.02420280033439351, -0.012472277702410585, 0.02095333803385081, 0.04114242140770322, 0.03755531424293839, 0.05010781530237486, 0.009720802733745475, -0.006256357356478237, -0.09335586943946231, -0.10830584739975678, -0.16115522082593484, -0.23136990130895366, -0.12528237191004765, -0.07108484324264941, 0.005538156892788505, 0.07394192316998151, 0.012239758205504325, 0.027452904464624832, 0.10457484278116894, 0.10386405110736836, 0.2682607145362398, 0.1321357036514217, 0.16437751023855493, 0.0027856757703326345, 0.12344209089335723, 0.003296869609264868, 0.04881973798177423, 0.027509430162918902, 0.07631552067237315, -0.026458719953988973, 0.0172363618371094, -0.0355815858440943, -0.09367317550548113, 0.10324552462233653, -0.06023422142140463, 0.0024382393105346384, -0.0344007651089163, -0.010708811039952255, -0.23103538061939868, -0.154350912484031, -0.1687139535278437, 0.05335083220372803, 0.26633403812307127, 0.15459610474516822, 0.10964819641183639, 0.03964708690421697, 0.09178556198333022, 0.035480203037415114, 0.1000918253161732, 0.012518182166517303, -0.0004424533953528773, -0.011578855119360968, -0.004855993175566166, 0.05799562746788164, -0.029084156137332128, -0.02050636527883993, 0.037755359532507714, 0.04425399471938534, -0.010045174955643263, -0.06606899624756103, -0.09672896948697465, -0.05290160794538619, 0.052577263998777296, -0.011620660120085476, -0.06535399449041566, -0.18877292755673816, -0.270334601253676, -0.09759389995471227, -0.018902052329966352, 0.1886678393451938, 0.33109716321270743, 0.1826171971295247, 0.005739564926534705, -0.004101553025752542, -0.06212983761638927, -0.05985654715837247, -0.057832543228000036, -0.06407685223803478, -0.009881828315654437, 0.025925974446805927, -0.03276774498074393, 0.05616209212715192, 0.03952670567067831, 0.0660063169842023, -0.021976036337728783, -0.02786161979924571, 0.08015168938709617, 0.006741183561219382, -0.014549943913132773, -0.02042435509250425, -0.009858842639100428, -0.05839189484379681, -0.1833430280885752, -0.1069691699245763, -0.2779508978670441, -0.0867585363761638, -0.046388116619732106, 0.26783151605173205, 0.2423450844746949, 0.23823718210980743, 0.022955315477312065, -0.09455705161388873, -0.11887636897165099, -0.04654168715576517, -0.15105443224653228, -0.10343918325267405, -0.07324057454167217, -0.052453251519927836, -0.0020932249552937715, 0.08619460833862579, -0.038151187639903016, -0.0034453530467013823, -0.05993413211806618, -0.037768806208599556, 0.018642097048430922, -0.028560901430084162, 0.01632165304026761, -0.06988727597573531, -0.04745840713267607, -0.02618230207849856, -0.23674958363787788, -0.15925071392188025, -0.10892586939601062, -0.035377145678048595, 0.03843879275840811, 0.0794053367730449, 0.2967534256862985, 0.11981104404370632, -0.0013661448482085803, 0.039925245576194444, -0.10743280484603111, -0.013835649626010565, 4.895523015684594e-05, -0.06170571654884645, 0.0015218575822453764, -0.030871062083678447, 0.10652755056858312, 0.08163809486277808, -0.01837981981525851, -0.027585514722927782, -0.006506671977421984, 0.003675120804028538, -0.12790131374689717, 0.012404764991528977, -0.010440873217922553, 0.02144109310474169, -0.08335783635645284, -0.08103094534991818, 0.025645930446437686, -0.1777558456857454, -0.015266084310600914, -0.08398259334596637, 0.02253747592960313, 0.028676330791011857, 0.05023107448599938, 0.15916161514038912, 0.07170701274344521, 0.013402201457492059, -0.03989145468574755, -0.06436241479935402, -0.07721537824693514, -0.15152417744910682, -0.059725875328796744, -0.15503141728690112, -0.03050819751254254, -0.029502381713392273, 0.01784987378810061, -0.060230244754643336, -0.001390387479325782, -0.04497612035630802, 0.07946394088662599, -0.0666259859129708, 0.02134549983915524, 0.12667180384042231, -0.10181668365022671, -0.02851346224082189, -0.044551750584306306, -0.05066337124774035, -0.14133018051302587, -0.1128336005492826, -0.09224683774241811, 0.017827361994326312, 0.03243476255534009, 0.09136226860236056, 0.06955166229554112, 0.03527669386629896, -0.011323445340654778, -0.0814191314263456, -0.09670159871653639, 0.05618876136571281, -0.09231788230210085, -0.08917472876257891, -0.15164320092128242, -0.06399709546478174, -0.06425915251305855, 0.019543648050683076, -0.009171052320488017, -0.09415078762411731, -0.048204309255513944, -0.01712277258310768, -0.0008822691420021691, -0.010545799014205383, -0.029786092639735938, -0.08690308424972863, -0.025265688994010833, -0.07545833766671044, 0.09957531347011163, -0.013805195149227054, -0.02539717184878748, -0.0022930680002912723, 0.17987559473018852, 0.15638505733496852, 0.0342132256298435, 0.01377398110819989, -0.044609950713197545, -0.09440441161349203, 0.025499071730324823, -0.061458183724245476, -0.18051454195467007, -0.09746543692674633, -0.07276600992231401, -0.03434795384860019, 0.018424230646096582, 0.02844695505433565, -0.007582762772736155, -0.0335420613697451, 0.04185671870278364, -0.02469857378141755, -0.022282129049519747, -0.11367531460083359, -0.0023956310158947005, -0.11109588275902642, 0.0179744695477403, -0.04965115322326732, -0.06028222546748928, -0.08126739121088712, 0.06499163297207416, 0.09444571028056145, 0.21272981521557424, 0.11252952286902218, 0.04626906442398606, 0.0904453600182531, -0.04364113557621455, 0.0038831456276253147, -0.039764549910214435, -0.10849294251633798, -0.10085211546602393, -0.11673055574356596, -0.10515811539390646, -0.03911451718784011, -0.021622504454799626, -0.04661972015940534, 0.04311228288287381, -0.007592434069709958, -0.06969830753273644, 0.012105576212242487, 0.09830288015252492, -0.029058413587167417, 0.006369694252107278, 0.029874677318154616, -0.03639121894707971, -0.06612099378482746, -0.04887098063743842, 0.002195814782537628, 0.06092308222190273, 0.05420749954025917, 0.044175221799942294, -0.03097677384977948, 0.009195817842651922, -0.06297669343733527, -0.06635215897004054, -0.10761307901613726, -0.11743827802702805, -0.049817968668642784, -0.09569115245382728, -0.06944243230211526, -0.10925388423514457, -0.09474257485999753, -0.06823395275958014, -0.03369630174346871, 0.0740662111723378, 0.10011016416410697, -0.09516550244148599, -0.09809891720235127, -0.05506433119925745, -0.07908411305412327, -0.018697135295787204, -0.04608526646280931, 0.06702727416729738, -0.10350491251296011, 0.05810564810648691, 0.08266608082680393, 0.03133007533407646, 0.034042067445301465, -0.033675526778527816, -0.023414342320756527, -0.008159243622875945, -0.09077185181707713, -0.08301622511109605, -0.06772698584693623, -0.06805327102401254, 0.008105582120732514, -0.0031324859102817735, -0.08000886118608823, -0.16386546508189725, -0.059304200922301695, -0.03472044266972216, 0.019266098870379732, -0.0929362325346225, 0.13178116881705648, 0.0004899347845756897, -0.06848732550926077, -0.08171632729403043, -0.08319069193389475, 0.028634869429738856, -0.06409121342317646, -0.0508944073166858, -0.02834644719550831, 0.00612437169855551, 0.046388238303721574, 0.017233149079794983, 0.07390450948590471, -0.06068264614804999, 0.09120759065085804, 0.08396779716284397, -0.07590019375675877, -0.04437173977750349, -0.11294493809672668, -0.07467286277786259, -0.14613880680680397, -0.008620417624200506, -0.10724805763186435, 0.007048224393300302, -0.09307789529540328, 0.04499645862759191, 0.01535854897813438, -0.07279120556167529, -0.028150021561516053, -0.04736265419906846, 0.003147111888019444, -0.0986215700499949, -0.0689842884251263, -0.09379483441101585, -0.03843899304191511, -0.00042702124599128147, -0.037324392683166674, -0.05932579671588898, 0.003150679215271899, 0.06681574517638786, 0.062102938358704854, -0.0575060917271887, -0.043736706042059835, -0.10045190231407661, -0.06645746481417689, -0.002028961247666704, -0.028153465742522487, -0.08001576561424929, -0.14616739080254684, -0.09611829323719942, -0.16830885027050288, 0.03647536203269597, -0.08021244151346608, 0.09871315498818861, -0.0079488070158578, 0.08867027636502942, -0.06259780812758493, 0.03410870518009181, -0.04795970335465627, 0.004187627965860872, -0.012267650785423367, -0.04622781038757451, -0.07083189175730822, -0.04404410111174789, -0.02597882387645444, -0.0976653138317705, 0.01513126767760232, -0.035777182944160865, -0.04020924619913574, -0.036919708183445255, -0.047950824433412316, 0.04002185621195953, -0.06144160185630054, 0.029372899302367136, -0.12897059403934436, -0.030038750461521588, -0.033594460110082915, -0.11426242869072045, -0.11482886056650911, -0.044110580594350225, 0.0637793036858094, 0.012688052759226241, 0.05638676500717368, -0.08623084935386408, 0.026633059556824865, -0.011487398139629623, -0.013237070995960455, -0.09664555737573649, -0.05379309577279454, -0.043325243668500615, -0.08082687865415354, -0.003736381030515804, -0.02506432734238542, 0.04267117328742839, 0.08499700606254292, 0.06280667633320823, -0.06955775868598274, 0.01865870224989381, -0.11040277428541974, -0.08613565610654605, -0.1264530906972057, -0.013412449446999196, -0.19897415283647804, -0.10213487356073495, -0.10404410065398055, -0.0333023615759635, -0.0765447284203807, 0.06627153425197195, -0.0346841303297377, -0.06442474001804244, 0.009909647145701568, 0.018887001255109056, 0.035214267890106316, 0.059877200700297055, -0.030643455801006123, 0.008242689273940743, -0.01168037524605372, 0.049895702363917376, 0.0005596817882910724, -0.024027594007844905, 0.009616846035501805, 0.005877137873292607, 0.07585378368632398, 0.04544032268089005, 0.08405271169401925, 0.11379448803701533, 0.03687503844163606, 0.10001963251416145, 0.008158608955444024, -0.04735085402421042, -0.0809732434040185, -0.00036924856981395635, -0.12222769741454617, -0.031597731605990574, -0.12569043850296432, -0.03619781949859361, -0.02455888110686239, -0.00820881181965062, -0.04895730745180968, -0.002833241773144376, 0.02810594942033737, -0.01151063252546493, 0.004803569286970364, -0.029092167071738402, -0.0003297583792068155, 0.0047413851415346285, 0.03203633336082964, -0.061532525435266744, 0.074243182562113, 0.09866941592372641, 0.018129779007943086, 0.20491805618287082, 0.13245493637465738, 0.2257420742057956, 0.1809889435378104, -0.01214433857597654, -0.046958042291816104, 0.01063350511378098, -0.177759186388503, -0.031444218510308986, -0.05022933470424016, -0.0013839466972309367, 0.015534983909378795, -0.056368759828452374, 0.0466344001741018, 0.011840505242202226, -0.03619865503114681, -0.08495954354273925, -0.03178342963843342, -0.05233677927837876, -0.025561794289655333, 0.008439993805657105, -0.07741089077466096, -0.08988350315112269, -0.00572078499841301, -0.0656084738316798, -0.026680064545073323, -0.03475539211323643, -0.024369729419673383, 0.07897344892685258, 0.055668787972320534, 0.004200521594759259, 0.043831290264284846, 0.027251942439672536, -0.03145082845969887, -0.09191185658084851, -0.07489164183591515, 0.022720507750904718, -0.014585793047435663, -0.029259813622576653, -0.014946617907389709, -0.09807239795705151, -0.010914830384620253, 0.04953847499488601, -0.01901236549236228, -0.07252556838111737, 0.03759754307290337, -0.02940623858941246, 0.05238829219478245, -0.05169259145675586, -0.05836600996505036, -0.0520209881926126, 0.0325577524979118, -0.08558801417553238, -0.016853776413554924, 0.02808586158468657, -0.09283171196649447, 0.08479990688751832, 0.08217714602933257, 0.014938729989158371, -0.012247248291784257, 0.0561586872890511, 0.03584670783770307, -0.003655657979233341, 0.04205390965986014, -0.016529266816341037, 0.029387939663143667, -0.03089907935318727, -0.019513211064254656, 0.015733133998975465, -0.00927860782570247, 0.05340589019533002, 0.08291249788085461, -0.05699803264772805, 0.1055046196434611, 0.0020966695152111674, 0.003696655075935994, 0.004002525480319508, -0.06191852319910338, -0.02783256179973422, -0.05091359005703542, -0.07023836746447222, 0.09112406262244585, 0.06595553100358274, 0.019863469638354017, 0.06222830389283718, -0.00915010793575369, -0.055966671633742957, 0.07299976147656483, 0.04288409526992024, -0.013356973136032485, 0.054471893303918, 0.10166408907973233, -0.06353778287820572, 0.008243743535047398, -0.026257075028131485, 0.0749894618412231, 0.08379083916371234, 0.1728292992621858, 0.025770068878292005, -0.06310181756810045, 0.025484479121530252, 0.05093887778245059, -0.07724584366567712, 0.08703614094674149, -0.04256876118130895, 0.04743327708145609, 0.10394341931554141, -0.05981987673474792, 0.03547224706663567, -0.1057037742758767, 0.00332128089751359, 0.0732514723577966, 0.03917112478764122, 0.014127665393014133, -0.023727109687565587, -0.007920936204455359, 0.027514232778813576, 0.07743338539496589, 0.03689073440229665, 0.028381278374188114, -0.1330885859950468, -0.14643702564470443, -0.05218640309210173, 0.0157884392980644, -0.016804359861830372, 0.11616961409635486, 0.03714225876696034, -0.021022308538225443, -0.015422199044085894], [-0.01820085143180079, -0.03633704879002243, -0.06468775579262755, 0.013643963090505336, 0.035849454366427363, -0.008618178230353685, 0.05518373953739392, -0.023172406136655367, 0.09498214948829253, -0.027687749448848307, -0.11682105487876149, -0.018476348777622005, 0.017173263854558474, 0.002992849285524453, 0.014297363319427872, 0.0013863852887227382, -0.0032010739562962896, 0.0522439200044024, -0.03586528410514326, -0.017661333474508087, -0.0008971914669698599, -0.09729007977587785, -0.0592161075113539, 0.03666464999331293, 0.008536806399099234, -0.04096929478970341, 0.01061850304617327, -0.06812233816707822, -0.043036844930661525, -0.04724725091157584, 0.06473809675120089, 0.05343791811356781, 0.0004170187426016573, -0.06507622074777956, -0.0023469953200913373, 0.09012992076469915, -0.04770284612012484, 0.03874831402728558, 0.030428432194117536, 0.04649191460605101, -0.07991099846380736, -0.0382459136525461, -0.0027807420800566264, 0.007897579775909127, -0.008932143361422656, -0.02077301479819811, -0.035204449111138195, 0.007481031734108225, -0.022988565256554738, -0.006502698339859766, -0.011231187482270262, -0.0035146980832938064, -0.064075711615011, -0.006965679034285695, -0.021101876841365018, 0.04442408800670677, -0.03304566487685919, 0.04240231761308211, -0.03688613515769615, 0.03938505475668419, 0.025033072113157175, -0.01926571123220171, -0.05984519941838293, -0.017814355094906902, 0.03268468653828585, 0.0032097234552462607, 0.033343752101936255, 0.06876356289923162, 0.06463153034870063, 0.03939871646971571, -0.049226377085315354, 0.04540423151027349, 0.024209825170145995, 0.04950238145732247, 0.06263722823777222, -0.01830016713896602, -0.004410029521124344, -0.08585838527537859, 0.1111931427683248, 0.008010881745454407, -0.1700040219469658, 0.02275205798915561, 0.022978539121876924, -0.009888152804125387, 0.09152936416297856, 0.05524894273084871, 0.04512663917573461, 0.054954422447731355, 0.030442539234718582, -0.1163343763628463, -0.03290131263440887, -0.07641968710830739, -0.08756772120941114, 0.033009660772938466, -0.029721637163805537, -0.013652674858153744, -0.001473440206719593, 0.018965731443274205, -0.09376976210263628, 0.02459382797644828, -0.10574387149746292, -0.0667375656027998, -0.016401216334440617, 0.003160026832834988, 0.04043497214864547, 0.02303214077473749, -0.05158720754813768, 0.03945688031749657, -0.03995130972960445, 0.005874864561905498, 0.06229994263809364, 0.0026389479706140635, 0.019439188643767796, -0.1115062591347401, 0.09812553431252588, 0.02602140523460551, -0.06249388073426264, -0.0014947806213738337, -0.013610230056678578, -0.012147788892636633, -0.07361182666831166, -0.07978502561392556, -0.018034199405165537, -0.037957154893840155, -0.07275804877057793, -0.10413389184452095, -0.10099705224183393, -0.1293913476946768, -0.10544616202515264, 0.021404942930372817, -0.04123957862839575, 0.09767371145168877, 0.022148221435831388, 0.07195722666488828, 0.10768704614375342, -0.04878120588147185, -0.031103327798202, 0.04562561566394949, -0.027722877532899513, 0.078552208544503, -0.09578365548462649, -0.020716806865961616, -0.0447649181433868, -0.04874652520967189, 0.06860386272169926, 0.05433547539770502, 0.07582823840396218, 0.14805880150146286, 0.07643752449202923, 0.002433807442901807, 0.07291814489844306, 0.06424494248188993, 0.07032631446604239, 0.0866457566601169, 0.023200018448883787, 0.008111083642617473, -0.03871722068770465, -0.043230561646935436, 0.00557200063295317, 0.028607336073753292, -0.00263440972304826, -0.010245831006785607, 0.042305503123871366, 0.0025446495066769642, 0.0006801287153443379, 0.020872667756488526, -0.019958216282949713, -0.06493661169665821, -0.09956124968315755, -0.00933818857814874, -0.057249361759590986, -0.040563748528191786, 0.006530630755325642, 0.022633146886922254, 0.018913431707575156, 0.00023292872837824848, 0.0012716750355046874, 0.029985705087659454, -0.008107109994551425, 0.08642246910356363, 0.12005887853375434, 0.13784369827097911, 0.15389083004207074, 0.18460842452008508, 0.12299011211748798, 0.10879478582881114, 0.13507431140505688, -0.004572747496388622, 0.04118692198891725, 0.03228821053710063, -0.06620048534445684, -0.04532602922602298, -0.048124708237871565, 0.05960491771186846, -0.005719510136882884, 0.02118878813535656, -0.018635034093597888, -0.0457539129640443, 0.09625052162524118, 0.04186955661874777, 0.042824715290179165, -0.07903833399878044, -0.025962054025865305, 0.03784295374688979, 0.02781716249756233, 0.11298863019962078, 0.08084004364556308, 0.11716432891666656, 0.08457720137113565, 0.06485151701975422, 0.08038264741727749, 0.15609242184469746, 0.09245890683851599, 0.1161972397427783, 0.0036482855714886175, -0.019665799985357134, 0.07429295489702496, 0.07410022160419541, -0.004265556846509701, -0.02001266872450576, -0.006946295964547832, -0.029401741239780996, -0.10413217007057562, 0.030842726309265604, 0.032485692243857583, -0.02466671999175485, -0.06545622158602256, 0.08372159768038938, 0.024072844714389533, -0.05612420211154363, 0.02632489962054899, 0.0011503859269310986, 0.12305895511314983, 0.08488534050056029, 0.09390583345127036, 0.10660568462229478, 0.09965089851066634, 0.08639464344541523, 0.1058508886641243, -0.029308572265540542, 0.11484385043993697, -0.05214231767742518, 0.20470271588326305, 0.0630519057867943, 0.030332167747964673, 0.12988593839475404, -0.010183803900957024, -0.006110102729593057, -0.05179477695003184, -0.09094464604922659, -0.004421608165889334, -0.03856599330487019, 0.025409673377023167, -0.027848533547978966, -0.0020393541380590062, 0.0014594182915151498, -0.07436243942574179, -0.005490091103469299, -0.008418888664488436, 0.10164406543659671, 0.01332160830253902, 0.02881052668709029, -0.06106028578132427, 0.014846316968086257, 0.08365844077987335, -0.03648744923202632, -0.07497689145346008, -0.01987235494195093, -0.022644144691130293, -0.03502421365967054, 0.06004982058237954, 0.10900570791343966, 0.07938350117482028, 0.09938240102264337, -0.008046393140755557, 0.00010594930924857821, -0.09806875156055393, -0.132375635730801, 0.003107371847400292, -0.0025688763168229146, 0.1435187886479759, -0.035741254487504086, -0.04020746598519606, 0.010998443828066279, 0.06555454386940328, -0.01988705241599631, 0.03704505685296534, 0.04412943510209706, -0.02229302771286628, 0.13025666223790505, -0.08288620077579645, -0.015491352185163784, -0.040562012497080996, -0.08382767747374632, -0.19611883619487147, -0.1979292628835975, -0.20739176132782117, -0.07073550040415655, 0.06398275019905932, 0.11961985242546816, 0.11637126631048475, -0.06356514664130428, 0.05912600548498723, -0.026802713926932308, -0.08801115546004167, -0.09833695452389582, -0.027583422586214795, -0.04985959867176385, 0.037361627025021195, 0.06105877525779612, -0.031823623002569135, 0.055389959193210436, 0.02069158070819923, 0.1297375587271953, 0.04318407881797621, 0.12072978759713321, 0.12121141760500567, 0.08041274776894575, 0.18478937825306024, 0.06131673735628671, 0.0826875184785472, -0.017879064511831893, -0.08500828704410719, -0.20848911854908836, -0.1651854486148419, -0.049606584529795834, 0.002394276217388711, 0.0787900353633382, 0.10266704766968561, 0.05917907620473884, 0.13442102913399243, 0.05493832265750833, 0.013658872335896915, -0.08925240028805972, -0.03797931452246379, 0.013267666695630061, 0.022861344759568355, 0.014560164522062892, -0.09074974025159561, -0.07275153599565062, 0.01915084554352421, 0.12807370663301956, 0.043752264505216236, 0.1412289572911328, 0.09910767934174793, 0.19038134503573573, 0.12688901590924337, 0.08235839196786629, 0.03228110916865069, -0.10186970074006467, -0.17469697231772807, -0.04187968227824402, 0.009568759940029727, 0.11601389785084533, 0.1252882522426218, 0.004696528070521819, 0.10530806771684662, 0.08631317227607212, 0.20022708765160144, 0.18436184697446464, 0.010250327006457925, -0.03805239456368458, -0.04596344099668916, 0.07827049605144218, -0.004218576278315913, 0.033855909307280434, -0.05064088272210379, -0.11419818154002823, 0.09715178526310765, 0.12126908263218839, 0.15088763198616603, 0.11471238035840527, 0.03049284158503927, 0.06010033356165893, 0.12915989670119188, 0.09708588782881372, -0.14591986554045233, -0.1881512142028267, -0.0201063313458381, 0.11735443986940529, 0.15253706148385743, 0.10326286530650938, 0.07192635194380467, 0.15766975891489332, 0.017644736226471384, 0.12029158092858051, 0.1850787572959163, 0.19309849333128548, 0.10786437740650871, -0.07766769199596715, -0.046177120698027874, -0.030166626864940187, 0.05286036420623519, 0.013660051952247657, -0.01088182066445846, 0.003637491029622725, 0.08138879304522802, 0.15027389072353192, 0.12258526701529672, 0.09060875472477185, 0.017659445695171673, 0.09298716935495711, 0.02168552279018786, 0.014430465060900653, -0.023325822544993505, -0.0545404922763264, -0.08183386488347631, 0.033867151365232495, 0.12898625279541842, 0.18774887546833438, 0.11964089413864314, 0.1548695618057128, -0.012458738906964485, 0.11208052971685123, 0.12174657374367448, 0.08232718233469129, 0.006081687603985608, -0.059723732909575736, -0.12823500154189416, 0.037251843264769595, 0.01734253257322283, -0.06110810783042095, 0.07301126151705803, 0.058592855606064344, -0.06937901842130503, 0.05574183404472453, 0.011139550388375807, 0.06117052980578885, 0.10154876803170777, 0.047765419553872174, 0.08828858600835829, 0.07640132196124495, -0.02995000339668568, -0.04417959547625326, -0.0342743440951483, -0.036647830584639746, -0.05386389020240623, 0.15620813309063308, 0.19460683086393396, 0.04246117927939723, 0.1553626997497862, 0.1043257913196488, 0.13137162518552034, 0.021106921793520004, -0.08615036504547383, -0.036594526103174145, -0.05943389716737511, -0.023258530173404773, 0.059933355675892495, -0.028829805269440425, -0.040167215995492465, -0.008430158922376179, 0.00014648760265637182, -0.05364954294515983, 0.01954691524805374, 0.13272389632978976, 0.14224360429163035, 0.10318038988803888, 0.11129316427780257, 0.051727718897157875, 0.04902531788134803, -0.07723171101172781, -0.03365216294648361, 0.043482475350910266, 0.04034496745739517, 0.21531465891118498, 0.07459341292029753, -0.023083468991846934, 0.07042695098337792, -0.05019085095952067, -0.002560005598429087, -0.09217516793610026, -0.09552093058388754, -0.2065903745414242, -0.17290972573914468, -0.08504245364696914, 0.04270864698334436, -0.009623940634832595, -0.016073703577828724, -0.05122387475308085, -0.019043423749589887, -0.10780995959108995, -0.02469684012075385, -0.018202964340885086, 0.07809842038254164, 0.11734244289958068, 0.2136200516963383, 0.06533885683774814, -0.007208584533203808, -0.05675796105341908, -0.029145964376017703, 0.0566232056403663, 0.03927693196460246, 0.151590757998603, 0.16787561900220105, 0.02080949380366563, 0.032554067399210525, -0.0595611214846161, 0.011958279994260376, -0.06968270887701856, -0.07763649062798395, -0.04380403790225148, -0.04009958507106108, -0.02259032230692044, -0.07753670378557703, -0.06659085995821046, -0.06707532310583966, -0.09412665415108495, -0.16376757471027947, -0.10977112704600005, -0.07965962407265796, -0.03143708490130407, 0.04209564204085634, 0.005689989623735761, 0.031446964132497604, 0.09746581595034581, 0.035821978629214726, -0.03104581220997406, 0.014566681903597884, 0.07300437170300474, 0.11344784206029415, 0.08376969050616605, 0.060911114314583445, 0.07620409870603893, 0.015789504214355373, -0.0011279626972259824, -0.18978155528914936, -0.15396307241864485, -0.1437786254714072, -0.08226440119912808, 0.009687718887356072, -0.026736729995882363, -0.1400792260554554, 0.018571101050242917, -0.09434441438532667, -0.07847669331250613, -0.10031096097448738, -0.029586067926625072, -0.09928393022113839, -0.006594228281085905, -0.05023262752903368, 0.003994028151798657, 0.06891717274511598, 0.031113412900794498, 0.07098169280804542, -0.06749520552845618, 0.048370062034028105, 0.06208656487132382, 0.07893294946510118, 0.001940574353969986, -0.03424850674049519, -0.005049339878387299, -0.1198750084356493, -0.06550226700715384, -0.18635346424184285, -0.14396621045111302, -0.059420028429035265, -0.04527640605671054, 0.0022275621292759925, -0.010633216220081067, 0.06391585018505487, -0.013858167788786764, 0.0007112605994439329, -0.04195159685827926, -0.1311023306654663, -0.05555804921573786, -0.1416846873094933, -0.0906605805815884, -0.146595468901228, -0.06620042473460841, 0.0824085013968687, -0.033476496785154436, 0.09697607232946312, 0.10005496170524843, 0.13584021486097578, 0.16504462194334038, 0.03757671735866829, -0.03807548644641095, -0.053530150248157965, -0.06768058900240792, -0.146698201781409, -0.10804845913806184, -0.1874906000172542, -0.10362779392716705, -0.0925422632219946, -0.019344801072136555, 0.01265676866297925, 0.01898047098434003, -0.035355721087449964, 0.07451790774331973, 0.0004604481190343293, -0.1448708704209405, -0.05764999631493223, -0.026953708522360842, -0.14207346627990522, -0.112680188637108, 0.05425242188175942, 0.08907737252165963, -0.03402481363897561, 0.0998056678453575, 0.18607289039041103, 0.25778741250017695, 0.09266291041738375, 0.17767554908148883, 0.056189277534443, 0.05542561840314983, -0.12844214353728703, -0.05519091442647106, -0.09569112193730023, -0.16094554989066362, -0.09282293556732914, -0.15314915402894402, -0.10704920946218459, -0.001836007555904206, 0.01760628478924527, 0.12200611136390152, 0.0066770430520711665, 0.01750538020816556, -0.025357811660022163, -0.07191905279307075, -0.10975890105856241, -0.19577821104450396, -0.13569583605770383, -0.04500573559941708, -0.09905190971650231, 0.05087160419780893, 0.04598483453488814, 0.17247959859744583, 0.1509058593347792, 0.1774953956685489, 0.1748532757295899, 0.16233571678524564, 0.14156860897453422, 0.0018309601589392424, -0.06172243402507678, -0.05095632965031563, -0.0418703025871124, -0.09298533292342992, -0.030886871138975144, -0.12109114306314533, -0.03025783334096217, -0.08560539713061156, 0.0345053548294389, -0.00020652858456379015, 0.05737787842759165, 0.053844018695532944, -0.09587955573660158, -0.04071141080312028, -0.044965850549698476, -0.06399472994356607, 0.04178309573566597, 0.013342280912678625, 0.014528995783352162, 0.0026646304119444303, 0.03393388679821523, 0.07137151960071442, 0.03201363781246796, 0.14234557210713777, 0.1567114751854006, 0.14148511212016254, -0.030123158258433924, 0.05349978922434753, -0.001124870989104022, -0.051811425711607025, -0.046659791651415886, -0.08735733010503524, -0.015986924962297634, -0.03979735391315284, -0.00034097254701203207, -0.011042066929322098, 0.007640666933647406, -0.04247277957839061, -0.027159793814561725, -0.14739448118495377, 0.07025916143931597, 0.07666051336258174, -0.022728872485994138, 0.061735996539843845, -0.07592274020350796, 0.03669116925740825, -0.04256645227472063, -0.007899496754303379, 0.02141837893697732, 0.03566559230745239, 0.010706284943305177, -0.05065796081521138, -0.10387501041810072, 0.057273927018926626, 0.049655938421850454, -0.08816349794190244, -0.11525819424660551, -0.04776820601209594, -0.07302319455989038, 0.01605403551548981, -0.1359933399302909, -0.03298938054625952, -0.020703155772334426, -0.05353739397624947, -0.07289096370874153, -0.09081842702514968, -0.060115026747859804, -0.05207174237664207, -0.04474116362507109, 0.10838854772612273, 0.08558046731861765, 0.1119615475242775, 0.08943895434902553, 0.04069114145305391, 0.012831861380951949, 0.014021244299324713, -0.011063152984872685, -0.0013770695501473217, 0.013640645497727533, -0.014718975439647175, 0.08890067266305436, -0.0041008657126084345, -0.15945310426963644, 0.03904832936376427, 0.042535159705488906, -0.01102631037428238, 0.009864359493815172, -0.04045743053501529, 0.03151085788243783, 0.04578955616146028, -0.039283657598310345, -0.0010826677570514491, -0.004573866106712697, 0.05745508491306838, 0.08989625634159419, -0.015355964453408756, -0.00938610719227546, -0.027263705075693295, -0.00618371710291714, 0.030623376507975725, -0.04682208899609172, 0.019951846741189046, 0.02320166152948196, 0.0226963630958794, -0.019648488960194915, 0.04074882589801296, 0.09730794280819675, 0.042927701013987386, 0.05704502861054659, 0.05397048390848671, 0.06550671892876041, 0.022785944439423795, 0.05944198886361326, 0.0017755427652408633, 0.0019743573841603107, -0.022284920158026723, -0.015285904648608491, 0.04582814438976061, 0.006754926706331248, -9.861586890718874e-05, -0.005399297756089151, -0.03136131935042219, -0.01469079430484793, 0.03488790592760971, 0.03136191994796326, 0.05865510901771358, -0.06235974035083038, 0.07442402468213011, 0.08634712751416203, 0.03416276325850841, -0.025164410293629383, -0.04811043237205475, -0.0310295623959151, 0.06334763407471251, 0.009511156917660309, 0.00930858733204614, -0.03737340675994989, -0.08013116255941032, -0.11605141535029564, 0.0435680946840422, -0.05598527397799445, -0.0377338862728361, -0.012075280691029026, 0.017939626872561603, 0.027494945400062996, -0.0050353368708622, -0.004917823705972827, 0.003003008664512705, 0.05974200519866598, 0.011315040620135074], [0.013818613647157623, -0.007572612310852981, 0.021079601727590002, 0.049851980950353786, -0.03888150459565523, -0.08060251628717933, -0.024529000610135843, 0.0768720838275177, -0.06383670337506984, 0.016060201028248237, -0.04538216210707489, 0.007970393717447708, -0.00896313082943719, 0.020985691288632376, 0.05737361700989349, -0.12991430054094055, -0.03703735348464232, -0.029638966512192486, 0.01561909450957127, 0.015490399061622175, -0.016261106675472963, -0.024819777246013135, -0.026358568590635515, -0.014259235884225067, 0.075954723617706, 0.08824382801617764, -0.004699841808740086, 0.026661077425379834, 0.05006347740023822, 0.05916129899419046, 0.004644747463599511, -0.010535716795583523, -0.08604293453680292, -0.01403566224233, -0.024480808667384293, -0.029805261572173634, -0.005298395805519552, -0.05256512717424821, -0.010131870061134075, -0.023254616753824932, -0.08788852927900576, 0.0655163978568589, -0.02528186022997296, -0.024454257857065897, -0.003058480021131885, 0.017187061436552447, -0.0009663733557390402, -0.011311318867267169, 0.04456235356395403, 0.084059409646323, 0.04838515266525639, 0.005269733419933555, -0.04156391217009238, 0.05571254990489293, 0.04544376470570333, -0.011788925261968801, -0.08504200124776941, -0.013324512618838132, 0.08843048697117095, 0.005193597352667752, -0.046787195009272295, 0.004253201932949737, -0.022825082294124607, -0.028558302370325885, 0.009859333370284438, 0.006394696879776059, 0.009872445048913022, -0.013839523991247658, -0.14272417437090731, 0.010675518033418355, 0.02275867996617396, 0.08376797513357868, -0.022762961465086957, 0.02662631730132304, -0.054920596994063715, -0.09286578547649278, -0.05531934967644038, -0.023967318289211618, 0.03022387330763342, -0.01030134151569619, 0.0683339000814597, -0.031000415591191797, 0.0328458627335076, -0.055868634993651765, 0.07190443573877763, -0.04264248579367672, 0.008053058650031962, 0.04482824101435694, -0.04665869827963362, 0.05835615357881189, 0.007773647593297226, -0.07798117104975143, 0.13537170461380363, 0.013895460876728055, 0.05362583415049389, 0.04880603156630511, -0.06375113468421825, -0.006784921478422484, 0.12469149688273083, 0.09172592024698177, 0.10323843599823272, -0.0010253936455557006, 0.10106335467801693, 0.06592219227589025, -0.007988653770172683, -0.05438425081763539, 0.06881029066186521, 0.12422216577208961, -0.014966589691047485, -0.036341449679163, -0.052456943359952234, 0.01978574360988584, -0.01324667890819696, 0.026210268023954524, -0.09216525044512772, 0.06521742412580235, 0.09535811749022108, 0.04033076294201585, -0.033625310004006564, 0.006261297283952583, 0.019585371349352853, 0.08170079609620838, 0.07184857872980786, -0.0042239936523085116, 0.09493396737618064, 0.05606591786016288, 0.11177630322770651, -0.08238640423006442, 0.08662287701236955, -0.007603950880497405, 0.05324225873614503, -0.059787110465325116, -0.0830732755357473, -0.06479513779708393, 0.06584265310720457, 0.03395380439437886, -0.032077489951409334, 0.034236549820523536, 0.05496093662488735, -0.026644918913535234, 0.023926834802479386, -0.024904787377479583, -7.406878348823724e-06, -0.04590085415912869, 0.004197893338367012, 0.123111572198448, 0.1612188827852733, 0.04787968241786586, 0.026742917934923626, 0.0016698981695177108, 0.040293432675062246, -0.0636192761323661, 0.06467971183644271, 0.041231514463087274, 0.040935455352390356, 0.045902663299541055, -0.014098520828833684, -0.07879951979521169, -0.059355111119853615, -0.001063723016182103, -0.08833620874873152, -0.026181867214845615, -0.07832515563871743, -0.04905626789527599, 0.01004888651380023, -0.08277073592385152, 0.039341068894302535, 0.03558905722195885, 0.04236930558768692, -0.0012806595517383579, -0.00783768900244136, -0.0033920387404420215, 0.07931511054052598, 0.0977918141414417, 0.05704888730672112, 0.12841859873120498, -0.03996667508666105, 0.0201487735269129, -0.03168814385865459, -0.07871146348533177, -0.06144347450059353, -0.05543355237808773, -0.025071089187661783, -0.0004637296825514752, 0.02929469683361963, -0.026660947178452736, -0.09344860497929891, -0.1501106074456251, -0.007407257146237055, -0.08171981449742552, -0.017071266209212482, 0.026691445611078297, -0.016756484707288608, -0.003047607167067908, -0.08869668000919545, -0.0042291302124941995, -0.034375522963771735, -0.00660065820241867, -0.03710730070150744, -0.06248615934441163, 0.016981670188542155, -0.0073547699690645636, -0.024156507059733143, -0.00034575281287529974, -0.01359388377547179, -0.012273789094127572, -0.022871012632573632, -0.07557304931484654, -0.13741533274071396, -0.09972621007545579, -0.16235212322025447, -0.04118550529018988, -0.08304688238675102, -0.22091390789016918, -0.10851492723165786, -0.07307185099311864, -0.13064744055426883, -0.07261865164394805, -0.0575363617868359, -0.053153319332375826, -0.01599560115164716, 8.410829754532355e-05, 0.018606732309335003, -0.007207250436166733, -0.04377225145960248, 0.041429569205687466, -0.0043488598219674525, -0.02377578436454743, 0.18314296838671956, -0.019908491900005574, 0.02280003030258317, 0.008681350345616326, -0.06248839563846979, -0.021974799154045706, -0.15418564885549538, -0.13368716786592438, -0.13622695576337118, -0.102855868886773, -0.006886597560667468, -0.01946493404057138, -0.11516676847901332, -0.13082004479495138, -0.1418022293561627, -0.15426411430569126, -0.10141693795780346, -0.07610901646592601, 0.0457528535134045, -0.09888526764094505, -0.0606744454170385, 0.005808861597928175, -0.020787542562089843, 0.06920371243413766, 0.01445254586478223, 0.12828317766693728, 0.036973545933450626, 0.08806406212325352, 0.05879291069240656, 0.04742848756106055, -0.05435824728425662, -0.04118200062547465, -0.08120336735356912, -0.08787804318152338, -0.09900538686382554, -0.022188842980434113, 0.06249617347261867, 0.027757243547113532, 0.16373246737309027, -0.04637133580308968, -0.16950028070410197, -0.11243147917273841, -0.047144274816985327, -0.06721788306132995, 0.03253807830737392, -0.07811072625195986, 0.03033366825606365, -0.04552364012507878, -0.03236268801708406, 0.15651441631341106, -0.026037168749396752, -0.09297583082428676, 0.05840579936927221, -0.04178147518855395, -0.035861312850988696, 0.06116505201887166, -0.06025063618322971, -0.006663920003652169, -0.023163284713541794, -0.039921567179003734, 0.016866312839586343, -0.03496175861013491, -0.030904221911751264, 0.014873295771289626, 0.1835122409245872, 0.2681362127124946, 0.07618824959811024, 0.0007970346723916062, -0.1596620461324033, -0.11751235707538556, -0.09183109074901062, -0.035496813523729964, 0.04025952643825957, 0.01674048420746582, -0.018905594704629037, -0.05388892453380066, -0.0572161583583259, -0.04398465303172242, 0.05394220868775864, -0.013795259325432154, 0.08088755420547364, -0.029715647014876435, 0.01800043256461536, -0.032171075207976185, 0.06936006665635798, 0.02922163224201875, 0.028346116573216718, 0.034802841217412554, -0.024452405394315993, 0.023318692680361543, 0.19058433669689934, 0.2099807186850552, 0.24267913217853715, 0.3035639927797954, 0.17751123568094215, -0.1264845346021658, -0.08372840771090079, -0.056596085662391875, -0.06934334019678894, -0.027238047906682335, -0.03911475034673808, 0.05571794988860692, -0.01666991386467953, -0.09007404651649926, -0.03699629570334099, -0.011899411462446904, 0.06102581897552401, 0.060600350790732824, 0.021670465608009302, 0.021270287208325585, 0.03622600167628256, 0.13747546527555649, -0.0041810989066621155, 0.0951118045078478, 0.013953395595679801, 0.08032136853377045, 0.09356363255364152, 0.17979510966279216, 0.2138589606467633, 0.2687580172801244, 0.17678956785303734, 0.12574836831729994, 0.08650903382981867, -0.026401876286128743, 0.0036711248077286813, -0.038727481492545776, -0.05708191238518763, 0.005449395080502618, -0.06878715537957086, 0.03641348021625583, -0.04956036137088519, -0.03591695218558103, -0.026915058372993392, -0.09635701248056013, -0.06231394790139359, -0.1067865549676941, 0.12712719637952274, -0.02633649766815384, -0.10326966593595192, -0.000661416314772736, 0.014446026497552797, 0.05503995801304578, 0.14894537033306404, 0.10913461477804837, 0.21993205542706906, 0.21181397649084616, 0.12416005885452186, 0.04959592207655066, 0.007306625935198179, 0.004276799399835795, -0.0481891328844194, -0.11446140572613908, 0.05200128812957086, 0.035367328635239614, 0.03685656259760924, 0.008057203673603847, 0.010275400480497746, 0.05826390585013296, 0.045143432457486414, 0.0077513897305395065, 0.0683154662158891, -0.01089711650816583, -0.06021471384456503, 0.014118029664725609, -0.05031431060158951, 0.029415042885354948, 0.025140734380652008, -0.0037901500934354347, 0.09838506366505553, -0.02165200155068559, 0.08012681282197019, -0.021115601260964404, 0.12701135681674278, 0.12073247015045337, -0.02179249954858091, -0.07672758482028352, -0.07905824139843305, -0.14041138100180442, -0.16434983064334233, 0.03286314790299119, -0.027972453685193004, 0.07336525348595929, 0.042807550447387765, 0.06445276438947671, 0.10884588813733694, 0.10672745455260693, 0.04828325300563986, 0.09148851834929217, 0.021642034090335376, -0.034356781376772665, 0.04285494719039903, -0.0497116067500036, 0.04775568716868199, 0.05316049312990175, 0.04968317377508671, 0.027143336264059806, -0.019159824613116157, -0.03501720869374766, 0.13671581758237203, 0.0907848303420245, 0.15792086071391337, -0.038872159558865436, -0.07661153955324586, -0.16780587572390737, -0.14024529444736336, -0.1288087368259319, -0.07843896105020763, -0.008905490224259714, 0.08605492294854651, 0.13036016254618318, 0.011255053858735986, 0.038833737196734684, 0.0813007565619306, 0.08330606385659524, 0.12626902998383466, -0.01733733308499441, 0.07266949828408044, 0.02412433970057301, -0.06190293034841228, -0.1250926410970924, 0.022571033400292286, 0.06628917806850397, 0.026458177219503002, 0.09333232440708919, -0.03163323361445586, -0.026202512218539906, 0.026785170607210706, 0.053508173141224524, -0.035248378644832566, -0.14574961969727235, -0.09101639106256347, -0.17983299698063207, -0.20817921336358736, -0.17102211547647214, -0.01768422735232118, 0.05411548880499106, 0.026460481324409913, 0.041638915208074036, -0.03953663482288943, 0.032429800386661815, 0.023998104085238364, 0.04617109629085805, 0.07348802570432698, 0.12804414657819158, -0.08457681041126104, -0.07135172100627608, 0.06467538060625165, 0.014036902627602547, 0.056089158875359826, 0.0989114864291676, 0.06819844097412417, -0.004553532498098067, 0.021321303138767074, -0.018396615748699222, 0.012367645229107762, -0.05434877317323639, -0.03740222772586994, -0.10329279859968633, -0.2085534496894525, -0.24981805830994586, -0.17719856266315082, -0.07533653597809513, 0.08818263391392711, 0.176469419843325, 0.009977606824817931, 0.02377179062156081, -0.011313411847924231, -0.1235934738267581, 0.06988673790677138, 0.03531313428629402, -0.008681254510473758, 0.05309222079982633, -0.06239195718353218, -0.06964678202083385, -0.03640567130961713, -0.030126395979839043, 0.04437167317012175, -0.009578411491608988, -0.06108030381423121, 0.018540922220196154, -0.05965975200879353, -0.1396829870933769, -0.09351260641727573, 0.030000357253477588, 0.0011763245473680897, -0.07465354919980688, -0.16494196493211682, -0.2780918589283209, -0.2107006754924134, 0.014310820447714232, 0.17273207859347972, 0.21279176803949504, 0.0970606216555555, 0.022920946248629677, 0.05795683212841964, -0.08066354864356988, -0.02264188150992853, 0.03336406021463532, 0.004467292179738468, 0.013380944955061633, -0.07474928485999234, 0.01622138373172282, -0.06918930518559668, -0.009606350110845766, -0.09102514172751895, -0.02663436257710612, 0.043906612312515456, -0.05793053390119765, 0.005039758968992662, -0.026593504464777484, -0.11615346007041136, 0.007144349217406109, -0.08758000258833018, -0.07742578752352786, -0.10700490895170062, -0.17026544569259255, -0.22126493748599502, -0.13938856745638317, 0.11832333709352287, 0.1590216688656965, 0.10259529270319943, 0.024289399656453547, -0.024288658563897905, 0.05154441823403897, 0.026206826292453026, 0.022220427237854057, -0.045215626334524445, -0.054555287474229955, 0.04010030425108918, 0.022964089002512997, -0.04621770906965411, 0.07123219056001077, 0.014936660739699313, 0.007252949174754714, -0.06780620290527854, 0.0342165056418693, 0.006342035759500269, -0.1168079070964039, -0.12322752378292522, -0.08433277135406458, -0.0644824143415716, -0.06690647845122959, -0.13587929143054153, -0.14136290221483613, -0.14698486025185192, -0.0348628953760193, 0.16820179469250118, 0.19772986793520708, 0.11313487624967332, 0.20900746850156562, 0.14412200095912717, -0.018315416684948238, 0.07324331655004727, -0.09899209527484129, -0.12190464605865388, -0.05197304024751098, -0.046447900206952254, -0.0007567855573700084, 0.0016946751357446886, -0.03767309087240779, -0.01136799504094478, 0.0587226995420549, -0.02268027740905077, -0.05601064839035774, -0.07582694776280689, -0.12997446961673434, -0.06377052732376454, -0.1136594396692618, -0.05224182970142085, -0.07178023825602635, -0.04407245721456329, -0.04698882487161408, -0.14309040214199278, -0.015599840728425051, 0.15060380735595286, 0.22402978727965464, 0.1307836422207363, 0.06861622048988562, 0.06008408220788705, 0.020016105574726113, -0.04402550998993549, -0.06367982709028959, -0.02934200784328608, -0.08722659718746657, -0.041250220681826655, -0.022008980544881162, -0.0749091374933346, 0.05980583763977505, 0.026442892159434378, -0.016647173811360397, 0.02327840302200337, 0.007452950313926447, -0.028756249884174082, -0.09406936064174506, -0.031949742398107765, -0.11605821408114836, -0.0994032458643682, -0.06494633614584998, -0.031784946662367225, -0.024069903535210282, -0.016910196390230947, 0.006226612239920452, 0.011232642596899264, 0.05205789706852724, 0.11855849415555453, 0.12269783564825444, 0.12101810646014431, -0.009332119723864536, 0.033666978868066286, -0.04543338710382073, -0.10346582256543724, -0.10027667727027276, 0.039555329190994006, 0.06386374612983574, -0.026181199090800272, -0.026477840264610388, -0.05118148645054261, 0.007700829068657151, -0.04990345134544607, 0.09283767102966733, -0.10454906766384912, 0.027035496925996178, -0.005633408383849842, -0.1364235804204393, 0.004144645617482151, -0.009496048201788036, -0.0011819256311715095, 0.09414363873157346, 0.03531522722277929, -0.00032350780746878883, 0.07540885460262238, 0.1420325123247809, 0.039694570331026004, 0.09418665345734475, -0.02733138966521084, -0.021585158386115653, -0.007199366359230949, -0.16312047411928904, -0.05963965415502576, 0.01660244285248349, -0.04049596046957738, 0.032828626924306284, 0.0418048720447396, -0.05187734346532732, 0.05115871892478466, -0.006755167588993852, 0.06097648931058277, -0.08800161491438749, 0.010063566111252677, -0.039159532787507376, -0.027444210220360074, 0.017412173681279786, 0.0005761492595113968, 0.07276766863890961, 0.09860844602670292, 0.10751765317354108, 0.037720844712173254, 0.0638982206937691, 0.018921396203329922, -0.009478371601085948, -0.0012570516330474872, 0.03369488829262675, 0.0004815439612148705, -0.08280307965239922, -0.0023985918814124845, -0.046723575798676864, -0.03687341595850672, -0.012162726150572315, 0.016975657261758387, 0.018184352170656982, -0.017304047801869005, -0.03518322149350703, -0.03149216013608674, 0.005937813475781492, -0.035709320260705654, -0.005870722370309462, -0.0016730935597619096, 0.0005464179431557613, 0.031276701203508804, 0.002040120619033865, 0.0041883206421321085, 0.040600362330810255, 0.03316094386723968, 0.07431839175687044, 0.07229697359044152, -0.008650497928422997, 0.058343552346070304, 0.020844626691070258, 0.009144348585291834, 0.004289028057399791, 0.005400147510934504, -0.016373101161582936, -0.025255090514882925, -0.020879299987779144, -0.057252998652797794, -0.044135999420591564, -0.05858987020099485, 0.00612897205908471, -0.09019663598651903, 0.027868341929455556, -0.0345862874201949, 0.04718759342605088, 0.028707841250378226, 0.008545754092277848, 0.051411683632756076, 0.02232494138458477, -0.13533648487190766, 0.03909083743961987, 0.06114743002512528, 0.02639283312204281, -0.041152338759023896, -0.035059199363112595, 0.06580355328107254, -0.09011510229600138, -0.005325317553373185, -0.06841028104277724, -0.09933950720490385, -0.06333867857743833, -0.006722918543534593, -0.01778674464577453, -0.06287498778614573, -0.007755281329945385, 0.026963742162909272, 0.07443361087488834, -0.05269633039798619, -0.0017727775182670655, -0.03952101778950557, 0.04626734545554456, -0.031057543289855515, -0.014005029569084589, -0.036586880786848804, -0.042438932868762234, -0.007703169498920257, -0.09542211748318018, -0.012387963357302812, -0.009247333815629323, -0.009346141927038799, 0.025900720167519153, 0.027663965296806266, 0.0479195725445218, 0.01983227635952006, 0.030615734611587866, -0.007071730220781165, -0.04707329851279204, 0.005384988074625773, 0.0050930423704662565, -0.009370167022579324, 0.02926795307327259, -0.0035701575644498753, 0.016904839993915833, 0.0017872929853357407, 0.0062549835921287935, -0.0016845026873488827, 0.061591150177380614, 0.044442651912317666, 0.03104786051391895], [0.010789200596780143, 0.0718254074836142, -0.061134985212317854, 0.07201577617503548, 0.015469459867352557, -0.05001240167211354, -0.021611078637582253, -0.044663222289697685, -0.05562125320682668, 0.028924121442270526, -0.07631684964556686, -0.023864589093092147, -0.0192031008245718, -0.026860885819426927, 0.06146539765590231, 0.05084627638188219, -0.09967196764465283, 0.035061445570772176, 0.05199007259373, 0.006715890553168769, 0.03822603569169852, 0.06547131880614863, 0.04921920330853246, 0.09108708959161718, 0.04170327039331657, -0.03026838834340728, 0.05899720885998427, -0.11538058261369859, 0.055089070303878385, -0.03124190207118346, -0.09316667408256797, -0.02016702486539014, 0.047465894051983266, 0.03601459347665642, -0.014773834949803374, 0.03127282762469986, -0.04618627727503898, 0.034233805203665764, 0.0490454994984525, -0.046037350364863075, -0.0015700651081611047, 0.021301756010162164, 0.020747842093890835, -0.039345149353333074, 0.10001006259972571, 0.02487504681004243, 0.0909521843813729, 0.019537408918761125, -0.018267678760956477, -0.07412582159780562, -0.0708285249491624, 0.0190017320297994, -0.03654296935042923, 0.008363328588579239, -0.021051175846176228, -0.0724887145692936, 0.05027874710957016, -0.0009743216437678916, 0.02233584212063457, -0.03483048439380366, -0.05193935772749253, 0.09515418592545151, 0.05262156823909158, 0.056492943637966975, 0.08500687804269798, -0.023316082749259563, 0.07762011732235626, 0.0678379539028381, 0.13886021537128687, 0.07342733691987774, 0.028321521033710106, 0.003519841339798512, 0.04851616346117026, 0.03980509137098862, 0.029562432191572934, -0.025011066912881904, 0.13315096124543713, 0.04757711917302366, 0.03628072861723932, 0.01998216264288112, -0.0020224843064062877, -0.024931600165986313, -0.08102714749259861, -0.03271777130667376, -0.002629252898199605, -0.08417964112639961, 0.009234167987068526, 0.01409657338897459, -0.027505410327560813, -0.017943376698939605, 0.016874793025245388, -0.02297716652206831, 0.040519345777047404, 0.12983564195621444, 0.08726154921333952, 0.10459274027342455, 0.13977145622907064, 0.12153290164308207, 0.04189652836287077, 0.018890086162000424, 0.09651627899315532, 0.08929071964240837, 0.1783344512448191, 0.0591270509341099, 0.059187581393332446, 0.013923256946189334, -0.017919983236759827, 0.05955667328918349, 0.04965482065334175, -0.08584875154066132, 0.06207294113043239, 0.0773058678088759, 0.011112842998476384, 0.12299157098206809, -0.012807923195858224, -0.00496417315251195, 0.03507454369624131, 0.010998244934915632, -0.024243397470663397, -0.015387750312396342, -0.0029758956026308234, 0.07376567600215014, 0.01785861621393953, 0.07715902753100015, 0.12246690280529145, -0.0415011785117471, 0.10283298821231414, 0.109348546281701, 0.12320734277976722, 0.08011687188070248, 0.04720901175458996, 0.07097561693013411, -0.023710618802975706, 0.1443227560792936, 0.0176477635696819, 0.11926455347772666, -0.004878191710927963, -0.010227987974709833, -0.0028514196276035286, -0.06957970104141846, -0.027594423857270716, -0.048866331498416266, 0.048174793558627305, -0.006573079299394251, 0.03739038904136751, 0.004940400991913942, 0.007221178978167433, -0.041090440156617815, 0.006637400867499884, -0.045060827618767056, 0.005820736268136936, 0.14199062027110612, -0.0626109251105622, 0.004765099565180363, -0.0877918546501205, -0.1053627715380191, 0.05950145779922185, -0.0016516418930552876, -0.04517049566654005, -0.054889297029101745, 0.05750267700902486, -0.01163247441517362, -0.0935030338487486, 0.07842897688802251, 0.04664911992561695, 0.04989955381079408, 0.08077290000866465, -0.004213142501891315, -0.08503699338581519, -0.029764221726310235, 0.032017250198131134, -0.0783606833914496, -0.021996381629325417, 0.027525695843195627, -0.040094311702678874, 0.0673195653896605, 0.12002976468579078, 0.010627256901480447, -0.06948489492043392, -0.07074576831063539, 0.014883723501461605, -0.09552473441185705, -0.13131467253466245, -0.09355023196416616, -0.053641210929626926, -0.08281758441653157, -0.11250736841640947, -0.06277089877844513, -0.037633025557669855, -0.10538067496476652, -0.10112210526047473, 0.07036656555768836, 0.0472579704309702, 0.11393450368076466, 0.005465192707669731, -0.10056954689538178, -0.03325531792427218, -0.10638028957409665, 0.014085072624960622, -0.059607175243512715, 0.0045155033665229575, 0.050290277315576774, -0.036635053418703496, -0.02007415171541944, 0.1674231175599153, -0.0986728761358669, 0.07242595568469491, 0.12982042472288757, -0.0756704757563235, -0.10934517476444344, -0.11854511679474293, -0.00296550937355789, -0.08054211749359899, -0.06733380407505474, -0.18719679978162324, -0.11777125572914264, -0.13775097554567955, -0.1974907430360773, -0.09937784259677034, -0.07715443450561212, 0.16410626517585347, 0.008967566345030011, 0.07582497229421317, -0.0843240202876827, -0.029538485505408586, -0.015895441118471205, -0.0027502326734945583, -0.02818872198097007, 0.013682331170921248, -0.04217065523322771, -0.04364573026966043, -0.001267903909368744, 0.08240122411702014, 0.12782577182868304, 0.03709536366635287, -0.005983992275113356, 0.1156662254054988, -0.01310214525437755, -0.108856944030245, -0.09022287546718102, -0.05519021734203699, -0.19750934020106245, -0.12256060665177052, -0.19771587288825226, -0.08765260254929379, -0.12082458753202932, -0.07830161278117347, -0.008644322207960384, 0.13747292922338208, 0.1192616835868978, -0.06293083748829566, 0.01464411094849593, 0.005129112829986126, 0.00319805524854123, 0.007232969529453186, -0.13846139079103761, -0.05677045401101554, -0.055057155031856965, 0.035137180142381805, 0.11608917872502031, 0.13309978435123473, 0.037069932237007774, 0.06255009173060325, 0.07953651078388398, 0.07932738890377958, -0.019643241880764998, -0.06536938840389993, -0.13306279789004052, -0.26996798145172934, -0.1130147219233792, -0.22114035754325526, -0.2474493161217924, -0.11982013077430995, -0.03015068579438683, -0.07669624824556147, -0.05150944432949364, 0.028905317852840808, 0.0994445640289274, 0.02883825998365625, -0.005575359734455598, -0.034432282228808155, 0.03157149058508455, -8.390430672284294e-05, -0.02469094123886806, -0.06917105806609913, -0.03078942104037524, -0.020127906321377998, 0.09485798075843643, 0.03556535406935485, 0.07622014998553137, 0.1218750259857107, 0.04151096035812643, 0.08899957745394535, 0.07966349405272441, 0.13112349022776046, -0.025715837035065477, -0.09667753189106613, -0.1858891434176542, -0.08727534964323781, -0.10710839590846194, 0.018365403126073522, -0.057057838752468795, -0.052878533738256225, 0.1806827873433456, 0.15726149440464418, 0.015574649706825431, 0.00445430024816038, -0.027888082220564606, 0.041398736389431603, 0.05365600004012423, 0.04326685020230605, -0.008999317219760371, -0.09797615283125916, -0.02017180890698936, 0.13454387889029454, 0.06785351926541212, 0.04190584769719525, 0.09562606584102086, 0.07452931498345451, 0.03429700222922591, 0.10579385293116655, 0.2043079609842786, 0.16244221390000738, -0.04909047514367803, 0.09031361753484228, 0.09298597166865655, -0.0027758765632050933, -0.0372993730117809, -0.03128359923327122, -0.02310957345643175, 0.09765493801529102, 0.15074095804015725, 0.14888352834929636, 0.04261006300772574, 0.008998377590320735, -0.01819033286562098, 0.04115388884241555, -0.039658685130903225, -0.04731045752386835, -0.052041069499812555, 0.024438472221856505, 0.08731838500042405, -0.05286704286347783, 0.06210396242709448, 0.0284397703077696, -0.09269280628231417, -0.010729640028405566, 0.010498072250203825, 0.05752596280571298, 0.08180037006716848, -0.061377773399347066, 0.00864474047055777, -0.017067511365792713, 0.00878994910068794, -0.06615234975927328, -0.07817359628918341, 0.03174613845585426, -0.007718549140141856, 0.034267141017819115, 0.1522183254377225, 0.027783725183500047, 0.11466661999588025, 0.01982538161571553, 0.00017505634560990093, 0.042503194063502836, 0.03434133614700689, -0.044211475765057275, 0.05089597023022015, -0.07093852640239941, -0.03033734666867753, 0.06625159849948714, -0.036157306800360584, -0.03662805577254668, -0.014132772235031423, 0.06016888755069434, 0.00979515911651756, 0.08554841696535563, 0.06156736919934528, 0.05228047618064198, 0.00826653575517231, -0.04178126043442909, -0.05006086882822494, -0.022680205322901565, -0.0009533706535774823, 0.013427523728800324, -0.10856104218032754, 0.0761873575426757, 0.16917928707725005, 0.12567671003327613, -0.021193500460440474, -0.005383175348904239, 0.016119868187047828, 0.05818882284753866, 0.03963793333517026, -0.025273701074722276, 0.05639761553916032, -0.09360107745191466, -0.03753132631746696, -0.019874373543209544, -0.024674606525946153, -0.07620166295664475, 0.062293448246409346, 0.09011518306245753, 0.038610558679437176, -0.047324026920531066, 0.004242020452505878, -0.0736337543562533, 0.019637889979062143, -0.0374646899646474, -0.005403779024120589, -0.07247324445260814, -0.01400677031047667, -0.05779193516538957, 0.05410487623481064, 0.13672412733985617, 0.20384494797758848, 0.09440264023771112, -0.022740889975552, 0.002508634926852462, -0.05363137688694146, 0.06953366830610247, 0.010008898328706205, -0.0849592763667913, 0.06159876129937271, -0.08530278306372413, -0.10579724338473384, -0.05231878038808623, 0.011528622718756737, -0.01231445847544334, 0.010196167793847435, -0.025216463621408305, 0.05105539241447048, 0.12094495346823678, 0.09531634612012861, 0.18360371535504375, -0.03312715824542448, -0.06973736155584781, -0.08155037492229868, 0.06838529641710593, -0.045069632741170214, 0.05783667467614897, 0.05692664660483423, 0.06528773394563547, 0.19019342542614945, 0.009918159849333008, -0.0465833619542675, 0.025832450054805438, 0.0008508468661926555, -0.004045434717449796, -0.07008909772788778, 0.01705379278074057, -0.05547324749092339, -0.04681911629228528, -0.03931048713664279, -0.08317375093439024, -0.13118644090524137, -0.0993533540931996, -0.026668722882174332, 0.10151769745651723, 0.17073517378687667, 0.07408434391973233, 0.026298217542992587, 0.08066371471503131, -0.025964835058585618, -0.048698647047090156, -0.11043584693373357, 0.011939183199355193, 0.10980004147783724, -0.05020891335526909, 0.12363326197405927, -0.03802878734049461, 0.1322490918938207, 0.14630928667197066, 0.02140775370020074, 0.012997798736774984, 0.042173373064042, 0.02918973110979097, 0.009120559270482245, -0.011427953963504342, -0.038837090083863164, -0.09124029732497473, -0.07815857685754474, 0.011554590784254326, -0.07065651058461953, -0.043944343559691755, 0.051996500828274075, -0.07167946900075263, 0.08639424607402901, 0.1073886762430841, -0.060120879493570686, -0.05185754246119695, 0.059992868445456454, -0.04555071786988682, -0.06105564914979783, 0.07376636888413174, 0.053347313288630016, -0.026765232928998538, 0.0695033472764668, 0.011671917140076763, 0.06309469030126248, 0.06505335189883232, 0.02673680016465562, -0.10646089702101556, 0.005751018062699184, 0.0597462150155294, 0.05862825045568484, -0.07639916977192474, 0.03220225104375079, -0.07129494596164596, -0.014013426687971287, 0.06355103043266434, -0.049837361569321864, -0.002669427704550241, -0.0008284042359674884, 0.08116015563319062, 0.13442590120310416, 0.07657663863602787, 0.032016306443415854, -0.04077998185704578, -0.02287651142309772, -0.03401693573371533, 0.022122430865451972, 0.04975339737685804, -0.03468057303551708, 0.011097374073651613, -0.08549960329834183, -0.026228049695427535, 0.1153054392603544, 0.04297640069670387, -0.018424031356418482, 0.0004600759536794209, 0.04965029829579765, -0.01853927686341075, -0.009342161275444825, 0.006736712275459829, 0.004295538415502355, -0.03932792392770663, 0.011833225444293598, 0.04622565249334028, -0.03980956225599174, 0.06037859600559299, 0.1653393805873911, 0.25098476312574064, 0.16785509584203753, 0.13686485381395547, 0.1832270245684085, 0.10290975857993626, 0.03445230549377162, 0.04003368608072629, -0.035717137133059726, 0.0689654845998598, 0.006871040707536052, -0.04820869378238889, 0.035071009907108486, 0.057217561075960044, 0.0037712934767011683, 0.06997625505730921, 0.01032636468393306, 0.061257659226234, -0.0006602938156272222, 0.018870112314711023, -0.01616142386739102, 0.04676064776896637, -0.019944425516610652, -0.06827731856448153, 0.02859892351274604, 0.016268718402727613, -0.00864298166773933, 0.1570817604962709, 0.1617473323829561, 0.27933444253492684, 0.1901157118733243, 0.20946565620662536, 0.19519406759265023, 0.17732692674983888, 0.06343988471668502, 0.12527282542924875, 0.0037574952411746068, 0.0031059153840295225, -0.07131689732708785, -0.09528898502244773, -0.06472489636220771, 0.03636133687849397, 0.07440772788453624, -0.010424187535927401, 0.02634901150331245, 0.09082614838547642, 0.011895748405523226, -0.08818536656536557, -0.036981220271022436, -0.038951750973998334, 0.02204979349743074, -0.018316749192388848, -0.07716054915264603, 0.008495398241347363, -0.021448529629046097, -0.020755925712493063, 0.1416837882941131, 0.20396290934150726, 0.25876999630125674, 0.15003311548894116, 0.18149555898808814, 0.2158134459204523, 0.14093952658476117, 0.09684085439721868, 0.05254860084783121, 0.029331612704923054, -0.12299955391921277, -0.11664265532707146, 0.03379604107976873, 0.17074122406095807, -0.13772412376469026, 0.04371745641974895, 0.002123650711793376, 0.017407163744193172, -0.10712294078441593, -0.045598310576401034, -0.026946408388350825, -0.0292503282564232, -0.09520255393966658, -0.11466941232497205, -0.05203300104484908, -0.10857481443344782, -0.07008300544237296, -0.04349751577129844, 0.04986619364384139, 0.01620227986921487, 0.05480620943118089, 0.17143708690236592, 0.108508193464526, 0.06274684832495578, 0.1426157606012922, 0.12334062598804203, 0.10421446743986325, -0.02412781848910049, -0.022782494855234404, 0.008370267133175882, -0.046319024383549866, -0.03915212514628569, 0.03212711616542117, -0.00818270899759771, -0.03339670546592541, -0.0009622990855182362, 0.08180770216539153, 0.027870304618487145, -0.10382290554978513, -0.02950734598710333, -0.0534790157639579, 0.020576113858691496, -0.011907946538782114, -0.07547865427379624, -0.08832553754950534, -0.08007322448167682, 0.017161971874505143, -0.08710312581576668, -0.09704377393033034, 0.012136663567406709, -0.018341016463316324, -0.008673535531822972, 0.10102685295288787, 0.1313247257224252, 0.04436960787074711, -0.10013364125167527, 0.03694117301012451, 0.022598700062785044, 0.0007699304305384948, 0.016054043016607466, 0.04438872400112311, -0.018491680146230035, 0.018475955105449988, 0.008437276587998761, 0.006821515919391789, -0.04636447715674368, -0.01812993118449521, 0.006186054473396799, 0.018161684957700545, 0.004323122199899348, -0.011397078082165285, -0.09025644369589964, -0.17595917033550945, -0.06418828230203694, 0.010284918501599145, -0.007552167712233522, 0.01289533847756249, 0.1068199405559652, 0.18359306176780987, -0.05203551378501544, 0.03493617929476413, 0.09989375382849607, -0.06881604871659996, 0.018818395413551146, -0.06047151081836984, -0.004552343524865668, -0.024662654810903337, -0.015227318687370166, -0.036318819820444576, -0.03297182793533276, -0.017503859457654775, 0.034331101159963726, 0.00012301732098228104, -0.16885465712731837, 0.02202221491312252, -0.01411782973598773, -0.06575253793042585, -0.022948232688428348, 0.015601001638311272, 0.014102926254949017, 0.028168737694700637, -0.051713201394324296, -0.0718690245371877, 0.0014835488661336146, 0.05524643613562705, 0.04224349095095122, 0.030096942160490605, 0.1652507495508543, 0.06429978429878995, 0.045904124845394516, -0.09142636922784596, 0.13575646230712451, 0.03936509793298832, 0.015882564886113563, -0.02039847518474135, 0.007313458327514185, -0.054934157131046775, 0.0383638681910549, -0.022989576777347767, 0.06919635035062514, -0.019648156095059988, -0.022970325288541184, 0.005731350307410073, 0.0038309297936218348, -0.059451678909595074, 0.033710448541366116, 0.02628187009880885, 0.0200937785798607, -0.04094371101964961, 0.013481605771852577, 0.03793980543205631, -0.0030216677665949364, -0.048926679044417797, -0.024694791108323892, -0.10863271784893437, -0.046063106950158285, -0.03501774208620866, 0.04806772535762338, -0.022815132126772858, -0.08312120273693936, 0.051923682918453694, 0.0586496958287477, 0.020909901493879415, -0.05224304558476704, 0.010911363987878234, 0.08977927756768078, 0.03822326155312012, 0.029034227689097004, -0.12999817015304624, -0.10548273943297679, 0.005020843804338649, 0.05892184406734288, -0.012699464385204919, -0.006075701044619847, -0.051115693023755356, 0.01123043877089772, -0.03063258715402184, -0.03444680892554306, 0.005647832067686387, -0.010884302316997083, 0.02581800551680105, -0.049346087252673844, -0.0506673392947522, 0.03930167000174562, -0.11987095867387312, -0.040870433967651075, -0.012155569059304835, -0.018586300001499932, -0.025508118915743817, -0.04376905392757245, 0.03228421282487081, -0.0637903198704691, -0.012436392631881323, 0.010473662773451894, -0.02829994580520122, -0.026927651301704412, -0.043589527050203455], [0.06941924886918094, -0.012612568313201039, -0.05491342519621394, -0.05132152153758609, -0.03521766753437253, -0.07631855247345427, -0.09531555515053984, 0.04197515761386425, 0.042318275433412066, -0.021260706581432448, 0.05904318541339691, 0.016181861683512003, 0.04328441378733567, -0.019791726039336193, -0.02841632758553855, -0.0005032395635108826, -0.03702045804099697, -0.001701838466129325, 0.03355326242895029, 0.028879613475434957, 0.041182886676828116, 0.04812163594206955, 0.03706614282062845, 0.015264205187176947, -0.03176667054137783, 0.022480209682540053, -0.029339526542493506, 0.04531802844998282, 0.04842106493698715, -0.03379976816217035, 0.010772589176348012, -0.07607295607800846, 0.03741862702142252, 0.056513388613043516, -0.02278742331438269, -0.016764721424376145, -0.01994111850332708, 0.02037550938069101, -0.001056666323308067, 0.1324831890287048, -0.03828316922548812, -0.004914801831947333, -0.05886331866334176, 0.03988860891201251, 0.0875053800169975, 0.04123780083304769, 0.08412061968630971, -0.017416606097644786, 0.01095265609204833, 0.058885561677228956, -0.057876791402239516, 0.05281694463718905, -0.013351479727442217, -0.035886253676215625, -0.0399180332449847, -0.013271950752400653, 0.1372784728252895, -0.0155924106107129, -0.05371832499983552, -0.03548320843379348, 0.045849425727376956, -0.0034900493110598587, 0.11362153153730975, 0.02296073404620754, -0.02294253188053556, 0.11477489760857766, 0.017456693029819486, -0.010618499273573926, -0.05954513083543097, -0.005718849456864941, 0.041022658224871465, 0.033936457993326806, 0.019002677143575557, 0.048993491207124686, -0.013310485112270017, -0.02346952230501553, -0.002654604202119787, -0.07831576046512655, 0.015474057540680312, -0.011971745338122354, -0.11513951792054805, 0.05719074480952254, -0.11103264263619014, -0.018699985011201917, 0.08827419343414206, 0.050515547589178866, 0.004769048091888523, -0.059919811933924115, -0.006746991940916342, -0.014426600165731248, -0.07239999692645403, 0.016548822065467244, 0.005755094923713327, -0.009797791414542015, -0.08351434751885824, 0.004032182565430766, 0.08897813773853568, 0.015657457426107302, 0.000866230524279665, -0.073513352293753, -0.00621083808202779, 0.05828387660774827, -0.027617990769947774, -0.053901220922054086, -0.03483220213710838, 0.011957897758397716, 0.01676881638717741, -0.02557581889212624, -0.0029015951791830797, -0.09523600287392683, 0.022925174492367768, -0.006307999718774069, 0.008495593892500248, -0.10531541529853596, -0.008228884835644748, 0.06487666122363626, 0.06908574787402136, -0.0860186333061081, -0.0806968252297442, 0.0021241210379674214, 0.13604551342353857, 0.029453337807926045, 0.04191605476762336, 0.02894899960394462, 0.06024480485891558, 0.07159949946046648, -0.011069297053177087, 0.0618442681755778, -0.02578159928243366, -0.10151588416792676, -0.05664112906681383, -0.09573016483997246, -0.05020797705785118, -0.05202706888828364, -0.0912329580593491, -0.044454905583589915, -0.10205153639519257, -0.07450246310268353, 0.03719276350067823, 0.07505111644134024, 0.02278101523685148, -0.005762341333121993, -0.05482260424319361, -0.03810374954827229, 0.054092529143622316, 0.024777386823688723, 0.05177181724142631, 0.007802944518124404, -0.04338470229619681, 0.0011131526902478082, 0.02812369610894937, 0.011836419519316925, -0.010934539010252079, 0.22295930175735335, 0.09013475495742201, 0.06860167101428691, 0.09773497175899326, -0.069349718562768, -0.0692714745407288, -0.08153660115215411, -0.06463064702391776, -0.13223808691378114, -0.14865871884739537, -0.16344842177432517, -0.16777503828435442, -0.048363096914019375, -0.03127390686933913, -0.06343330651760255, -0.0385650899227692, 0.10725989457101871, 0.01269532710579526, -0.04136528073193497, -0.058625376942727, -0.021174923417375355, 0.040654447667661714, -0.13361083122054068, -0.1134628702144512, -0.054771115770534534, 0.0008575318311489431, -0.04658521621098051, 0.047505883946315906, 0.1096756483433436, 0.1870193399114544, 0.13144425317310263, 0.1796360481700526, 0.027344712814420042, 0.09996413206168311, -0.02551255346042664, -0.07967156108741799, -0.04037165965534203, -0.1651589422232867, -0.14981216885935242, -0.05457334942047247, -0.0625108664600573, 0.0917640529168833, -0.007563426811100156, 0.06887651308757238, 0.01340281864996248, -0.015917983657166353, -0.01690255441175561, 0.03684043493064487, -0.09177743040829543, -0.18795197983318213, -0.005351310975165422, -0.055580001488773206, 0.003769610254821826, 0.053188747288606626, 0.025686250358096553, 0.19834827974041952, 0.17735423930347102, 0.1904731189721493, 0.2737101048476246, 0.18792858072401442, 0.1755259238840188, 0.06532925629081078, 0.0387180461714127, 0.0034107846858391373, -0.08136564243933118, -0.0856827110928466, -0.15716834957890324, -0.1635452241853013, -0.03372648703798874, -0.032666518272086754, 0.05482215634980398, -0.056963343803087076, 0.0368747894387851, 0.07636891419345064, 0.07999610035396457, 0.05324335882994881, -0.00987956540529207, -0.034794370034392015, 0.06335325096280242, 0.035289668664043004, 0.06686403058645389, 0.08741006514942516, 0.04016472844208451, 0.05790672262820856, 0.08825548393301508, 0.20365088774744586, 0.13398266135186593, 0.13357632970979352, 0.10463412860589222, 0.12138457522184905, 0.077839573878386, 0.020088310336882832, 0.020587695957447777, -0.057483328875951985, 0.011965266295966639, -0.07791877071708785, -0.12027459651152674, -0.006748101734950211, -0.0626653745771886, -0.009182729378654782, -0.03495650257922635, 0.10100321741956982, 0.041598563621994, -0.05944650565150122, -0.0054894020010489404, 0.12484276576458933, 0.06388684847560021, 0.07660211377250498, 0.08351782251401556, 0.19193144166348083, 0.046017426548347944, 0.166208985332821, 0.20530705592820622, 0.3368464494512364, 0.18423011330217443, 0.1252024230330426, 0.04170568221395469, 0.018922051688626002, 0.02967569918817872, 0.11337031543986754, 0.05219305178263962, 0.08048732119613111, 0.01987175203194056, -0.026254623058949312, 0.03625904314521482, 0.024714986928741568, -0.01102696677806051, -0.07386085036519047, 0.06023483128648876, -0.013429600337524257, 0.04706524759710611, -0.002187196554041286, 0.05852363802208661, 0.07096004866159729, 0.15953949073623364, 0.04639599820858646, 0.09988597127201958, 0.15703892437902425, 0.10220513157206561, 0.06225772509193024, 0.17997381047409877, 0.27690885637401075, 0.00680670069898158, 0.08577881801613435, -0.07061987659317334, 0.009596699484361685, 0.11622097058848958, 0.0695608882516495, 0.06529613974825732, 0.15573290666993705, 0.16175038012352946, -0.01442202018641979, -0.019766964081992203, 0.020178694357567268, 0.07868621466096613, -0.04975386963291396, 0.002039284036821905, 0.010751521176023812, 0.0816978632537489, 0.1025009746215401, 0.10417703613842455, 0.05765111717584213, 0.04610455150998019, 0.0472810735948031, -0.0073661651545197816, 0.1092806386808226, 0.15792818316969046, 0.05624929390723862, 0.2154881278249277, 0.14951422591394392, -0.03102854240785909, -0.055820152404019045, 0.08671480659014179, 0.12359951750633924, 0.11682387116834982, 0.2908436912115336, 0.24862658174698854, 0.1639567168292618, 0.12765670710496604, 0.108181574817871, -0.028079387960759396, -0.033955476959386846, -0.010006440987141542, -0.02702320772525367, 0.05102798544082416, 0.038701654772896645, 0.07613546561684376, 0.06253646145217977, 0.0816487002322513, 0.13462130774420794, 0.05891329999191592, 0.07900507476346676, -0.08823907338515924, -0.11277921561822284, -0.13817137552545491, -0.18550668565145506, -0.0023450731929846955, 0.1481707082281499, -0.018095358033453145, 0.025573210938549498, 0.06470732403836212, 0.1680392697172742, 0.14195540971481432, 0.18036402302762675, 0.16687748235692076, 0.1947744334793456, 0.13432774585224103, 0.04828495489809009, -0.03959619554451597, -0.02732792067746019, 0.05530838544793927, 0.019657673952692717, -0.056302095976019276, -0.04490611792883555, 0.06377521883116727, 0.08939145471000826, 0.09175682260176357, -0.008172089140542592, -0.07241223362726616, -0.05006410847619901, -0.055323880319101154, -0.0658689582575247, -0.18887667607421993, -0.232483115120703, 0.017133992669487036, 0.07446315697473362, 0.011713906095253027, -0.015997761715421752, 0.03970872371370292, 0.02671401757051788, 0.12334197500424116, 0.13125877647013948, 0.07896576838434768, 0.021444017512826416, 0.11881662706228252, -0.019038092499911622, -0.03591284671967678, -0.04752935781707444, -0.012911370639817692, 0.08029682059037399, 0.03454648849740432, 0.038657487935924606, 0.023371223547532686, 0.08730443472074004, -0.09069451187624149, -0.06077175961672562, -0.03412096117776645, -0.06625978827882288, -0.15028780459321572, 0.03006896031389574, -0.04516460197314065, -0.061394291409468754, 0.01805028010087382, -0.0441659429624191, -0.030187650168996476, -0.033466975961065716, 0.06636722626784394, 0.06965091621178217, -0.0045507149293496935, 0.08381950810194554, 0.06513590952813703, -0.03154973235907931, -0.008777826446117406, 0.013059228568994745, 0.02685179552340209, 0.005821078390861466, 0.11517388527263384, -0.018215006449474803, 0.02577187049848966, 0.003115799970407804, -0.04864163657398244, -0.026100023642927916, -0.059109752885811676, -0.09222051111044414, -0.024777112116731007, 0.01442485463800056, -0.1349793768309587, 0.04176701371066909, -0.03424970474285101, 0.011805955979126455, 0.0337675797348936, -0.04180920524943421, 0.06574551789316185, -0.0642009507762428, 0.018664759442948188, 0.034745972990694644, 0.11190676708202046, 0.15211629685160286, 0.10644829391630961, 0.050202115671482694, 0.07361824148445954, 0.008956438223023108, 0.0004172899051028436, 0.005850960843976073, 0.05132888919869426, -0.04805430062577961, 0.0054148524776645975, -0.052861109794289825, -0.041025528458057334, 0.00804948548873696, -0.03209884271292543, 0.0029065913395010133, -0.05043591794312628, -0.0019207947481082995, 0.024797505679069694, 0.051060999783332166, 0.03579806072412295, 0.07326238808391507, -0.056723587673787976, -0.07625219494155902, -0.11235652043149176, -0.07475042728563046, 0.04184425996043819, 0.018016476830699794, -0.0987188722535946, -0.028641016641053348, -0.19372172286528785, -0.09538939716254331, -0.015768081199416698, -0.05499676677783904, -0.022539776704493312, -0.04987305052928833, -0.05408630658523447, -0.0016800810117919486, 0.03811388366614937, 0.047864192013658935, -0.067602213917839, -0.011600193356964387, -0.049673755468247975, -0.0675288017292474, -0.12865017548629473, 0.0928108403155273, 0.04675024613481508, 0.0396175202583762, 0.05777933196245376, 0.06701720670707469, -0.03464053261509523, -0.04300799482874612, -0.03750847624153109, -0.02314551839379496, -0.03061372592904286, -0.13498019541536038, -0.01243101816193688, -0.04844700841837423, -0.12057853980969191, -0.04745576653562843, -0.11136078322002793, -0.05031734771827626, -0.05923735538981304, 0.047066551971208404, -0.04926183842704099, 0.07548254620582374, -0.039907182208348664, 0.015199549714940091, -0.019352987695679013, -0.08612186531085937, -0.13614666779634496, -0.07467245154290249, 0.0686871187421127, -0.011798544793352333, 0.049978098138272094, 0.1364031109316707, 0.04768300229134706, -0.1350763227132946, -0.10090598750269215, 0.00044551808826716945, 0.028559553488868926, -0.08003567777996376, -0.021498608779592813, -0.04250263435444817, -0.03609747013088934, -0.10017875215487895, -0.1586566840567842, 0.004593592648191022, -0.1578563914211231, -0.08538948512986075, -0.09226030384723961, 0.0041884645863824906, 0.0752881099487644, 0.07279095263423069, 0.004058859094868795, -0.0019624716065340477, -0.01715527968731875, -0.11506834308458692, -0.06484243425614317, -0.032374216806658446, -0.030151851301883154, -0.009313741584576792, -0.04973662332800538, 0.033130973356477175, -0.06180151425507658, -0.011230506887730224, -0.15733831601516549, -0.01976542407842861, -0.10030900761437846, -0.03531772975371213, -0.07046207439360457, 0.014753663358703543, 0.018650567294508223, -0.014688002214325405, -0.1396010074393757, -0.08255202774902975, -0.00015798837882095997, -0.02300727514543431, 0.021098101840763047, 0.05093377448506374, -0.019415846888305593, -0.02338777111760018, -0.08563055255783107, -0.07769963983398599, -0.08682427936572516, 0.015263601629773964, -0.02017000333783761, 0.04025250459242418, -0.09900442827119467, 0.07147358002783898, -0.06118300204007936, -0.027020423057483443, -0.14758718270519028, -0.013758968901432054, 0.0749181918517612, -0.05498036677950474, -0.020289171234657035, -0.016890511461513987, -0.10090829160652916, -0.0969241045906779, -0.0015542359550668307, -0.09964962476557038, -0.1108657603848271, 0.019852076840352898, -0.08882886520799169, -0.034235843851088854, -0.0016477252442183518, 0.014210521939345622, -0.0643643515686264, 0.08897488943348902, 0.013393510738770001, -0.02663239738266064, -0.03952196108987305, -0.007611971843656408, -0.014179497353757772, -0.015090594179016507, 0.16500809458419205, -0.08538041092505738, -0.04762782002520542, -0.0013535532053285347, -0.041005220031260746, 0.04700277565589178, -0.04463220665548563, 0.01807263573602968, -0.05245082827871465, -0.06840229323796067, -0.1454331465167218, -0.10668900204150446, -0.15568892195416859, -0.17896948759961195, -0.03378666923157952, -0.11161835625569523, 0.01938679367729199, 0.02643505211501266, -0.032678285207247956, -0.04800445204233922, 0.03862605272727111, 0.10630343578893311, -0.009749453321757707, -0.061673599403914765, -0.0837457220120732, 0.016993120677660834, 0.06282393407442703, -0.029293251649280625, 0.06120275367162566, 0.0330246195602578, 0.009756184589300148, 0.014823979061728446, 0.03462406009162735, 0.03792386765903456, 0.03317116266872564, -0.00911835622422597, -0.047171019174868344, -0.0677838216635691, -0.022397625008083646, -0.26269111777321436, -0.2093178074973508, -0.06184447411012822, -0.15330091846881944, -0.005986525043155337, -0.015515220670896418, -0.025801673501947082, 0.15538950335986795, -0.0009133675271463671, 0.007431900221444564, 0.04414634882402248, -0.013100182742595355, -0.02508255009292659, 0.03442555760726959, -0.018063392887242357, -0.10256468461228113, -0.04977543168910419, 0.012643879950116317, 0.03430143040363347, -0.048584721690962805, 0.05618598463430707, 0.1002968734248714, -0.016337384628376576, -0.013636827822245696, -0.0028402553619037724, -0.0235304403027282, -0.07898010356372008, -0.004659240135502424, -0.03983894950751526, -0.08870762303770433, -0.07341130757590691, -0.06496001336291032, 0.014228372297905273, 0.035718937455478564, 0.07594956492259726, -0.009894280793575919, -0.09087935703312103, -0.001205135896067523, -0.030531674838491233, -0.0031717560129582213, -0.006586552479225737, -0.01649193883181651, 0.026057803936177223, 0.045137585362026326, 0.14314042343507535, 0.08303493082163424, 0.07045527029125243, 0.05002800397951055, 0.023170541920129573, -0.02927637686631408, -0.0038397824851996148, -0.021930161654422572, -0.04747600539498101, 0.07891120112022021, 0.13039848790586128, 0.010673706013492762, -0.007658965264762422, -0.06727125400366692, 0.05132447520923958, 0.0826791877030753, 0.058840451857198765, 0.06753240697490676, -0.02055201500574625, 0.04916804799690733, -0.004986276043585209, 0.10241765410583974, 0.08995534786799034, -0.016972935905126333, -0.09417636127328498, -0.05114604365169786, -0.02300475123903891, 0.057090888807698345, 0.14297531993203552, 0.07682490227510648, 0.08987794431050168, 0.18995332023745315, 0.0496559762419139, 0.180353381781879, 0.11928241933052326, 0.10732038552345946, 0.12797715715174487, 0.04058713585164661, 0.20021501997865254, 0.14763205084019637, 0.1789095442776432, 0.13001637765021834, 0.2140466503594284, 0.1523673520887476, 0.01355149079380462, 0.02048318687173093, 0.0018630461482508655, 0.003616793675711849, 0.03769187423183875, -0.0390410841900629, 0.019021035320912122, 0.07873699797813422, 0.01861474937337527, 0.025718832784612483, 0.04600694676629708, 0.025579843391007575, 0.03326151370802431, 0.11134047136808757, 0.03627368882175951, 0.13663353671013753, 0.13408479325421374, 0.24037512381224974, 0.12858704264748777, 0.16417311972178675, 0.2828868632794513, 0.12085511586445942, 0.15660452515667522, 0.1390827196480538, 0.19015965886757144, 0.05170072420997649, 0.052861975128207096, 0.03386128880968446, -0.06379021978134673, -0.0005526880297638176, -0.08138217442771589, 0.01155574037473236, 0.06482662116612674, -0.01875120427066079, -0.06024641580738766, -0.011752470022044484, -0.04445626593682046, 0.024771732790358637, -0.011962743844110958, 0.03478749772102234, -0.012234035939558524, -0.01609494877864958, -0.03538992149597031, 0.05486113575444943, 0.011030175583759218, 0.03372104561637691, -0.009157679594669404, -0.11583929507989225, 0.056236826111446495, -0.0632249648279243, -0.012842431369395753, 0.003797760676762584, 0.042098655401919184, -0.07152806011952995, -0.04811188180038138, -0.010137816462336099, 0.0777086273463283, -0.0032623304582493668, 0.059685456436835385, -0.02981223605062692, -0.04546572797043563, -0.049767087386653724], [-0.058196932498655984, -0.009790604447746296, 0.014058589440181431, -0.025441094455814987, 0.07733583239399501, -0.09969159096051022, 0.0022968775109193065, -0.08236925709606979, 0.015143348943007482, -0.12205122896361414, -0.023694785705078613, -0.05437996952887699, -0.061815612373796305, 0.09747393856128066, 0.02436578946650114, 0.08105126436869196, 0.019815126655888946, 0.09922223801618268, -0.01881716676560986, 0.038364229575256176, -0.02368376295841135, 0.028879291877080833, -0.09306195838592399, -0.019977309631616855, -0.03241838637220292, -0.03139342510008589, 0.06565587092993579, 0.09646324423760362, 0.0016259448347882791, 0.06492623816947303, -0.017721628148468976, -0.040287598339626834, 0.025840475822360695, 0.06479010922236589, -0.08255212602001522, 0.04159171650562059, 0.05864303893916863, 0.13980017759230653, 0.011103827494312848, 0.05011210967015897, -0.061000950063596654, 0.04106092678864981, -0.025602802509320215, 0.005987397157942463, 0.02822203748037958, -0.009261606786768194, -0.10335663388275526, -0.06772520850491848, 0.006091792085802487, -0.006442475991834952, -0.05027664497359381, 0.02474441306815699, 0.00620472323810567, -0.04806640197048648, 0.031384055465772255, -0.010883445621792625, -0.029277692670934993, -0.002736411666268669, -0.04101316720459744, -0.10294843694791973, 0.00787381684779261, -0.08512419365680536, -0.011817253603501606, -0.1184685868013938, 0.009313257618419443, 0.007456355097425602, -0.031039267400044875, -0.02023623272730677, -0.009323386458962132, -0.09511869022084728, 0.07149947165142297, -0.03136957307580785, 0.017250069548869953, 0.050038131429486765, -0.08324449960272787, -0.03126145165976181, -0.04875848413047968, 0.06684191732036449, -0.030987261384873923, -0.02667060458919115, -0.005068557249147044, -0.014771558764366303, 0.07058330189453611, 0.003534866706889706, -0.015102786660838884, -0.12229522161455554, 0.11783451597692453, 0.17799982823199317, -0.07975236079861713, -0.03127992495160943, -0.03220087409885541, -0.040429330439169464, -0.10503796382076869, -0.054906237358584895, 0.06169565424059867, 0.17544606146128353, 0.012850700034659851, 0.03342572620373008, 0.003256710697140882, 0.036463275733468636, 0.033146542489600216, -0.05246508067077425, -0.03393208838776072, -0.020270101701649855, 0.05604335739163874, -0.07640510200684507, 0.0024900967586882036, -0.06700142563171227, 0.08493439650555927, -0.05764118191006662, 0.08967977765545224, -0.0051165366185407166, -0.02756021505901353, 0.109128310911344, 0.01131278021234708, 0.11074408803372934, 0.03990185821808748, 0.026730052374998915, 0.10475706463036576, 0.05467559164419516, -0.03400964471946701, 0.04395115904181859, 0.039841868677031725, 0.18774060441984755, 0.00927707824087081, 0.10651791004677766, 0.0345078954993399, 0.036754660356961864, 0.06539560890950305, 0.17591085873377774, 0.053596985582768986, -0.030168885366719623, -0.016409389331986088, -0.049542662541953886, -0.058006455510651964, -0.05809675155765272, 0.041701965167045975, 0.023680251090576324, 0.04092198339094646, -0.04282421865262648, 0.03067553324865222, -0.01338958216495977, -0.049056158183973644, 0.014807704804320755, -0.005543884562067941, 0.047233129175470366, 0.02314606900830708, -0.027802573833813488, 0.062138046852392374, -0.04460659765283501, 0.13577067287414207, 0.10503666665499943, 0.12248872492613336, 0.08469511256323595, 0.026654517022469727, 0.08001886379294224, 0.08022170266461434, 0.10984511673446187, 0.12609461124751675, 0.12359786836665834, 0.08821672935858266, 0.01485042936193326, 0.10676122325355289, -0.0207253198586554, 0.026820594930699458, 0.04373714021349687, -0.02252565687031205, 0.006464220365818974, 0.036627081334859625, 0.10128165146761932, -0.011277470715089102, 0.08299430734732408, 0.04544489985179205, -0.0018269710831669602, 0.00019523492943051865, -0.01185080759102793, 0.06113390750486063, -0.005932413911785535, -0.0144015406456229, 0.043665447852471714, 0.008500034778827834, 0.15315389171577404, 0.17437949669607933, 0.21118746051919152, 0.19971276403168217, 0.1915983120103554, 0.12365559382671613, 0.09548470150453928, 0.0836425540168434, 0.021151039486327166, 0.08607471107897603, -0.011541921403443083, -0.08039763063663596, 0.05020844246980958, 0.08861534145259452, 0.023167675412720988, -0.0563956367085795, 0.04731397911053303, 0.02919299544462537, 0.05565399653658768, 0.033047159174438685, 0.036573220389404616, 0.04493906003220704, -0.10443007485423328, 0.10832797583080996, 0.0235856998386767, 0.03664113585653825, -0.08061143937182341, 0.043747360137366145, 0.13946461830619122, 0.14652305848063069, 0.1639837752568322, 0.1823870201719344, 0.11870982245802357, 0.05565861689203406, 0.01229553065334705, 0.0027438750562256823, 0.029821718790278947, -0.0739191461017016, -0.0499070012427037, 0.0398095284330757, 0.009695069020139172, -0.035331793979249446, -0.06876002243029555, -0.02986443336829934, -0.09812859852512644, -0.025098754569039317, 0.009308169136339639, 0.07588276992825983, 0.10910164297239722, -0.034522934393677256, 0.018116537907482088, 0.07652834197932162, 0.053390088228992175, 0.03257867543378553, -0.013399970557366641, -0.051702843742349826, 0.04507091341592066, 0.020118309584591904, -0.03502935666086971, 0.007755059569591117, -0.06315785948339095, 0.019456254950447605, 0.056340745217157165, -0.05118838905597917, -0.03400881850103345, 0.09219901395647291, -0.03560142070746447, -0.004845261725424903, -0.015393048400229831, 0.019076074684930482, 0.017110910840927872, 0.014426218531445921, -0.032152332045192876, 0.13918647516830904, -0.023805319451805588, 0.03591906918441557, 0.02241415012502967, 0.05990643725975524, 0.09014450637415602, 0.10220243520217052, 0.04215336466649248, -0.025806824882856925, -0.022266842629069708, -0.012882136884555013, 0.008320306754026391, -0.0989466305054267, -0.13777168496379016, -0.02742596021798486, -0.05117880223451833, -0.06923283136719308, -0.04695662849223669, 0.07758334101616438, 0.02550017248502712, 0.11827148867903012, 0.1146184364370436, 0.19262730542459142, 0.04732415700537505, -0.0052565552169614406, -0.005647655008217488, -0.031940817775156755, -0.018213650715301444, -0.04530793793721032, 0.04614309877706561, -0.05775715956084656, -0.006980020676183517, -0.02798291423127864, 0.05415145115948458, -0.00515019254361102, -0.00943583233822348, -0.08789238569961469, -0.03845289897866017, -0.045495756552126954, -0.09760182958344363, -0.08514413500946977, -0.17599191914007067, -0.011641252348182867, 0.0508233429966115, 0.10292268425423329, -0.054059193808453705, -0.04723206590830189, 0.0019226770548775912, 0.04701322813917805, 0.03310110839711982, 0.06582526324487854, -0.04868183188143559, 0.013434099345328911, -0.025592636487598557, -0.10772860546659571, 0.023124857445960868, 0.02127987227298233, -0.016036608156113335, 0.01232422042321087, -0.02132837892099828, 0.0028647445524337153, -0.023158333225632148, 0.06333660875512363, -0.0059424826600465, 0.06806952979036214, 0.03666308319332336, -0.02288149477056881, 0.09093373759604596, -0.03230350741733335, -0.1594758563565693, -0.0704778326593423, -0.024800096138415124, 0.03988395078947395, -0.0001285972122654568, -0.03690543303758314, -0.007954454087423304, 0.009460594275285927, 0.03234468583507694, 0.01385932519295926, -0.046699013250203404, 0.09665098249596826, -0.07120332561591991, 0.009269203443321146, 0.06425896784731511, 0.011912497060050892, -0.0029075377379692404, -0.15374665346883842, -0.057267196593534984, -0.17899294918774647, -0.04341448208319796, -0.088227451127086, 0.038754685916606205, 0.0934535330013668, 0.06285419444441968, 0.10781671689979688, 0.14927927129835306, 0.13717676865776113, 0.08065884878859046, -0.04731145442685989, -0.000520374185530461, 0.09004328426412803, -0.016458305180430257, -0.16714325492999313, -0.09951144365326406, -0.05405205349967071, -0.03317226151487991, -0.06249231502565857, 0.01998436784867999, 0.08367001542731621, -0.06619042220877153, 0.011057115454507764, 0.03285006561847019, -0.05875918525077207, -0.06868622941044053, 0.013048866455260134, -0.07778801494711536, -0.07717924895168854, -0.05135506359825735, -0.04865790682727589, 0.11052159798177752, 0.053230521626529324, -0.01183708135700073, 0.037016729933897534, 0.17571033448092163, 0.05349292847422648, -0.046877788571785636, -0.03870028613787098, -0.06076594830650569, -0.02153222367284613, -0.12982681425020384, -0.11249184936242504, -0.03681207050159127, -0.07678758791471663, -0.032845591658795505, -0.050121930551815706, 0.013512706782238107, 0.005291388839267603, 0.03376695740025346, 0.07708766571452992, -0.015496389402600282, -0.026592230376123707, 0.0023756330925371123, -0.01845630131188409, -0.05834971366527533, -0.06187594808240731, -0.005517553469308916, -0.07836708653638004, 0.003939253841424181, -0.1448448532158798, -0.07119742339029972, -0.013480460452783552, -0.09969147611910377, -0.007296388840813243, -0.05268698302763761, -0.04934871436950164, 0.03394495957949791, -0.10172605252447002, -0.11994270195986835, -0.029578474731730687, -0.033601525337188215, -0.07780116673819928, 0.013146961276093102, 0.018489423618475512, 0.09020992665036846, -0.12347261890454456, -0.015159662979520608, -0.01346211581842298, -0.01183723746090585, -0.027572642830636148, -0.0006411955996693141, 0.0605798812966538, -0.08401570000941203, -0.07124207194240352, -0.07346744801695944, -0.08226238233095948, -0.03954467841834214, -0.0778070697068889, 0.04726359994488857, 0.02178181159779038, 0.046643487434375894, 0.0035546376933013155, -0.017256421556383437, -0.048841339217875986, -0.08338135372527215, -0.046877348878913094, 0.021793129004980896, 0.047256981357410785, 0.04070351806565752, -0.07405002522162027, 0.04321637633671766, 0.07559866822753736, -0.003373608733035703, -0.07733364813290673, -0.01660318788632735, 0.027506860551193838, 0.08622935752058568, -0.03945805403820446, 0.10015499623775374, 0.06439439562380331, -0.027954825921340277, -0.09235158481163493, -0.27360626174470765, -0.21421755042693927, -0.15111452717217405, -0.053779631402627495, 0.012014632619023491, -0.017899509959812904, -0.016975049749438382, -0.02255368526828099, -0.1324319791555324, -0.1136475590767008, 0.0021053845118767234, 0.04907004903247006, -0.021436460669856532, 0.09151001856940165, 0.09033073514992221, 0.09854220534739994, 0.09793768549784804, 0.027671788941934932, -0.09003789792855871, -0.03613213924783149, 0.00416006939968324, -0.01600279637357907, -0.008648211689793189, -0.13142425107848815, 0.08952576700001709, -0.04897203872037968, -0.07617044454336624, 0.023834743226850027, -0.1294088287944634, -0.2112265508964878, -0.1902439190275394, -0.11159362391032723, -0.005823675989559615, 0.004266697326430108, -0.18247679200105288, -0.2099447450144375, -0.07803341746268573, -0.11928163382729816, -0.008254965858237892, 0.04748464011791256, 0.13784142744307953, 0.08167149821975053, 0.1176856737911648, 0.03719907612863456, 0.0017786027482969344, 0.014689799044125589, -0.005310941711276121, -0.046125022008074966, 0.004909613553477911, 0.05594986775256054, -0.037381103513817564, -0.020623691693808177, -0.008084747941485332, 0.05668046247722607, 0.05662434310514205, -0.10520999448277234, -0.018308751987807455, -0.10195030022503834, -0.1001852331707488, -0.1384045584885951, -0.17301096092307802, -0.3280178167203685, -0.30449820577954134, -0.3802525393882994, -0.14732288749787242, 0.018764744841037653, 0.04860912341888557, 0.08741936705639024, 0.15892387365564578, 0.03212960422601386, 0.11262704953995169, 0.11226356454310174, 0.02275461702552788, -0.005654584360211277, 0.015670313662554163, -0.024773665088017937, -0.03949533845569993, 0.053862757200233466, 0.01011592242536588, -0.0073518351381075715, 0.05767086460908338, 0.07689416889853119, 0.05451999326231491, 0.005091725034356473, -0.020544423624028727, 0.046384444597794776, -0.11700461172695821, -0.05881351757264907, -0.07691681745391353, -0.1876946375518008, -0.17063981742050843, -0.1474482646466316, -0.07577248101622565, -0.057022598776516754, 0.05298120731533138, 0.029272198966230234, 0.05987350651596006, 0.08081608888249017, 0.0051432500368286446, 0.11123666955240386, 0.06937764716359646, -0.12515747765544794, -0.015163116111742621, 0.026803524728460586, 0.011482798032852348, -0.024630583935627275, 0.031191527979301227, -0.018451268863480585, 0.0339184580964491, -0.055384113523209245, 0.24001794693910247, 0.0650596986399057, 0.05311419132809751, 0.0696507986472342, 0.0376483320664919, -0.043008107799039554, 0.04891080057836999, 0.020087351787042105, -0.04803661628807652, -0.03410878439714189, -0.03563405472064926, 0.0580321411125292, 0.12230220598584417, 0.09571704731822929, 0.01807936774418056, 0.09981699882505898, 0.09740213800650706, 0.028290554240655366, -0.004453964025528795, -0.006425983397367579, -0.051699211592360086, -0.049091191423748674, 0.03430827500436517, 0.03966318062264224, 0.002655574505706713, 0.002638929900195834, 0.019237882707991087, 0.05224324608041603, 0.07403184115142682, -0.025670986754958193, 0.05047749085468565, 0.05866246791455652, 0.1266920654267325, -0.0008704784114430031, 0.0492663016923825, 0.1453628269451059, 0.03492249133604534, 0.1025807590660283, 0.1420673355093936, 0.08984468820245725, 0.023187464282803733, -0.04067420249317997, -0.05425978314723126, 0.08395341783249394, -0.023705581540746506, 0.023802015390685594, -0.009370824462720759, -0.09832729486060501, -0.057955163580023214, -0.0038789104459683193, -0.06380656833052549, -0.07840725842582229, -0.051939051972914395, 0.10277224051289988, 0.005099993161763187, 0.01579497657981173, -0.0014643579351318644, 0.07132485501859927, 0.038451524519395194, 0.08084830203066964, 0.08218342753126909, 0.14829312222880883, 0.18825342672376374, 0.2885311108082047, 0.24280938669932015, 0.20879224830169638, 0.2069299359303295, 0.15992846982987466, 0.1443162915848931, 0.13730962031254207, 0.039576733627358356, -0.0766038777944136, -0.06671869089453357, 0.07398131127015227, -0.03158101196516888, 0.10005124272933281, 0.022764857332279387, -0.06803609882576374, -0.026162703623814416, 0.029801699467995883, 0.01577088198692979, 0.016483283161978415, 0.029287681287160295, 0.022101806539224472, 0.020057478619225973, -0.019037747039116433, 0.1186636579795184, 0.18449666853294125, 0.14834107898201487, 0.21683314979890242, 0.29087307352837904, 0.16836987286873129, 0.2217341958762665, 0.18056330199913628, 0.20033701019144598, 0.11277099058622259, 0.07043119578506431, 0.03388616517596454, 