{"layersSizes": [784, 32, 10], "layers": [{"weights": [[0.05118209073122641, 0.04125117497470976, 0.04722832902549837, 0.05165471998377739, -0.02801578264718308, 0.024702910040398717, -0.01937686988306983, 0.06655322637965631, 0.010578763327946045, -0.015285775262676226, 0.0022685771489949743, 0.006894736475146346, -0.07644116323756447, -0.044286081744236344, 0.09574415384460566, 0.06145817070534598, 0.029664827188579407, 0.020229822942539926, -0.04683694855492649, -0.024352984968622704, -0.04394980841485329, 0.004405931599526807, -0.008145703439224404, 0.057694592366611, 0.03955707623997083, 0.07161231220035431, -2.2262019453412396e-05, -0.014868148442959427, -0.07437504616824266, -0.0264128338586708, -0.02041142647438689, -0.008937888135037712, 0.05373308389449153, -0.00824611600130294, 0.005728509682050906, 0.0034230688201096655, -0.007584284402463168, -0.01289823855169501, -0.06012726993048748, -0.025831789333609915, -0.10777434344006072, -0.05412967687563641, -0.04854010252255454, -0.020136902058164846, -0.041203510656907305, -0.03531710819397159, 0.05701757837984688, -0.026986914343850817, 0.08785230664854846, 0.0022924102426904436, -0.0537484599336304, 0.09240773527178736, -0.1166332507185384, -0.020247227183148087, -0.10105847320892265, -0.07806578365735715, 0.01579126235274697, -0.08957751977861257, 0.11718917411468961, 0.055985132421400706, -0.09688525121967063, 0.008517214226224411, -0.06510442349420013, 0.014820065983298245, -0.060509170427294444, -0.008125841190501151, -0.06267128259340629, -0.049858917001028694, 0.004139007838444608, -0.0038244605346423413, -0.05930385394379953, 0.044245756590099626, 0.024095449052423685, -0.11735903169764252, 0.13030413068825464, 0.012643728178257022, -0.01228730388197373, 0.0449781137008848, 0.0680382748028428, -0.012269510831645253, 0.06407652131923748, -0.02407227919898725, -0.0581254020299154, 0.020509905952399515, -0.03517415000208771, 0.038596927143877996, 0.013591936253343812, -0.055596064471058984, -0.0803644760093653, -0.02063521653720033, 0.019094664668885358, -0.06438457160011632, -0.04935457839077244, -0.054980550735128704, -0.11378063661541027, -0.046634070110114, -0.09238853768293812, -0.08014024606678963, 0.03953100191027687, -0.027505469007449292, -0.0009510718121799093, 0.05237926801829952, 0.0320259391388861, 0.010679627694735395, 0.002944643237477614, 0.06840268137397855, 0.10016336555829775, -0.045546059237916325, 0.01297318841502256, 0.03747067818375253, 0.04753186280746692, 0.010421391843859892, -0.11086951230420335, 0.002454459359509197, 0.03493053980119784, -0.0027101252150923284, -0.13733019092756987, -0.022979762479367498, -0.08015953283392209, -0.020847290065803194, -0.045783349716510505, -0.1283214366214799, -0.06562411391481257, -0.12555381137148475, -0.09701589659227867, -0.07222381754977025, -0.0495852207922302, -0.08847952259549714, 0.053009044290775145, 0.14018501295531707, 0.07787107489371069, 0.07234294406871185, 0.061960123369804394, -0.022225719641746584, 0.005360557973630087, 0.0837300397557523, -0.016499694885369766, 0.05644441002585553, 0.034508907354059384, 0.025076940456915765, 0.030890859425522103, 0.0019463268599334955, 0.0158185841241022, -0.048463796048907784, 0.10306542179258403, -0.10550219765801411, -0.003441745412596596, -0.08474634718344064, -0.06048894023516842, -0.10536668718500969, -0.2036177327420876, -0.08268572297876813, -0.10913851155344724, 0.09016326034965519, 0.07186068329685637, 0.07917045225663728, 0.03698618057359099, 0.07812657599317524, -0.07027123167145063, -0.015503045774932228, 0.1312618699823109, 0.019754196379435054, 0.07372969637756197, -0.02573590999924317, 0.07176238626011748, 0.06424125441723581, -0.00968368068068012, 0.007631256653002772, -0.03601160529345991, -0.07809511924277347, 0.0011581548527516956, -0.06120255070756162, -0.06088286072300022, -0.1281720476068725, -0.06782383604883714, -0.022727564398173798, -0.14222056158937232, -0.0852150112077469, -0.08067710824919767, -0.15365934171911735, 0.0003343852063438996, 0.057640100435099095, -0.012882525086009235, 0.052864616971839175, 0.15027055606111808, 0.09797445593419261, 0.047112781004272915, 0.15631387758524456, 0.038885171133639825, -0.043894213997549544, 0.04837638844046878, 0.054563215294956426, 0.032063520869079445, 0.0015438940226045787, 0.018229060656337236, -0.12405258106681574, 0.05271950357820383, -0.03880026862653364, 0.022894208738908985, -0.13996306864785404, 0.06397418378745362, -0.016658943139972265, -0.008242791567924027, -0.13827645282689985, -0.10397056614619003, -0.12513088946450754, -0.17204938717728516, -0.04141579056831434, 0.016823255093048876, 0.09970135648224246, -0.0005567666016907244, 0.00931967207213839, 0.051282122768304544, 0.1169245582595806, 0.038445916460508565, 0.014869581906189458, 0.16593539489880185, 0.032733072611258754, 0.0447177915162546, -0.01548194966927479, -0.01606299251392182, -0.014814511414763977, 0.024476448976775724, 0.06356928432437994, -0.06369152071560782, -0.03796240621024512, -0.003428167781756707, -0.055522476252138256, -0.006081931276545609, -0.13009528776551443, 0.015065411623404594, -0.1398173772244448, -0.14149932144400493, -0.2648484927156588, -0.14016125313821756, -0.12190604014562022, -0.006347162858321884, -0.0029587284832256876, 0.13252714831235915, 0.07779903711957176, 0.14381556055358027, -0.07645715869121837, 0.038542920742942945, 0.0459014321006436, -0.022116619918118245, 0.016495070833512534, 0.07076736037097348, -0.03027345322289981, -0.02217064394062383, 0.019300444398845432, -0.042944485842087134, -0.009467468230098289, -0.02138012448509805, -0.027060338558991513, -0.05442730961424611, 0.03475962118806472, -0.05672218357399174, -0.08383763372562135, -0.06980441598130241, -0.07331586524463107, -0.12637903563210082, -0.24143834726903748, -0.15929856329480369, -0.13911083286362874, 0.09659633584608203, 0.10416579022794113, -0.021871200968099552, 0.11495909133504836, -0.058759325219140866, 0.06507463589563302, 0.02505780875391094, -0.019651224739775965, -0.044009507515672015, 0.04970990267147056, -0.09876163053482442, -0.057123156032385575, -0.0015265073074265218, -0.07078841985115522, 0.015089686675353675, 0.013252192909783559, 0.019141045778029105, -0.0762658947777071, 0.03690337471199009, -0.1123604022339358, -0.03960224040906882, -0.0780605994928006, -0.02122462546360559, -0.14207699194772413, -0.21741514770015616, -0.23359442565741417, -0.11903852636879315, 0.0585853495494907, 0.09994652492610671, 0.07301912431193326, -0.04440029176568643, -0.014027090767546166, 0.09016090407729248, 0.049583343750673095, 0.052433515289712164, 0.008877822900507638, -0.06141266521387258, -0.08144408028650386, 0.02859863186806275, 0.04088853926843998, -0.012782104523727007, 0.06399011213359446, -0.02723159996153729, -0.0036764330526020106, -0.04329600374897234, -0.030652760686485727, -0.042971903169546584, -0.025897968661417893, -0.055314500214053666, 0.012537793363495442, -0.12554441327591068, -0.0737560525428216, -0.14877522452911018, -0.242816588678352, -0.1592171829810559, 0.09225800394985607, 0.22115116232559812, 0.060249026809035926, -0.08797338442460345, -0.08047180024031113, 0.07473553043296328, 0.024545766849165502, -0.08055332138765542, -0.007179310466924189, -0.06930639661973127, -0.0003096574261646771, -0.07339152687509053, -0.06714672393143233, -0.002354161583853642, -0.01917898597099036, -0.020053447695200753, -0.03034520137218851, -0.11218727996222687, -0.14358050286868046, 0.04849990023641167, 0.02239505027437646, -0.027446424516672584, -0.05805690212844303, -0.05986446396092708, -0.07223499725678946, -0.14870513048100054, -0.16134548911484273, 0.022443729378323223, 0.13218432307678182, 0.1366379308879867, 0.0843250093351702, -0.060088459633047486, -0.1624031997508657, 0.061424282599476326, -0.0075013971070220275, -0.09001968899990352, -0.0007860610847501585, -0.08733293149408759, 0.017781140507822805, -0.10035757309346402, 0.014920589955190659, 0.0002648435298650806, -0.03364046147391119, 0.017037684774746768, 0.055780931308202525, -0.0944085636302169, -0.019100801153984142, -0.06635111254638347, -0.020805965280777737, -0.020832461031811585, -0.05294969587586786, -0.16321890911325573, -0.19856560834178472, -0.255097319405426, -0.15699039187540692, -0.03797814533105493, 0.20905096756193162, 0.26762571319035594, 0.10505225241257224, 0.01142040396319054, -0.07154702121022907, 0.07222842237239592, 0.07904269094056324, 0.06753821870903894, 0.0007344038084238625, -0.033942236096171634, -0.04228400690101815, -0.061540735077015386, -0.05244990051444389, 0.00629934883591502, 0.03127614327524654, 0.017720332645739467, 0.09896540459593502, 0.04283977026838132, -0.0657236773448703, -0.06755366569772625, -0.07098977495985444, -0.05879010834984713, -0.09311315176234518, -0.07899665970882436, -0.13134044902436354, -0.24936320545027027, -0.12119772256540694, 0.1645646569951862, 0.18094698149128435, 0.21987971524007852, 0.1802726386908176, -0.008341741576341892, -0.01043172438229032, 0.0696636230559616, 0.005358984830059164, 0.057824910424299006, 0.02775012881506761, -0.03344737696701174, -0.110132954025569, -0.10028611925293596, -0.04736255365400256, -0.03923576426682845, 0.12986879136681687, -0.01139210501623345, -0.060863954250728124, 0.01991128923221001, -0.019254630627184167, -0.01074659188686129, -0.08148794954579887, -0.03909569545336668, -0.11208251810372795, -0.08767287598421063, -0.11537376763910082, -0.2025964119873285, -0.1552418752036737, 0.09386428661575089, 0.18870343356270122, 0.26176118320306563, 0.17487643776856873, -0.03437576083707636, -0.05332685814877388, 0.042249314278092524, 0.01243960975717577, 0.030902733160582764, -0.01673976885306016, -0.0025016585515231092, 0.0013900312148501166, -0.03828241359764083, -0.030955573512572943, -0.036036338760120086, -0.015109102346212688, 0.021563532051825443, -0.026134048000489938, -0.010949948283939769, 0.04791425087689547, -0.09056594548335097, -0.07873076367326813, -0.03502767605014678, -0.15662393839948943, -0.1624683107068192, -0.1476586713575471, -0.2714415400966814, -0.1480592754119884, 0.003416656820656662, 0.1460730244889897, 0.19910353569725645, 0.09824568067886585, 0.005828309930820333, 0.12358863101446696, 0.060153487716333685, 0.06465863482793052, 0.02996198114666876, 0.003622126515709456, 0.028148025538079206, -0.007396774234881905, -0.01331218211357019, -0.047340746615143287, -0.058905129466069815, -0.1516658829020614, 0.12137905781474372, 0.10956087095845747, -0.058000973721372716, 0.04248238734549884, 0.07659003905826899, -0.06374641947292743, 0.003385067071043096, -0.09507623485745592, -0.05898690741763302, -0.19472916238789126, -0.08400192309252762, -0.07498892622414711, 0.06421090350874015, 0.05585613118332516, 0.05744643130448068, 0.07045309646168078, -0.004375769216712699, 0.06114786559452024, 0.051985998360765326, 0.06026967812098099, 0.14121447616053767, 0.07660895384452378, -0.06506265549396832, -0.08281476545751752, 0.11377642141492868, -0.025153423342374193, 0.037804124405685265, -0.037834046792813415, -0.003717928377774437, -0.05462273784761218, 0.01945689827070022, 0.030857816975051067, -0.008158061104812077, 0.014675369263943826, -0.1763382520104226, 0.010646028307241092, -0.08807641291912324, -0.13361807698805994, -0.062346413605514066, -0.08741911860360914, -0.00421560774009853, 0.06505554709482184, 0.06415045048078355, -0.0739677828155603, -0.009709280721377068, 0.06012842579715424, 0.056851833327636846, -0.006526784433681277, 0.043473429488694766, 0.13558412556778926, -0.0632799436399969, -0.0602911493262471, -0.03835147123319091, -0.04348343980909019, 0.03331638876174736, -0.006556803706436306, 0.02285623002585763, -0.04477248358871968, 0.11295346469002633, 0.04318264029156751, -0.09232148042505989, -0.07391013899271233, -0.024563495326195513, -0.24376658544387778, -0.13819266335106203, -0.1586793482197425, -0.08506333177179046, -0.0799444960003968, -0.0452145498287615, -0.047250793680907024, 0.0354447861130792, -0.020774785235484906, -0.01611798604659792, 0.05065478317291637, 0.07056524289104853, 0.005403022862346596, -0.005322802576824773, 0.06365619344293304, 0.13545611627305076, 0.08257260842561949, -0.07203768720317091, 0.006394686216576121, 0.05541863388799811, -0.046435609718976895, -0.028714056048688662, 0.07491685760820603, -0.005801810996258264, 0.053820699815192094, -0.00323129401635059, -0.08763221444612863, -0.010992641205103924, -0.03477755976878454, -0.09651650320690601, -0.05082539216829001, -0.09332353645432324, -0.02685748495105426, -0.01844922056496212, -0.04536312778565698, -0.021948612722641397, 0.04618950973670512, -0.1325356773799673, -0.04962717546680706, 0.05329209361173144, 0.10892699849910073, 0.011497181242370723, -0.04090597732638802, 0.039680185925984095, 0.03110154119029054, -0.04426669162102984, -0.025114937293154053, 0.030013579877287224, -0.017608123223192173, 0.021780020147680233, 0.001242151658473649, -0.03997856581482671, 8.279973859147225e-05, 0.053863313276262426, -0.09085567873040112, -0.1466433093264818, -0.053217336979832955, -0.1463752544719082, -0.18692460384848494, -0.009297153608311452, -0.01882609200246925, -0.030679162422845577, 0.02388452528273301, 0.06330268039728335, 0.04224729469288409, 0.06023523137654312, -0.007322055506548985, 0.04496519160367128, -0.03278027888845517, 0.055725531884606314, -0.015407210079283602, 0.029132343712711856, -0.06183783778485916, 0.014837995532242505, -0.08983789828240257, -0.0017626499989488256, 0.019621610986058916, -0.03484721674682424, -0.12733576686509365, -0.045797085609410385, -0.07940190310963477, 0.05710514608292515, -0.0010213506921964584, -0.06269435376741953, -0.1099715538892075, -0.05546445079385909, -0.06078870344578034, 0.026134456806035235, 0.003239910736270091, 0.00039470283559066716, 0.016820078251823165, 0.034377143269118476, 0.08227590193110343, 0.13260116840977781, -0.04080477240557045, 0.03752213379648246, 0.011333582025304673, 0.08396269313765349, 0.011328735650685332, 0.017492887974418597, 0.002732796983375909, 0.1151454523549273, -0.04113926045012402, 0.016816224982371543, 0.0794218094342493, -0.0017412199713600467, 0.010616452646772367, -0.07905312361354125, -0.036869652239679924, 0.04118935910735333, -0.018048002570467705, -0.12018617772608176, -0.08073687040526914, -0.030553078009998, -0.14343780945885692, -0.048832515497461676, -0.07151963734159279, 0.04729223725178272, 0.035860305976223326, 0.06052811875393572, 0.03877657337818404, 0.097568825894755, -0.018771285210773304, 0.11266083597813269, 0.16368114887064064, 0.019208161861922583, 0.02967408864489547, 0.008785549639777087, 0.0016328637344925165, -0.00859856476493202, 0.005212377642921245, 0.059821173516899216, 0.07199219955144799, -0.11904862807484336, -0.01223662050379113, -0.005482511035150774, -0.03597436215231383, 0.0004173741069232176, -0.05600696469539254, -0.09257439238508772, -0.04312615915924573, -0.06801602803948727, -0.06795055806973843, -0.08654529735352207, 0.03297035261149759, 0.05445335160653939, -0.00536435285663272, -0.006601950739293841, 0.0405860894518461, 0.04762387030150668, 0.07584131133347749, 0.0911118682698152, 0.0008085287949599752, 0.04442731109144454, 0.10143579744724086, 0.02431453848816856, -0.03411228926593243, 0.037269574636853875, 0.02236682082654814, 0.0324666611145867, -0.040671038798121346, -0.032386450259810816, 0.0049633022458394, -0.07435171750549555, 0.001242217122100508, -0.007871679685130596, -0.046082433118751785, -0.016203820230426685, -0.08120801907564018, 0.0052948656007773326, 0.0020570752195534247, -0.05805151224041146, -0.05650643423831993, -0.08148981822034047, -0.1464671583011229, -0.012397569307942892, 0.10089154073652426, 0.03448814957172632, 0.04610551038753578, 0.02442776825378724, 0.005318635391233671, 0.011204875736402971, 0.04363510406114457, -0.0016986336091909275, 0.029468099042666614, -0.0068985760965175, -0.03110404053787187, -0.04036151150437367, 0.021375917660409513, 0.054092902294346996, 0.06130434963320222, 0.047231003075128536, 0.014680638331104015, -0.04803423844424905, -0.004455866229559757, -0.03773997891045578, 0.018195852443725794, -0.015089664792594513, -0.01472706749215993, -0.01238166942206769, -0.07979118369766891, -0.09724542047471155, -0.03114280607194415, -0.04634454849724377, -0.08423045310186797, -0.03336379635747068, -0.010374316426513546, 0.045350684466088455, -0.02660885671384378, 0.04867771740859371, 0.09058698593528348, -0.010697519959010481, -0.03708389115738762, 0.012837292666819032, -0.020849755853733512, -0.06217331734451302, 0.01401991890460584, 0.03414809204147987, 0.0007699596660283169, 0.0818787513998156, -0.0755278072960209, 0.08333747858645085, -0.00864135281071845, -0.009061062829465824, -0.005818539933831651, 0.035112976043490576, -0.006871128240395282, -0.13424697328887494, -0.025991809092160253, -0.020629285511904974, -0.03612867895642313, -0.02650478174757989, -0.04454133858511879, -0.1844475069171845, 0.015038670407292006, -0.0026325904486923395, 0.0554303842763385, -0.08910260538785052, -0.029083441985669273, -0.03470808443985389, -0.024135217364286903, -0.035860778807866055, -0.04102589766580655, -0.0350318989300169, 0.08919166822076313, -0.04049270006830137, 0.09506450699857474], [0.02913862454418274, -0.09035420636659691, 0.004974369177000154, -0.0783013120495646, 0.01541668956003621, -0.09750997661782335, -0.0725020584909739, 0.020841697670862604, 0.002042469283774593, -0.010597000596111144, -0.007820781876970483, -0.06637867157903045, -0.06312209607536456, -0.10811238863541357, -0.11674913000442694, -0.10906536213810487, -0.15964450199389996, -0.01987119108838298, -0.03329054920784717, -0.012307174322599836, -0.1470910506466958, -0.0627108517810208, -0.0639758967965269, -0.04104037460881262, -0.11944373695198253, -0.07595703726848006, -0.020645138301443645, 0.0009294766286912188, -0.05990219958172224, -0.05599483619081277, -0.04003345761347862, 0.0043949847325370365, -0.055035266195844465, -0.027698953713465427, 0.001388392414223129, -0.04873788944484042, -0.02205570308571602, -0.05869970838164935, 0.05017707820229449, -0.12597445231283422, 0.04085381234255905, -0.0011248753691657537, 0.024986636733588523, -0.01697736419004051, 0.05818332715605364, -0.06738930042777758, -0.03273539080100395, -0.10737748777419663, -0.04894772425797277, -0.15297182672165333, -0.1215628019435725, -0.12041384946471978, -0.1354068117594205, -0.035855714158046156, -0.0438250776796368, -0.00028355439425312867, -0.03997477107326459, -0.03638670014266075, -0.060049396689147244, 0.029241158302255505, -0.043253541109114, 0.038761127862755665, -0.05333464269953128, 0.026637738874921147, -0.0262446920840825, -0.019115968391665652, 0.050708878265142726, 0.05400536956360984, 0.017171900075169725, 0.07211124370035757, 0.04053982729876682, -0.02733650894233013, -0.07371114421321728, -0.026835830515908148, -0.08702659677622818, -0.0410632152993558, -0.06455771732136172, 0.0050120907102194625, -0.07076244092893516, -0.12268183172922326, -0.018116441816980754, -0.008756287976026076, -0.09569721476051603, -0.0226957990612768, -0.07920744507582216, -0.06283184948935439, 0.04687322662511439, -0.00758694804263115, 0.007685313475093004, 0.00972409290821378, -0.0029779049171325496, 0.06055526277359631, 0.018103898490506008, 0.046852424903448736, 0.04500971274582488, 0.14051193098517714, 0.15087559593633196, 0.09371780322149988, 0.17136747619418252, 0.023010300967645, 0.10962550530968632, -0.027089318080433272, 0.09318933467571115, 0.04455636757912494, -0.0069655837203797194, 0.06532868006434543, -0.016441044043353184, -0.07108888147401755, -0.053656119824191224, -0.08782088435473513, -0.006322288143440572, -0.1163338103366657, -0.04885491206156986, -0.02155442418804209, -0.09988524395953041, -0.04820398176984279, 0.05605583980813288, -0.056927255987987764, 0.13047734717091528, 0.03414653534719222, 0.025070191688238538, 0.007536251626932432, 0.10987874691087891, 0.13976468568015227, 0.07119552386455831, 0.1304261208069402, 0.09040629168223117, 0.09915198397011606, 0.09268250592075836, 0.04163922734027037, -0.10891670958512772, -0.04004081411962111, 0.037024770657411284, 0.06339559921336574, -0.06306479807144162, -0.08994072978022088, 0.03634841256678856, -0.052238627945877525, -0.05706215030776502, -0.059677765255392964, -0.06149823823298654, -0.0665062300379163, -0.04415974293974604, 0.004451029725545428, -0.008957011627067182, 0.01095570567134687, 0.07881544047862467, -0.01659029776566582, -0.025446134665265747, 0.028717210285664586, 0.057315234276742746, 0.057818834913524894, 0.05119451118894612, -0.005469851128007644, 0.1265714020816435, 0.06392195540006962, -0.033457415394040076, -0.1322249249330547, -0.06606398447609092, -0.10272158089925257, -0.10863277466122367, -0.04215066741025683, -0.09433197705966875, -0.00850593968846616, -0.032314601001666846, -0.10810451466361878, -0.12177278240571497, -0.15511995726239458, -0.06434153757416282, -0.08476949119354428, -0.03774622551477013, -0.05020240357523782, 0.059275799857412055, -0.12060784717593341, -0.05068384637195989, 0.002903364510530835, -0.14432152251058517, -0.03626640276027897, 0.022371416256670894, 0.0491090880398341, 0.013599488151593191, 0.0650419055887746, 0.011791678663055258, 0.02799358857507283, -0.032239280637388346, -0.031068132690013874, -0.11036299241967748, -0.15490904150069232, -0.09771334690816628, -0.03723587565918337, -0.1288055682056568, -0.04035843179398124, -0.14366229950662648, -0.01661779387916458, 0.11389409915581722, -0.09587515310425965, -0.08712517288827169, -0.0566820185692681, -0.012436008846078922, -0.006877306870391096, -0.031818560557649436, -0.09555175925124952, 0.07309224170544561, -0.025449763937051367, -0.0621929443383747, -0.04303233964001071, -0.12014872141222183, -0.05364809468886358, -0.05470528543477516, -0.0035839600094687927, -0.019767926539465883, -0.04922685043920281, -0.022481036573904396, -0.08355753484789062, -0.21659913148099189, -0.11786553139331099, -0.1591974200642982, -0.20850989382928786, -0.153283912662905, -0.0653387880033968, -0.06736571161187431, -0.015507604521734561, -0.01569398601197992, -0.0278873444496884, 0.003648820433047493, -0.03057677555690727, -0.03597302017868299, -0.05799402854088244, 0.05353894759944295, -0.08856782997615548, 0.03665611802274874, -0.04279608853085481, -0.024252252139686667, -0.10112321494331566, 0.006291429038438715, 0.10943649987516306, 0.0419101948511595, 0.04885229345040157, 0.046808551527285615, 0.03323127086763906, -0.08377217695430882, -0.08830229299342826, -0.13278206145986263, -0.16645172089475455, -0.15525545602736665, -0.1877482313337605, -0.09011157758671612, -0.10501154777553576, -0.014156239831961836, -0.13027302414124492, 0.0006296457628240575, -0.06102184601491198, -0.05766452498381751, -0.053990101268871694, -0.046692944102943945, 0.005657608341569534, 0.03727454506953113, 0.07440765841096543, 0.005662944458066651, -0.01171552548619687, -0.00680323907510027, 0.08049117362739973, 0.11433413891339031, 0.046618007395453666, 0.11898735089525614, 0.20213416518533933, 0.11751499588881177, 0.10550744474533479, 0.007727226141862095, -0.05339564652240436, -0.13018620715765722, -0.10203807306846381, -0.12969661934128865, -0.0933922827845286, -0.10554136139126394, -0.10775722836809688, 0.016041879897963997, -0.09233428750642678, -0.04862784156815637, -0.07122187095233767, -0.0763546155270056, -0.03430013575462866, 0.03209102358147135, 0.01571084187610061, -0.03487905613367012, 0.04895651507504283, 0.11161686723820452, 0.10638318415941982, 0.15305951717135502, 0.08272056991892976, 0.11443626420788633, 0.16641016112474366, 0.13082504321280983, 0.13376299235761885, 0.21605256764754094, 0.08636467956676319, 0.05144638228306265, 0.10502833450345066, 0.05688170353362935, -0.07363636445124061, -0.03473373292377159, -0.05216751923783252, -0.09350375352325803, -0.1511330433716179, -0.08483052693361914, 0.02281915533049188, -0.03740806433203085, -0.03424946566914765, -0.03789457944658563, -0.010555399715141163, 0.005550972949892455, 0.04463127415897391, 0.042939426347829386, 0.15092476785957112, 0.1523405876609494, 0.0775914762386271, 0.024956640059478747, 0.16428847647359282, 0.19905625940228283, 0.06141812348018017, 0.05428648092433527, 0.16856865803357202, 0.21190210022000008, 0.27321630573199146, 0.15609028746769515, 0.09516672258869262, 0.07408216563906693, 0.025631173294943427, -0.014835195101150299, -0.059910107028150576, -0.041906503304068705, -0.06682504346275835, -0.06498139482052939, -0.07519706597356238, 0.03248586826737067, -0.054193690120810184, -0.06324110595749284, 0.010111042258170099, -0.07603249902926869, 0.12542811359617123, 0.011908669067722465, -0.002384060682814943, 0.05045205022983798, 0.09492144844590003, 0.12560985134269975, 0.08967368079755109, 0.044365093104164054, 0.09346883176316002, 0.12723954853975794, 0.08605263939624928, 0.14070863460066804, 0.137494601328238, 0.2247657613021922, 0.14005059322284424, 0.07806132324004879, 0.040451587097978435, -0.013829423740510396, -0.05290931249863906, -0.021163181422860187, -0.0013221630487771608, -0.030664753438718457, 0.054598998654317686, -0.024923166929794835, -0.07699379508979733, -0.0055812693168768085, 0.04144313666063315, 0.056022856505736525, -0.00012338257527582633, 0.0711657425299615, 0.04598745006933811, 0.051858519634645335, -0.03764984594900958, -0.05427994930358369, -0.024917013367265362, 0.05006392862301501, -0.10189137678992866, 0.04352444937536585, 0.006536594978708616, 0.0224370097912628, 0.07198988859107616, 0.1806614547205566, 0.09063188690886553, 0.0505693169547081, 0.10209374026055122, 0.021665440517183308, -0.07798775328107932, 0.08175783510409491, -0.06923548928634472, 0.018840775080535516, -0.000426556433168402, 0.035497139334261574, 0.04407864970395873, -0.02230276957457444, 0.07370049909389219, 0.0026140768841014573, 0.0661162524711256, 0.06551657508698298, -0.03762298007574964, 0.04338706183839041, -0.034705871945002284, -0.034398495744165654, -0.06271182243873834, -0.12146951729029996, -0.09434580213549698, -0.056124070682297064, -0.01704586126713929, 0.06097478477062392, 0.01745383626149241, 0.09097090618943923, 0.0030658490357157306, 0.02593581165357913, -0.05082723223085268, 0.011779061354557354, 0.1114140857188545, 0.10946133229339433, 0.13684125034155595, 0.05500342491436656, -0.03771863350791503, 0.025073430334388393, -0.05751043348678646, 0.007147831921338549, 0.022866162846805215, 0.05056210105678589, 0.05918000212389375, -0.03648480032729555, 0.11743238373060971, -0.08339118864574374, -0.04611617707986602, -0.11297340718832209, -0.14088435198365537, -0.09141352153728986, -0.0762809490629839, -0.034871443115801815, 0.04804667363769152, 0.039092420601528746, 0.03244179567199935, 0.06559590747106672, 0.05913055882076604, -0.0114826932807929, 0.003395610456491925, 0.02557490454391945, 0.06539360001867327, -0.0005275793801174189, 0.005670338940261526, 0.02295122439751694, -0.0629543700751966, -0.05913825039777896, -0.046632416697247055, -0.004674586585831356, -0.04336734421644858, 0.037710392829501525, -0.027697496317438522, 0.008469472328062728, 0.027118951679249086, -0.05812939865589483, -0.030588505986310098, -0.11802403488432041, -0.09284387155540003, -0.03949845379505063, -0.023881320228712616, 0.036724498603709126, 0.01841338842215576, 0.11132294359579702, 0.10049651977829593, 0.04837995554016363, 0.09649447592561636, 0.11399062678336491, 0.061403680949833256, -0.008884775479057788, 0.11674936072337849, 0.021791570207175974, 0.019622005981759772, 0.011657385086290734, -0.04252642252279498, -0.003043299345146724, -0.03914310282806679, 0.028663585854525785, 0.07296007989949316, 0.008196735126881991, 0.007885246044936874, 0.06470627967345237, 0.05983054389340326, 0.014967517082336937, 0.023636327203193495, -0.07193671716949865, 0.0404977374559287, 0.02777741548256014, 0.018669975092096645, -0.015208675898204103, 0.017457592093083896, 0.16214665923773916, 0.010866792118270597, 0.13293206063023966, 0.005193218033775017, 0.08848786765418637, 0.0985735270535981, 0.002195786646831792, 0.10656857774398945, 0.021810711715288988, 0.10124798258557749, -0.021857005351361956, -0.022621568803738865, 0.015096113200009656, 0.04419456422120235, -0.05336760725834215, 0.07217716554710318, -0.008543831621807815, -0.0057991426741649706, 0.02767833796088524, 0.11181493872003158, 0.05951400882730345, 0.03957684201303149, -0.04134406685492719, -0.06523841144613242, 0.02535819595671585, 0.07073143706524093, 0.18134854613660578, 0.07138004013384519, 0.08529653058600443, 0.035739943029002616, 0.011380343269712722, 0.1650008471751343, 0.09844075477669353, 0.04787838933082617, 0.06992075684837143, 0.09466484072310945, 0.020771383939425653, -0.016985625535531023, -0.0008565929009268285, 0.04650986550769456, -0.042429457132104484, -0.0922366882046259, 0.03793476672605709, -0.04204619442385115, 0.009983326346821933, 0.10883318869873777, 0.025857637568192822, 0.006714803519530117, 0.08428979985262985, 0.00831586618946106, 0.1640865671021858, 0.0913033492367404, 0.20412390349612652, 0.18377683692032984, 0.1196379392207263, 0.15289736733552092, 0.15256264749306048, 0.11579568100045995, 0.05926354357431572, 0.045496137941484244, 0.10727820699201451, 0.004568808570757511, 0.029118771490134185, 0.024788893603761193, -0.029437111014499327, 0.011939967524905868, 0.0819637039367212, -0.03067034978573638, -0.1459850584955698, -0.0752469776005399, -0.03574910438306412, -0.014730062592016532, 0.08561354590751413, 0.023338694796334467, -0.04313623227073032, 0.021227703882734004, 0.091660385023768, 0.1764043721053781, 0.15388049905113063, 0.1256699767029757, 0.19271228273475371, 0.17661705560394306, 0.030700212640906978, 0.1368473450421619, 0.07057023605621053, 0.0022068741823385897, -0.00799812799775906, 0.0036330956468631275, -0.02279322046515663, 0.019936145810595787, 0.04017970476716293, -0.015088325202473036, -0.024380765614225478, -0.017709942050457953, -0.007958456826225743, -0.009096597495780616, -0.02484928925047648, 0.020229736775011047, 0.015232327102456983, -0.004122166028987509, -0.0041481204660313185, -0.011137127748058575, -0.0157983136643416, 0.06353784614603239, 0.11925483081306129, 0.026526610839572556, 0.14024182349265918, 0.028804419677142343, 0.054204754743285906, 0.00028572985263622614, -0.08063576396293513, 0.0451023975347042, 0.07553112281721397, 0.0035162081471571895, 0.04118939970826178, -0.028375421450465683, 0.023325005927669295, -0.0712443701981924, 0.028844825413327807, -0.008330671901704242, 0.08817125052338298, 0.05753550599908576, -0.09814570365939579, -0.10151897420494709, 0.05365057286269852, -0.13423077212532647, -0.03612310721684557, -0.009375190530521332, 0.02897210413338799, 6.106426817403705e-05, -0.07482869714789851, -0.015517170766047847, -0.032911203737747585, -0.006560194081744243, 0.012661004902661437, -0.029208023163291182, -0.059157213891195604, -0.0376317958648928, -0.06906731605597334, -0.06320520510160613, 0.03386046437002093, 0.03941269910854197, 0.04424524830383214, -0.04563609323197474, -0.009714574660141521, 0.02433821931193118, 0.04086273212990951, 0.06596691767181022, 0.04208592519918473, -0.013158039998556822, 0.06625879623746396, -0.038844492188803585, -0.04927752818104946, 0.07250196447086334, -0.030341902799882085, 0.03665978026709933, -0.068380134768123, 0.012661131788157743, -0.029024285863058136, 0.09853125394887159, -0.03114835342794395, -0.08918248147291236, 0.01911680188609314, -0.009766926219545564, 0.039180107405720435, -0.03435363349176803, -0.043063526104738646, -0.038139494872333354, -0.010961514341369924, -0.030998358409625178, 0.03790132450230118, 0.08249393725249096, 0.0064057542540624565, 0.11012114217656749, -0.05806700216922481, -0.021697482739463415, 0.03214293960889984, 0.0577834151119649, 0.024071002341820608, -0.013210979911565805, -0.04668459540044179, -0.05072630807030279, -0.015331536707353287, -0.048782876105715044, -0.06755445388952055, 0.0880401497397674, -0.002553136268909223, 0.11435265317615297, 0.02752904132333517, 0.046623651157242346, -0.0013938905872251815, 0.003158887414662348, 0.042964172344023104, -0.04601193923876386, -0.0009043327553814942, 0.040012957266800465, -0.026925557046172426, 0.047820961831356854, -0.030543161066429104, 0.06578029753141637, 0.06503672297997641, -0.031332452606845584, 0.05888167819101995, -0.06254992566036462, -0.016517226373665084, 0.044017314734709066, 0.009556770256953511, -0.10281051894915857, 0.004723242139388316, -0.002871488907586537, -0.004753488195274124, 0.05320632452141148, -0.02138700318683145, 0.037156082634137305, 0.047927131601191476, -0.0018363597313651016, 0.09229118252325716, 0.005012621461247254, 0.0020189931188257498, 0.07629582593438528, 0.021352764900775402, -0.0050585016108991515, 0.057574455185312685, 0.1228638945477047, 0.04132315899871475, 0.0581730172515169, 0.045375557459945086, 0.044685958108888355, 0.06460679381445188, 0.019391074680183442, -0.06323937559366728, -0.02496124744048591, 0.13318038643139488, -0.0763381154065414, -0.08474475634300922, -0.038804853698025464, -0.05793275557659706, -0.0400285034834895, -0.018044821187679097, -0.06498508149694353, -0.025182919376015914, 0.07743068999415427, -0.01511708416905781, 0.04030723893435049, 0.0750271832271339, 0.06788373256407115, 0.0977783997292811, 0.1307835511500659, 0.021541296815346465, 0.09815414280191702, 0.046157336783307065, 0.07982668824364518, 0.023063730502456272, 0.006171774736926313, 0.049552831561468155, -0.021309680848813246, -0.02544752814770501, 0.006075085465075694, 0.03772924040480131, 0.025606615188933254, 0.04606460787245956, -0.02536792504085036, -0.05465791588884139, -0.051092983415945155, -0.010719897422311326, -0.03553347134195641, -0.04524404768848098, -0.015347610693002497, 0.0774494160292949, 0.007010222951521102, -0.03247565041042248, 0.013512480736769254, 0.06567086368162611, 0.11345840315986776, 0.05538460982533294, -0.0007236661403923463, 0.06934197152170718, 0.16310757363261494, 0.10354140122212258, 0.034010540255101154, 0.14632549196630568, 0.1454412770362209, 0.1094048230641018, 0.11806568115837024, 0.034686295919209846, 0.09559680710932587, 0.029734565649619276, 0.04770091933389454, 0.02018763650917673, -0.03772468833558806, -0.00239201447011815, 0.010283934454696112, -0.11752360148085618, -0.1300275663873028], [0.06545978640962065, -0.04100381883149546, -0.01432680982381066, -0.06185314634801089, -0.030058257603554864, -0.04789644069522708, -0.08287693630578215, -0.10407342278566815, -0.11547351952665447, -0.11055557712196884, -0.05110387449406625, -0.1022535766869439, -0.04031657999460629, -0.1639985667656752, -0.22621278516978163, -0.12359079092363542, -0.2222695511916352, -0.10016957023935892, -0.2030509294696781, -0.06312867253233352, 0.013260829605042827, -0.09954802816764763, -0.06683030755507477, -0.020342500149118536, -0.01409522239737484, 0.0209210699454598, -0.07925200734437834, -0.09795106922846189, -0.03642315964941694, -0.09577878673189519, -0.018853627756114877, -0.010276595455390863, 0.01465881906143707, -0.10859871529336794, -0.0644239110677914, -0.11045463210285665, 0.005193450339635594, 0.004638153760474756, -0.03243201784334434, 0.010014997431534936, 0.007970649172734549, -0.06885319488828068, -0.0029173972670634343, -0.17695696628905155, -0.04754864747588708, -0.1129501444994166, -0.07026579501575275, 0.0034288173586350928, -0.08646296215950496, -0.057282949357471816, 0.006183823680871893, -0.003714470635560711, 0.03359825404727094, -0.04380157597301558, -0.08162910885157473, 0.024843727576671616, -0.04355376830712731, -0.017275228827353415, -0.08138547042529161, -0.05437828063134758, 0.025906701955985215, -0.02352721909585701, -0.009874062772052251, -0.06098167148014196, -0.024375537851839574, -0.04350924294295996, 0.017157478902246025, -0.03188119541350737, 0.040822184686985404, -0.06925131042389387, 0.026965730500373944, 0.025699414234406855, -0.07691778160876568, -0.019281997714818228, 0.011828772980924227, -0.03153572262923308, -0.06324751562540724, 0.02593729549683191, -0.10724963429156634, -0.1085189773030991, 0.007344593662198944, -0.08899332035612985, -0.007451935546333154, -0.10068591617017117, 0.0534188932573199, -0.08971136983502688, -0.03196309010536748, 0.06762234180504405, 0.1583284886793815, -0.035177984962855985, 0.0792699944035919, 0.08599216812220266, 0.09891866074077095, 0.030815364570430874, 0.15152344966586986, 0.06353435466642775, 0.13046210729921592, 0.19682569339114092, 0.042819353026831666, 0.07230225165415595, -0.05161150362822253, 0.06250833814151775, 0.048057121741514164, 0.0050834343755108286, -0.051642912409730055, 0.02226157764997859, 0.005019300915741542, 0.038242699866301, -0.028809799886645514, 0.06889280716545396, -0.052151253764828605, 0.02675564413640217, -0.06110642622452562, 0.024510001568050832, -0.009361496197579701, 0.08334465560358008, 0.05052286160258272, 0.05325504140344785, 0.08691985429246887, 0.07336308412650762, 0.17958798627903907, 0.11160599016967747, 0.16529818457394252, 0.17216246179421843, 0.15514479395795971, 0.12970369256101932, 0.1852261785498713, 0.069802596271319, 0.17003904304673093, 0.15449581974106089, 0.09232184975269306, 0.153696223134409, 0.06148840386515474, 0.12133045825853007, 0.09292822712953813, 0.07628643360024404, 0.07000415183278577, -0.008839598595658898, 0.058485746164049966, -0.034166047100005155, 0.030710625266621824, -0.05286733724484238, -0.032276608168236166, 0.10788230142633869, 0.15438290431958246, 0.08413705436829164, 0.09893919578191863, 0.13004031414887046, 0.1307736535801076, 0.2186952115785771, 0.13214831278809128, 0.19364812002459114, 0.21936631151909697, 0.2438115389541972, 0.30698792569953387, 0.19375464180024177, 0.08769018474286251, 0.11358860908903809, 0.12607376881145171, 0.15371549800591136, 0.15439148610420253, 0.055727519779962854, 0.06775643040036232, 0.07060865287002284, 0.08561608165780657, 0.18842145002008956, 0.015099851914665658, 0.0023233982475662574, -0.023760749767413984, 0.012112971780751021, 0.06265170588658484, 0.04636872947726009, 0.2235902719013936, 0.07320156291661739, 0.23307535850977912, 0.31479479821202466, 0.1755949143842842, 0.1751356817022525, 0.16503149907135015, 0.25026973300228056, 0.320518300563557, 0.196300926307956, 0.24987607010595003, 0.17607062525855632, 0.24570397919380085, 0.20375550027320471, 0.17816769317159098, 0.20295639176919497, 0.1134798933598735, 0.15445763695808404, 0.15437030290054046, 0.26901609506159674, 0.07747725723712402, 0.07999293556014936, -0.08808296730977408, 0.0002719110209649521, 0.11891433669816724, 0.03284325854881983, 0.09828678850651718, 0.11204458334715169, 0.0630587739519681, 0.1307432871189845, 0.19033540378839078, 0.2002304328187371, 0.2453322803726637, 0.2821218279283249, 0.39592520360243305, 0.32119827027808434, 0.3236836564051382, 0.3513289553159076, 0.30604849323026984, 0.311858417497506, 0.2309646366560188, 0.1006398044250482, 0.18463635799876166, 0.23807844043075455, 0.08995156986823263, 0.30636765429239965, 0.05221760048471842, 0.06769397700780468, 0.10248061511180057, 0.05729999112506694, -0.006056085225155754, 0.017871199131744935, 0.0376008314669628, 0.0427724542221574, 0.01995048112617923, -0.015252198041251462, 0.19741009007647015, 0.1243375832101051, 0.14519921246892203, 0.28582002493227604, 0.27032940733224703, 0.31065733422031927, 0.3797402013502291, 0.3482394528375394, 0.36994205702832017, 0.4349172118983755, 0.4259138818990213, 0.28525711385015606, 0.30501252196847817, 0.23464727448643072, 0.15013752319135698, 0.10554828417004508, 0.12650343266421468, 0.09198357089615515, 0.11744530836274072, 0.13943636709711305, 0.024291448539010458, 0.02778959420068488, -0.00859938051286059, 0.06610738890036928, -0.000492137173459815, -0.022513248446712632, -0.06946362908799204, 0.133927850594929, 0.12576138641899826, 0.09072895190242093, 0.19753714763826788, 0.031069383949631147, 0.17495772980331709, 0.19267246028770993, 0.13043935935072917, 0.08483165385706808, 0.13918991146881352, 0.1867936377139322, 0.23916116557543776, 0.19068134980914228, 0.08041113252337928, 0.06066880924227553, 0.08780314139981545, 0.02045515569131892, -0.09163414668798642, -0.04365552838605501, -0.03225494292073104, 0.1068828321372328, 0.05835735430099996, 0.07900482428227877, -0.037939698162854765, -0.07714635938898141, 0.008347904702321435, 0.03891744727172763, 0.009863972062078284, -0.056939898873850515, -0.006030576848388471, 0.00919354809112244, -0.021218330738475802, -9.308600999237522e-05, -0.1268680702198719, -0.14969968951561038, -0.1313143658107955, -0.19800886524738145, -0.14846849640864113, -0.15911136315782604, -0.19847588497389, -0.09525719943154959, -0.13782383617932126, -0.03556303302899467, -0.08739872048941474, -0.08411872122987878, -0.04771425367351315, -0.021623324017025287, 0.03405680177580423, -0.01953578779748132, 0.043521919129532724, 0.04053326239198557, -0.1001946795374712, -0.04671245063792158, 0.0655277910693726, -0.08375714449511394, -0.10774870119273441, -0.09231227782640448, -0.17358847861145146, -0.14512725489335945, -0.11631117001344461, -0.09295616412178115, -0.12655764493640254, -0.23337810377433302, -0.2482476466217558, -0.22936293628299192, -0.17608992997022732, -0.25949023568728724, -0.1804572617461663, -0.19221041381973847, -0.1838266039364426, -0.19102542726333785, -0.13851859278843576, -0.02176056925199512, 0.031758981831813124, -0.07878336128445693, -0.001632898738889553, 0.03312940052670786, -0.02779846469730991, -0.037260334381207114, -0.10267697409511682, -0.0816901296452509, -0.022277159634539603, -0.03238597526698724, -0.10932082762034001, -0.0641564215194581, -0.005157347574199005, -0.010909272093766713, 0.04217290761922679, -0.12334769476155806, -0.07593289572622504, -0.12862247570933183, -0.0627013657718535, -0.10574639483089043, -0.13575678913952693, -0.16533891274629303, -0.08073166709222836, -0.12006357284343888, -0.13523270156356992, -0.17816268463655827, -0.05522188894241072, -0.1375022593939222, -0.06482753367920953, -0.054624772385541316, -0.05393706247495723, -0.0755171303200482, 0.0007267406259802858, -0.04657889264154154, 0.027320757558237388, -0.033042809418283046, -0.03197834527409291, -0.10920086948315239, -0.06292786586631224, -0.17803489643250067, 0.0056396529610752595, -0.04398405763243084, -0.11272481889541856, -0.081813273667412, -0.09460554379110603, -0.10270700903389886, -0.10717178167267297, -0.14900545122411077, -0.09761533987961896, -0.042304198900068694, 0.0005402400054147139, -0.11871471419928493, -0.1546209884829066, -0.10508032955738701, -0.008857843097324767, -0.09867634213534765, -0.03215632954710806, -0.02174335159851714, -0.04531346432899647, -0.04021229688292001, -0.09466513887032015, -0.11322792133567205, -0.0015394541511120558, -0.11545569216311517, -0.061592302966770665, -0.08586881746857382, -0.039741912242862776, -0.07387476054602243, -0.1764982514559518, -0.0271073616024463, -0.10612325993790205, -0.09105346235616486, -0.13407166515859995, -0.12794577910595012, -0.1317722612768004, -0.09135708386782078, -0.13032932451038037, -0.08401538914618324, -0.056305757582761275, -0.054452811925984106, -0.089444370035295, -0.07139065829085951, -0.04427043235568239, 0.031017068194851057, 0.006449482138214053, -0.06883062110918477, 0.011479618610484812, 0.13875278398745072, -0.07081388186000433, -0.006247605140737147, -0.10349118164919938, -0.12546339890916705, 0.0012406276452634046, -0.036618364179210126, -0.08032224916317884, -0.11279769149456231, -0.04754378011512698, -0.12340922720476759, -0.050818648753142334, -0.09496033381317195, -0.09573110451905067, -0.08408985676621443, -0.11453577202905386, -0.09832495597130127, -0.07733961598371487, -0.03359524973850012, -0.006009360941274584, -0.00811882201090242, -0.06327982589755032, -0.007518317939422114, -0.048594724542012996, 0.018866428039012208, -0.03161869556782981, 0.058440891512079124, -0.10297858121273402, -0.06489084953628846, 0.05915932409475122, -0.09487148344219046, -0.06514064261263117, -0.063119846987817, -0.05385153365037825, -0.056587487062488014, -0.03527119284381915, -0.021547400151831077, -0.09094449181327131, -0.12528251310505237, -0.08420571035275852, -0.06128310995332931, 0.0028727075498622572, -0.049264895913983954, 0.0746111736854855, 0.034255375858296806, 0.03714930452305584, 0.012103560606477678, 0.034224440230407424, 0.05648135837888486, 0.040659446582727056, 0.10606211546363141, -0.0158102040554752, -0.015854771403255176, 0.07976444812614607, 0.030156880949774187, -0.013297903466968878, -0.09421185561149374, -0.03368896456882995, -0.14933862010215884, -0.008055999773698995, 0.014574365141029102, -0.07455700833613949, -0.063465605035085, -0.05566292981481693, -0.03943770180953176, -0.13834482319911454, -0.061317735552650805, -0.013976532288094791, 0.051405935337611494, 0.004930148707608758, -0.05389035408237019, 0.0259449208869862, 0.04823398096441492, 0.05210323494660123, 0.07745529589769085, 0.0303022129946573, 0.08618947398442, 0.061875399305240504, -0.05842911708958762, -0.0241047327663803, 0.05487797453454874, 0.03631419757602125, 0.02783797008077036, -0.05586559915317756, -0.01998291493022191, -0.06374242629331288, 0.03437117427740123, -0.048883000779595745, 0.06438619812137049, -0.00048825777769653545, 0.04576563591824307, -0.11030742222745041, 0.0704762588535054, -0.0758021632639786, 0.038126299512791215, -0.0907203953136666, -0.11814039532896503, -0.020542670826712406, -0.001339920269782126, 0.027660206376545215, -0.026231513365241023, 0.008031953292535235, 0.05741077953657243, 0.0090958355189655, -0.017629915180889133, -0.11299603783797119, 0.032493731466293516, 0.025315185920886475, -0.06346133234926866, -0.03735505020251685, -0.019962652930730608, -0.06151020523120297, -0.04945212063919541, -0.15144773246345217, 0.0760375086995244, -0.09894293246686564, -0.03724903948392575, 0.02675517364982425, -0.08377325525447789, -0.11700448939695668, 0.008482651397820869, -0.054365722302904075, -0.06323853914349431, 0.007644138920677974, 0.027058256608620768, -0.013594699466962833, -0.002976303910355539, -0.0005869900346236104, 0.005723616897913834, 0.015410896019622027, 0.07963245286073971, -0.01013321333931299, 0.08064702581330294, 0.05074697256947046, -0.02385729702469607, -0.10082512031018434, 0.0185308802505905, -0.08868450991308477, -0.023827621616215943, -0.12294840554891409, -0.07338035909845309, -0.03932509281139549, -0.0018283652118803015, 0.03410554367664623, -0.028788913556631886, -0.002227205089086839, 0.0027332545857757257, 0.024030831534552672, -0.03212025064486017, -0.0173636209492654, 0.03208326395961254, 0.11202717660124589, -0.04453699718232866, 0.08666371263952129, -0.0272848392413685, 0.015068820880486375, -0.11125989180041367, -0.10257104648063922, -0.06502241332151062, 0.05282348858156169, -0.015494686571549008, -0.01757069513065516, 0.011851529796952295, -0.010045471139396044, -0.09492759852246292, -0.0237381501476203, -0.1056660656605682, -0.12029162993862792, -0.06815595363898357, -0.07918239528124639, 0.013125001099418518, -0.0012366587040953645, 0.03537355199948252, 0.01068203904674802, -0.047896490936119675, 0.01309946505495893, 0.021001196036943406, -0.014196379416132622, 0.04363462462427186, -0.0016456557390860027, -0.029389563391360132, -0.08198839801867996, 0.02829552751644579, -0.021575736539145494, 0.07423459054128778, 0.02579724863413084, -0.019349951035210602, 0.03321719166135174, -0.07040834475909495, 0.009599642788695056, 0.03786246830854436, -0.03209833236484678, -0.06196463588530019, -0.046606553699474806, -0.04980907704334711, -0.05170121694639358, 0.00657054731945089, -0.18846652454393503, -0.06981607910892054, -0.0351648435237053, -0.048511989853767964, 0.019060483357969227, -0.02659977668814649, 0.0772261269206454, 0.007013871586414244, 0.01928107084711561, 0.13503710073567535, 0.04142354901696289, 0.06138383163331109, 0.006300251767920136, 0.10460734236870411, -0.011864508362220383, 0.07193360175050252, -0.018723603926311963, 0.12644304585803437, -0.04411121319357664, 0.0847750707214017, -0.027697589632635834, -0.009582074036012151, 0.06123145986577928, -0.0349303117694668, -0.03982197038858415, 0.0017814681812583727, 0.010944133866824971, 0.029752664064679416, -0.009520785160207821, -0.04460076459826498, -0.022176061264236987, -0.02085315829275661, -0.0030792253671676315, -0.04207218196982509, -0.01063028748803269, -0.01850334192252639, 0.06683774455766532, -0.012783296646787116, 0.008760292743035443, -0.0025934306157234348, -0.004545027087414832, -0.025906899216732823, -0.004922118235288965, 0.06190080718719358, -0.08943656890496036, -0.08580412617878994, 0.015746495388705373, -0.04232356593428877, 0.0005848255109233986, 0.07539336489563311, -0.015275331961798784, 0.04483072150919751, -0.005900349240363401, -0.0090025628421451, -0.030371881741890174, 0.017502899380788826, -0.07526057352159547, -0.04920089446887064, -0.02127515694502128, -0.134351429724882, -0.047707361251481346, -0.08124538087174854, 0.06071787580395858, 0.04121370619510446, 0.07405274968146867, 0.026803686289941727, 0.035944220075864716, -0.03821593382166587, -0.031593933642498184, -0.060848650178155744, -0.008468484239968965, -0.02901711945048698, -0.04675421168054343, 0.040793966661687435, -0.06538477694117001, 0.023538829427155197, 0.054534687948836126, 0.0467231567041277, -0.053110408569713836, 0.01392570340820012, 0.02177896024631297, 0.05001014174154135, -0.08763270120233317, -0.060368337471933785, -0.030227830699394085, -0.0062437898434359465, -0.023925924810993336, 0.11328490629067887, -0.009609411642540448, 0.003861013604753616, -0.0561836082363986, 0.0016057714317686041, 0.03939883611341693, 0.041668418448897016, 0.04107453828729457, 0.09119659069341594, 0.10332107529797656, 0.024240600979059786, -0.001497039830175466, 0.09510111311159634, -0.01808755106903645, -0.024568669987833767, 0.009598612601529237, 0.07101083715214859, -0.026749260330958244, -0.022337668059207838, -0.023960428586350727, 0.01040139541776094, 0.04310384401800267, -0.043666574725005215, 0.011208861534308208, -0.042908983772065756, -0.09414323518759739, -0.008365768809712005, -0.0831836805326377, -0.010222035299147178, -0.05915974163549386, -0.04049017880501901, -0.07052024872282597, -0.016080290278034263, 0.05693113571794798, 0.031292830630548794, 0.07156244107170585, 0.05200701767245405, 0.028442216520402283, -0.059736469367609034, -0.07748853089290901, -0.015124034064324113, -0.09125655320270791, -0.022872833394469525, 0.05889144364700406, -0.026313380519825097, 0.05068142511176143, 0.042202450213449885, -0.033922916189495556, -0.10365573200085601, 0.005867819509988118, 0.0062193623793052, -0.10624006751540593, 0.012324518383963654, -0.07600261743174526, 0.03822708033095892, -0.0512958638079317, -0.1223803705616898, -0.07930812631118803, -0.03182938175772124, 0.00717511069947283, 0.026311380401168923, -0.03839741314962525, -0.0551896036491261, -0.027608711764538774, 0.04538535066187378, 0.017136748053278764, 0.00975221261804392, -0.08694885699627979, 0.008291410204083879, 0.05593833094610645, 0.0807055920945811, 0.011359513914047202, -0.05012468769440898, -0.02057179421413911, -0.05433592567762293, 0.004883754193010339, -0.20425012585457916, 0.02392248182869076, -0.07560145350910713, -0.023362742906423577, 0.019807504343117507, -0.016809198817383984, 0.048366191439166255, -0.06585732873122824, -0.07711514702393382], [0.033494386071140934, -0.02622950881807645, -0.0318196375647937, 0.053673987567501455, -0.031987575386705755, -0.05306109642503845, -0.011790581077623413, -0.07370573407024589, -0.028221454020559176, -0.06398841845568716, -0.029256410775258635, -0.055593268965336985, -0.10863208529558797, -0.05047530133901182, -0.05213172610195176, -0.02028417043168777, 0.01757206434652412, -0.0527346714754115, 0.03476417782879629, -0.057878123828731365, 0.01604912126284056, -0.008985791744946809, -0.06198720738119957, 0.013683429348338863, 0.009188716201857357, -0.01457235408260385, -0.048148253694067375, 0.09244481541131867, 0.010818012893489456, -0.00021374621162721755, -0.12806013329415622, 0.05339253516347571, 0.03822923662282625, 0.012989128136019394, -0.033534206188495126, -0.06256722584566116, -0.1588104318864863, -0.12620325777992328, 0.020355841133384414, -0.10209352205823619, -0.0883722564189921, -0.08904913022366269, -0.04412945021540376, -0.020385725370653706, -0.028301342868769445, -0.050866264243903475, -0.11740775209042753, -0.06544693434238398, -0.07129174003965699, -0.058999374991059984, -0.038645969515754, -0.0023576550899313624, -0.002615646934994694, 0.00730878967153167, -0.02923127606151976, -0.05700904190325011, 0.04426953708350291, -0.01619993020902269, -0.029252987799111323, -0.07564304066235644, -0.03976672190056929, -0.02956734797146564, -0.03434207305491178, -0.07124313370386912, -0.12203104544061345, -0.09224854728789714, -0.034708069648170345, -0.15867375121464466, -0.1344251609170028, -0.14913810887111023, -0.19101948773391794, -0.1491201859479879, -0.20801185403161798, -0.1697045466175346, -0.04074591529953075, -0.0881529911198991, -0.027425363579991938, 0.06522994301066258, -0.0161660703118017, -0.07112740065944821, 0.03846569325424981, -0.017865037393359276, -0.08681886867171465, -0.01522256065136181, 0.014735906748064695, -0.05706736317268681, -0.021271338462262986, -0.03132645986860725, 0.04082203065139355, -0.017528828009903106, 0.011770533589885265, -0.0638066357466992, -0.03505143812293789, -0.07505436919935449, -0.2009509687363494, -0.07390644268920163, -0.11218634044513123, -0.15030227563317755, -0.19966447435327456, -0.1326558261643491, -0.10801477774951161, -0.08974935055222179, -0.10707674114746879, -0.05537650578006093, -0.04980337734562388, -0.09064677569853753, -0.07539898475542879, -0.009741952398972733, -0.04915915886389523, -0.015410795975676501, -0.07231567082195278, 0.006816053719441451, 0.049013636115348744, -0.01231521925094822, 0.07270122021893824, -0.03881582073936065, 0.02657027149405801, 0.03883846106235531, 0.01942114349295865, -0.0883568341353162, 0.012160366158360523, -0.0623333311236868, -0.04840647223449641, -0.08668678695292441, -0.07260239241228343, 0.007862631787888479, 0.016448602947076653, -0.1681543856414374, 0.0012271276721112867, -0.00885438998053857, -0.10421160332713758, -0.03593113461659786, -0.0707548861805785, 0.03922164068298623, -0.001886579815194023, -0.050742588763477176, -0.004989080478770114, 0.026655106464023644, -0.009329678009277283, -0.0757232122412404, 0.06837620980871231, -0.05265743106849377, 0.05102584907523494, 0.002401669365965474, -0.004374237483283723, 0.03896406152048391, -0.00027033853269304447, 0.06750531817495478, 0.12248348134369112, 0.07058560696527078, 0.10319522766185679, 0.13269929122826712, 0.1479927238072464, 0.05792805639951703, 0.09842950035972808, 0.09131686692728871, -0.011006388255076894, -0.07480240234996874, -0.026388619729652587, 0.06122485681370477, 0.05157607319198654, -0.06944543181375644, 0.07124846667140863, 0.008528366158742433, -0.002934974968847736, 0.013387445963024928, -0.054816876949427454, 0.005944518058502666, 0.045707183473389625, -0.029420961024709324, -0.00514186452000484, 0.03143289437980031, 0.05928476834357468, 0.06458028310738133, 0.1175636295397744, 0.18168175224399954, 0.15884965956554173, 0.2610437175112123, 0.2201855602018453, 0.26885236368467913, 0.1213612440551247, 0.21739044567149293, 0.17307254766469862, 0.2242406844925161, 0.12181253072906195, 0.11029392393760351, 0.04648699845386863, 0.017494298949011933, -0.06198619875591422, -0.060143448205161494, -0.03215385501206207, -0.045706500995133945, -0.017291895416827636, 0.023297982347588057, -0.06971645417225661, -0.03268983958701467, 0.039957179811055885, 0.043848304768485814, 0.06856554845217974, -0.05754082250808593, 0.06398451239789336, 0.12252493819688894, 0.19869018271019495, 0.18584557135009536, 0.12283946444763448, 0.24668063767421064, 0.2265225767222782, 0.23454790839966855, 0.26948481317518835, 0.27297129948753573, 0.22958549468258668, 0.29183453017586336, 0.11774343731382826, 0.20140195601833502, 0.11802137186494785, 0.07003159647538269, -0.0031145926513040643, 0.0379114394301477, -0.011440730761287021, 0.040261558231622245, -0.03170135298786869, 0.012584764273086337, -0.019197945185530238, 0.01946022469475705, -0.004503581369151848, -0.035594475621235425, 0.031929528574536, 0.02935825184852807, 0.0885834752205109, -0.0039847354009070295, 0.07799274668500278, 0.09849025715392494, 0.03024313542886219, 0.0791318805190502, 0.1515473947313335, 0.19930676448111723, 0.26571521189890424, 0.12864623538759143, 0.16243282385599153, 0.14652860488905742, 0.18906843993662487, 0.13479430652995136, 0.013043273890685948, 0.06705004504162328, -0.023167587917670412, -0.02464304962193594, -0.013854580039837607, -0.04750150881461564, -0.05105829448140449, -0.03048119529483385, -0.01629433208207805, 0.043088632316982886, -0.00791869726693207, 0.08832982961223748, 0.07181446597976456, 0.03309722038634786, 0.03045661027427549, -0.08030827390008821, -0.05604385049273294, -0.0072004722380619385, -0.04966763701993656, -0.09636526596716079, -0.14668287931661972, -0.14962840527949445, -0.1258733886437242, -0.05360129640044969, -0.02573672374024873, 0.02778439447982189, 0.048785397862651556, 0.02315864246423892, 0.06698509705654902, 0.009015619974240512, 0.03274955044604405, 0.011347853828247621, 0.030861756570878387, 0.001171385912613466, -0.01581437557254797, 0.037133426790755965, -0.10002946321939674, -0.04729325569750334, 0.009166150429365626, -0.047815239266011916, -0.012406145509888238, -0.011593719724249154, -0.002957179787520462, -0.12081254968446002, -0.12283370234733458, -0.1038224002637616, -0.20040406653062467, -0.23771447683153124, -0.2662890430223869, -0.2476301265395367, -0.22041184481057657, -0.3222820574999038, -0.2148875002547358, -0.11744064647854652, -0.13234612031553436, -0.021384864441600596, 0.03138597827711918, -0.01348361295447653, 0.013321796291987998, 0.03198497040083271, 0.06254135554385722, 0.0052291590362666, -0.0343715006042248, -0.07599838309143138, 0.01219953504648511, -0.07051271597263006, -0.04436027729784523, -0.009262358192069031, 0.09833447687559742, -0.031026974702987136, -0.035592839662383406, -0.1213412065644694, -0.06741589289925033, -0.09725507234547996, -0.14495263898692962, -0.17553516325762272, -0.15803205676006124, -0.1623737800699992, -0.140494953165938, -0.044250086182844976, -0.1253566224670332, -0.10461510266864063, 0.014989481384932503, -0.03307879837006313, 0.013840043890688344, 0.02179099945727457, 0.10510953473652059, -0.003209124016666947, -0.05613582926653267, 0.06069118192882605, 0.06965463766698707, 0.02999058626035381, -0.027050858624089374, 0.08473954554896804, 0.038000603978901745, -0.022498259829974825, -0.039871338316501664, -0.0943087529106404, -0.036226613411200065, -0.1066545991160936, -0.15401849532949316, -0.018103317669734376, 0.027968625474170578, -0.038968258968706954, 0.04025951096564531, 0.04039693524250897, 0.03111500468669324, 0.03993888785371501, -0.029321408493327202, -0.08150743193556641, 0.07327166808955261, -0.011814847287378258, -0.002205926253170862, 0.0930596221318783, -0.013869325943067522, 0.08722172938368969, 0.11037517586012001, -0.06185872017389356, 0.0731241950002621, 0.07180770544685604, 0.014766565890855742, -0.05787944423840753, 0.060477593065547675, -0.10185407234670042, 0.007777006699933329, 0.07967285143016557, 0.009405970698483552, 0.014323355073594913, 0.05463912015246591, 0.06478630233907344, 0.10505998136041741, 0.1112354191163364, 0.10914583238970714, 0.05501203201454715, 0.011913935603412798, 0.09272350478952751, 0.06788859747259995, 0.04486987079128275, 0.029882481795940528, 0.0905118262107138, 0.05192708940400432, -0.010584828320443869, 0.008443006248057508, 0.022507577251205085, -0.05354679361197609, -0.011684566585715771, -0.1010846210986343, 0.11959525858962475, 0.06581058360488237, 0.013346132324412013, 0.030296878636264648, -0.02152319420890226, -0.10753565525254205, 0.010808203637697722, 0.0942723132480998, 0.10325132281065594, 0.11214833816077065, 0.10621539125356787, 0.189886656414739, 0.2112109149270737, 0.1338972084283851, 0.18525392208339347, 0.13528674018194725, 0.10434219064432808, 0.09003043090035905, 0.05535922182415856, -0.018254929918003943, -0.04526571359248323, 0.0023828465965405575, -0.07002695486770927, 0.03162874891440356, 0.018035865575218843, -0.07355863913813517, 0.08771455536508957, 0.016323558704180608, 0.010281002872959794, 0.08443271026985553, -0.012346957711871472, -0.09492032489008038, -0.09774929328849437, -0.03783381415135536, -0.10612328462648957, -0.04064436836329849, -0.20233251917943632, 0.12462566658234123, 0.06819086820138257, 0.12600327297484554, 0.12261148624657367, 0.13516422435550032, 0.1123860606818464, 0.10597119900756201, 0.1112793468606197, -0.07093527923809984, 0.0768311847038151, -0.04544597979751736, -0.07010012690944514, -0.00496920229994118, -0.00031789899409511574, 0.02802010137910752, 0.006415716282554608, -0.04635422111933976, 0.03997577908262623, -0.06346374098135894, -0.06046866905703098, -0.11172325462431038, -0.041716635208952094, 0.0215454934815258, -0.04248663396621333, 0.0019121736592761362, 0.03324155612121098, -0.005755108007327876, -0.055994767367134546, 0.0005262235014671678, -0.05442713101766123, -0.056289034871314404, 0.08570145372683656, 0.07825715304228921, -0.0065211812751728325, -0.10449421423878862, -0.07605452063783555, -0.0004773841070282577, -0.13898939088615897, -0.007585162082364057, 0.07223410045358297, -0.036206429721772224, -0.0955848992939753, -0.044558828836103806, 0.007592340080640402, 0.04582949208139182, -0.10034642634157746, 0.050246954382042054, -0.02599706501906311, -0.05893139688140478, -0.011083119384467688, -0.005003928050083204, -0.03898240100804475, -0.1177516544273924, -0.023364230556319122, -0.1063316542166353, -0.06258516245049493, -0.09079080101989273, -0.2249065889073434, -0.07023077454118531, -0.06250354934085744, -0.17688536769871524, -0.14384469841488745, -0.1748621379086652, -0.13570791897918985, -0.1715086532523034, -0.0973259690471455, -0.04681482301043981, -0.048769388359163925, -0.009815393258321484, -0.02959893031515059, 0.02711530000146454, 0.003351436114511382, 0.020911082777934197, -0.013878792493683276, -0.0312366343791996, -0.01027500044122867, -0.0168871518025692, 0.01088918034945993, -0.12387507251464752, 0.05134544996472446, 0.00748644356848422, 0.01807475604064006, -0.11336508094342003, -0.13591284294873154, -0.0257128065237745, -0.11975781683471785, -0.17584249608170974, -0.2708667895558739, -0.2675190119245971, -0.15462288853357511, -0.17988505857016165, -0.09316159370880937, -0.04723609047180411, -0.10582901685134057, -0.03562302556615715, 0.09846386237044132, 0.053598992689872324, -0.044793617406490516, -0.013747927584867243, -0.04090264452293814, -0.0008782263280542801, 0.04992787903879365, -0.003265166584088636, 0.031392678324009195, 0.009760772463620825, -0.028302853350996103, -0.04718784924143145, -0.12868864303981237, -0.010727227655907367, -0.11232748741854715, -0.0529512870154884, -0.15959113555610477, -0.24200405177166073, -0.040937104499791564, -0.11327626684724675, -0.1248419597656899, -0.0492275932678053, 0.02275170611178956, -0.03764292227941446, -0.06361971920103958, -0.021043408325942495, 0.008095399797138428, -0.027771877792417445, 0.024713297428109533, -0.08677137619828992, 0.011575232354075989, -0.020781380525672275, -0.04075478003093625, -0.010751537077856931, -0.02732664731025838, 0.06236677499021409, 0.05996455362453757, -0.02689359815842291, 0.00473185890768408, 0.12232160566259773, 0.07961113399579477, 0.029476541319405695, -0.0003862733051299876, 0.009010705338021199, 0.008714619792575354, -0.07906981592042113, -0.13818403159171644, 0.004741117679661215, 0.08776444906289385, 0.05850165886936072, 0.09854720081463864, 0.04387011572724222, 0.1368437982698148, 0.06295373093304032, 0.08356618733510777, 0.012895417756228919, -0.0430566336498805, -0.0248636834532892, -0.09535490047810265, 0.0313263229032093, 0.029851211488779, 0.013185632498198294, -0.009793458962222659, 0.0712128407512837, 0.04480658546109501, -0.062012304047887, 0.03821382424428345, -0.0336362410295048, 0.06067364204515796, 0.037165630466920015, -0.03639575402464768, 0.06775307241588151, -0.07796543209707077, -0.02500535912467431, -0.03417157005233881, -0.026225579197203933, 0.028375678981265678, -0.0572382543976229, -0.030710387375849996, 0.00027918558863934223, -0.012315142518411643, -0.008671562368051283, -0.013293840102387983, -0.03456900836638654, -0.07359229807368325, -0.05119854902607998, 0.06001349179083782, -0.04396984438358458, -0.08741713832124902, 0.003352584921082674, -0.056418180943890534, 0.04799988773800198, -0.008390239802963873, -0.047181251666973956, 0.07200845841661759, -0.12011139826682873, 0.06822950217881243, 0.039962350939582614, 0.033070152628630965, 0.0074777878960192315, 0.043328323650283246, 0.01903272747345644, 0.06051421603605957, 0.12261240731073653, 0.033422858586025554, 0.0018658141282143392, -0.01215464634451451, 0.031243467707139084, 0.05404676858394113, -0.08334314838633806, 0.042515926974668036, 0.015958902070701716, -0.05047611744848986, -0.009113774516968428, 0.07908681679659346, -0.04981535293188354, -0.03581567063753977, 0.03426409860715019, 0.11333567365600251, -0.022255518080855782, -0.008309017919822187, -0.04289100509089254, 0.07393936926311213, 0.02679700954872728, -0.019574604094088597, 0.024883080350349692, 0.03344326666762558, -0.0045251432943555474, 0.1043272804863924, 0.12211880313295435, 0.1170525450749321, 0.02065873044990027, -0.027313981411642242, 0.07109223681521927, 0.0983148679493762, -0.005447008610771452, 0.05886868113041488, 0.02164278994247813, -0.013382626019358166, 0.013775333430031723, -0.04292923295824379, 0.0023054518009773474, -0.05800676870468764, 0.009551403139810946, 0.04093640783340526, 0.005185380078396384, 0.001418498566675112, 0.05363732170591482, 0.044919166852132646, -0.01831132038155413, -0.02011129311284645, -0.009842909502683838, -0.01063851641390379, 0.06421927498427132, 0.12785735056453745, 0.11217755905590673, 0.103450634113662, 0.07420563742156586, 0.08578189390250084, 0.11370723046331631, 0.08141056633804052, 0.05767220511914029, 0.04441682909412463, 0.04146226504779438, 0.02153562827791582, -0.04496768697972711, -0.030222585774066286, -0.040071802814222665, 0.03598873696968396, -0.017611800041073454, -0.025096029364582915, -0.06257913620810432, -0.056960899481708724, 0.11042830800952007, 0.09483951268021812, -0.0162559262189362, -0.014811173775777873, 0.02142694622461645, -0.04204552080895668, -0.04040773958645795, -0.009826996766092912, 0.07667698716743818, -0.00022931639486769374, 0.04600887597585288, -0.0047231838233613935, 0.01043339985881816, 0.05167830835801648, 0.08363398144430154, 0.03491424787299684, 0.05948655559299546, 0.09303105699521139, 0.05841203849431352, 0.1362759684800557, -0.034374021063472704, 0.09795186940084015, -0.06778047374174656, 0.08050011790786733, 0.07124378193238419, 0.051689306194751754, -0.001257187952634405, 0.09601266254715075, 0.03635754354013256, -0.06155792988854279, 0.01307047463219806, -0.023851100459047744, -0.024940384006646787, -0.058846160539586655, -0.0047291796470608095, 0.040498792989042395, -0.03637005680731928, -0.028260491073360882, 0.06591215538272681, 0.06564533438837798, -0.05981384979932208, 0.0017694874294600668, 0.004481650555994119, 0.042224381870763474, 0.006907102636102061, 0.01063356578168719, 0.0030762672541848235, -0.09214350261249972, 0.019076801154669823, -0.037551458664326735, -0.03070600218637737, 0.07963312911596067, 0.08208086099220381, -0.009739862727574943, 0.02000871265255934, -0.04624923205893231, 0.019174721620423395, -0.015365330444702441, -0.03952310049921238, 0.07900574895832332, -0.06256257392378171, 0.05255123877003875, 0.009288026898179048, 0.032698981331713096, 0.02193836708292028, -0.06375232904563813, -0.13329832229809577, -0.12088174154815609, 0.09002453882853546, 0.035818873740523394, -0.011033919233219499, -0.03409043857468126, -0.023682291182243853, 0.0898609781372008, 0.0016352230528040377, -0.04999296517880754, 0.005015859067577796, 0.025035760514822494, -0.0122582774394724, -0.06717287952431074, 0.01418763133029819, 0.06000892611166713, -0.006628589262642725, 0.025850116831299612, -0.025849574021788866, -0.03812733930690078, -0.07380477622243957, 0.0357905229706639, -0.00028599291063919084, -0.04095617652954807], [0.04361896305041267, 0.08351427756815487, 0.0020006882399365386, 0.10847524192441607, -0.01781964878378956, 0.027696747893457344, 0.024181487207881783, 0.025433076635918244, -0.018020246632345464, -0.0397077612994478, -0.03438103902147014, -0.05620976491900054, -0.04182459116959102, -0.032327529209855016, -0.05217592797894339, -0.0027165991927375894, -0.053972548471414306, 0.026452941825735633, -0.013111978946934843, -0.008554136853887706, 0.03270948184169435, -0.06423679395450232, 0.08756659401660576, -0.03189911705444419, -0.038970368378064925, 0.05556451727410691, 0.011650095535872722, -0.00016403563478518005, 0.03640308863499591, 0.11354769513671586, 0.014437987671079408, -0.013154665927403603, -0.04637098537399424, 0.013688037838783354, 0.02155826067254809, 0.03706955168406312, -0.00487819380637404, 0.040915186554131094, 0.05344365440693904, 0.0069791576698556524, -0.07665940870668986, -0.0036848325066981507, 0.036597819303636335, -0.0037004039839302768, -0.03684119819049496, 0.056631516615999494, -0.045010620940426266, -0.022706630466039036, 0.08357688554069546, -0.10163275464046963, 0.035569016687251986, -0.06616403584697081, 0.020301157456350173, 0.028352457470222175, -0.04106643918612708, 0.03394749328391016, 0.0812055212659509, 0.044912505362556296, 0.09704053625884525, 0.05331017854696658, 0.041884502616044386, 0.0635360694824795, -0.003690989860073179, 0.023122978510673593, 0.009200526115489003, 0.0782613516316254, 0.11984437021784189, 0.008100062319532338, -0.016579727222537363, 0.010463922773640182, -0.0069303525408674965, 0.060306043044090506, 0.042380213308847114, -0.06326100666179849, -0.004258644710697589, 0.04315206713595497, -0.029080513648363036, 0.10024775116333078, -0.03374130833006108, -0.036372230201734995, -0.02549960864083616, -0.030359736192411196, -0.00839393653176007, 0.015271741978248517, 0.07699612827571914, 0.11938202247954045, 0.02142518173363028, 0.028305801217963267, -0.022631053894034893, 0.05109429066505335, 0.06230415261450658, 0.00010053298308702272, 0.10403531347177412, -0.0049528940261403505, 0.04789816559078456, 0.13378339625863236, 0.03558749877209597, 0.10022082357494345, 0.029469852376493556, 0.06256188930566242, -0.010686430861342886, 0.09792937943430913, -0.012597468150389413, -0.01792984514150267, -0.009013059750962346, -0.0003653879065440568, 0.042606753284089936, -0.029484768733397275, 0.08042314963923727, -0.028851655266185147, -0.009880401507628065, 0.025274653997679607, -0.02732100826088478, 0.03248032647774011, 0.01742499273845361, 0.058341051215358875, 0.03889406611360934, -0.0705120308673766, -0.015737288464920424, -0.007133138348970433, -0.026166603056593393, 0.050232649973169244, 0.061976385418422805, 0.03175417462637312, 0.07551880434083166, 0.15906969926726394, 0.01013134569497611, 0.045003175016569676, 0.0609278814436339, -0.045527636507478896, -0.04795246773594303, -0.0061182224683613865, -0.004358414736634362, -0.11742095722423879, -0.025824605213936383, 0.046752108716703634, -0.08541495432651368, -0.11028876306291006, 0.005447160103669777, 0.04507228293219271, 0.16020733908649262, 0.01567072184824936, 0.0889301182666851, -0.05428354260241337, 0.0754328741092011, 0.029824435716299974, 0.08405913955570309, -0.053828906243240195, 0.025516656906935498, 0.06487310475837066, 0.029740673054576776, 0.0617705079877845, 0.004720191925197168, 0.028358038662291946, 0.0342275978964339, 0.07200872952380578, 0.09719892979463451, 0.07370177038892807, 0.013863300260061896, -0.02260264433457863, -0.09701401531319981, -0.047903706484585605, -0.09238540415800595, -0.012074886071871856, 0.012659318757310148, -0.09506683252309518, 0.04614186202266229, -0.09336394892145992, 0.02433813103461039, 0.04641329364391515, -0.02648622149851252, -0.02856485832118558, -0.03306711698025823, 0.03770209871242237, -0.09104373269784784, -0.034261047943066565, -0.017064216618759717, 0.04937524208952485, 0.07428189432909402, 0.07462329040771891, 0.05296158411340307, 0.11153198657655192, 0.08040175535914386, 0.10181144242033238, 0.11584789869734555, 0.01689009221149985, 0.15674147556907464, -0.10202297009041712, -0.04067084986914248, -0.14152414237858923, -0.08534212428050539, -0.052327938074434845, -0.06224780179903794, -0.10405079071512771, -0.12200477921819704, -0.03188873342936143, 0.03285611964429218, 0.06998406236444606, 0.07655357459138666, 0.03786735014055724, -0.007560643453131245, -0.012190700576212354, -0.038054841224953645, 0.019348665683903053, -0.04409882629524322, -0.09602306234920602, 0.06204653711227807, 0.06413526732929463, 0.042994556016207976, 0.07074243289988515, 0.0883355325631936, 0.13439449859904615, 0.15752718117929923, 0.13648185775647007, 0.035644928074351635, -0.1255788400877302, -0.16319841519698655, -0.1582381697851639, -0.1676242647825441, -0.18648386893601002, -0.08262532310548612, 0.0031016794710093326, -0.01293500981377566, 0.036233514117498, -0.05936666880382014, -0.02150672478233243, 0.037246210160038186, 0.007876303569463877, -0.011634104598165202, -0.001153605029566185, 0.023879609458438353, -0.0034394877892249213, -0.04795030445694214, -0.009002119817072362, -0.06881326143613692, -0.029702605017066522, 0.022551239873339242, 0.0964825873178252, 0.09279280074804608, 0.199539056684624, 0.2082740426731024, 0.1584119420169349, 0.1474866731083806, -0.1325741697560423, -0.17286083899081384, -0.20159938634067512, -0.20484585187664325, -0.13111105269544648, -0.0837031389873581, -0.01667588081816564, -0.0580156096239979, -0.08135581761493477, 0.10409489703490994, 0.04857230562143601, 0.043541228923242366, 0.1259043381693211, -0.04116041559899243, 0.015283594666752819, 0.04225487211922401, -0.05311484931884567, 0.01696271201225002, -0.12905471367415153, -0.13111101796567268, -0.0535279158362085, -0.031352907250430974, -0.023893181055393155, 0.09413515097923582, 0.09979778919592117, 0.2545546104678326, 0.21014631944159795, 0.13176430207189452, -0.0929157238192549, -0.19330461579972605, -0.2627215372256248, -0.1675638127744408, -0.06718367514692795, -0.01066939494857869, 0.04012049477515995, -0.05077549703732455, -0.06074861432597447, 0.05086703291186133, -0.0008110063476247536, 0.11468599882052927, 0.03495524286449431, 0.0648678428176958, -0.06587105604357127, -0.038474792637006136, -0.01480679474049372, -0.06110105182355839, -0.05224238763165032, -0.22646521763161478, -0.2147936332088171, -0.011459474896548612, 0.13198447757960236, 0.17583081266118059, 0.23530984035071884, 0.27793662217128007, 0.32508305253559855, -0.14974362440277508, -0.18950454796252555, -0.18964481349309317, -0.22695426784638967, -0.19400324372115885, -0.06414869054167552, -0.07195715525161904, -0.05352529665006142, 0.012276884738229929, 0.06958720421190782, 0.024641715694646533, 0.08566114985027695, 0.01588690085313326, -0.04319758379487723, 0.01084017339766958, -0.001576962658978126, 0.0018902822643541318, -0.05967236803691463, -0.05892266876073733, -0.08141353274814288, -0.11247093096589916, -0.1951670668728081, -0.1428140891554321, 0.030714967325337884, 0.1960030608862831, 0.22428867107549497, 0.34238979197573316, 0.17315383941476348, -0.047023200443713636, -0.1301412491753993, -0.2793982298880809, -0.15832366954885793, -0.079337392787052, -0.0202056666708659, -0.07966960596445694, -0.01696195710309329, 0.12309213193809418, 0.03632177094902302, 0.10251783572670681, -0.09525277875356569, -0.015012357387296156, 0.06379360817811847, -0.025329918330722654, -0.021519164858775818, 0.03499634158608247, -0.030851121484948094, -0.040051759956114104, -0.004812069930443178, -0.06200509611718717, -0.10641273885377008, -0.15568327019906952, 0.0154644236537856, 0.17073227180725248, 0.31698106484698557, 0.34618007839632714, 0.06970498500961854, -0.14108104626271417, -0.3402808179458673, -0.28787442687037734, -0.1601505782315532, -0.18704131408831287, -0.1236980413171919, 0.011138545344163262, 0.1345653675082492, 0.03643787783679584, 0.1002030654200118, 0.057988239799475136, 0.06160501064037485, -0.06838410920052823, 0.023894592823112855, -0.03431424246632555, -0.006583447946626407, 0.010049269592539545, 0.020975036924303622, -0.043468571067166235, -0.05047727792339575, -0.13716860800258734, -0.05012254566019897, -0.11251508656237956, 0.12555391822154002, 0.3526352448517537, 0.30131444427522336, 0.18605931345520538, 0.06679712875046573, -0.17403233767455348, -0.18976149569132192, -0.15687212846284213, -0.17135011234273226, -0.034470788965359336, -0.05551880901685418, 0.04614853366650025, -0.10682412323225625, 0.020208022881877064, 0.07525493482880447, -0.040110692465660784, -0.03108418570887923, 0.057166538498530935, 0.038001631409756355, -0.027675431182573058, -0.0027930402234183703, 0.06530490181313654, -0.008379353519519298, 0.048031492682723394, -0.01077647255792584, 0.03724785723842768, -0.08414745615602291, -0.0634927712153766, 0.15708459914609166, 0.22472217214654977, 0.24145058573479344, 0.026050550046011423, -0.2207181178665226, -0.23420719594757305, -0.21371012566184036, -0.18728014077472324, -0.15873387273343995, -0.0675847881254202, 0.03964090793851169, 0.015171413629407781, -0.05798256938972929, 0.13363696648476764, -0.007278831659008353, 0.05731423152545652, 0.002424051211766617, -0.06616737878338513, -0.06466726767584866, -0.0007509907749843282, 0.013336889233001695, 0.12500247531041664, -0.04302467962988601, 0.023215131136583418, -0.04452998602530912, -0.017522771816445168, 0.03184642339652011, -0.015075745626935089, 0.10519490757215542, 0.1923200854372259, 0.13493562030657058, 0.03287346899042135, -0.2918527529543795, -0.15702968161445144, -0.18956537980792462, -0.08122407067872191, -0.023218667274731892, -0.01044166076276528, 0.09624454477776925, 0.001651865474734734, 0.06450144521578127, 0.05457877605073172, 0.0070983401668308545, 0.03748873422833088, -0.014669649766621932, -0.004799029069215842, 0.025836894057105722, 0.06964277256867273, 0.08094268527767402, 0.036312115955771364, -0.010168643808643801, -0.11689809970545137, -0.05808795072623543, 0.05696830122219725, 0.017328659827593785, 0.07260611132989962, 0.17068833893057514, 0.1018870175799409, -0.01693510373116497, -0.18862616347855765, -0.23124860698370156, -0.08493861789499788, -0.04684462668451304, -0.03380072991433713, -0.024061060591087084, 0.08421679206204982, -0.030871255449297596, -0.0172769369382785, 0.013829232978205716, 0.02433386663116802, 0.012123766167480976, 0.04470199952896406, 0.04293646270581882, -0.08849443461973898, 0.07657420801302621, 0.023048981342449405, -0.07656180928656925, 0.023560511495883535, -0.08009528475870767, -0.03330029614548041, -0.09661592144671577, 0.054490908834140844, 0.03695839941079139, -0.03830096391851715, 0.05937748889172652, 0.0686341756626844, 0.06733651357706369, -0.11878883271431143, -0.1359260409439168, -0.12257242583531838, -0.010041930055069592, -0.021747074455716487, -0.06655597297168614, -0.0033014826936546993, -0.0074378785971058806, -0.11466808215672372, 0.015727382038562596, -0.06097297397295716, 0.049188377538794986, -0.041359925001644454, 0.0755100683534828, 0.013102199820000184, 0.11210107720098121, 0.06275650661241866, 0.007830038923765383, 0.046095905414607244, -0.014430883825928381, 0.007892936728073187, 0.01751882669582087, -0.007023923125048285, 0.013406744239678853, 0.0276517714222859, 0.08732874107893984, -0.059606172940702834, -0.08051996236517514, -0.11153492933398804, -0.1699156786449236, -0.06492371997179489, -0.04491805071187842, -0.10553704825646835, -0.020760810540911504, -0.14021987181016102, -0.0037581097928114262, -0.05941450542666025, 0.05450115368746593, -0.016142868931384762, 0.07728539577413679, 0.11266333446028692, -0.11257146724841069, -0.036222619686376474, 0.04536482251610207, 0.02512720267673356, -0.0013190889125035223, 0.001538266505493426, -0.09417273362737195, -0.07549276687788586, 0.030585900030458142, 0.015512810256389111, 0.05093892075397674, 0.0018530546069203348, 0.0013195052139888433, 0.010172784920461898, -0.019667057834291898, 0.0018780392162007272, -0.04465080496036154, 0.020652288321544022, -0.07757790304218837, -0.08469835222786307, 0.007358980482096316, 0.07474935678783794, -0.0771144874929652, 0.051635498201623505, 0.018549287116206386, 0.005276289188762895, 0.0032064199090285034, -0.012304477263968813, -0.06640910698104455, 0.046486420450297924, -0.029858264364482776, -0.055533537945022145, -0.04475971709972422, 0.10603474634230341, -0.03095465090719534, -0.1270705448889708, 0.02630361596365488, 0.046492354447423404, -0.03480411664112056, 0.019543645235294105, 0.0016659646337656277, 0.07691171331727947, -0.0372389715556795, -0.08525097866651009, -0.03002280037617828, -0.09581351741508962, 0.07946389551222571, -0.011366981971533791, -0.05272408707488245, -0.008211340000666048, -0.009407177829091487, 0.00449849939732687, -0.08835485484130734, 0.013324507570732315, 0.010829230222979228, -0.031120101013193645, -0.027920320103035037, -0.08236626808574174, -0.020126566911180265, 0.07417703817177816, 0.0666833870064045, 0.0008100098136190812, 0.028560706583156636, -0.0514049679942097, -0.028393767140333426, -0.03522390546050613, 0.1522688389918362, 0.004104742723838124, -0.039651100654639004, 0.04319389230953205, -0.04127289983416006, -0.02656253373900537, -0.019851695693705203, 0.06270942272269481, -0.07635707652283438, 0.07208324302450489, 0.030899133209278434, 0.002918993715616692, 0.006452442486479181, -0.022134577562559998, 0.15721190784222389, -0.05007570728158646, 0.08966173777619461, -0.03239584370443295, 0.045942897642579854, 0.04109975498995614, -0.03892105163658378, -0.009968668487494524, -0.0516776716594836, 0.002093115277939369, 0.02881731577063853, 0.028780259146184414, 0.05064349046525469, 2.603542382095493e-05, 0.06836444040767745, 0.07192426419109982, 0.05322116849196248, -0.03944176751432243, 0.012883818289902756, 0.04172111016023116, -0.10527730530998282, -0.013762753711186739, -0.1334108245248244, -0.00668298112945488, -0.015569743745448249, 0.005597718745476647, -0.08157862438853544, 0.03804032453306188, -0.005503946110723572, 0.08010480383839295, 0.03465876928492272, 0.022628305306721126, 0.01752781346612086, 0.03338444615978826, 0.009407474794001674, -0.06908293061751909, 0.021479230990970575, 0.041875080798015885, 0.010715481576396815, 0.047621287276330936, 0.02187809065646764, 0.005351937288416782, -0.027377501844134657, 0.001047630007321073, 0.07560949812880685, 0.0017606806306060905, 0.03901525295042283, 0.0025647665851546045, -0.014927552066933964, 0.010878934991096222, -0.03624043296116142, 0.034682431992804505, -0.0008164105113684065, -0.04632452943857701, 0.005628241621652165, -0.03594798570275428, 0.02219520617910499, 0.050103369357196455, -0.07271284208601331, 0.027965419526570095, 0.014591965810859971, 0.03674717686499709, 0.020213033149142523, 0.032537587364917187, 0.02018311791366175, -0.006686504500231179, 0.015899363994048683, 0.026599604002653734, 0.007594703703778762, 0.0289920976360317, -0.010910596535726855, -0.024126323152440152, 0.035422066054461944, 0.016024808906002542, 0.0059701458679831615, -0.04223857388021008, 0.030421396121818916, -0.0950403090867945, -0.06857038849859658, 0.02853182281528353, -0.03862764500651436, -0.041694933452367064, -0.03766123049316995, -0.002947923719310005, -0.04206147858811764, 0.052620402005566634, 0.06254149823307235, 0.004077197829902469, 0.0321109073304656, 0.0668216002212196, 0.051507754189318286, 0.005108242866974902, -0.036522235272240036, 0.05722412631611306, 0.03153603254204173, -0.13189641688153975, 0.005529844467647992, 0.02317137375890094, -0.014676170812587907, 0.044243963255570735, -0.023002890336069393, 0.022611711162463487, 0.04326904719220362, 0.0424906692538916, -0.0028169304158354074, 0.09023788966905427, -0.06384618173661549, 0.04822539638723326, -0.07888467308568103, 0.07282307011167072, -0.010884785567970843, 0.04591435863681087, 0.028660343563153223, 0.05984979972351814, -0.0004787936520379943, 0.0549145151687417, -0.03544818665246104, 0.036799394615536676, -0.019626376891571255, -0.02978638959858158, 0.04001482682460785, -0.12197982264665225, -0.05060923493681972, -0.0700715187372731, 0.052878919921661535, -0.051935373343727324, -0.05337277021647619, 0.08055242173088238, 0.0025094634570369, -0.0318618214614477, 0.08672299505857087, -0.005339446916686161, 0.11188490680302632, -0.048139283604951545, -0.05294387039249242, 0.005611338966457353, -0.04850661517929753, 0.025495553059229552, 0.0368583447560357, 0.004640634614106859, -0.031838854215050255, -0.0302631929370235, -0.005087164246482655, -0.029224320571457164, 0.00560469875128886, -0.08382192090996242, 0.03755440222508063, 0.02537321822354492, 0.04582591261257493, 0.08912248254747453, 0.020719889305551763, -0.0913949379164684, 0.017368220212343657, 0.02323444500640072, -0.08102835415772423, 0.152674192400254, 0.00015193674579193779, -0.002093618048263378, 0.0759963114529406, 0.0987494886742552, 0.024498047875483975, -0.04291351722487675, 0.0752464509626908, -0.0001057718297438195, 0.03759604092242016, -0.014934538508211817, 0.1022023967884389, -0.02708550584018136, 0.12426836388453569, -0.032468921235756176, 0.00030392054416194034], [-0.005248630844160198, -0.0054819405110208465, -0.08474186772379873, -0.0756943731373695, -0.04587466514211798, -0.02327935956247725, -0.11794204135671543, -0.10984741773283932, -0.12068009305791741, -0.06668121675225053, 0.008445344255116938, -0.017844831471889092, -0.010463827027202749, -0.07297277296753418, -0.01018960578001007, -0.020254266281477154, 0.010705311348661335, -0.06305693720170445, 0.03888458912471816, -0.02416443951794849, 0.0309354489142943, 0.058559499918951645, -0.027567683685372248, -0.006062376725269536, -0.0019226391198476987, -0.012039725410539102, -0.04008015289684532, 0.0245152224609769, -0.00046172392028340036, -0.03810749312181927, 0.01232626609610762, -0.023129911534345227, -0.05532882798305011, -0.10754256048346734, -0.12067742108389944, -0.06505341153232375, -0.025974544629251212, -0.10634260459741045, -0.010966583893667399, -0.04021262852775797, -0.14169979797496576, 0.03618045819644673, 0.06278791684487973, 0.0347314302133795, 0.07286362420927264, 0.07499078579275581, 0.020816517141249956, 0.008130784036291264, 0.07058255479548287, 0.029576168588267948, 0.024210446528119194, -0.018869849854116216, 0.009956762568287938, 0.05217144833097891, -0.03104424825586066, 0.035499437150828365, 0.008979522099585177, -0.06626197031940811, -0.06086645409615319, -0.06598888595504657, -0.11668716001173833, -0.029582525834122308, -0.13119762724325584, -0.023395560695844596, -0.029440168423087575, 0.09265280156002831, -0.02730309126490542, 0.03975792520295723, 0.03210919316032091, 0.07946103237390334, 0.046857611578281555, 0.11997275769734343, 0.055048456075926844, 0.15122507672914753, 0.20279091062637275, 0.05564255139902066, 0.19093373089260585, 0.07391371182133102, 0.11441664178019562, 0.022676132729006027, 0.1155293040399264, 0.08000518981662104, 0.032091947931558305, 0.0053121819795077544, -0.06019240703529665, -0.008447922148901494, 0.03589583178519199, -0.022234961775330134, -0.08022713024277005, -0.16508963268727983, -0.030360488757690318, -0.04334199970628134, -0.06424633643165448, 0.058708937620594814, 0.031086779596425484, 0.009761907987121501, -0.022049486535036356, 0.09139622206158379, -0.0013111496391577644, 0.14297578560438717, 0.12370129012116031, 0.2305592256747285, 0.006498258322208845, 0.12834145050967452, 0.046506857237710794, 0.10193684541560914, 0.03239174148125716, 0.002893527507600339, 0.08727475121337887, 0.0233478516965189, -0.002958312097541563, 0.0346729200259496, -0.06014684537159678, 0.016330156534988052, -0.008251436509110322, 0.0004547972904200684, -0.058330744678654, -0.0007536803411097741, -0.020014242444344084, -0.06697445725002776, 0.02886898883064998, 0.001437844398453172, -0.053837357764741745, 0.001519433900008017, -0.11677087957671417, 0.09083001721058297, 0.009124787604068233, 0.10915207480169134, 0.048422670339107576, 0.034964005302951885, 0.09773917923797089, 0.10186333734538774, 0.12353095910778358, 0.1128411319962899, 0.05216519946288433, 0.15799266830238035, -0.029702889228460046, 0.0011151933084239819, 0.05300009422750065, 0.14241303609065786, -0.07689244501965005, -0.019355230477531547, -0.09247447515071332, -0.09147140174350768, -0.03531522027541411, 0.04448804079809693, 0.1028216025722825, 0.06384778422731736, 0.017680906465595538, 0.010997131217498665, 0.029790350531222438, -0.01937355432609459, -0.05522249070491573, -0.02339671456116604, 0.01624138078967159, 0.1336222807336857, 0.020972940077261835, 0.23378247675394706, 0.14438687455249855, 0.1221942906931493, 0.11531283675299926, 0.1479839228248702, 0.11564541856474432, 0.018791139202009415, 0.14123664632058308, 0.13352784133187096, 0.09030699976458659, 0.1256443500498759, -0.05744347313506047, 0.014355677755205626, -0.048605381816669346, 0.0720611113077768, 0.01697263158451962, 0.0059275641712537705, 0.13049407620612966, -0.012014779307793605, 0.016622673181570163, 0.04599397079829309, 0.025522520966071317, -0.07492838297149658, -0.09195717071904569, 0.034103881732501846, 0.04429809303886049, 0.0769460631940085, 0.014413903506385715, 0.0964394293779065, 0.14579884227053724, 0.10161812153406996, 0.13862517562435156, 0.08678609719935612, 0.10095229333813724, 0.09025583786009325, -0.018632939453339117, 0.16401502039244145, 0.08418482306665356, 0.09988333717870912, -0.07156620341892671, -0.003993096043637726, -0.04079683456293911, -0.06258060513709976, 0.07449573015773234, -0.03053964699490945, 0.11547607820355764, 0.10040645576588458, 0.07127806955332439, 0.05122242841815484, -0.025159004369838138, -0.08838566132441614, -0.049210279858794406, 0.015990223300974264, 0.0566601017775513, 0.046899000856491506, 0.03697623178783807, 0.050870368144433215, 0.07496745265511279, 0.14342158435057203, 0.08793587191128992, 0.10063714159591766, -0.0037990228127965132, 0.15399723640613674, 0.11027654545359106, 0.036213815921896944, 0.15058193632657302, 0.06966634274637967, -0.07258942794048806, 0.055746558143226876, -0.05902071026025524, 0.0077169115474340294, 0.07659996867390842, 0.07586471150193505, 0.1640324521982303, 0.09353996402329369, 0.14751050750526246, -0.009223262641540966, -0.01433009402463605, -0.10205070331192541, -0.10512189522607186, -0.05877438448177267, 0.16105142756968502, 0.16620711155568324, 0.1511820556754351, 0.04345072580939565, 0.04866857024392664, 0.0604209854824239, 0.1407199198175661, 0.21256929397896646, 0.07581892029367052, 0.03450018747840345, 0.12358651148396904, 0.03617373295087701, 0.06148305226656807, 0.11018235628984675, 0.0031911028897973217, -0.114211831539577, -0.07550090135320073, -0.0923873842243048, 0.028248550629964966, 0.11239751302136805, 0.10144207605596821, 0.18293625846734424, 0.05437024643126654, -0.03440156441989884, -0.023491706235615046, 0.01199330551397338, 0.04857509388028866, 0.08366755693890951, 0.12906613386500712, 0.17086409269898728, 0.17202589816517186, 0.1395056878392269, 0.07714314611327194, 0.004482677824217217, 0.049255691416136456, 0.11664231003490474, 0.02375350155424129, 0.07479679990813927, 0.05593678632542032, 0.036610060016425514, 0.11633826094177124, 0.01965238666550044, -0.054575081038281986, -0.04736170718284438, -0.07013207488957175, 0.03581368504919322, -0.006693105731347066, 0.08607523642343361, 0.05366475213434512, 0.10340318633782905, 0.1244556439048576, 0.09442787697310988, -0.05052828950753328, -0.06454122949248253, -0.03750423182431042, 0.04350603319412789, 0.12562120483127634, 0.19083922287575839, 0.2886451992208516, 0.11099803141563133, -0.06581426011655936, -0.012945666080904914, 0.007390984940978914, -0.000922858311483678, 0.1206793660232385, 0.1139558262763537, 0.019909319731308057, 0.06921845857326717, 0.059164369585849884, 0.061998306987440195, 0.014425398999934136, 0.055027043564827544, 0.02436214291528282, -0.01691979860410541, 0.10154721836153327, 0.046014918840169394, 0.06003352557802167, 0.07599064141537809, 0.1037067236037364, -0.03702410478101652, 0.0544479466754653, -0.10374131720517053, 0.04007888510501732, 0.0846420715883359, 0.13511334433770467, 0.14865790749680569, 0.178441925971704, 0.08313930791117043, -0.06484751318319616, -0.09482788530869303, -0.00526168218067833, 0.008999267730369269, -0.007998308567953794, -0.04841350597241441, 0.05520846935530191, 0.02120218786898542, 0.08853247267905238, 0.08030142548949427, -0.17983503085301544, -0.07273229537572551, 0.009252305631128855, -0.01664373519535452, 0.07285850726047743, -0.028393901860185367, 0.19725617300470671, 0.1472767361364165, 0.07761736597929024, -0.027871325934537963, 0.002105445991501983, -0.07693501408592619, -0.05386751244561665, 0.03609885626892475, 0.16451915790351965, 0.2826241432819333, 0.230980426725715, -0.05956580723624371, -0.06968169466646626, 0.0041971450132631295, 0.10017493050466658, -0.0023727604922209916, 0.006831160456979452, -0.010033236188905517, -0.01266229635810692, 0.03669880487318781, 0.07935128055867748, -0.04419478079777312, -0.05122552410216349, -0.12358640595078266, -0.06378146354363688, -0.03221929009246969, 0.0448464445703608, 0.08892918669416142, 0.1889085636929031, 0.095126152202588, 0.03358420219168444, -0.018825058112726077, -0.057371098934062045, -0.021099554573502315, -0.03836899362348878, 0.08315320798212497, 0.043900469641654345, 0.18841497106982233, 0.09711707615363946, -0.1075616806659498, -0.07669486538658307, -0.06188647041268393, -0.07506815245746634, -0.014047550155769981, 0.06500007030997872, 0.0027760086395291817, 0.02007817468691969, 0.03957516499506142, 0.05921780684876043, 0.11748337527965572, -0.07018351935254444, -0.042982515335126294, -0.02171063036994464, 0.030477030629929406, 0.060242608793222206, 0.06587425055468826, 0.087273109052628, 0.0741713837394077, 0.10861828895938126, 0.03724789192386743, 0.01955888335512424, -0.07357397822931072, -0.0037222979691429255, -0.06365760187768468, 0.14693608555122334, 0.052278612893296314, -0.011667380462821732, -0.16790975820851817, -0.11426489408979336, -0.07767046523600842, -0.013632175033545543, -0.0008634644178222333, -0.07944808980961739, 0.00436618595651742, -0.0038859514932704296, -0.010180475560955228, -0.06669904029047297, -0.05294330116434578, 0.027792353320837022, -0.050376486715847615, -0.0052595789355103445, -0.005143587602537691, 0.08161065065992305, 0.12948348318369085, 0.10897582437276854, -0.031711984916500395, 0.016798070099569698, 0.0320660778199389, 0.00027572346477508286, -0.01891137465792363, 0.0592343107449209, 0.07482260542749303, 0.031597865051205716, -0.0013387825564069183, -0.09327012855677849, -0.11613749745166521, -0.1682300390094138, -0.14864926162378467, -0.08396081837496351, 0.013733812490623387, 0.04430676694071059, -0.03280797915167194, -0.09694321852326389, 0.02521292675941005, 0.03782078004002061, -0.04642646182815503, -0.0726489591866835, -0.00043491126307945667, 0.010130385378087395, 0.0922207823566034, 0.09915528017676545, -0.03937020868961778, 0.025104066377150014, 0.13659700530590893, 0.06309267472665148, -0.017827173593293864, 0.01244081346699174, 0.0022164766116716463, 0.002548643522786969, 0.0545084042436467, -0.04920179801713039, -0.05933485469120606, -0.12906321205584864, -0.12351428667892418, -0.1432334906794452, 0.06841226990397853, 0.018665510063660653, 0.043747170101978164, 0.04966142045767566, 0.03189396163503873, -0.013114891174182996, 0.013012400615941711, 0.0013429733632656358, 0.006070353031167064, -0.07012242018225137, 0.007861809822280132, 0.04823151784551362, 0.019471550293478274, 0.031100185886006552, -0.02240345433566225, 0.10840646372929949, 0.01994991934095825, 0.012904749537225885, 0.049843559566463094, 0.10744318421780648, 0.16833510944604285, 0.05871490746327285, 0.0159406877070396, -0.05274231868073112, -0.12472384995189702, -0.0965582171535001, 0.013085778463071258, -0.07006245531617328, 0.0884444542831567, 0.04129106688918431, -0.03247659283200833, 0.011586601280335155, -0.014657924069557687, 0.022278945898113325, -0.020248433460741788, 0.08939178999396521, -0.05125653664968911, -0.015866221212147525, 0.006020151182891436, 0.04480255960687189, 0.037880283197248454, 0.055787681660817975, -0.034198781305760685, 0.08335040626806094, 0.06436000351079031, 0.0490584679595303, 0.013596244339924485, 0.057522241770486794, 0.07961578834263038, 0.06405315215301705, 0.10885769016057725, 0.06698797791064202, -0.07350465731858476, -0.022389426745133036, 0.07666201411871763, -0.04797346789973758, 0.0029231708946998148, 0.046824550715776465, 0.0940400696695326, 0.05885101481576492, 0.06547474556719793, -0.015872943047373158, 0.02908229608667958, -0.03822368262292054, -0.04860202293377423, -0.07935288667114203, -0.07020338842178038, -0.05397939003013564, 0.05779328147528568, 0.01960188523167018, -0.057369433900853105, 0.03290417671239133, 0.0946634644624229, 0.13008293231507212, 0.1405366221356824, 0.1877872357559431, 0.20286467541826467, 0.08855678539414695, 0.05357524824141676, -0.019270509095666646, -0.0352562201374896, -0.006652336363107543, 0.03462937413460494, 0.000557421756740313, 0.03488807816281682, -0.08046722387397548, 0.022040363060089694, 0.0067912344533858394, 0.00264180483486829, -0.015634073305273787, 0.05087499088122399, 0.0441097159899533, -0.031063187300937486, 0.0811039253199812, -0.07412179225920103, -0.1527135202100332, 0.014491216737655799, 0.05720328482417156, 0.0016065389043726877, 0.04438992864074996, 0.12582910425013522, 0.03469785913176979, 0.09692025499722189, 0.18221478761589047, 0.12986514159042156, -0.04166197771672644, 0.08667083593645793, 0.056177188991069237, -0.010053921747759743, 0.03967874010112207, 0.022924980502252428, 0.05500120271057948, -0.042038020177140346, -0.11496155390097104, 0.051879503354628764, 0.015428283647361509, -0.0047495072781612154, -0.03078048363317542, 0.037400737398552125, 0.032898192201638775, -0.06687002220426333, -0.03537872905876812, -0.01897659715388437, -0.08424587226002321, 0.09167041733499438, 0.006738917458045832, 0.07297302815896169, -0.028974848094154425, 0.061788491593474555, -0.05144217269600674, 0.06507367438484918, -0.04869123523301143, 0.004284576503165673, 0.07202827154173976, -0.014988436075418592, -0.007575312347529099, -0.07218652455833631, -0.08117595542391244, -0.06440503081229586, -0.050830724280015685, -0.010268099611009805, 0.08081937448019685, 0.045391520837313494, -0.017570439972999955, 0.0018515831254988365, -0.029842701223595624, -0.012648501231119888, 0.03941076774411242, -0.05857616427540307, -0.042857729567662435, -0.017068924645129734, -0.019379162025722298, -0.0025412068075237938, 0.012560677564321443, 0.0794235835540662, 0.08708565063668165, 0.07687699298112477, 0.014982227112479643, -0.02042926574655044, -0.0078046680408812115, -0.017613840986658774, -0.030873631636234716, -0.03067014491917676, -0.050423622952105715, 0.005010420947187257, -0.037293277168208336, -0.021800041248159555, -0.054675517778849735, -0.06824650184539852, -0.0007551618997496346, -0.03751899603920963, -0.013319645176823046, 0.0177829046737277, 0.04698526848446482, 0.04840413122219939, 0.06391459526156915, -0.09614462342013029, -0.08407873599908136, -0.05782470120235819, 0.018985457631670425, 0.01585157837308834, 0.010401354108154324, 0.07330069670142199, 0.13249081558969675, 0.07352942365873834, -0.012249954941713243, -0.017387820290983996, -0.03198895725352989, -0.01858455508168648, -0.027177018546140023, -0.07302639092483935, 0.04323576577937766, -0.0881513084962794, -0.10502125141157596, 0.01595912047369999, -0.0856633589214577, -0.0031066080524251457, -0.06124430890785155, 0.004042528110037888, 0.027454255558554942, -0.03167124362181315, -0.05401313752037826, 