{"layersSizes": [784, 30, 10], "layers": [{"weights": [[0.020566684439921667, -0.053315194601554025, -0.06381133337729379, 0.0579891628934933, 0.04010421385721106, -0.041363964944683945, 0.0007753254392340449, 0.009153427478186137, 0.019201616877173377, 0.09040862116872535, -0.07646198475566698, 0.06575994190715882, 0.06754411838459541, 0.06141789325144752, 0.036784933742103766, -0.016337297082340732, 0.09078209704226091, 0.022062954378930678, 0.06705573650009843, -0.0332556188909553, 0.035353849016933815, 0.031065016492640964, 0.10203906407007547, -0.07485158135265293, 0.004346300265949062, 0.006834459764550844, 0.017287383724779903, 0.03653268428905246, -0.07230899701818533, 0.0076287038224735135, -0.00043320306317706905, -0.059492602068041786, 0.08600727920478943, 0.0631840523780441, 0.07872844770527325, 0.01055998297538276, -0.0676812299597182, -0.08071407869537817, 0.13194112885869105, 0.038729882169289666, 0.03326215763184024, 0.053070649119601264, -0.04738913183353522, -0.09730648636345408, 0.047945168106016456, -0.002987880111252521, 0.05990785027193974, 0.03675253277517752, 0.004390541499520077, -0.02744148985973175, -0.03962107824977758, 0.03547853138473229, 0.12520372407055802, 0.048726153902861544, -0.01853149707616181, -0.0011203224108875486, -0.030547483667756843, -0.06141213809040784, -0.055117716403215646, 0.04859665706642363, -0.003512467730536131, 0.007247809315828954, -0.004736013036424354, -0.08012916951261216, 0.04477858429857868, 0.021377252177678947, -0.04154449350596563, 0.007654164197987675, -0.07846658301652705, -0.004740209856348271, 0.053028318645846645, -0.009355561262167486, 0.07006012797728113, 0.020844793504729852, -0.06213708499861692, 0.032406212037407595, 0.015958803823286117, 0.09241080408610963, 0.05099523266628589, 0.024975284865961636, -0.010362415265233061, -0.018068660547515724, 0.027629562995797063, -0.006902597353956834, 0.011113919138390582, -0.06363707888056543, 0.05041313998302585, -0.02410160189174189, -0.04663533551706862, -0.037418526909854435, -0.022037484329432786, 0.008061956295558833, -0.01211078162947629, 0.03056852753467436, -0.046322282893469686, -0.025411972338502956, 0.07513506689872532, -0.017937384922643164, -0.001977802379578006, 3.5157066717394334e-05, -0.0730930133067929, -0.04177701260314172, -0.05823964555806613, 0.037556238874865956, 0.04014250591204675, -0.06396513273025416, 0.03745278471695337, -0.016715719777525614, -0.036462672513893665, 0.03108081769950362, -0.04302195168724787, -0.02459684338257019, 0.003751356313726253, 0.036629083370840775, 0.04535494210731565, -0.030687937728263965, -0.01905495618151992, 0.023689876317166094, 0.02091940630265213, 0.03497838068450425, 0.02241392056197184, -0.03181832510280705, -0.04637527157055704, -0.057202842091310976, -0.06985108491779986, 0.013289022708982651, -0.010104842924371858, -0.02980021508888381, -0.044800266384438736, 0.008356270041209205, -0.0091974564846823, -0.04191999800653409, 0.07586174594554444, -0.026554228926255953, -0.04590557429208187, -0.08667506401428106, -0.060550569737728245, -0.02842525572594683, -0.052370445387838464, -0.007646932253343958, -0.009284577819610394, 0.047387370850410865, 0.018849042124512556, 0.02594745229471313, 0.09610686031770796, 0.04737206758530819, 0.03739481966953818, 0.05084708687599215, -0.020321185811392126, -0.022761123112283885, -0.009502862586908238, 0.009001074771189447, -0.004257755476749382, -0.036203408971606364, -0.00013071018037238597, -0.03590544299923927, -0.07957365191575266, -0.029429937376675024, -0.03600932655055942, 0.15057549729992226, -0.006865492352564602, 0.008156890212522649, 0.10406233050495167, -0.03831407510715403, 0.030473505877917674, -0.09630623947749324, -0.0035062525765924956, 0.08605246590462037, -0.03541420806216646, -0.024658308356348555, 0.08797421106246857, -0.029806286950782163, 0.08435518223378861, -0.015717684735098676, -0.07600851379300387, -0.04231279304427402, 0.020371979271527525, -0.1053600872113819, 0.016634944110969954, -0.08865449367356897, 0.0911405508865105, 0.0170221073836847, -0.06653894102984405, -0.13235907457343474, -0.07189592113722308, -0.011583505867418544, -0.05714179719614215, 0.012496004301203963, -0.004378800833695265, -0.0006601705352395451, 0.07995825649648054, 0.09529627486744185, -0.02819060431576092, -0.01636473662538453, -0.0212343601796363, 0.0214736434323182, -0.024237399450875368, 0.02020592613029568, -0.022632754517536276, 0.09042349780193033, -0.005326434593046977, 0.05909530187501592, 0.019271892907341392, 0.020317110120160718, -0.024776462347910536, 0.0459483995093419, -0.06713070466100134, 0.007539353840312953, -0.11671920348820046, -0.07425657979165785, -0.03432491186586181, -0.055770266876789445, -0.07785504984957278, -0.06651183346629903, -0.030653137480115403, 0.06268957347479617, -0.025855912842127043, -0.002881963467256778, -0.004277054109328441, -0.06121516509063457, 0.07131856089263726, -0.024116864285520963, -0.0025795164838232493, 0.07582702122739401, -0.030631828439319, -0.002010025358763372, 0.04260523009251774, 0.07219691050355874, -0.035464921400371816, -0.04473103903052826, -0.03118653348012254, -0.003875063289705141, 0.01614603989343524, 0.01386867328881702, -0.06769714485276675, 0.028673252542340582, 0.0009413268137586941, -0.059344873982521695, -0.1105721217665438, -0.09218853540042715, -0.14888861861762462, -0.03425891622051223, 0.042802138498508065, 0.04915069820078942, 0.00991148665971945, 0.049249488473862006, -0.011472308929263344, -0.04376038079757762, -0.07807994182243981, 0.0435256208951716, -0.05292741124884384, -0.03854767376660393, -0.07480529093242722, 0.018251377779483775, 0.019679336661376685, -0.019513416566253952, -0.05487621234741803, -0.05968867255385709, 0.05804243797092673, -0.01843619779534338, 0.004534813402071919, 0.017751412243553373, 0.04156515081617815, -0.10819496156134456, -0.07428052858470544, 0.021214480471180196, 0.014687256397429096, 0.06478697386418182, 0.01571764931445597, 0.026369185261767472, 0.10934455498749839, -0.028464280784649864, 0.013049986904414869, -0.09621366451027163, -0.03334524747327006, 0.0020714399233791084, 0.021719492018609392, -0.04966403067795258, -0.02791501824858924, -0.03467743870424139, 0.006916660704788676, 0.006036759459339603, -0.03891920029382903, 0.019303870692390857, -0.03075602499532466, -0.021590061874135088, -0.014603103042791839, -0.02082065445479264, 0.02204492949610343, -0.02813852919367543, -0.04295445722863481, 0.13645419595457822, 0.03287654350758267, 0.04351147147848473, -0.048996199953733624, 0.04168291318276475, -0.05136699385324569, 0.03414471533588169, 0.052178940411088955, -0.05540268347162094, 0.012265536176647511, 0.07932294114525415, -0.11479798305436326, -0.10251672755933953, -0.037571145267739234, -0.08473921071530394, -0.052609277297953685, -0.07432497980782177, -0.006854320274264132, -0.020392708537262282, 0.05825074623653103, -0.03990478964555118, 0.07568174165823058, 0.035148515401647686, -0.0327715353964438, -0.01519234902241966, 0.06814927223506682, 0.09934846322171023, 0.1724476111063629, 0.08296574536144032, 0.058966763725826814, -0.08681195082728438, -0.0539741129546221, 0.09149312245174462, -0.0008794687163495901, 0.06862480247308772, 0.07686135518516918, -0.010985472432174107, 0.005284944161450501, -0.04330687558731432, -0.004480838021199084, -0.0504959497061162, -0.01641564717223749, -0.08032333611610153, -0.07859452616087288, 0.015515551305092865, 0.008656659523857312, -0.08271890968760486, -0.057262913099156515, -0.04916930861500244, -0.015998545596877967, 0.027795333214337137, 0.008967943255878592, 0.05631667202224762, 0.1418037832559679, 0.07286199552169785, 0.16583062237864976, 0.1513081596507533, 0.05364196014177594, 0.03358315288907805, -0.08040307065567873, 0.020526688576060187, 0.06552363494089387, 0.11599002264939996, 0.0489138898417288, -0.0047718674536586046, 0.07674545147731156, 0.019711795759111656, -0.049977853989451954, 0.06238747202270848, 0.05323363060115065, -0.0494202859012176, -0.041928413123159494, -0.07493329390077741, -0.03317912221365849, -0.0542871114214873, -0.01719626870390845, -0.02635696424415462, 0.05054811529828465, 0.021000557920705536, 0.11007507313658026, 0.023937010721335042, 0.013924750938287704, 0.12124480186506753, 0.016889485383999352, 0.05278045456155635, -0.010693484603125268, 0.07824807268982557, 0.014416044348096365, 0.12089135869714161, 0.07824075896122655, 0.04336273863253793, 0.09119648956928782, 0.02333694708830256, 0.00849768143259532, -0.002216048095753176, -0.015041346774365635, 0.02471508884068898, 0.08962533010694443, -0.10791555820480302, -0.018506736544539288, 0.013694118967678606, -0.0021040139768127796, 0.001058545630126566, -0.0715532197995512, -0.038220447945389736, 0.05250143751868446, 0.018450559611749396, -0.0522357016227819, 0.15854536453800983, 0.026467136818911708, 0.052214506855184334, 0.02046047217068282, 0.09577460576380842, -0.018945075791958085, -0.008046648412352366, 0.031457327356147605, 0.029006406460758607, -0.08180278680361876, 0.023111824745300876, 0.07685433911821875, -0.053923093670524, 0.004985400005857627, 0.0392731341728444, -0.0032375107607479636, 0.03475619430253867, 0.020688270144157958, 0.016013641454771212, 0.0018218515520146714, 0.020668905169210505, 0.05412065711962423, -0.04320917976150465, -0.07923097766871254, -0.062219968261668514, -0.029438889756751192, 0.025679631696460616, 0.06860587905547728, 0.12784373494204673, 0.03877887741103205, 0.10647272202558482, -0.04845479388771347, 0.03663520286722852, -0.09998291461427743, 0.050917090293440645, 0.041890074088892115, 0.13852839623970262, 0.07170675475153017, 0.09943820822174404, 0.08775870125484743, 0.0794442433322961, -0.07427844710262152, -0.023060793545777787, 0.04275734374550294, 0.010381554664182007, -0.02962852677515542, -0.017203459265923756, -0.033921970317472766, 0.0310431192503306, 0.024538747569096377, -0.019540970254456457, -0.033822187537259844, -0.15846850500889806, -0.028257982627165085, -0.08556752321228712, 0.013624528114922301, 0.044785411921077635, 0.03361275964697525, 0.10122275000664765, -0.012813474243381827, -0.12042198317202897, -0.02760332442982873, 0.08004248296232129, 0.023606904976532686, 0.02173291449736595, 0.11249090395912668, 0.1332250066583206, 0.13895914112536234, 0.023198813853680365, -0.04089246177503709, -0.0011022829486118902, -0.08702568173954686, 0.017330587401618955, -0.007502978910470189, 0.01476629159634715, 0.0352025597420364, 0.05160444075442127, -0.03125261699069687, 0.06680612777091743, -0.011359678349617862, -0.013080975703684402, -0.13209052621040976, 0.07121013211928075, -0.0018308845297123363, 0.05464491072248097, -0.0049734475268956605, 0.03516901269133338, 0.04948702251731576, 0.06466107846744362, 0.06745774577718938, 0.12266521343495664, 0.09180360556295818, 0.08649759219610748, 0.03701141700877613, -0.011327649175948692, -0.040578654973140504, 0.07915176333724366, -0.07025700877220344, -0.01832885806080739, -0.07782677165054853, -0.06548184881245611, -0.061403843293816894, 0.03468975122741595, -0.026127329512644456, 0.03140570601507482, 0.05330913633831612, 0.023241997819735752, -0.04017862732895199, -0.01713667079471706, -0.021393209365800758, -0.10974901682676425, -0.05235051355096628, -0.03354416309888507, 0.014009384944367029, 0.014192205969953773, 0.06176651011604297, 0.02632921905338234, -0.028603878227425637, 0.059277107907841076, -0.00432089017457767, 0.013478995229493088, 0.07386430565082784, -0.02312522165369577, -0.04467422661279594, -0.011014652578002382, 0.01485922573943828, -0.03579826737188997, -0.03633884989791265, 0.09517346375166831, -0.005385613756519448, 0.016720755735790092, 0.02194619250001362, 0.009811760627877855, 0.014039743321154527, -0.03331280063940934, 0.02157113281553672, -0.01826882992818483, -0.07539816808686967, -0.0933120465109215, 0.0025701622327868566, -0.18325516289413696, 0.030588635639032954, -0.11777426387824268, 0.024215888954440747, 0.15470772194026408, 0.014191223623762296, 0.030243558161571916, -0.031433237420281215, -0.017929527705210686, -0.060891728486209086, 0.07604894648511351, -0.004050798807422975, -0.043731059762463484, -0.029890273618657523, -0.15174170298926024, -0.05801227580718084, -0.029910999953519223, 0.049830971702277446, 0.043587989695082145, 0.014148730949398405, 0.02144110853813136, 0.015763787046330364, 0.01033021399643624, -0.016084183143971816, 0.0015623509873341956, -0.10967814159575448, 0.04026565331016549, -0.0015503255878091197, -0.08561013307276019, -0.08939722418782145, -0.12294380772883862, -0.0573250916720607, -0.006165434563273691, 0.15375817902720215, -0.011510230287356649, 0.03443160388768548, 0.01932667745196815, 0.022346285281403165, 0.041014671852707775, 0.015165028305369775, -0.07128515968607195, -0.0027174344374901243, -0.08504934046923816, -0.06477100919472942, 0.0187294248454412, 0.03594734880105264, 0.03542489786733406, -0.09701537682076568, -0.11251524890315338, -0.02121976006048957, -0.0013429045764329305, -0.018172460807689677, -0.07197991591516939, -0.09401023910298766, -0.021184592916684647, 0.0035544328406590655, -0.08368081802755278, -0.002415977273029428, -0.06059834847737702, -0.04812527809835594, -0.01939133951979958, 0.04525262324750443, 0.013610856736208555, 0.028888960056574937, 0.047751083506519375, -0.07545370990021422, 0.019520588774554554, 0.018049384791987717, -0.032455276623000816, 0.03689828685417058, -0.019524799820069588, -0.013145944773808121, -0.024469270203171464, -0.03386718911336813, 0.03488206477989869, 0.07487668203722586, -0.023174170277166894, 0.0033683609308860327, -0.01603604503854392, 0.02559376522966858, -0.013189112402135682, 0.008919646568411458, 0.10114459431135894, 0.018376860053373537, -0.14458406037384242, -0.047052152701253375, -0.0814691603632444, -0.023241559526309425, 0.059793668318213596, 0.010795213355619159, -0.027901048061813347, -0.06036557797156397, -0.02155004637206963, 0.029430769354991122, -0.0017778979221748242, -0.03311552638634016, 0.0013217867457057594, 0.006144923448293032, -0.009325230625705587, -0.00012594321237391064, 0.014714008871133675, 0.033882355500957785, 0.09149597274483899, -0.10174339747804947, 0.0059566298686661925, -0.015395118661309028, 0.10841389742922207, -0.017683361163013687, -0.060466348252527086, -0.003105696192210505, 0.028548405744349217, -0.03528108677575698, -0.012956185650265933, -0.04616072417122542, 0.002395507105213339, 0.09517297946805038, 0.010077562488418103, -0.056367755969282694, 0.06179443372178971, -0.027598868552835335, -0.011915109135580719, 0.07847252564637568, -0.04210000194870549, 0.04787209447968427, 0.013712156191184417, 0.0543357307067302, 0.03120004783203283, -0.024440161262125296, -0.09565717795026364, -0.00814470296899533, 0.008708934334238349, -0.038864225653917825, -0.0655638923961532, -0.07734096501056417, -0.0968796843862425, -0.0526321720958759, 0.06084988740194177, 0.030383823931193623, -0.05029590642039656, 0.0006226016595235078, 0.04654318285633939, -0.0407950357432801, -0.08800772463905693, -0.010040254217236245, 0.043669605334752594, -0.05742123867440511, -0.08322823189698376, -0.038821433388057804, -0.025538437759546097, 0.016737899450369728, -0.036490369984685495, -0.003358884674887253, 0.0911490953476263, -0.07623893941635622, -0.014691512863897888, 0.040048508573151724, 0.017652351412683547, -0.06105252318457849, 0.012471906355036887, -0.0017782488908131742, 0.013381419862950323, -0.04681553986240723, -0.09671669537450281, 0.052929167191105436, -0.038322570177563214, -0.01001394469450919, 0.004952411048767038, 0.0071266019060983775, -0.02165347685710511, 0.02770265425442662, 0.009312239786071722, 0.003416599796992748, -0.11025853442552858, -0.054190545061895225, 0.06304245656987241, -0.010184822151052835, -0.03223013116903132, 0.01154209191635497, 0.0415874047800987, 0.04906828446381544, -0.07160113783164575, 0.051084123702642766, -0.04429055148737852, 0.027354214584637042, 0.0003107851205626739, 0.09159133275872522, -0.03337154281280021, 0.041924372406243145, -0.008896208419815114, -0.03206667854963393, -0.0025880528449924527, 0.022689910461784236, -0.01120002055174759, 0.012026513491360809, -0.034916343980585296, 0.017772440111200976, -0.014212309116760498, -0.017448760041191568, -0.07032404330127036, 0.03126288815534369, 0.06772977975121561, 0.05210570458568973, 0.028704934478350038, 0.07699498695369866, 0.02157066595296293, 0.00636203344867466, -0.009511661797235598, 0.031440207605307705, 0.052425676783960894, 0.02319784898591049, -0.037105280006459435, 0.02959288814566082, 0.04370606199147476, 0.037020659994163846, -0.08405999541274632, -0.010784499018538486, -0.05549777331025966, 0.029270315501290455, -0.007658003441093761, -0.03571193314508453, 0.032344491684033444, 0.04098978480597418, 0.02032235137752666, -0.01096551860395563, -0.014399356107266502, -0.022268245050000333, -0.0008939054379680418, 0.0022747441718206484, -0.017925100350149922, -0.035056328492561815, 0.04627670823966986, 0.14454033642898187, 0.002864435474654903, -0.0024565367139875935, 0.013638592630463426, -0.036174300785197344, 0.08546582451959123, -0.015397170097354548, 0.029610115636436632, -0.045130078782737164, -0.07379142942084088, -0.06779858931585088, -0.1174081564317148, -0.0029757132430065416, 0.05512849360565068], [0.06956038116046306, -0.03778375741392459, -0.043835295871190255, -0.07016892509118057, -0.011890522267924475, 0.07875423319565505, -0.09945392202922779, 0.007496337351741336, -0.05474364423877932, 0.0202537781265695, 0.07104364734628449, -0.008354060147877191, 0.05325550719664206, 0.005035090094859009, -0.07356611198045714, 0.06376387161874295, -0.009421196180456587, 0.0035643266593109913, -0.0146371435353513, -0.00802279353399169, -0.08409173796171643, 0.060835988318943233, -0.013913752271474922, 0.07733151376845729, -0.08306131231442612, 0.06766138701664731, -0.05377772656391405, 0.05286331844086361, -0.0012801835141933169, 0.04131654471575251, -0.12922622254135951, -0.002469695550736465, 0.012158002240798643, 0.012602511306261272, 0.023939698460301136, 0.02832826013109658, -0.06602004415744758, -0.04820314217839423, 0.004314501147251467, 0.01264720046086915, 0.06131394422169338, 0.04126386578984177, -0.029483777591611533, -0.01962819661416492, -0.027626995479356993, 0.010283308325470085, -0.10773718708511515, 0.059212863299514286, 0.04363138290065597, -0.054105031242258746, 0.09110120060745015, -0.06377316248241961, 0.02704547049592898, -0.03226297548322459, 0.013334359157204687, 0.010819499681609352, 0.035332249952948154, -0.06582585871353212, 0.010744563550817597, -0.00425586807380302, 0.0994283099471156, 0.1428163609749366, 0.04850910628394567, 0.06880026757915306, -0.08017843193099715, -0.02243849318047686, 0.013857582362488961, 0.09039486401998598, 0.00824145955185913, 0.03678192879555155, -0.06571563572461651, 0.06120677061349587, -0.018605354348388975, 0.009300899368835285, 0.044008612650477716, 0.1189963494240137, 0.01451710756216103, -0.03644723778193445, -0.01655980385672629, -0.019385605581539588, -0.07818457864207913, -0.06316219204267781, -0.011440155472615073, 0.0067697614397779545, 0.1780148588480785, -0.012250643474081597, -8.830859665835534e-05, 0.020662305335621075, -0.006821367107893855, -0.10132841182246435, 0.0035448771418090603, -0.05165526698622349, 0.001996074930291363, -0.053720281860216386, 0.040836214234837694, -0.017592536647805322, -0.029321012233133163, -0.037557882089418466, 0.00210772916022943, 0.0679911007066468, 0.011189529296719894, 0.06895631760252413, -0.016851275055595697, -0.04588880804527186, 0.048098430298207165, 0.05284255962163009, -0.0760391981660438, 0.12135266376588508, -0.006696938189266867, 0.12570368849285696, 0.1019350575952775, 0.039678500454160895, 0.0023051090905572857, -0.08694323498801089, -0.04655074969920001, -0.03109699658002613, -0.005846246460049699, -0.05036275368140958, 0.035630982640359035, -0.0066195574680402705, 0.04000904556454112, -0.03971700617917855, -0.021606652907369468, -0.028960449195573973, 0.025643931045467683, 0.001629127200262808, -0.061070028893601205, 0.03571157214651712, -0.05268952599748877, -0.0810485436660467, -0.026012257823181492, -0.09857512919053743, 0.14444356836528063, 0.046503808364260706, -0.04537637084257342, -0.09243462934549647, -0.017263377181947, -0.027080057027053305, -0.026423840390022633, 0.006140807964473077, 0.02554875571120237, 0.06291837101191138, -0.02464918001756329, -0.1583941524682533, -0.08397819424785763, -0.007619085717294324, -0.05160198825513075, -0.07006403110647048, -0.03797055051587745, -0.07276014888887608, -0.07331495359652333, 0.011254814973384979, -0.044517251670825826, -0.011504242231000576, 0.0405643282894527, 0.052994842432287324, 0.005800633350834438, -0.013073137912131536, -0.00044474566604574706, 0.035736840671798914, 0.008323156313183753, 0.07033438900376994, -0.08795507451768993, -0.019238780564719525, -0.02586215128410128, 0.02912728297881301, 0.024531348318180678, 0.00010242388178543694, -0.038174605258442754, -0.02353056969418115, -0.050320397579261565, 0.054660497291029, 0.02026609452305183, 0.040010963387350974, -0.02824605676422014, -0.11499284932613277, -0.029290579309618408, -0.1335272866058927, -0.04370324088991571, 0.02716846236582384, 0.02118097758572529, 0.05725328570138489, 0.02770556370536565, -0.08395776922848919, 0.0004575014551913619, 0.002330106050224903, -0.02044615754888854, 0.0018991769862654387, 0.015231843758625458, 0.08351619884334982, 0.04163620057818133, -0.058069321402232005, -0.039076720223498805, -0.06414349949837397, 0.010300783516554128, 0.08155650111821074, 0.02416547449810666, -0.0390815445427176, -0.024524331044342033, 0.06220724094411007, -0.05617726266701205, 0.03215040123966816, 0.05726065100691492, 0.09621624821091956, 0.09443762565486273, 0.04521531107542723, -0.10519557809104377, -0.028036153401090714, 0.03094158312293847, 0.04947605236563698, 0.05544669727642206, -0.07979162890571818, 0.07001929780108031, 0.0006314764796947455, -0.0018366871202458528, -0.04234954521624133, 0.05130940399943756, -0.0481821911507594, -0.012710657901137751, -0.0475870603507913, 0.017851782150173575, -0.09411982008618555, 0.024974219780578268, -0.05493023078642871, 0.00041084491955156515, 0.03175268267244106, 0.039767893792427865, 0.05409957478826456, 0.12023532354378853, -0.08149497800738145, -0.02588362581621291, -0.06675993009173159, -0.06348276055591706, -0.031532629452613384, -0.018380482630539513, -0.0017534478109221946, -0.018161873355947163, 0.08436610346649824, -0.013153939956114432, -0.009638688034563872, 0.0482490623640512, 0.071277154337674, 0.007579014147287609, -0.006107275633443491, -0.005586955032517127, -0.07750373079170693, -0.0951749594235163, -0.13838824871923114, -0.16274339425190507, -0.02352459989966013, -0.027197769265950748, -0.0018633184797812556, 0.10052479998811757, 0.02909213872888668, 0.021422343417282334, 0.11132506195010919, 0.043905426655096516, -0.12455005510014681, 0.03177150935735322, 0.03799929518539692, -0.06070925638714127, -0.03667023634592971, -0.008371966550070734, 0.008964376158366469, -0.05455324892669034, -0.011201876654107235, 0.06869057271861774, 0.16060180356274842, 0.08256599996244005, 0.04053275115820992, 0.037687142312297625, -0.022607592362589846, -0.029526430223866255, -0.015814432665915555, -0.10280633478253866, -0.12062032066020575, -0.0814288021839019, -0.06058278995964068, 0.035817243150509354, -0.041522260120970385, 0.08845121409811443, -0.03293479246084919, 0.045997031441105986, -0.015817794849932502, 0.04955734760301982, 0.007813088504639517, -0.059282785435257494, 0.04188035635212622, -0.02341291288142895, -0.040185487384263016, 0.022418964766750964, -0.08046006983431811, -0.08784152740382634, 0.0847247662365675, 0.0892192525662404, 0.054094583170667294, 0.17799437382668565, -0.07181561361067587, 0.11120995525714134, 0.0053228742700774994, -0.12725174828862426, -0.027372679441953266, -0.1818654018740885, -0.07514449582160279, 0.0002788658633812684, -0.051905988442791304, 0.002813902437098267, -0.009101365505074394, -0.060306345552631736, -0.025948656474659496, 0.05780161014691895, -0.0061153043144485, 0.07228223676218128, -0.0005940844304840621, -0.0299980453768604, -0.06285438541758989, 0.05588208795947954, -0.05726482488957124, -0.014912371468703979, -0.034011022943698066, -0.007787371599880469, 0.10170616861699298, 0.15879680246342914, 0.2368523947626588, 0.036586940206065705, 0.002624452851351832, 0.032127236824562304, -0.001337040139053964, 0.023537652869280397, -0.06765813869085259, -0.139323369959127, -0.0077659830809718505, -0.018876317241527146, 0.017679284408690817, 0.009381267034279892, 0.11864280602259106, -0.08295280933130361, -0.022077470321464517, 0.1164821054546007, -0.05708833536615276, -0.005865523052413854, 0.091476075089077, -0.07074552444823622, -0.00021763588458605717, -0.047023206795293246, -0.10165477570693483, -0.024483023708524683, -0.029702173896168752, 0.0815974164119368, 0.019509535440139097, 0.19260392278063737, 0.08544951574260348, 0.01797435857008577, -0.014939027848627873, 0.026734995452213927, 0.06635605834968335, -0.05235641613184199, 0.03418722859156099, 0.057682311589597794, 0.029681117723611775, 0.0762139741648487, -0.07471007311036883, -0.09031156692692187, -0.014205008480544132, 0.013810600447189361, -0.0776699246749358, 0.03153114011534013, -0.0767871121497648, -0.09946490164423814, 0.10582986543539803, 0.035325104138098966, 0.01189416404030511, -0.03427668887145223, -0.04157299850140179, -0.06746952926082697, -0.0865598392862929, -0.07246311665477591, 0.11077396817074796, 0.19878534404642267, 0.24752793802820994, 0.038513193760606, -4.8384176110514026e-05, 0.022352988731776068, 0.014694198750593048, 0.07627249092364458, -0.11887006094971768, -0.11437972038974106, 0.028069920295001157, -0.10842144702014855, 0.0023496482261379627, 0.05083308390508173, 0.029000953880145078, -0.009421162477249273, -0.06948407290499328, 0.03552952270092588, -0.0026774211420492948, 0.05136317379757862, -0.09490636871058442, 0.01481243844683944, -0.019238080293023947, 0.08264168341291832, -0.012003651443483584, -0.09882171767779584, -0.08124910539188186, -0.03656114194515283, 0.05380961972861635, 0.16277456592535033, 0.20482493128723991, -0.014500245072296735, 0.06069790766897393, -0.07485998824914586, 0.05147600284546969, -0.05149363778280171, 0.06980073049136341, -0.0641088629367199, -0.05484734418486361, 0.014357151876884707, 0.11655633884733531, 0.026235030324807417, 0.019443468159799544, 0.06599956565190351, 0.044750144629886995, -0.02565261638299127, 0.03228488042657627, 0.017292170480101017, -0.036147278185408076, -0.08917043793274858, 0.00020453790489166507, -0.04741788071101007, -0.0362208704673592, 0.007368254806548815, -0.024600204723488502, 0.0237769568226861, 0.09129053117850887, 0.16947119923542797, 0.11315893076696214, 0.005015504683534782, 0.017146008026178345, -0.018138530319455545, -0.02751721867253662, -0.06542621455400975, -0.02708121047404355, -0.010043138465048547, -0.006917467864531486, 0.0005163528170297037, -0.08757927213925266, 0.05635459274425993, -0.06139755113636374, 0.04720186739069805, -0.0747707517029017, -0.0441075460477255, 0.019760211133133525, -0.04615618166649263, -0.19210358532827682, -0.0373345645364881, -0.1125585547373389, -0.05575703419993438, -0.053626297776650254, -0.029619192624432314, -0.007708994167498874, -0.023921099038328533, 0.0794657332850237, 0.13538949544680634, 0.03650751761048574, -0.0032091075199651856, -0.048342956342888266, 0.01872226081348372, -0.0814781989026172, -0.04939153995039814, 0.03289937673726999, -0.036779152952001855, 0.04408720530304348, 0.00984282516831146, 0.08557028601652819, -0.07737621893270283, -0.04476167397173239, 0.07032843048945012, 0.07630861878905144, 0.05668023497668819, 0.05367597026122275, 0.015166716927694881, -0.053037638166828514, -0.0648654761289682, -0.11401288869094595, -0.10531167593921656, -0.001131583480310026, -0.04079374747408454, 0.03394647207571459, 0.051665200736954665, 0.09428940732020552, 0.15638001290947742, 0.08890634425733038, -0.031910666478324946, -0.1338164678537352, -0.02169882161666442, -0.07128313276081255, -0.009116376103352348, -0.04864814909116202, -0.03736840442212068, -0.08196472238646273, 0.03379454736846583, 0.09355236632138098, -0.03045891589573039, -0.060595420089891716, 0.02970114441247715, -0.010051050232325213, -0.07640742777422295, 0.035727360900958904, 0.044724100159918664, -0.05937286947510443, -0.09938127438745342, -0.090877332988364, -0.1133961411943767, -0.04063499858656294, 0.02718776997879265, -0.03648376580899941, -0.03569762500293052, 0.021319537182554898, 0.07454284198302809, -0.009582714812130782, -0.05354154325324577, -0.04063221970924508, -0.032829341844677166, -0.04243050193825161, -0.09261696088632788, 0.012713977303594982, -0.02574913213696852, -0.07362069770497423, 0.03222531946357295, -0.055581425249899466, 0.06348516858017256, -0.0049621570953537085, 0.02031338083418483, 0.0016464603724589684, -0.017476439289481907, 0.012262168875624344, -0.00043118820955080335, 0.058485375856556616, -0.10224180834570029, -0.008627932136986656, -0.07423065444679947, -0.023263803741021338, 0.05854567907572517, 0.0007745991085199762, -0.045594423054903854, 0.04703612674844603, -0.06627445839944483, -0.06804618844010378, 0.0004140216453818806, -0.03492819383297674, -0.008473268573334585, -0.04598576146611132, 0.0076064431569875645, 0.002861036928016857, -0.08774086234012747, -0.0391160941379779, -0.07933489421460425, -0.0017910048061869739, 0.03774002586495005, 0.021254822307697714, 0.056132618894366604, 0.04793761053367802, -0.04600670594401719, -0.040008046242083616, 0.0022205123667280225, -0.11156867765826764, 0.00015325857249054157, -0.023539941958308625, -0.0724135200100571, 0.09377569614633502, 0.013800434355427575, 0.07120583037816032, 0.008039903238681015, 0.003726496622187099, 0.08975085196206394, 0.07660647797562176, 0.01489878566220647, -0.028643727259123574, -0.10426511901792636, 0.00889810818119336, -0.006520165038373169, 0.0015591546153474842, -0.05628567589703031, -0.009527579190833515, -0.03359229044535673, 0.01880249984886003, 0.002668485732269274, 0.089971312332976, -0.029621550093658227, 0.04095937033047006, -0.07308757122170413, 0.036205584188780934, -0.12726594665348873, -0.010024530566116172, -0.10168243093764558, 0.032009446046254636, -0.019486526343675946, -0.01717436633675827, 0.03643357756988059, 0.006883376480875497, -0.008987375563628055, -0.01776834552115119, 0.0761394259352741, 0.06973136019612548, 0.03261841101214372, -0.05214713420635791, -0.07324245054133968, -0.09687815303917324, -0.06309795921983749, -0.023061491758979924, 0.0010638487246653892, -0.07433754162375036, -0.08965584877483714, -0.09921566946784961, 0.0691674196065152, -0.06281055806473645, 0.010847780691089865, -0.01978207852534742, -0.0827658808122867, -0.023005266810179604, 0.026309393041053047, 0.08118225349805765, 0.02683441365174137, 0.010576807565416634, 0.02543407913250887, -0.04400174831878344, 0.05456063209485794, -0.08428081950276022, -0.010777053479467549, -0.08463046432851061, -0.054455832060669604, 0.046662485436801175, -0.03442880606049342, 0.0372463159296285, 0.00573268131211969, 0.0313506733030633, 0.054400429209313414, -0.08008497049101498, -0.017580037812208262, -0.005471779731837232, 0.04549920818452084, -0.007925631823193207, -0.01855009183492472, 0.020558203961775913, 0.060569049375219834, 0.01366304884834038, -0.009125952346081496, -0.046062908808818685, 0.000802445829906562, 0.04961668701047587, 0.02519648249560666, 0.03256528005868592, 0.037708654630012085, 0.09708244817423126, 0.05497160763738454, -0.024277126061780202, 0.03419359215955422, 0.011694431600079349, 0.04246566944938094, 0.0373737149169519, 0.03113460363433694, 0.003260875985852227, 0.003128500473648398, 0.03418481747470886, -0.03650235358413111, 0.060906970943580885, 0.009513468214874062, -0.049082921407059756, 0.028368594530098018, -0.12620272915984332, 0.06009871764665104, -0.03167210943567347, -0.0478485165481508, -0.0251199705638826, -0.03724183562848239, -0.0170448261317518, -0.08733803331855805, -0.01644277987379676, -0.011866208281141972, 0.012891837854556172, -0.04310355810392374, 0.015491525664476744, -0.03278352535711911, -0.0232457645807901, 0.026916292909319975, -0.09512393401514146, 0.06072110193048928, 0.0016055078877902002, -0.0411632957598441, -0.04823108258391157, 0.006943987585072871, 0.018293583043245257, -0.037559902287873176, -0.08282009046483621, 0.05324159205153114, 0.11352523050976575, 0.022978008926569454, -0.009607102166601428, -0.01264238129361631, 0.0010369988298357836, 0.042196893810030674, -0.03626418027745037, 0.03292986629720141, -0.015394641719832316, 0.041922539649561406, -0.00858122302746092, -0.049999342556425075, -0.005856311454588861, 0.03803398268899586, -0.01105609627849047, 0.10653746474808351, -0.07281743356623345, 0.07281727568857166, -0.062010019518877524, 0.039837808097961266, -0.0536833808394179, -0.03454709170326901, 0.008911474635137941, 0.07760549415860978, 0.03553038276123826, 0.00617819800897678, -0.055775757014239764, 0.0077571718729642315, 0.02233620033437495, -0.08710183294261907, -0.041682165783311, 0.05297793623291056, 0.007198223082003837, -0.09539720661600669, -0.0502884903905451, 0.03814318070385834, 0.010342669972166872, -0.026821097493322187, -0.020267405566648536, -0.007835633936301099, 0.045815313762064235, 0.1120239525350193, 0.027255024254461056, -0.058283617652377204, -0.045539708074301403, -0.01676675160325565, 0.04441303187258304, -0.1210475845501744, 0.03045741419924154, -0.03029626161235244, 0.04094961013120547, 0.0292273248424344, -0.06451490709185571, 0.0225133413562926, -0.041148958437738754, 0.038834958503263454, -0.06338444026536966, 0.09880449758637593, 0.10411063908875968, 0.06526141691442404, 0.055967596227469024, 0.0173240852576593, -0.027120161559859707, 0.0513714927314816, 0.07490318305375901, 0.023497688266592896, -0.05831178627516927, -0.024029135133603444, -0.005919123475038128, -0.04938699990422734, -0.021978848648647138, 0.068578748335586, -0.0680395123426321, -0.0492087261897278, 0.018659281651590903, -0.12739327219793625, 0.011985641098251548, -0.009289798783734673, -0.053093616891848286, -0.007768331579178607, -0.059415711476219955, -0.06414695749358919, -0.012609670332172498, 0.055571610402616, -0.0666961838399796, -0.025945943546247813, -0.048616529000456994, -0.014986860101504924, -0.060372817800353265], [-0.017983373484644107, 0.017776838920465977, -0.002144014715534011, -0.03388064146206478, 0.02295494168824335, -0.05500259600579481, -0.0908849332825468, 0.06129006732261852, -0.07077908398230848, -0.05383352305275075, -0.01098366834522933, 0.011543407600092743, 0.00247255231534606, -0.01881866632696282, -0.008104643186013073, 0.04563464458085294, 0.05041571858821308, 0.039663739285124865, -0.028098044192516197, 0.01367116576690746, 0.04961088097612054, -0.028424194843596748, -0.006083372645809603, 0.0019282388321738906, 0.013739812917386336, 0.08460943027422096, 0.019785947962167656, -0.01423234441108436, 0.04270856158132881, -0.009669743140949531, -0.001951404963909843, 0.04906099012642323, 0.07421826136531282, -0.20463868593557133, 0.002102348313363151, -0.10128297188008654, 0.01574145174577479, 0.03810790811297143, 0.07055663792901538, -0.04817637099726135, -0.00895375625510312, -0.03846153241540968, -0.04712106857608932, -0.011251117535903583, -0.001085467202195974, 0.027601360413761624, 0.006470584331594926, -0.0060993774276637555, -0.13376857842515177, -0.0121077137300069, -0.0024084715572018113, 0.02246123111417219, -0.009075556928028663, -0.05567802767629871, 0.017563580601811044, 0.07355034618609452, 0.048422924572512495, -0.004339531849742081, 0.0375692244590371, 0.08123248016131528, -0.04611233712101117, -0.010673468969469321, -0.07865491063252743, 0.013264245004955478, -0.010671816294603283, 0.050816515457229955, -0.032064324768875614, -0.032535230452802905, -0.006113831941386806, 0.021961787187951585, 0.08544462899925247, -0.06556712218224657, 0.014838768794729468, -0.12211432485535906, 0.01791174547302378, 0.10496405572077788, -0.09113285114978292, -0.04064487676340149, 0.0457321660389788, 0.04586230456404056, 0.0018038164514780103, 0.031115385106503433, 0.07562258396504778, 0.017862044792370364, -0.025723383807101638, -0.05888350587589926, 0.036005163425423606, 0.0008842532540129308, 0.00015972134233291463, -0.03800412285682306, -0.031891366325160146, 0.03459843776286477, -0.08986743031071938, -0.0010208347641663031, -0.019413671069103876, 0.0932960358687594, -0.007623916826799001, -0.03504421712078443, -0.012304294652527723, 0.07292152889713688, 0.0712374218090765, -0.1106291910543818, -0.05049730419012616, -0.04521314764779809, 0.016976372399316937, 0.0017529340743049355, 0.052827260872401624, -0.012874493180847447, 0.04582965778513688, -0.007340561188678668, -0.04600774588188172, 0.03730463715089604, -0.03997300996940398, -0.024843643742365962, -0.05970123802404087, -0.02760068280135269, 0.0275347956878948, -0.01574467927679769, -0.03058679875447049, -0.099210597567704, 0.023316021162795124, 0.008784267082082449, -0.08187462553533127, -0.042976424056027196, -0.0690460848428794, -0.0848466132894787, -0.0162190166419264, -0.045144288314891694, -0.043226377783698276, -0.05450304757896526, -0.029614297504638648, -0.05168361155658544, -0.07980296693467462, 0.03506383920497622, 0.06744612987291877, 0.021256020272315115, 0.01047717812122181, -0.03697124406640322, -0.015933464093009917, 0.0009916258813715943, -0.004328185827971591, -0.07645924703797702, -0.07350152257797744, -0.06746354507974935, 0.04096875837336432, -0.027691356577728473, -0.0196660382003466, -0.07486530147172409, -0.05885130819056429, -0.0622914169917962, -0.060577904201349585, -0.016203598415330252, -0.014339035358606875, 0.09760500244388691, 0.07954882036896381, -0.0622803304250187, -0.04101674327984811, -0.06398603413229081, -0.03761662404586972, -0.007625113633939148, 0.0011661875748275755, 0.0037932585593431103, 0.021040346048771346, -0.046579797235854356, -0.005905832247086788, 0.08157392484958143, -0.02778307993797029, -0.11183452309249299, 0.06610784338661764, -0.012326206045984158, -0.00907348456976415, -0.07113777860566771, -0.07810459161526045, -0.001605898240056965, -0.04993170070968398, -0.042538368564516024, -0.0653537414014245, -0.001143366071195898, 0.006729346202137186, 0.020363260786114105, 0.06459065104016874, -0.03529495146691049, -0.01464214911079709, 0.09510412220554201, 0.037637963464257795, -0.09832399728615433, -0.04489820289642353, -0.021404541207022603, -0.07691265820728105, -0.11377701078730355, 0.08045880660774637, 0.0666123607587078, -0.010251422507840287, 0.015116442392952572, 0.02068885258035855, -0.032440067867924596, 0.011657561642998584, 0.12259438851686323, 0.042319460325766445, -0.004337147148246711, -0.04822146546065495, -0.08066810308888314, -0.05118572736191071, -0.06572351658799813, 0.10264145314517108, 0.05983069151753043, 0.034276388520893264, 0.10328063711130772, 0.02257919675711861, -0.007920538913970631, 0.08663048064114875, 0.13704334715382002, 0.03462008405937509, 0.08384978603314933, -0.09264834352296421, 0.04329025534175174, 0.022753915310996683, -0.021983232734871492, -0.07030741735581043, 0.013499850433077526, -0.0061160750365075196, 0.10190113142217289, -0.007812058667333006, -0.07495398107689454, -0.03949313069635852, -0.08791711536864769, 0.01581907238101204, -0.08104976012502058, 0.06963702136047502, -0.002720767500008506, -0.0052791404000377025, 0.0684043161368306, 0.06082972939508926, 0.05849018324548866, 0.05256625486594252, 0.0540933579809329, -0.007178237362721374, 0.12981463699626722, 0.016679042792900684, 0.13436957731770377, 0.09813739664834972, 0.011413636313262868, 0.031199660661434172, -0.025413829289201734, 0.029621893098688595, 0.05115789421762755, -0.016603297374383715, 0.10034857752996339, -0.025060567616968954, -0.08818040649981139, -0.051872891902012504, 0.0693806038342718, 0.045546751244057805, 0.02902341236226846, -0.05434751114863736, 0.024719127245842572, -0.06371483672363104, 0.06515670658368261, 0.02060886707234448, 0.07588602916282754, -0.014061938911598978, 0.08671285175982865, 0.017392792447831335, 0.11851068994214047, 0.17026565166298166, -0.05233723753833517, 0.006926205725514012, 0.12361542911003168, 0.013174021213581947, 0.039179649655829395, 0.02761288543780834, 0.008258692930223068, 0.08901789668329071, -0.0028357627240443656, 0.05073777802817271, 0.03174931594019514, 0.003230503116588563, 0.03229259608120663, -0.006645208830817498, 0.06951661772565704, 0.047162461263969314, -0.07754748625410404, -0.0012356598630338226, 0.0005633687809853497, -0.010004389414731892, -0.023541032236952763, 0.15771761231838308, 0.0547496130333864, 0.06697625948695915, 0.15532654921285738, 0.0646518114839059, 0.08874720126460786, 0.09213327828446155, 0.07711471749947266, -0.0013327151766250266, 0.05412307631391259, 0.03633412188578114, 0.036146805196894706, -0.010423708168101712, 0.10256174479524173, 0.056627797050435615, 0.03548499888536862, -0.024179072776277153, 0.0576206161280769, 0.03333944981185061, 0.011292929454275643, 0.08704522478248387, -0.03162341735757153, -0.0775719440637497, -0.0010506759359177086, -0.015892863817982175, 0.04192805064849595, 0.07253164093672432, 0.11891592392404254, 0.11587135541666517, -0.05699335819625634, 0.16609590165439853, 0.10849688820196553, 0.19469767675425348, 0.02546819005326287, 0.01817995580084384, 0.05649386636510845, 0.06031300991597587, 0.054409991720000724, 0.08585974770185849, 0.0791720578789837, 0.0016640423410378916, -0.03660247939185073, 0.07696846610599221, -0.010988973066701458, 0.012490914300547065, 0.025374458811402316, 0.03757225663221653, -0.08304581766441646, -0.059587863779655116, 0.04447353024071921, 0.016039193948088892, 0.04824992515526602, 0.05816631015749578, -0.04550369274473482, 0.009227641080073184, 0.06368376640933662, 0.04106889114699989, 0.14771004544768068, 0.08993580086664722, 0.04378567262902055, 0.02189319494033408, 0.035638331634364265, -0.10703259503749141, -0.049090150175567324, 0.06390281736645616, 0.1210135836099177, 0.07176884365912228, 0.03260883123473074, -0.03251647312490757, 0.02032699549472382, 0.05417553238379503, 0.09786612247941143, 0.08068327582577801, -0.006171237960352145, 0.08451431664151902, -5.766458172357836e-05, -0.044952763845986114, -0.03497141893323112, 0.008367245268953194, -0.025716006598349186, 0.002481280153427597, 0.09954118408891455, -0.03340234740503045, 0.012290606824265419, -0.011967695040987327, 0.07097752887786259, 0.005081153446309829, -0.008402217777956711, -0.05482450252171744, -0.06193106667438136, -0.005123647516394136, -0.07241923924983025, 0.04196183452526738, 0.11282869973497388, 0.09501752377190016, 0.02603991613811886, 0.041165840763033694, 0.02945095451478302, 0.10364740112093632, 0.08355893482857671, 0.04684526517487464, 0.00956971220012307, -0.03243143384814698, 0.013051737713921239, -0.015829895043939488, -0.01386080483176095, 0.030792053824319526, 0.0036952000648804465, 0.03623607129713906, 0.014571101363881076, 0.013292764523251423, -0.095868208414932, -0.07897792220833887, -0.09698758911848818, -0.08850174586719292, -0.0796934763749469, -0.0441832385218162, -0.09129327034583973, -0.027884768346726343, 0.057731125996922907, 0.0458034183102277, -0.0036884936834025235, 0.04700423353201193, 0.0738632027604124, 0.05067925435765824, 0.07531277594595757, -0.04008597099531212, 0.01658036029559278, -0.06830338429416691, -0.04288732337478607, 0.061662050747183256, 0.026274911075235337, 0.0047098400819379225, -0.02337929845253269, -0.08757948955374864, 0.008271695805784827, 0.06627767835545438, -0.04975309492892781, -0.046604023212480084, -0.10024248231288475, 0.011893525715888247, -0.09988236904321512, 0.01645614969375717, -0.09097380724340233, -0.09303998935828177, 0.03757655757535061, -0.059851649689870695, 0.04148059432332467, 0.001740542127103715, 0.17355554155944433, 0.13820325614892734, 0.07615500110765337, -0.08107738556805627, -0.029495455037997068, 0.05426984273094532, -0.02187008453430909, 0.019717095857482308, -0.1385575078141216, 0.028989868002314075, -0.0442988621338594, 0.1423922613850791, 0.10759163376108291, -0.006198722695519712, -0.01824929721223695, 0.019986556756811463, 0.023016976699541718, 0.011331742597248002, -0.0157705699727181, -0.057850589141592926, -0.0482115031387818, -0.01828971077184877, -0.08068345179462169, -0.028614627118384795, 0.040805566666806875, 0.09227995423118966, 0.01586778257075439, 0.08843500594818268, -0.007812101966677325, 0.12465501195415324, 0.10878219321673951, -0.06013223613577702, -0.08543020830374129, -0.02343938365192579, -0.06431493726169132, 0.014034163816521863, -0.04431050758281337, -0.06972163274401671, -0.037696273613817693, 0.00970608063814471, 0.09241060243237216, 0.021996831393984385, -0.03283323628724367, 0.05372759669293575, 0.03777305866058987, 0.009871389505447765, -0.08063752192978056, -0.04267204514805615, -0.14337439253740433, -0.03026407209027462, -0.016895985438634825, -0.003808742848214891, 0.08620540788246402, 0.07492583409770955, 0.10511046419244888, 0.12843759024999746, 0.020501355279506403, -0.04349329191838742, -0.08935982780298102, -0.00939770588906975, 0.06493475963924288, -0.05437529613478623, 0.01550207678439545, -0.04143318090236941, -0.07611795605907076, 0.03873848036164798, 0.039726166740853455, -0.03770598472534491, -0.018496668083117132, -0.025057208752467527, 0.011078540304781937, -0.06835549435918614, -0.04685869329625795, -0.02326490427953195, -0.03599624148383259, -0.0676449352075792, 0.057651134856169975, 0.0829937870443716, 0.03154843803658827, 0.06892075643452042, 0.038796422574773705, 0.1127394005342771, 0.08918063340970271, 0.13557676296053767, 0.08687631349589389, -0.01824053962572604, -0.10541737566300097, -0.10581346050578617, -0.013078929219545336, -0.1251882458576569, -0.017067813629088685, 0.04921300313181509, -0.010115128246076832, -0.07063810449798182, 0.04910343916492075, -0.012866090426827702, -0.06069283467939492, 0.04774111020705255, 0.007491616230781036, -0.060977965433823465, -0.05567722495277942, 0.03486514627585322, 0.024055945873870884, -0.08512101185414567, -0.08969789581155828, -0.03388635905518208, -0.0753892644331388, -0.024583439054933254, 0.02776999556764766, 0.04712975987444329, 0.08737174675646636, 0.07789998260702313, 0.0536623369881882, 0.03797798569604533, -0.07699866583704353, -0.08185098132109443, 0.015145181173280266, -0.04157332900529049, -0.00570859696219458, 0.03206655577723153, -0.11809241480861503, -0.014831919696516899, -0.01890230193919417, 0.041770566076885965, -0.00690674248902361, 0.05857717347573697, -0.030865726940103973, -0.03903411497030483, -0.09059791981594416, 0.029915563318732765, -0.07226001235226184, -0.022226569292045438, -0.07257426980261213, 0.05085264616024691, -0.02725004992944842, -0.037464605654152036, 0.10049750489699338, 0.027862675728810876, 0.09364219550013622, -0.01432172588269886, 0.055914701471871976, 0.014884520097905207, 0.055559346337585525, -0.032743059032760195, -0.001186530347844052, -0.06419036761107781, -0.056254527821816565, -0.01874725287669358, -0.03342996286232732, -0.07078477136194207, -0.006566128704590301, 0.04241867415501317, -0.010058659207230947, -0.06030532564471862, -0.024718327066587782, 0.024558096328424303, -0.008017149541398165, -0.09528903657288891, -0.062156729520407954, -0.0581451298734531, 0.021532011743925484, -0.03256684824654707, 0.005314116464076872, -0.12101662667495763, -0.0701267999714982, 0.009868636558787927, -0.02900158784949457, -0.041511115372838484, 0.03257437482792673, -0.06907573913581616, 0.012335794129204465, -0.047310924551139034, 0.01900070103998204, -0.04788291558492329, 0.07123441022215249, -0.008434936332497298, 0.06664667746177691, -0.013956353285966786, -0.030497112038379147, 0.03391695299626914, -0.014887066513447135, -0.011785102584833812, 0.029545926889127334, -0.07710843001620829, 0.03833338292665514, -0.052656816056487823, -0.04143579533839526, -0.07489567931750546, 0.01375211016499075, -0.05422412052598337, -0.021782582165216273, -0.08205600113150353, -0.01073501781713256, 0.012626516394778423, 0.06967743568854136, 0.0020963299703682537, 0.03557554276406441, 0.0020823659755961356, 0.011723404007801135, -0.12848178013111836, 0.029606408688648177, -0.06058027862149129, 0.05444214504233457, -0.04099948699237578, -0.04364196602179071, -0.030765706593562012, -0.036539538704960864, 0.08571651338374953, 0.03362298957863182, -0.023882997448536124, 0.07839820284420018, 0.04511682046060896, 0.07775341182736273, -0.012576081987506336, 0.03768316867719549, -0.04118085982555897, -0.03589349160823261, -0.011946507809415856, -0.004339654215698156, 0.007443328949319249, -0.0556704848009828, 0.042226151158304435, 0.00666892348466715, 0.024844892550557125, -0.08581809706531751, 0.013922066638789775, 0.04358020998501373, 0.02766183057902471, 0.03399364604229958, -0.032086256969260284, 0.016534042249824424, 0.017099832067563915, 0.04049193465133836, -0.06036081604561799, 0.0016073973152501355, -0.03264188740460838, -0.04090050514124119, 0.058166269855371024, -0.05614501895032101, -0.008759216602169021, -0.026220399696850392, 0.05454893620836839, -0.08314114260108828, 0.009572187640736335, 0.03650013963371916, -0.016454351638909476, 0.04028160912790188, -0.02485977346718364, -0.06202705407225499, 0.02270038628404383, 0.07241727660070722, 0.04387888402394171, 0.031559395235636604, 0.03648505657142254, 0.07420023068509904, -0.007944135535370883, 0.10015440964385018, 0.04005148256220581, -0.004829808132700668, 0.025672984952529062, -0.061896515940613385, 0.003364598760852289, -0.015072186669333687, -0.0996017114950127, -0.040285362469425774, 0.041586899337921555, -0.02753182720739354, -0.010777110391579992, -0.009172306758177375, -0.010922050844978935, -0.06475081673025235, -0.0037793282783548563, -0.046705234892122, 0.026896698645585804, 0.038891558723995336, 0.06400397485261225, -0.017593844418499024, -0.006159187488200841, 0.0036264109014889933, -0.05822600211158622, 0.0034444838509803634, 0.1386385962645831, -0.00564425864489165, 0.012799011186421762, -0.01245019904013795, -0.061348956197317596, 0.006741651632807196, -0.02980482556361745, -0.07070305663128652, 0.03423139863768361, 0.028493418366617743, 0.07369860459148173, -0.019702964108200924, 0.04618308429968718, 0.012973651576684715, 0.01427519872969991, -0.04815143937470654, 0.06796042685118903, 0.05378079226188859, 0.026995634587392955, -0.026181401758698954, 0.03779191986267105, -0.03463852278248521, 0.05251176275579866, 0.04962305158234058, 0.08006267779931463, -0.08140179179720851, 0.03676456226533229, 0.06415558042004255, 0.05336805645349198, 0.10119898175628625, 0.034054611078855206, 0.002968293945343565, 0.02074755988899316, 0.05408859627978047, -0.004252610891864945, -0.008443342635503814, -0.012042635420879803, -0.009662800498911708, -0.06030571465867707, 0.05738992875448214, -0.02070108849975191, 0.0759908979459331, -0.06170878054066809, -0.009488625430291043, 0.025949953011899188, -0.013807218079468622, 0.027301283149456707, -0.013352487156535883, -0.043734051460263754, -0.02340519827424408, 0.01258661359577547, -0.015001536523799658, 0.006828522146180825, -0.010412311146319337, -0.024269809479804724, 0.08690924954879602, -0.08650769619043104, 0.022326866818910378, -0.032703051912669624, -0.004285907079500859, -0.020802447948946125, -0.0072930673670516324, -0.03813513136533652, 0.03525031682271489, -0.06234298831090637, 0.03650618685323806, -0.08123196399634955, -0.020960922894213495], [-0.03273831316684857, -0.023442653136730194, -0.08775381461600694, 0.07249288735745008, -0.07078682193915144, -0.05689919402540062, -0.05283864182443616, 0.04936334639242343, -0.014923593737549793, -0.06664628250110627, -0.03111051582228401, 0.024892754243782986, 0.026740402822680854, 0.03371129926881363, -0.006116126259643896, 0.056774509919707734, -0.005006887649645155, -0.06101134871249474, -0.04177164263526066, -0.026090532150813483, 0.008642870878940773, 0.03590838031834191, -0.008390363035109434, 0.051142710876246236, 0.01598082452758027, 0.041039097065012006, 0.06857222118708928, 0.0756665991883032, 0.022453342478113286, -0.012360126183136613, -0.0006847082720686775, -0.08918194024390987, 0.02037264555709886, -0.041685766223229545, 0.005497060024638934, -0.015486028637475023, -0.07800400393309252, -0.039020990453475096, 0.12181246334661916, 0.044389925139074096, 0.02576850194622435, 0.08001618770780632, -0.008762301692362176, 0.004083995219503513, 0.0017646998744279285, 0.009417110456608107, -0.00870861104452214, -0.02834725367553449, -0.03070660061682199, -0.04619996611636697, -0.09083437659002844, -0.09097247773135558, -0.061682537937510884, -0.013926143447903492, 0.06785514989143156, 0.04751146026831434, -0.014366897471454134, 0.019276664253915807, -0.07779873414896525, -0.0225793022897352, 0.030507371925433374, -0.16305225184182306, -0.0699066179142751, 0.06605917754770282, -0.00021166209996739557, 0.04070623650151052, -0.07827341995328364, -0.004221020499061178, 0.0020019087422401085, -0.032166596095016486, 0.03672184672550153, -0.027026647087018945, -0.05852433676113102, -0.07355812396812336, 0.06248385377589473, -0.02088284082283212, -0.013695064054165835, 0.00175320194613083, -0.05114157654149567, 0.07682558611220136, -0.08793930844912143, -0.06232021560282924, -0.03789207777250355, -0.06758646604098918, -0.0019860384330926844, -0.007940498534769138, 0.023916242212988922, -0.06491817858017483, -0.03462569977372259, -0.001872812728925053, 0.030188689060223182, -0.00038880110850901143, -0.015664624069943005, -0.10141343969911071, 0.02760758932456146, -0.057346922191120565, -0.019651186607621482, 0.05005720859497485, -0.10886668872278674, 0.00866955573491682, -0.05592516477905663, 0.0653262845335798, -0.022626563938444946, -0.020710629667829925, -0.05821483082226553, 0.01422596054044082, 0.0034033291315235838, -0.004550357927268013, 0.03305413176077628, 0.10902443130107554, 0.05543513312349952, -0.0071697756963429934, -0.03757375794823021, 0.011700974207513933, -0.037081951217717096, -0.05521740290115624, -0.025627214240744472, -0.02000195231365561, 0.04959371759737996, -0.03854935202814718, -0.046991212137011074, -0.04216941634801655, 0.009009431644883159, -0.043021161378087355, -0.00616902526743323, -0.06796043525630172, -0.1005357030615649, 0.10857848553827014, 0.007395973056007073, -0.04707539978799674, -0.07162136634092015, 0.021539062316896226, 0.013096718439213798, -0.046384388874900574, 0.024346130084389895, 0.07700324545764092, 0.010937147171312124, 0.02119389359631952, -0.055869565984634204, 0.018081900826512804, -0.04858827999017199, -0.006896600691189314, -0.057475341418761663, 0.10178211991907588, -0.09075509288981373, 0.05945064977791126, 0.05899217654968453, 0.015829904801493325, -0.01649992610940327, 0.0027812057356777177, -0.06466491434459413, -0.09194369561632834, -0.00192173309437834, 0.0028921815689761324, 0.07868613220949824, 0.002707421859093473, 0.13742109104718025, 0.08516305926880993, 0.04792981186010835, -0.010998208810198643, 0.07642029493104907, 0.011441897310654252, -0.10213730278807456, 0.005524998679620714, -0.03279337340253346, 0.0021940332328659303, 0.0835244484117774, 0.07591858522902294, 0.002648824029251246, 0.057714866559156926, -0.08128702717050265, 0.014494631776072076, 0.04835213969782959, -0.05885513919757208, -0.02442466071796294, -0.07532679281238962, -0.05479676719803771, 0.060090202926875086, -0.10125647211646306, -0.016775936844058946, 0.02552518650118756, 0.06065532736060029, 0.05131167213196284, 0.05019198813809305, 0.01525437262433305, 0.03259993477595905, 0.0011951592219652067, 0.020216219961579282, -0.04641243988590307, 0.06652331525999301, 0.06174493749795153, -0.0036486625508899886, 0.035204024335369774, -0.06074251645195834, 0.0483830207974233, 0.09552783704062981, 0.0550076261927016, 0.018553601985663287, -0.0030221396345551663, -0.0031079327862972785, 0.013148421877223102, 0.02364871359715333, -0.14266388684732104, -0.011464337077763882, -0.1513938749712745, 0.017201550624115425, 0.042042916864523064, -0.14953831811286622, -0.1261775672921249, 0.013082468161991795, 0.0033539185546436717, 0.01792841721934608, 0.1059926446066993, 0.011992842725746185, -0.022085020292635805, 0.08242477617786985, -0.04903564274416352, 0.003385171111990742, -0.011876537946702233, -0.020597380884829684, 0.024551688290401826, 0.016170741817562558, 0.12559991628232403, 0.01243781590021032, -0.03294289324708494, -0.09779844292805816, 0.015762346773585408, -0.04133871215092945, 0.10565780480246967, 0.011577706432262256, -0.04666098823543196, -0.050968223592121664, -0.008318963415771981, 0.001265810449405667, -0.047496455080236887, 0.0455668399099852, -0.05045746959350638, 0.08219389430057361, 0.009114140460733298, -0.04693228383629306, -0.04262545216047933, 0.023354962769938252, -0.03247859265043583, -0.044759200123612994, -0.013397492135860832, 0.0038891539821185707, 0.012654523430723985, 0.005207027472524188, 0.015607731257977429, -0.021322435383707268, 0.03813758884505289, 0.015915773894074014, -0.04650048933779544, -0.08603026048787647, -0.06605147396015722, -0.021792352796531484, -0.033836318760114434, 0.001153908229333082, -0.04122922344579009, -0.01891921053762375, -0.08293795004522596, 0.0664639008410532, -0.04417808039273541, -0.0051835504172421274, 0.10382446685431483, -0.029425089835481463, -0.026893131919432208, -0.1538128137226808, -0.021672174924285918, -0.10609004350078652, 0.0923674846197746, 0.04123695710774051, -0.07529792763705331, 0.02146758674007767, -0.05202630594504889, -0.04624154694703379, -0.017470429074893993, -0.09846686964814394, 0.044079364985332964, -0.01877184460102421, 0.05163400626910822, -0.04755095232637214, 0.010214777720198376, 0.04632299799357404, -0.09730538872097273, -0.049444192078999756, -0.01514973500553257, 0.11572850139743947, 0.046983240567201795, 0.04706978185395751, 0.10980050069723979, 0.037809571276710204, 0.09365473124454099, -0.07454457327219798, 0.01531492289663388, -0.02898282262317055, -0.05984993923605471, -0.0911698679774996, 0.02624832929459764, 0.050191478903612946, -0.004978745712467895, -0.09009549323291804, -0.008042573732688973, 0.018615455438296617, -0.09286076339828006, -0.041150692674727436, -0.03780020767270805, -0.054138439399546566, -0.09051301357632154, 0.048668654495944826, -0.06114623293537373, 0.04203742953590566, -0.030278376684109116, -0.030795928000945626, 0.000792424795146524, 0.10656075337324519, 0.07175821086321138, 0.004880348682005841, 0.141563204805963, 0.12477727658769254, -0.007707933244726297, -0.023793811860993407, 0.0823793798105665, 0.009245643890612842, 0.015808525765732523, -0.05309362046589162, 0.1099767730156979, 0.08310941476739778, 0.012488557189342168, 0.047780571676296076, 0.13576436464251845, 0.007731136852906448, 0.03520791529496817, -0.02769736919122807, 0.01246874281812522, 0.06013980523114083, 0.02387959134915395, -0.0019556888954194705, 0.03883814408492127, -0.01466939123877091, -0.016463349389733546, 0.012744901033542994, -0.024771375668266832, 0.14238237793519393, 0.05540403756294703, 0.048162602412094774, 0.033350879521352725, 0.013700707325135094, 0.09187351208092656, 0.10771965567730706, 0.0527490159295112, 0.09769943357554617, 0.09784041155662018, 0.003953325479778371, 0.06712228997789722, 0.08358268277202378, 0.09851595381324953, 0.0910078076510744, 0.09074826710691035, 0.16541091746506245, 0.03477842971023345, -0.028555158211599273, 0.013265645472797313, -0.11036553460869451, -0.016845140067413476, -0.05248428705104314, -0.004822523356058697, -0.009506205055162413, 0.021168697154771893, 0.0799905742463801, 0.01396109711587232, 0.01815960544106073, -0.018422924687432365, -0.008060398092926253, -0.0736387436894711, 0.12950647167343396, 0.09534257054702744, 0.15937191259934425, 0.17146303409944433, 0.24196413395669927, 0.12523135414261033, 0.11797966284961298, 0.01947055461189461, 0.07232288278020078, 0.1498664160240629, -0.010322406241136929, -0.03328218463847382, 0.0009140098971702336, -0.04235163240953909, 0.001910196870315654, -0.045377116324551395, 0.010253933327901919, -0.01082605907821444, -0.06305498333384861, 0.05072238003745853, 0.033987261928452375, -0.04675248459113728, 0.048358400947387116, -0.030264493842627273, -0.004436135671100616, 0.017589573101333494, -0.04041577150494925, 0.03959201320944906, -0.03971691333610459, 0.03070577538064061, 0.17374043836214628, 0.17331512178672828, 0.13689911679784314, 0.14957659060038733, 0.04385231417394075, 0.03376654800235618, -0.0806543996205608, -0.06548108634163098, 0.01209914749778351, -0.05260410381690539, -0.06542469110707441, -0.03431103173354663, 0.05566387663062954, 0.005567856873755141, 0.022705534528917527, 0.012689097621404659, 0.010000402134520638, 0.06575058363698111, 0.01473610572833593, 0.01581255718202321, 0.04458824018116571, 0.08177580273725708, 0.09354828415237097, 0.060936854961026125, 0.04419551867481416, 0.049074228428996024, 0.048061699570688766, 0.0658908358394543, 0.14675768924525592, 0.13307576500094057, 0.11374584975240216, 0.11801898105316107, -0.031445149786113805, -0.012579014372815472, -0.06803234423003834, -0.14224137386518912, -0.032254073577541946, -0.10375235308560331, -0.09615646974552645, -0.10379214846330768, -0.02958156830583953, 0.060289538682428825, 0.017848708295371513, -0.04816558088183794, 0.022834396996806484, 0.1093783995388754, 0.017369281767997097, -0.0004673229361662284, -0.07063183828033374, -0.019743691230927837, 0.020230032479908552, 0.10544157481337008, 0.06713151471906396, 0.08703849627204846, 0.0750846367004525, 0.25056926068125973, 0.11859079149224543, 0.1398085688155155, 0.17938980915984645, 0.11723998544402006, 0.019837730320114506, -0.032076718914454634, -0.07091635523202408, -0.09285467420806683, -0.16697710589812856, -0.02230053759762931, -0.020750121818432218, 0.011974047010354403, -0.005170906673490068, 0.06732190189687828, -0.03385626835574878, -0.06357124304245372, -0.05448850364032181, -0.012164998013264818, 0.05889889441538541, 0.02805793092356276, -0.024610689945098383, 0.029107518979165612, 0.05050096773262146, 0.09881017904642699, 0.15831820861067175, 0.2348677110265906, 0.1471197030680541, 0.2066155061373017, 0.20414555149638747, 0.1206932989461938, -0.002930759663528991, 0.0056725986919176465, -0.08484474931087865, -0.12182859681731041, -0.08885451168033293, -0.06823581592753057, -0.03678232736515112, -0.07406430528585474, -0.10033003393095152, 0.013120944194674945, 0.09597131878106946, 0.012012472070343814, -0.004594407793560365, 0.025972503784305857, 0.008449107365884887, -0.037934201395666806, -0.10344668422071887, -0.027972414717691903, -0.06371931209373062, 0.0051327474656782624, 0.03743856155939427, 0.08998122162896607, 0.031461461157691446, 0.1631920954664245, 0.0992497725860175, 0.19628797547313162, 0.13403680986504676, 0.03433392012093838, 0.06567102838115103, -0.050581135054803654, -0.04067212337693698, -0.11509815729552064, -0.11004224185167506, -0.06925810912441968, -0.09206011664747275, 0.03115230007032091, -0.05252474627413527, -0.002841185135283722, 0.024210506783618024, 0.01015150819497673, -0.0444857027271686, 0.04265551347530921, 0.08386194005683709, -0.009860749569120803, -0.0657064715936611, 0.05690301498368969, -0.028334269477995916, -0.07458945211310247, -0.0490945468985995, 0.013066215686251798, 0.012693193852415867, 0.030318182432615363, 0.019410081770092832, 0.02558350717904368, 0.007032109284331918, -0.09397619863328194, 0.0017348547810595823, 0.020938662706268443, 0.04153259616081706, 0.011147652021797865, -0.003728431211709352, 0.021348461670884628, -0.05532069292041419, -0.06283405803546782, -0.0942264182677735, 0.03582512533350752, -0.06829301979018712, 0.04044193514448966, 0.049570231329078535, 0.022308882602412632, 0.06908613481916046, -0.029346056801414017, -0.16116274276278178, -0.06368188200331652, -0.06993931975313697, -0.07899000463101719, -0.10591405954301678, -0.024778038733063376, -0.0075147710758145265, -0.02314590117888336, -0.041393712940948894, -0.06862688152671227, -0.10084913837484331, 0.020658844178963683, -0.02925977489404448, -0.003371954450181026, -0.013290853318165406, 0.007284451400953644, -0.013511980558964895, 0.041831451742768165, -0.0077094323031565255, -0.06411263213984855, 0.04026662432552769, -0.0684941023019937, -0.06631487373941604, -0.05259918251696648, -0.025306134354754765, -0.02065225551278227, 0.04161493326556567, 0.0006631077946877234, -0.007457278141435153, 0.0023214943803029644, -0.03144372383211166, -0.05319224870541153, -0.06364119798896821, -0.012682071123492828, 0.04042771392960748, -0.0033570449491060754, -0.012762306044607454, -0.14311066819990204, -0.03838912333233502, -0.009273823431062343, -0.05039836297907988, 0.022394554561030445, -0.05854949999296496, -0.01522208463699875, 0.01620788630184724, 0.05791713584638455, -0.017759333535908795, 0.007755320323518404, -0.06674898593463853, -0.07036378444232905, 0.04840440280279787, -0.025962013346889655, -0.05374667436788776, -0.006004675730290194, 0.05583630346822032, 0.051899527188996354, 0.008830033033220584, 0.003870627192238973, -0.010465363883672573, -0.03417135496492006, -0.052560142528647914, 0.012828499099616038, -0.08779858119416034, -0.11903179761844161, 0.0332688253908956, -0.04279083135891207, -0.005583325078814621, 0.01585508393410634, -0.01937010488027545, 0.06891730386778548, -0.05664934466912523, 0.09299576441605882, 0.061065720294422796, -0.03594296274243533, -0.0038000707578461318, 0.07768402618254856, -0.045878623312853674, 0.03408505899626419, -0.07546253203041325, -0.08155953650239897, -0.06311624151145794, 0.009850972031682373, 0.06336122409702162, 0.009398403942710734, 0.010370506458503046, -0.037452418533442056, -0.03305314582832874, -0.004956139841264438, -0.04322961329341757, 0.006667899004002515, 0.0018837591791908777, 0.047493251288181784, -0.012312409522720535, 0.06625183052904474, 0.2004299173093226, 0.10829750772984711, 0.02117884500279211, 0.038569310741320154, 0.06660654406676529, 0.10361144911100068, 0.028980106654342256, 0.08971578929838092, 0.09407467632275267, -0.00852677020081497, 0.058391918379282474, 0.00496003768039536, 0.0171384667360474, -0.07468342667975375, 0.061709622506423124, -0.02969082127701779, -0.09543649989580345, 0.0266779413240922, -0.046849713752610815, -0.08422091497608998, -0.056949117803582666, -0.0306695822980597, -0.11326188841592172, -0.12223061393709962, -0.027394210826232182, -0.0065991373967245765, -0.09336533039695777, 0.012100969360435254, -0.0982745279470161, 0.004923270786513805, -0.009262632541212042, -0.038576791272483944, -0.05356104306506031, 0.02858023209131714, 0.07238595323610027, 0.05222598255886831, -0.1039308666500452, 0.029124455876866392, 0.07490514893832437, -0.07132785391440762, -0.07636032230196849, -0.002618189231545711, 0.010188819574879032, -0.0067589986445610655, -0.0586940670665409, -0.005916437027597046, 0.0037408205568770186, -0.05633609040504772, -0.0307296191112579, 0.016894400370482232, -0.046620305477681756, -0.01879385549714112, -0.14688862172500447, 0.019271216033202844, -0.09858866871740603, -0.08146075639012065, -0.022210350933206367, -0.09533996051727799, -0.07840089963555524, -0.07242160136341215, 0.07627088385853208, -0.032993477868758184, 0.038221696077277614, 0.01935137042644035, 0.0624725960046464, -0.0381482051151886, -0.05003427418203494, 0.07412435725296943, -0.010510964111552468, -0.029227470020380973, 0.038290027896109656, -0.043620379493854465, 0.010154135278125058, 0.023059767239160072, 0.09466713398378043, 0.0020489289181496047, -0.03804820670473098, -0.08570855483569852, -0.049129460852481044, 0.04781100304671197, -0.048291099480846415, -0.05796895143503669, 0.006258952492415126, -0.07646047216471788, -0.02010125069137544, -0.10377466782176287, 0.032081050057764626, 0.06599940527472543, 0.012007607462888061, -0.014587281752555576, 0.014790487553752476, 9.59413710221241e-05, -0.1245059753835981, 0.024841823924412584, 0.0026114061889792924, -0.028145637310469544, -0.009235428275303654, 0.020459431094694728, 0.08752407253037281, -0.08280663002048105, 0.0009133938926828432, -0.027553382701093504, 0.07845233872091499, -0.00526073673372045, 0.011768649455340468, 0.10526218774725424, -0.010205156404906737, 0.0025277137076487486, -0.054891060029153074, -0.0489161645022021, -0.07441030356097812, 0.023029747482695033, 0.025183312995742717, -0.01183130488401589, 0.05392002900477429, -0.0022573029911607556, -0.10808072287061096, -0.03498457130105059, 0.014223726888889508, 0.0737504410587001, -0.061950829524902995, -0.007962656572709882, -0.01525501648498971, -0.0675267614144191, -0.03546410073829619, 0.03240379191136388, -0.030212476674501696], [-0.0013951840171971667, 0.012899065287650398, 0.018180067340033707, -0.007502392943993245, 0.008332921393787754, 0.00021224654651046723, -0.06847075591680336, 0.05751480675453312, 0.01212185248703853, 0.03209737865390697, -0.0010664588807871732, 0.0027703571108621573, -0.019303104767267692, 0.1516376347304313, 0.06019741799309361, 0.0003214400357280481, -0.019662141006594965, 0.008639768269975288, 0.01697191115505677, -0.07830823715200413, -0.024442119993073944, -0.03747361509414282, 0.0038187628989273478, 0.10545754507542743, 0.014486353902415405, 0.030848427649424928, -0.013862421357170107, 0.015086402752404306, -0.009276896563249211, -0.04052123453068525, 0.1101879287801934, -0.0032027821230696187, 0.01511678371907449, -0.07148274252683913, 0.03726880209726507, 0.05923750194159894, 0.03641920313405521, -0.014675967137138578, -0.07463262932043993, 0.012377001503606237, 0.009020884314435804, -0.0011242083739071392, -0.016093318630903974, -0.005803817896563274, 0.036814819801365625, 0.010460038283118608, 0.0028675006389002676, -0.02612409989431404, -0.024260534901962956, -0.07924015595237428, 0.007517033451443467, -0.03259349834132012, -0.03359392905862875, 0.02894986501844089, -0.025095540214600618, 0.05318139205584732, -0.043862550520591265, -0.013689462463083292, 0.005429943837979918, -0.05815729789260242, 0.04603380387512698, -0.01593315097260543, 0.015189129809510343, 0.022767459924152238, 0.019724041513465417, -0.09015081565687083, 0.04906211216874024, 0.05409865354168206, 0.005420235279983661, -0.015780807995448537, 0.04808668917381417, -0.05280785558066354, 0.0652979940844136, 0.024801132552794612, -0.06346498360606243, -0.031108858567088515, -0.050964101450565596, -0.021718203104526625, 0.07362345293802289, 0.0587450180415036, -0.02038519276040652, 0.03436924332895668, 0.002541790115478167, 0.03854128787092466, -0.0652488137618847, 0.009578389331226286, 0.038800152562372604, 0.051047778288318045, 0.015175844734127478, 0.06467873677342234, 0.01945066069156969, -0.05604772547232582, 0.05127413055566644, 0.006672960906117893, 0.061688867389528716, 0.04540241250647652, -0.014176130114488967, 0.0052690074017380925, -0.04152132420764669, -0.06254624065212938, 0.025446205893666148, -0.11909321788593895, -0.057537020079189004, -0.04888507675568967, -0.04209645064036937, 0.043267457618889456, 0.013696674130278133, 0.06475785360744678, -0.05970420869256858, -0.07370547735369722, 0.012742561876868647, 0.032650861304092095, -0.007593573100951756, -0.08969885497896807, 0.105726713973409, 0.04782782052042627, -0.041331274040786244, -0.06660999985833164, -0.0636183000075479, 0.04677910802177122, 0.0661855097891994, 0.08248391729918944, -0.09961309681038098, 0.09403474035075153, 0.020197023254212743, 0.012356624109422384, 0.04382967519412319, 0.058137866323994314, 0.031603072588385864, 0.035661176772061716, -0.03814053334426939, 0.07829632622838315, -0.06342499502746339, -0.01812574636512996, 0.02806198201744807, 0.01366660010928628, -0.08821290478709713, 0.0318462264280994, -0.008040301651846571, 0.10000210472935725, -0.01706882292383056, 0.041478667133845196, 0.049269694991402664, 0.02910205096990112, 0.08726470953065278, 0.037088433251420395, -0.025934966105887344, -0.0673387327804152, -0.06209706422411832, -0.003944722138550146, 0.048961705046985125, 0.1319306745723967, 0.06973394935682704, 0.06192220405731946, 0.022952330256273575, 0.05255726486683515, 0.14440813458084814, 0.13744441724623443, 0.03755103543024688, 0.07297137286353207, -0.051828373658528486, 0.047393028033217745, 0.02483498540466306, 0.024386850559627086, -0.023692290181379656, 0.006562361808555498, 0.09981725174423696, 0.022752377319597422, 0.024927649695525866, 0.01214518682362341, -0.05801976225395532, -0.05793318191326987, -0.010070202314544096, 0.033814743242921434, 0.0599507321207615, -0.06345643835790213, 0.14126836649311003, 0.11435579028977966, 0.01580128893668374, 0.026082854638232532, 0.10477039545999232, 0.07975142057149781, 0.07637198606865891, 0.0448279170454375, 0.05424224637725824, 0.038422212116552334, 0.05054067124763396, -0.0037050465436399595, -0.016486946520633688, -0.007540834445037358, 0.021554203097189455, -0.006169022415057275, 0.017795211100784466, 0.020373205324495443, 0.020920686032080762, 0.09863304556129723, -0.00014344054294898568, 0.05387909176548301, -0.06085159104423981, -0.012862165522476307, -0.04623347127904284, 0.02274554945688203, 0.08499086695461361, 0.04074886013250362, 0.05583879093316166, 0.017774190528160767, 0.07855674397217263, -0.01878769247614592, 0.002745632017630558, 0.032548580246399506, -0.03878366174711073, -0.05530589293025353, -0.027305764986988938, -0.03253794637584982, -0.020471522634307203, -0.012462706638176727, 0.06073828892839099, -0.016181913229606652, 0.06639714670598919, 0.057951107166044624, -0.03437771759415144, 0.11738475477793289, -0.027497744664744254, -0.018179795006228548, 0.02065591542403546, -0.018158540825717436, 0.05437211624154397, 0.00023564544514925124, 0.011118864557469282, 0.05698512718895377, 0.04155957751335854, 0.1055643176114532, 0.10642554590830675, 0.037467359233223196, 0.1398122192511892, 0.056120955677304685, 0.07654240117695087, 0.02829429776910236, -0.10830770703840255, -0.0943881071456663, -0.040986736122807815, -0.056978663456845616, 0.005445861639509887, 0.014582123508155275, 0.05417372428754857, -0.02839733201474328, 0.08218864784621835, 0.07553488961173854, 0.15138635633017886, 0.05750891345014719, 0.03396837700770312, 0.040306793798730714, 0.0103647505233605, -0.04144685121030204, -0.02195868485512851, -0.03567878438382062, -0.09058285999945544, -0.020788475894439495, 0.1504007509872982, 0.09021604478926748, 0.20647933937423762, 0.02528437340533667, 0.04803866458134915, 0.05759598005724356, -0.0701572114675573, 0.07485625246213358, -0.026121805142125126, -0.032486033315218835, -0.09293465731899321, -0.07816534490741861, 0.08314410942060506, 0.10483413841441006, 0.03994475662634107, 0.14263922659300787, 0.1451848870906204, 0.04027772607050043, 0.09297821680890772, 0.09697249591383054, 0.025980889679084393, 0.019071172813593, 0.031580087478915504, 0.01981306725907248, -0.020758738827223323, -0.025647086680149884, 0.0066573628075682545, -0.035480467001974623, 0.041111147304842215, 0.024741497046916784, 0.07015548367260814, 0.05793805475792507, 0.16243000312375874, 0.10341646053239609, -0.00986695813066329, -0.03698450969950027, -0.07243730529765405, -0.04154109743159694, -0.04147010838902797, 0.012659803963577545, -0.037913850984650256, -0.0022913134278289074, 0.020933035483972736, -0.0007122057265974127, 0.019585173099628664, 0.03162970853491424, 0.050710801712889914, -0.0512543266502042, 0.04181396334802622, -0.05029833965800614, -0.021774655773460744, -0.0535417079019247, 0.019204615385166955, 0.043850248937600915, -0.03512539648460801, 0.004172900555530922, 0.09091883357632828, -0.005010810586290975, 0.07583444607981292, 0.10264822929791509, 0.027326885608801966, -0.06964735713269629, 0.07956097386711511, -0.006122336656568725, -0.07901160791727531, -0.14488499745254538, -0.03834858369359255, 0.03139684758727029, -0.045907512465406156, -0.05238236321011493, -0.01738676389380581, 0.05539739424699501, 0.015724286035212098, -0.026863412577089473, 0.13114869854161854, 0.12246054685301841, 0.10321189285615132, -0.009309442209522796, -0.10966116220298033, 0.01577341248941028, 0.09329196110375258, -0.012134770278443462, 0.030399036995202557, -0.05758549331697347, -0.07638931265439389, -0.10647046856292804, 0.032928027743577455, 0.02587917293076812, 0.025302244688577585, 0.01082885781251786, 0.0956870668885464, 0.07006774390729013, 0.08991268467349953, 0.06215544629358299, 0.004352223116031871, -0.062091613554858094, -0.07175425113901271, 0.08748235056504335, 0.09364542859408836, -0.01916377855941696, -0.026182626162173053, -0.15823706213693114, 0.0017045233859986002, -0.0192184730863536, 0.0032856645762937347, -0.05134552107045885, 0.05386136826099952, 0.0220128367945075, -0.013905787086107698, -0.003379285764845592, -0.018346356935732402, -0.06252558000187886, -0.05510901267401211, -0.07379403540890715, -0.12543792640207208, 0.045753495949696056, 0.05977081996130583, 0.018774675040248788, 0.16940160645872623, 0.11919268397762767, 0.040912527651102634, 0.04337282361095368, 0.04396799433099911, 0.06525997636208095, -0.0397100483268152, -0.024086682902473237, 0.05164302254204585, -0.07578354430427986, -0.13014178085561723, -0.1592228911549434, -0.0229910704546835, 0.04263141622246392, -0.07089297676398834, 0.026308758349201985, -0.10509370592264368, -0.11671129064169089, -0.04839806105919348, 0.020853219280554072, -0.0727841198750325, 0.014415694659754001, -0.07642650900298609, -0.10309675326155668, -0.03869820416399471, -0.04386083389863487, -0.006481446074619485, 0.10294853754687765, 0.13959246503170647, 0.14798939387726756, 0.06952574221048377, 0.047854901829520576, 0.0025114238180609467, -0.08211881036881373, 0.050160136414497056, 0.02994726266503804, -0.011215915826885386, -0.16868092422829234, -0.1435410349658479, -0.028333732377542272, -0.03894534163344927, 0.07042973441150924, 0.08320355680163555, -0.04235525444182246, -0.005535863773499607, -0.006027971014769186, 0.009274352370392425, -0.07665294062312085, -0.04689080118665333, -0.08859555189532535, -0.170617315101471, -0.03505575845732589, -0.11735500657750667, -0.000199164900326074, -0.006775129010372645, 0.02015541436166699, 0.1108140987868527, 0.0747966473590257, -0.009297111750014764, 0.013587528138350404, 0.04196374550951036, -0.007718778948832738, -0.006403398984232954, -0.010747358131677253, -0.15590354771750425, -0.04604865571960125, -0.03764295602699543, 0.03925772190092447, -0.11451505635962374, 0.02290513274385115, 0.007003859647323566, -0.024284930140533213, -0.028839260140811743, -0.010419714376704954, 0.025810943228161937, 0.011055127649655227, -0.033784912227512426, -0.12046094763876858, 0.03988724803436477, -0.048803768430160904, -0.030327654917490867, 0.017948979527170592, 0.05568845020500202, 0.04823822629022187, 0.12008110448199943, 0.12202857874666503, 0.12424885397224152, 0.06402991601605555, 0.1266656761035822, 0.011778661419230682, -0.06617055304728028, -0.02629690164732858, -0.0386509791521108, 0.027340877947953816, -0.014315663403278694, 0.025778704464682205, 0.010592735583054382, 0.06745654177932572, -0.01630892964819075, -0.0030364368621766066, 0.03238932511450956, 0.11578267550770334, -0.06391747072620844, -0.04310976809105049, -0.02775477121308169, -0.08609192712334375, -0.015225006027414459, -0.060528335785149344, -0.04532685327014943, -0.023462071782006152, 0.003186273014606812, 0.11552684969903135, 0.14358053638203172, 0.10900208678312569, 0.043067447333504254, 0.04217109674197505, 0.07427447698194041, 0.07363516127331352, 0.03510619273802166, -0.04359969478877779, -0.0654502291351867, -0.04691435305698493, 0.021580248270930615, -0.05755197696115831, 0.04843697814710324, -0.030247251712701286, -0.022458605944224923, -0.055319758330504065, 0.13643682758066344, -0.02542320015652102, 0.010392466754067204, 0.012032383231668864, -0.021892868998324627, 0.007128162882012579, -0.00187367796311154, 0.08785703956128123, 0.04003619341594962, 0.10320354278284505, 0.0904819763982589, 0.10976372530529972, 0.12147558266249708, 0.16628394851914777, -0.07945550907013446, 0.0837035801798824, 0.06558569973166659, 0.08434396021441709, 0.019199600674070404, 0.004840089567877537, -0.04098918637796211, -0.041601649588216195, 0.04663666669508714, 0.03304797148973642, 0.06234518927148096, -0.025981188173564342, 0.1046561055783966, 0.03967716786718816, -0.05674739053541212, -0.03404382622436972, 0.0069473843798642295, 0.016868109507741622, 0.025694878637955634, 0.08480482096660502, -0.019043523226174155, 0.020516626655858093, -0.022990846048864894, 0.04870352471051226, 0.09863713316361031, -0.004373353451898196, 0.04622095401784335, 0.06470742109682243, 0.053401143847989455, 0.03275271234342686, -0.03441494320948044, -0.035150686592384676, 0.06416588138947626, 0.07195600352259436, 0.10123983262989056, 0.030669139691067816, 0.09040593128198107, -0.014668804695256764, 0.04758257988241546, 0.05731088953428695, 0.004735490477123733, 0.07195748556820032, -0.04954078118726311, 0.016554386704131997, 0.047129188719355286, -0.10980633716169311, 0.00944692543025985, 0.05053421533195938, 0.0521169522762815, 0.06905952000178953, 0.092044580337068, 0.04356274944117155, 0.05132292145989913, -0.012150933791191622, -0.011030149228628838, -0.005731218790870093, 0.00427164043550745, 0.013066822033377222, -0.04078296267500942, -0.0427562296409054, 0.06961282249064173, 0.07466038106204272, 0.058404738875926884, 0.06280193962300801, 0.07070954930886941, 0.10229072645477798, 0.012037486491819262, 0.06085724305901083, -0.007309172363137473, -0.0258100733604638, -0.0052935905184488576, 0.07773287369965184, 0.02402100405611095, 0.02416175981964506, -0.012503995224173968, 0.03557614572622157, 0.05299139917652663, 0.06050530430183746, 0.1113821964560372, 0.024872978810600518, 0.08945287340817944, 0.07151705191761042, 0.028460083522626405, -0.011539668214941718, 0.0690261308916921, -0.023780193402348437, 0.023478875116325543, 0.028208853362591033, -0.030894613976902373, -0.03143235581103385, 0.002157489964702863, 0.08677509486307723, -0.041753864396744944, 0.00868998597790863, -0.07450700163525477, -0.013518413264463952, -0.08052197969241826, 0.00665855151415407, 0.008293783522821386, 0.0182578038132768, -0.008591161826635631, 0.07189419315595194, 0.026649431728803883, -0.029776081129562863, 0.02508788772143553, 0.07104377069829759, 0.06901400837851715, 0.1147101697111447, 0.055844064675371376, 0.04660842961898857, 0.06900484585014162, 0.12089691279891174, 0.10016507412024477, 0.10508115409487262, -0.0031279083251748926, 0.10583122959293931, -0.015598514199160973, 0.1094522702642425, 0.1541451203927056, -0.01484107174665852, 0.03257813756122452, 0.05491282563953135, -0.0064130738660778085, -0.06984527463933922, 0.02306852394915671, -0.004220134897880494, 0.02776539359331435, -0.02166387009973393, -0.03923272188145107, -0.09005809618540764, -0.02443146543937847, 0.020719592322398166, -0.07767802686241744, -0.006370129775749335, 0.03821784578538426, -0.03661628437655542, 0.11304616526917605, -0.017169359217612704, 0.05377505710670455, 0.07948239320041807, 0.0866754189527136, 0.1749517866357161, 0.09674616042666682, 0.029754228862344682, 0.09566419136912414, 0.030414138177204883, 0.10705210261141239, 0.05660771129306224, 0.04354454382753368, 0.014263962347953043, 0.010499284202994365, 0.024374549257839773, -0.07721197216782896, 0.06522962307860362, 0.05004616306916313, 0.004786290774174739, 0.040985944690824026, -0.06002940180342694, 0.04015891735292974, -0.005503533062648224, -0.09105367192706508, -0.06573383624850034, -0.08648531621864461, 0.013064909031158006, 0.03033918389273936, 0.0013070473968043376, 0.05130958304288304, 0.06841158258600005, 0.0550124102562992, 0.11808777721077485, 0.11704869417533853, 0.05140683957648904, -0.08724863715766581, 0.035886396816987284, 0.031721310136479615, 0.05729048090987321, 0.054473289242964865, -0.044317820115256104, -0.02076953896258317, -0.1045323304395693, -0.10610964720359722, -0.03973017059193167, 0.0029224134753209033, -0.07384857401697005, -0.04911359982858398, -0.044894096375052234, -0.021531464157636897, 0.06362431981032914, -0.03703904673628582, 0.08113073126196108, -0.10177488013708269, -0.15151716221716854, 0.004658296903282331, 0.12695129133130523, 0.010533089942378015, -0.040305364890521445, -0.039662871673553625, 0.09821622475122598, -0.023086760921198494, 0.0048130661134859936, 0.01412204556851192, -0.019902054809934407, 0.043321861364989535, -0.011113845322148215, 0.02378064788629413, 0.03450171773101953, -0.008317527353939681, 0.011486558290974079, -0.06907648229701009, -0.044986362865040326, -0.014894955898868549, -0.07865933947661866, 0.026366627077044853, 0.0013939119652163973, -0.07780966818188621, 0.016072540973758244, 0.026847243835906646, 0.14037955323386125, -0.00281153873579739, -0.048134362042342727, -0.05187277538524652, -0.060888298034228905, 0.003561233081460678, 0.00909941258556569, -0.012756818249328701, -0.039589288433040944, -0.009098939694044676, -0.028434684744588053, 0.09444093342746536, -0.0013184791710579128, 0.026842411315416224, 0.040455777812620886, -0.04379054951864758, -0.058298796182375455, 0.11240080325720007, -0.03325540855034242, 0.0932506011142706, 0.06754088421180024, 0.03483344820355954, 0.004629931978695931, 0.06558586285724992, -0.06633422497573958, 0.0074070461414338295, 0.08478770397466612, -0.005603003451748815, -0.00529142122614131, -0.04422812233221957, -0.055727434326771616, -0.05527863184151002, -0.07067454963098674, 0.08097976898642112, 0.11295501563318483, -0.0795566272258965, -0.04437769265254064, 0.012899995822316001, 0.11198231002458431, -0.005475721648824061, -0.02146908061853539, 0.017545748492286878, -0.06308851153192921, -0.08851695867588229, 0.028351439594209868, -0.11300554021967715, -0.016552958003414903, 0.08384446120040345, -0.045664173643087176], [0.007128112233953499, -0.02422346383252838, 0.08435232504534808, -0.000828906350975191, -0.005307657455270884, -0.055493391335979414, -0.06088502961550089, 0.014595968460811801, 0.05607392474053097, 0.014352737503802008, 0.0457627092835228, -0.04925232788087106, 0.02188879156808463, -0.07792898689759417, 0.02541758752996416, 0.014884613457525082, 0.04972899143527048, -0.029600508105331307, -0.011521894668976396, 0.011136945872057734, -0.04663539546043308, -0.09758973303271612, 0.06298284799315473, -0.017746460714320476, -0.023075200799197726, -0.12040079756333896, 0.016157834485978958, 0.005084650326674242, -0.033597513443679144, -0.06499570581075445, -0.04884494168934898, 0.0574674640576303, -0.06939307089702579, -0.03098159737926886, 0.011232670117628804, 0.05653524222004685, 0.10708370057685229, 0.05827510205780124, 0.04241539081087232, 0.02313820373119167, -0.0002144753130287203, 0.011806712948651925, 0.030076994707023727, 0.01457386749636451, -0.0417197247748756, -0.10143404371674661, -0.06069756466990247, -0.08718766234651502, 0.06925007293006985, -0.061147094578947146, 0.06683289212131108, 0.06593317010003055, 0.008704990411658552, 0.05092093732625556, 0.027736260760215053, 0.014675817570705737, -0.13289753757261283, -0.0123634154738141, 0.03694997138052365, 0.08005452744550083, -0.005997492141775041, -0.053880189846192486, 0.007861631390600535, -0.041336862472175454, 0.10708581530008199, 0.011123678283576532, -0.03068587566756695, -0.07481585888272807, 0.0051050535821151625, 0.006258560077497573, -0.06254835604054443, -0.019903645437068834, 0.02806735020712188, -0.06326867750778244, 0.006250046980362727, -0.034902941146435475, 0.03273501510820628, -0.01816073624097713, -0.05242241646130395, -0.030261469780398936, -0.017044590319028524, -0.09845260008651736, -0.009693528921919983, 0.011754468668983439, -0.012230004063416346, 0.0794254108823981, -0.04852281519940604, -0.032861871903069814, -0.008559919860813397, -0.006436387177399002, 0.013023608470416961, -0.03459857538653242, -0.03639901860137341, -0.1253371153258766, -0.017105018874643045, 0.03528399014603139, 0.0021681595965304086, 0.031357904999750164, 0.015654207711015677, 0.007959122360919934, -0.03623455369929514, 0.034919223371231066, -0.037231477967169815, -0.045747871602688034, 0.10654212746880588, -0.056568585604631016, 0.03383187435591761, -0.021700682588282238, -0.008699100497824025, 0.011618699663520502, 0.052093084428140896, 0.04204461043752932, -0.028658309815396625, -0.08103047050201136, -0.0042615477408123005, -0.02492918154749664, 0.09201524990775035, 0.01318194182296225, 0.04400799111839147, -0.08222275336431695, -0.006567587000871341, 0.0017236996020463544, -0.024080208175045345, -0.02371965046336643, 0.04387649302438948, -0.06185619687738842, -0.0133698563043911, -0.05261143993789276, 0.024723483312177025, 0.07384229413769136, -0.04796502684106577, 0.00030211151288692665, -0.04038402859446984, 0.06123489986919435, -0.12497285453825595, -0.08695053147729162, -4.809273990450067e-05, -0.0031631283621886327, -0.01751581023611754, 0.06962902769040621, -0.10542491612354556, 0.0063465436249715654, 0.02006929703272152, -0.1181559577598635, 0.0657264867697173, 0.047883687521342456, 0.07434267018798818, -0.07977535825865119, 0.014043404021967935, 0.021882014384374104, 0.03193595988528872, -0.02527841658677356, -0.06585767997143932, 0.06166928916919729, -0.1166682366720556, -0.11549470301636577, 0.026766175609615712, 0.0053207341057183, -0.01650825171563651, 0.01935327740094261, -0.038980313312055044, 0.1264037992392293, 0.044388130379919635, -0.021684396230938895, 0.009913683162333726, 0.013656469229388101, -0.019206354778794416, -0.10470768206139631, -0.06014021194038856, -0.011399418153539218, 0.0623375661430836, -0.01720915883421506, -0.07002266635872516, -0.06712718284299315, -0.0025197693841316382, -0.02088554117950521, -0.04006282197908119, 0.03425402062165084, -0.030838684437952343, -0.02717330393925969, 0.017933358151287066, -0.039012568820829666, -0.035173565297103505, -0.02965543182290583, 0.018820232950932856, -0.05391527965846515, 0.013626455970280607, 0.11692162358519557, -0.003121366693083034, 0.12554503652178223, 0.02772943223715475, 0.024590504656264802, -0.030067598294687463, -0.048819531893694874, -0.0102107252461743, 0.016819664783902333, 0.02149709960930862, 0.06205578633380571, -0.017401267040761132, 0.1213563040004193, -0.005995380034886237, -0.019532714657056527, 0.0851744768586366, -0.027583132894205838, -0.01855924394134519, -0.016536502024724113, -0.0491674915117135, -0.0371040093784865, -0.016946514491070708, -0.0673749522780797, 0.01714925662640849, -0.07800482143197976, -0.05410230961471708, 0.10588815438572736, 0.06737807047783691, 0.04516424500679097, -0.015144211840803794, -0.0033826242646476327, -0.05019385767158068, -0.05007156744202317, 0.009238196316963116, -0.09047430076138022, -0.001672017012676266, 0.02390182295629619, -0.041829439057795306, -0.00292574331545632, 0.02551245052512881, 0.11394078822267589, -0.024191556043783154, 0.08644562154472309, -0.03687650344531612, 0.024742272423604827, -0.03858546678044769, -0.041105010269152496, -0.029545144434827288, -0.022505296174117402, -0.036176327579698575, -0.051579810929123074, 0.012706379900499916, -0.005987486718236506, -0.008997830889657225, 0.004030194484914443, 0.010297583006303604, 0.021254280026121352, 0.056202020244409664, -0.09959271535610213, 0.06695846734068356, -0.06815190863239119, 0.06870710857133949, -0.05538386413264834, 0.026489729351213583, 0.03776639925235551, 0.023070948495874516, -0.02460759123891153, 0.012778576687294905, 0.022126960913194108, -0.090407524877763, -0.10064212377289858, -0.07725867951592576, -0.01579752683501589, -0.04750880972989853, -0.011205842766914803, -0.06767851660155295, -0.019095846187400622, -0.06948044843456902, -0.0595916968491473, -0.07325393215166556, 0.10115150450056255, 0.052106026820849916, 0.04273761366101194, 0.04589813119299011, -0.045048720606395386, 0.009848710445573547, -0.051574888998409694, -0.08977267504805349, -0.0013950581729744694, -0.02671994331188376, -0.033250512465428636, -0.0409292597856985, -0.009252423213600643, 0.08074725648644215, 0.014443245046075066, 0.052872829831149215, -0.05260428683689985, 0.03934112137084793, -0.016204131806033875, -0.017531631771250288, -0.0036869084262145793, -0.08373125520444871, -0.031389943837552316, -0.11077291572424676, -0.05803898028951871, -0.09884049433378411, -0.020761195241981927, 0.10634211219757672, 0.10489386770648912, 0.04589439486933198, 0.02095684823327209, -0.03026191123480518, 0.026636992981682952, 0.029425407295615703, -0.05318937790891592, -0.010628850128798351, 0.045467245273726156, 0.0005694361898178962, 0.07828509352428469, 0.04669598993208421, -0.010015649665425272, 0.04182482210615693, -0.072376693658345, 0.04989662676485449, -0.0036172152504740686, 0.04261231336991667, -0.044314557647987904, -0.0691561828698797, -0.007944635378317114, -0.002672082748681332, 0.08422473838136782, -0.029498192019146677, -0.05398758386922824, -0.05683843576179603, -0.05336358997998255, 0.0026852926984968512, 0.11745321667482299, 0.10220380457194027, -0.052333707871676335, -0.043195970813300046, 0.01462541307149688, -0.052664693364580066, -0.053522667240367736, 0.06102919757328763, -0.08668987464571971, 0.0047430558667579895, -0.023954072275093035, 0.02792025187799749, -0.0069880142259223605, -0.09547936636612564, -0.009713333244542714, 0.005348928921187987, 0.01354611875897844, -0.04028462323981268, -0.02492656896586687, -0.03546867943573784, -0.06047580253299237, 0.07085863528118473, 0.012949096021781036, -0.08828525290552772, -0.031799204120734156, 0.019730108317170585, 0.050492112655850865, 0.10109095028460054, -0.032232430331422035, 0.07011881214576292, 0.018226826529312127, -0.08412642926777937, 0.02381006249135168, -0.05820807161915122, 0.010161727661626836, 0.1358288354882724, 0.0010684261483496695, 0.04857815684741618, 0.0780420578987741, -0.03236089218155369, -0.0793504630130589, -0.011576264253940005, -0.07667668383854875, -0.0630059301039469, -0.08501550160040659, -0.07207045334647384, -0.0737518273475516, -0.014767325322715769, -0.0453319653531693, 0.04446099871306712, -0.08028973947529461, 0.04147448064815317, -0.1264182878139447, -0.01310239602341498, 0.041509275757524076, 0.07819778426815152, -0.005658268997470169, 0.08440197762362564, 0.07491563129011311, -0.0103406828998332, 0.04133994929489112, 0.011240737914203115, -0.024272251368801078, 0.010203027038618247, -0.015615832771672923, 0.09551360331017439, -0.009002592888515038, -0.025426340910403692, 0.15625152035533527, -0.002288999597498612, -0.0021573508161758953, 0.04384907142610998, 0.011095263233231107, -0.03910231347825147, 0.01774238615365841, -0.1092505256729638, -0.030235812970242172, 0.030619363191514083, -0.02234372158830973, 0.03677957630675887, 0.028301723302524655, 0.02374282859705369, 0.039900563228342796, 0.053381938745578915, 0.008572408248300455, 0.01731821547672036, 0.023844141698903743, -0.03409454701640896, -0.1082848019729775, 0.04486477540138096, -0.10482012105846741, -0.019161705839155455, -0.016277268623987887, 0.019153090660181567, -0.002159346356153313, -0.02183811313487689, -0.04655615006188259, 0.08937333355505563, 0.02286550808651872, 0.1376187675358232, -0.03271746838991425, -0.02247883627328754, -0.011161694197467695, 0.009707395059205272, 0.022584622357841564, 0.004049775752427536, -0.10161937114890203, 0.01761503840683436, 0.030394215819821994, -0.012777121850656714, 0.057454171300117714, 0.002637369539820656, 0.026796480043943107, -0.03232145840098392, 0.005392109706332244, 0.052349797451231916, -0.005576094777478394, 0.05454856788489181, -0.020798876282338806, 0.030976181649613962, 0.08310235191558264, 0.026951811778182143, -0.04902080338242267, -0.04162023651720711, -0.05754302364807424, 0.0621954487641441, 0.03893003850952306, -0.12120344227565726, 0.00018591824293456085, 0.00885661995498491, 0.043336614447748126, -0.041606644553991184, 0.028309258439163695, -0.019205263087055727, -0.021090970716979397, -0.005352397256483416, 0.0018183811073452726, 0.09385570739430166, 0.0692968102771018, 0.11305588861397908, 0.016360404550347672, -0.08628544863511456, -0.1025376767097208, -0.01584017080669649, -0.0349960964204694, 0.05690022302804152, 0.003712232680533146, -0.0006464871874882801, 0.03628442137318969, 0.02565531485683581, 0.045429641920483835, -0.11459958697745404, 0.014797946031180818, -0.026005367426473212, -0.025300747100107497, 0.027582579031778288, 0.07839073417407769, 0.03497557344153894, 0.02137930981360496, -0.042801386057214764, -0.027629507382581908, 0.007100228195715426, -0.02073775605990524, 0.0436874656340519, 0.02543567210656698, 0.05475617541026787, 0.024174527218743816, 0.04181289091270478, 0.004845930569896272, -0.10215462406609231, -0.0038756178438659225, -0.051282369716076213, -0.07199741177320604, 0.039455578861297115, -0.08130268445142046, -0.0061610948297303085, 0.03378244808447613, 0.016598759542151318, -0.019800030067821325, -0.002286709829856142, 0.03628133767384276, 0.028007152665527998, 0.0670174530337781, -0.010945401969811015, 0.012490710036757967, 0.041162811362400714, 0.02722131918129489, -0.09778636986483127, -0.07629460385413296, -0.08955867072935605, 0.022103717882265644, 0.048750562211541386, 0.03030185360748288, 0.027228439026447674, 0.07558860238820493, -0.020961797763607563, 0.009699774776457136, -0.05699292571719428, -0.025543183799005588, 0.0051498037560508214, -0.05028295871887581, -0.021156050317203846, -0.09923934859131159, -0.03460394724984419, -0.06990081845097607, -0.062457544459191244, -0.008050244224462306, -0.02335711661085586, 0.03585789219803508, -0.039539807925705266, -0.0006592262844327423, -0.02505838702961023, 0.014815077062173642, 0.014331030139448262, 0.0043096384125769485, -0.04440431851309224, -0.02175679865422066, -0.07689587964943385, 0.004878719155127915, 0.09674613827949544, 0.01218023601870034, 0.0026514495164221647, 0.06410971002239475, 0.0192457084094753, 0.000458670999502265, 0.02346352889100585, -0.005623453156687332, -0.08746068646305857, -0.10484624942800627, 8.270705970777096e-05, 0.001767227097612998, -0.016837323370653565, -0.15208572236274548, -0.06712786588168637, 0.06684379856118135, -0.062000920445259164, 0.020199605802187444, -0.01134067988740214, 0.00609714388451522, 0.0025643131989478386, 0.10087084770458866, 0.01716517037482423, -0.008663350977638914, -0.033604574271493846, -0.003243891151867845, 0.07564287481067304, 0.043961395687613446, -0.0643061659417005, 0.022833581834875306, 0.08559960449651496, 0.0473921117336383, -0.012157080227204603, -0.0953749987323547, -0.11530587866003551, -0.03432522534360442, -0.030164338072023532, -0.06200721885074642, 0.007011901816934239, -0.10189012566913493, 0.049037679852251596, 0.058451660110313726, -0.07269166423796129, -0.0073066495108684544, 0.07940193749993545, 0.02331724538287668, -0.0035169552500837063, -0.06223786238780523, 0.03214331497616549, 0.004751189066509534, -0.049764408278610346, -0.03433396643800517, -0.04449244087506659, 0.0372928039199537, 0.060485668106473434, 0.05229656223258828, 0.04553075307274561, -0.01080079693847407, 0.006495392006800064, -0.010209946662387092, -0.025785425583838735, 0.042847366155787554, -0.02769742386437058, -0.18000543265027535, -0.024476906409244485, -0.07647603154647292, 0.011740481351106684, -0.01702431185969136, -0.012690448777075258, 0.02469594313026155, -0.06159194412546967, -0.006502542806936707, 0.04018586288343806, 0.08542162156433834, 0.06159363277447405, -0.06865802593490018, 0.011020520225604147, -0.18611822738908243, 0.0640037005017404, 0.03269892141590523, -0.06894943874243373, -0.0069820312837288664, -0.015322177521912292, 0.06795917442699002, -0.0409013559260103, -0.011972043386796583, -0.019604353168065764, -0.031144886738062143, -0.09516230106057734, 0.0177278680405513, -0.01316268195695343, 0.09480739201219228, -0.053295207203377916, -0.005706680417432231, 0.024121109695392207, 0.03979055647136713, 0.10142370805950542, 0.011394068192810018, 0.05184572301689992, 0.061557094685865114, 0.03815768031404991, -0.04941411270038829, 0.013089279680251836, -0.05718336739569299, 