{"layersSizes": [784, 30, 10], "layers": [{"weights": [[0.04161482210963037, 0.003015869672249946, -0.033642547858006716, -0.021558448099042848, 0.00756772244657662, -0.0274470013314138, 0.010329878022843549, 0.05875631871332325, 0.0009989395098631262, 0.022316110518847913, 0.11660973321654262, -0.03159615503522944, 0.01520819580601078, -0.0050299082479454485, -0.008735016253875627, -0.0425234555391773, 0.004709674489130632, -0.008254884054412607, -0.01021485667852046, 0.05189249404521784, -0.016113574519134418, 0.007184524332247326, -0.04725672927468109, 0.009562032703505452, 0.09548916615479014, -0.05887804671831269, -0.02558575536836452, 0.04995548020434134, 0.04059507518744958, -0.01870229937797553, -0.0854692715864887, 0.004440814670254672, 0.0026237380435570204, 0.023406325771171892, -0.023400240397451845, -0.01605816532603116, 0.059356732828900916, 0.0054194675432163554, 0.058042931077895585, -0.03838909881892603, 0.11449086614157805, -0.01702413473786769, -0.04757331077750655, 0.06080535880494422, -0.09438015732882121, -0.05164544129965351, 0.02830196334971862, 0.027247097342746596, -0.041582460960424616, 0.023667749689593197, 0.0820427344349952, -0.030621623273506073, 0.024160702574805362, 0.02821912567220404, 0.0025582795168102475, 0.006357507943597388, -0.03602554118291172, -0.028155302053473233, -0.03443777513604102, -0.032755864983183995, -0.09425938828672281, 0.06915927831165325, 0.01454353357911212, 0.05992379556258604, -0.08578799612031979, 0.044834115847647446, -0.09296122723028302, -0.002848193755811722, -0.0017982318675966993, 0.052920047069379056, -0.14922869618314547, -0.03730474267242681, -0.13962639846557465, -0.09926656381556392, 0.019094507823316138, 0.0555709526989747, 0.03260145006725919, 0.036205982479488974, -0.06296535477872482, 0.11739225928803083, 0.02987907352358363, 0.04357154207668572, -0.011208313052364145, 0.025805806831836132, -0.03816819958030554, -0.03065476966095098, 0.010444462530704184, 0.014291675959173718, 0.0609530564608328, -0.021324986663816155, -0.006747610603712562, 0.05623870280992148, -0.047667966736677427, -0.09083001937688659, -0.124155910352274, -0.13244485545438567, -0.09610403888377074, -0.12425128440588759, -0.1942998946477158, -0.1881389860084418, -0.14556767388303152, -0.13492928949152166, -0.1166336699155727, -0.06385657412568566, 0.07096748516557706, -0.05428809123022822, -0.1244729676153829, -0.12140073255123278, -0.10683945551557615, 0.0928305081273212, 0.02737632230077259, -0.00900634237475316, 0.0029890194790564606, 0.049181677339980426, -0.011138721403985356, -0.006703441531553368, -0.07980044963355103, -0.05444730180332183, 0.029327337404228045, 0.05974878035950596, -0.09863960142381713, -0.09814040866463308, -0.1285246734115112, -0.05275341625211415, -0.1772285129127386, -0.20018945848831074, -0.16309806467456883, -0.2087759719009211, -0.19210387533296866, -0.21251385673998568, -0.08743370348578623, -0.16352051252137773, -0.1216466667565203, -0.08916107760469841, -0.19413248662735025, -0.053699084867940165, 0.04418379578119656, -0.05244948060245568, -0.10475106089784783, -0.05511317611991883, 0.00542410652264644, -0.13362340402540598, 0.060216331616857584, -0.013174293107056869, -0.08913550630869534, 0.031206394186896563, 0.009025785714454157, -0.009515162286144708, -0.07003625497982231, -0.07522858998137572, -0.10030407111155386, -0.13866838425455658, -0.0655590913069895, -0.036118177890036705, -0.11668603254339835, -0.24330872564188427, -0.228242647407084, -0.1321735035936659, -0.2864248737772641, -0.03174012660529577, -0.024662024006253343, -0.05479270966884431, -0.06556923815556269, -0.054826645459309334, -0.024511858525100037, -0.01595618761266795, 0.028854608754746405, -0.05562242479897498, -0.042142228549565695, 0.06694633732476801, -0.004570169142678537, -0.031072964037602797, -0.04636977420851943, 0.0021226683805344706, -0.026367059597058352, 0.053200076816684205, -0.01860866921194021, -0.05092537949469092, 0.04803432637683343, -0.06678715153451989, -0.07881682173667513, -0.14888407601062278, 0.0041359170507526515, -0.17709220345486834, -0.1700664457429331, -0.0732357406023379, 0.006638684500119806, -0.14614061485019256, -0.005577942278962951, -0.10841022743316174, -0.16406437087938402, 0.0022720694772195306, 0.051788941737423225, 0.07845109111536967, 0.051259099206890806, -0.08450261358025485, -0.044384230112181, 0.03405043454237641, 0.02199512518353018, 0.05444927946414803, -0.024864696841806942, -0.13354659560863316, -0.10649732453458977, -0.0546662623750981, -0.020071004842905554, 0.08324429109483955, -0.06503666081431839, -0.31479209847972467, -0.1518852066315915, -0.0640607972890739, -0.08902179677072902, -0.04592719079074553, -0.20279594151189795, -0.12146962838079292, -0.0970204608212125, 0.0789003338358784, 0.04349769890690405, 0.07492796652240534, 0.03637609970402525, -0.10617959721401346, -0.09525811907600075, 0.07756561240571297, 0.04282374403074851, 0.05101914979565014, -0.06652172493541636, 0.010740319958312629, -0.046367323443980805, 0.07048362602945131, -0.033199718973538336, -0.08716999859814054, -0.08353524445453873, 0.06044547693594952, -0.0551811093143503, 0.06207786345487436, -0.003295466871314291, -0.2502890361906899, -0.1432967474161248, -0.05522813006314852, -0.11037289377273031, -0.17798057540264944, -0.1090650096205842, -0.12435839547993262, -0.02473865191071627, 0.060704836752870805, -0.10844952506546006, -0.015839044737665297, -0.010764314409998095, 0.06111839418798712, 0.06794132363048648, 0.13249048682850376, -0.02119146616236774, -0.0013056601027384314, -0.06682164126147194, -0.021644917158628586, 0.009980260380378473, -0.09384290496578399, -0.04252768191866968, -0.08459840968473396, 0.02434413882359064, 0.16201574965892032, -0.014968678371105578, 0.12237771841587465, 0.027809131130685942, -0.296360773581432, -0.3258053001808744, -0.26675189831571167, -0.027874597537780012, -0.17670276847802863, -0.06518494564527663, 0.027407506982499923, -0.006282523235917472, 0.03915962404093425, 0.05908124151519899, 0.14888790709596084, 0.1098800720305554, 0.13623857732567318, 0.19243418724654734, 0.2665729223091662, 0.03334399081407268, 0.015144450684940238, -0.020546937017516472, 0.002074160936039823, -0.03191288879273862, 0.0009168180390396618, 0.016361046093944, -0.05321315566363838, 0.056318005769711806, 0.07766237406989507, 0.18464838912752216, 0.10687032962026748, 0.23960461671468578, -0.04736740706109569, -0.3812730432131601, -0.33888985095331575, -0.1898211930048228, -0.13758783301944796, 0.15099701605190727, -0.03579777957943836, 0.0464379875539182, 0.046703601558677074, 0.18164973374859747, 0.18087674341715257, 0.13958171963392038, 0.13319763498372947, 0.0888570967501674, 0.11829776277703805, 0.029570241067581562, 0.007962588748077067, 0.101759416280996, 0.16416571277484238, -0.008889754140263214, 0.03135866174924354, 0.020045017852448794, -0.04915443575521304, 0.07779737371416003, -0.015754628718350643, 0.09133396855297668, 0.21800670600439026, 0.3519996843402504, 0.2449839471260651, -0.09562581425837327, -0.4230866274778083, -0.27669268687022774, -0.11494849189572694, -0.02652211341894573, -0.07677200684429776, -0.057026720786813784, -0.14936383636916573, -0.06977158969606087, -0.05835802121725352, 0.0778833646806575, -0.00369368777657966, -0.05024867750514513, 0.14727079974365992, -0.053502076462789205, -0.027206174343905425, -0.03928338682587028, 0.05017114097594729, -0.08418404248420695, -0.11936107228379668, 0.07545724161033952, -0.03218988642291052, 0.04664099355479543, 0.17817460057051185, 0.08462826675007776, 0.13176613123402656, 0.24269268638129954, 0.23054936333981563, -0.006991784212639956, -0.5713023270246542, -0.7347472706085978, -0.34417366219903284, -0.04559296589984683, -0.01542984301423569, -0.051033758099024475, -0.23597875837391327, -0.1069934021989172, -0.01923183354664421, -0.040424455332952726, -0.011807058093290941, -0.038437962410874826, 0.01161301218078114, 0.12836886089113736, -0.049796877084109625, 0.008476030316877506, 0.02377839945568636, 0.094954931729754, -0.052816169589731905, -0.03780325347365479, 0.036662924490941835, -0.03964057644017812, 0.1900961586561213, 0.11213007482703585, 0.10376224898702167, 0.2029131518974881, 0.4592550798359907, 0.49675978815141647, 0.17715792926611149, -0.5558211312996335, -0.6719808196970211, -0.5406400725692372, -0.23393879384996308, -0.08081855385727806, -0.18091189804371566, -0.03021105411693839, -0.1063830251972075, -0.05016025711434631, -0.10171843907364483, 0.05130183782890747, -0.004429497178374764, -0.054293100833508794, 0.028065907241193625, 0.012447866371293647, 0.00888690879845313, 0.0307381333825395, 0.02141266119552092, -0.07111840831610648, -0.08481908760770712, -0.06111418380625037, -0.014362587070888905, 0.13685046515124563, 0.2179992281990827, -0.00812784048996976, 0.15468998525512054, 0.44081650966594266, 0.9155795665024129, 0.7420755880532989, -0.22736255099035785, -0.35303815665151095, -0.41225137054746325, -0.32323354818639777, -0.25587448935130047, -0.12789574563876457, -0.17084446300279288, -0.05041752170099928, -0.0636213284132122, 0.04944473720410769, 0.01655711640984934, -0.007330038888339321, -0.05297830994259003, 0.03915189863202399, 0.023569672455353168, 0.04137519913109228, 0.0754245752362549, 0.007818864545780265, -0.06512058883898487, -0.17309929352012754, -0.04559624486810508, -0.10218816342775054, 0.16471467555731792, 0.29307220584319327, 0.05012860967723217, 0.10093358929982316, 0.3437913675628875, 0.8577410216796809, 0.38478443722233746, -0.153244433525078, -0.4029469537712568, -0.3534849554935102, -0.31499079756952236, -0.316644038190904, -0.29078940775791573, -0.1656120913203643, 0.0365866482777111, 0.050149526603926825, -0.031793802248465425, -0.08047153961260445, -0.007797855881811233, 0.07289755614857474, -0.04299492026364797, 0.04670941385899591, -0.027104922355824637, -0.008269152046728913, -0.007289545015962662, -0.1214498160372389, -0.14025896686829328, -0.18450660670166713, 0.0854083810944274, 0.23319443350180075, -0.049348139478195954, -0.02263758855900282, 0.08573167706078266, 0.6359030094463891, 0.45227681307209383, 0.16780724748843628, -0.17912646435642005, -0.15211022105267807, -0.2612054090358657, -0.424617814099144, -0.31571123751193036, -0.07953618960907219, -0.03240082146123018, -0.046125190581219444, 0.02693658230372928, -0.0764311554913372, 0.02074850778305802, 0.033129586828290834, -0.028321370100303712, 0.007339337351994942, -0.021447510652879913, -0.10669063930778663, -0.16834429047235852, -0.08602746268985526, -0.19604684437402653, -0.1609599776388695, 0.02374562195279062, 0.08237402993002858, -0.16730850259139973, 0.02192689108911018, 0.11843147450665936, 0.5091527646761024, 0.4146248543217627, 0.19192044422860766, 0.03982843258503774, 0.10155477237248071, -0.18547273490792973, -0.19019561006814967, -0.27305626344439865, -0.15954183249795145, -0.15552911597714908, 0.004782077534973602, 0.07374834763511127, 0.03529265364519336, -0.029696837915692633, 0.02955389232484654, -0.016192933054728378, -0.027807591114172046, -0.09477888580644206, 0.006134231162774987, -0.1473045732939262, -0.04060044864567914, -0.08765938605479534, -0.1487127157237674, 0.008410826009191191, -0.23938216606923354, -0.09297817126753072, 0.08057213868844504, 0.3588962231990765, 0.4317761791324544, 0.31045657527160236, 0.19237917965426038, 0.10073975892602818, -0.03559604547566659, -0.17049514213234404, -0.06089083907266907, -0.260980585092688, -0.16717690604561858, -0.17482935252923038, 0.1090280291919473, -0.07796615258846216, -0.005732382048885104, -0.00898370215399006, 0.07066828243018285, 0.053687209380890756, 0.012894828924668736, 0.014646218945289523, -0.017460327265830067, -0.12601700110826353, -0.01780539426203357, 0.0512607339596008, 0.00964807581019614, -0.11037559138154464, -0.028850610862754724, -0.04732582311777569, 0.047243099052485533, 0.35016572916402816, 0.3910890497703363, 0.3346814167689096, 0.15017189556977364, 0.05663071933523685, 0.0012790882178418841, -0.06913968131470155, -0.13808687633222305, -0.10142658528354014, -0.15935440202851012, -0.11492217669363, -0.0182210681140579, 0.059726887488899975, -0.008624980598158047, 0.030488282315358717, -0.009781506437079873, -0.002354103217554282, -0.020032717525085876, -0.016057084895105777, 0.11104116038927532, -0.06301201367293878, -0.12947334163812638, -0.0667392701618202, -0.08704360254774957, -0.09393637048975434, -0.01667709955461991, 0.12308171119902801, 0.18259217151780188, 0.393962107029203, 0.27425940111768293, 0.18706121154106878, 0.07441854496442034, 0.07873064541570861, -0.028570006758998234, -0.1437936151106503, -0.2111774863930801, -0.14036061218668872, -0.029114137419784376, -0.06847603105045243, -0.08139124227503465, -0.058991887696210034, -0.03330800275541713, -0.021943078577163586, -0.009386940925177348, -0.06736302694773721, -0.029760707896836994, -0.06877207889018595, 0.04596455285417241, -0.0520097815093078, -0.030044313015306162, 0.028059946841080347, -0.060350333360137794, -0.042598967206585944, 0.09268355748079687, 0.24650409336184542, 0.13709388254876237, 0.2847094014357374, 0.2390127108202265, 0.2870090649854956, 0.10737262054645422, 0.06807182979539089, 0.06776597838091951, -0.05593965228937604, -0.16492572691815702, -0.02634223267152557, -0.12036672029403735, -0.08156685670083375, -0.07306705295484063, -0.009998250335673557, 0.048788892191403484, 0.04997260559938544, -0.03467409137171427, -0.09458811018458516, 0.013977923621080612, -0.030893748809124103, -0.07486327728137351, 0.050544933399907045, 0.033214861847566175, 0.04552108848591034, -0.022409450122694997, 0.024991794213719876, 0.025534941722011196, 0.21575226978621795, 0.1788980154195187, 0.16625364041648008, 0.2444157761954221, 0.26595524122801156, 0.11409786979122416, 0.11767078626288482, -0.057932244823994256, -0.11799866887314278, -0.04575326044201074, -0.11926431603694378, -0.05952371891382257, -0.07712542597621774, 0.04096997030878416, 0.040340628911913534, 0.017353819372017788, 0.012860929987308284, -0.08601364741037129, -0.00041580280873802154, -0.04164544257558374, 0.01874436323206982, 0.05587841184667181, -0.012063528969201476, 0.002694791148603392, -0.03616648996258164, 0.16199469710454983, 0.1028474415278875, 0.0478509887146119, 0.14529918982663756, 0.24570389748437904, 0.1946755811280398, 0.11102833319536846, 0.02222820570423332, 0.038540672903979646, -0.11620077508864926, -0.08760389520056058, -0.040813760187269926, -0.08373531526269636, -0.09641329101268617, 0.03659971738627172, -0.08522862789294261, 0.012376460491879362, -0.022674514395196566, 0.07263551237739499, -0.019785280404930168, -0.00449237583757832, -0.020592164412334347, -0.00517782595632049, 0.07951129451986871, -0.03304386030180586, 0.10408162474466832, 0.07721203968648854, 0.15829342106518737, 0.13222003875664468, 0.16607203484483876, 0.23461202030528092, 0.3236940127548573, 0.2046224077366641, 0.2492474320016308, 0.10923329406957101, 0.10158462874820033, -0.08683619322781744, -0.09901745819148323, -0.03408576599284991, 0.010400923478056066, -0.039835072013981364, -0.07195496943227635, -0.0729259237544547, -0.039094029173591484, -0.029965454713065484, -0.10748128143992682, 0.06127414021057742, -0.04966762662086983, -0.020244485051560592, -0.01124729817685652, -0.008557840271951824, -0.004934749760133415, 0.025471773916032708, -0.01762480526655673, -0.06721229947300773, 0.04095975016393599, 0.053214372127523356, 0.07299234698709575, 0.13301022672994872, 0.04919760983255401, 0.1449303633630732, 0.0576432352727712, 0.0443912031647409, -0.006810623985479948, -0.03520716336699778, -0.00733047511333249, 0.026636322233587303, -0.016665961916598776, 0.007320308087986786, 0.08384272855569765, -0.01281095662350482, -0.04428180982049009, 0.027263657451587573, 0.02058422001787818, -0.052582085936568365, 0.0027835144685579407, 0.02264353699071842, 0.02137505095582533, -0.08627729492077989, 0.08941570768741308, -0.045755069729946016, -0.018160487816958067, 0.08538966456410027, -0.03394018943205288, -0.03364619784204944, 0.061623024506690736, -0.028133117248785557, 0.03628600501231915, 0.05828712511790509, 0.09006176991201456, 0.0376588705870122, 0.012811279438906845, 0.05934728146456188, 0.042968983372537115, 0.028624019743376333, -0.03252789429642522, 0.09923434812172827, -0.0349643241190768, -0.0007226378334045271, -0.00823315428893266, 0.028798519922676583, -0.014684774977015064, -0.10696455295025174, 0.07045117405996737, -0.04158697366413527, 0.05964376763000723, -0.04017560083060325, 0.02401715604428077, 0.048547864072587356, 0.0018021270280496895, -0.030877359654307678, 0.048078073323894195, -0.026336671192255252, -0.03424740226978673, 0.030917940373411095, 0.0615719045022963, 0.008784360647103327, 0.07958390383935333, -0.10200878794831077, 0.006009124980992905, 0.03158717448898328, -0.051574337652358394, -0.031766322914323276, 0.0027221575000003413, -0.0018720656751129545, -0.015742726308615115, -0.0019610577520821366, -0.05273257808736486, 0.007764345008377826, -0.03572826515093603, 0.07561176616911629, 0.0005275878293604736], [-0.00789971216796922, 0.2017704133633305, 0.09425482738074917, -0.10164187147662478, -0.045540571211093096, 0.06371697461353742, -0.009362892745126212, 0.020672344081581015, -0.07519830519071981, -0.02986951151319594, -0.013881779463158328, -0.048160096141263535, 0.07499317290102998, 0.0014343890763825762, 0.0031466395250711755, 0.028569773346893184, -0.03821630911686451, 0.035594818611786025, 0.0020894186815002234, 0.07867425269266633, -0.0008787812221281813, -0.025317247713049922, 0.02767393300928857, -0.08802408873506469, 0.013437753415966324, -0.09917210423610501, -0.10084573796900276, -0.07812467897056218, -0.016972480021958516, -0.10354644277848378, -0.046967316631458, 0.0645353013215064, -0.01877483753397794, 0.056632310475233816, 0.024594716188108306, 0.030238714460960905, 0.011491249128440708, 0.1120298275009234, -0.09909352705910118, -0.016648037094725236, -0.04517946762462104, -0.058144376144422895, -0.04113112775955509, 0.029850923748081886, -0.061061334191158535, 0.05750608588177997, 0.05104309973397385, -0.07690169205439384, 0.1450152060227469, -0.04959674563658824, -0.052295658011226806, -0.06624854660344429, 0.03588981094354983, 0.028125924073312877, -0.04186626444458516, -0.0064974992696886225, -0.07594819053110967, -0.016179874086400394, 0.04487150147004454, 0.023830677320835474, -0.005596106405476662, -0.04002810163165669, -0.004525602557568947, 0.005785868906720918, 0.027003901959071236, -0.0493520361941224, 0.09025424812445342, 0.02656001421655383, 0.025313658641148467, 0.09303316092203416, 0.03763491508439896, 0.1164262753866936, 0.0653911847278746, 0.014631154636360494, 0.00431973947789976, 0.007346080517515291, -0.0395156664265948, 0.05316010133495528, 0.030911559213690463, -0.0013111410906878345, 0.0068736975160857364, -0.0456405821426226, -0.03415391032455855, 0.08298913552720344, 0.05397300144516348, 0.04194366249011014, -0.03447858430811005, -0.021958544806230752, -0.050491522100574504, -0.005832767307737726, -0.011612508993153898, 0.039622588978591194, -0.056943177758040905, 0.022101685363793856, -0.03703295697939082, 0.005220975403017774, -0.048655418048916786, 0.09895239584734056, 0.17075928363628992, 0.1871339839690047, 0.15966795158418776, 0.043209167190192056, 0.11013761596064976, 0.05431344352472709, -0.03162632929094655, 0.004188047608922438, -0.011448317894091991, 0.03498037069216335, 0.07818466648750526, 0.03303994864354956, -0.028448640271108667, -0.041767132648539027, -0.034221716003746315, -0.06330694926667428, 0.012576831842828689, -0.025723719688025438, -0.01900499429709801, -0.055574057178899176, -0.07661038366467476, -0.05557550621793845, -0.13040692192472175, -0.14532550281438955, -0.1357935518912708, 0.020599426975643924, 0.0768021888797269, 0.29205035093180987, 0.3544342802995777, 0.23573553033661646, 0.07068616356825129, -0.013168174406446612, 0.04180106900401474, -0.09886221241043225, 0.01717625281030555, -0.014210613925186064, 0.07404941575179258, -0.03710646859550239, 0.0438189460698585, -0.032002055995671214, -0.011184974567943182, 0.058744523742883616, 0.01331499764647132, 0.0844031455247359, 0.011376732485429288, 0.04668659801270154, 0.01135763876153447, 0.024022502409463287, -0.024585351619130377, -0.16005524627852705, -0.22000038840614003, -0.18904460771692908, -0.08465619037816527, -0.01588209389555045, 0.25336560534900354, 0.45358020499223867, 0.31613092820676003, 0.3215384175651144, 0.061620064099584454, 0.0015064748324730125, 0.03099847106881642, -0.1292093324427638, 0.026236444396165088, 0.129666786483968, 0.052229328776472274, 0.06965632103147966, -0.018085286158988252, 0.04765700012454568, -0.0011946318045859274, 0.05502046744655581, 0.004885953009946146, 0.04107749591340944, -0.03864100775245365, -0.021789634455158215, -0.1073111479940673, -0.011528533163411682, -0.0963735412542084, -0.2781382593904414, -0.15361686349097414, -0.0826884372603364, 0.035057795999051115, 0.14075907691899586, 0.1986074492179669, 0.3904169285056711, 0.30040578876865287, 0.28308818448787143, 0.15112132096031505, -0.20550796317016418, -0.2580106216890932, -0.12185528282966848, -0.10612642834408444, -0.0834981231321319, -0.08763316073552009, -0.02890303974737651, -0.08239166212911925, 0.00015818336426821675, 0.10672119868779907, -0.0018870733581371072, -0.01788003654427956, -0.11464588488434717, -0.028285246131335557, -0.09128205473790643, -0.10122763898624497, -0.02003054642980275, -0.1385598779237257, -0.14843167352378792, -0.12368572951852579, -0.10038808676851094, 0.12169871300180053, 0.09165008254285373, 0.27854197083504006, 0.31120077302476085, 0.3328538263135663, 0.06644905727099053, -0.10656989639573754, -0.2054504751292688, -0.09762020436649765, -0.11640560547369828, 0.06156244687814974, 0.045447065870190505, 0.1262622796658355, 0.10428960887858972, 0.014399638197198939, 0.019703273189935415, -0.008759328030564237, 0.009963613392956145, -0.025295612966521025, 0.05325945901042216, -0.007654447100281072, 0.03848461380800497, -0.08666740166493934, -0.05213872152033365, -0.030055452431747464, -0.04476464419216031, -0.06364398065379225, -0.014522956863404705, 0.1974128684558497, 0.2437204797943104, 0.5247018412270573, 0.48563009333384716, 0.40863217617024594, 0.21478029861639542, -0.034311971481820865, -0.11244396032380954, -0.02867195534044238, 0.055519143124946255, 0.05858992243436837, 0.056129393322530294, 0.09244374270501887, 0.06488695665570299, 0.02255546763951076, 0.059934396655554556, -0.035092599562741494, -0.015453288289549746, 0.03489887493641308, -0.03370240034667021, 0.06708660420434823, -0.05158884514889777, 0.06483252860755355, 0.02634310421603068, -0.13211999195881155, 0.09612433533603318, -0.000852421426360433, -0.04981886374803878, -0.022416415236797008, 0.33342267816322, 0.45694873594246255, 0.7300571098542299, 0.607878678686408, -0.03136508065210132, -0.2465027540644599, -0.30594886968057494, -0.20645138092081955, -0.20079145757383582, -0.06780875993099265, -0.0013636110027081512, -0.11329155536475127, -0.1479205509046651, -0.12750004944808946, -0.06872989158591059, -0.017292181942085382, 0.07545855885792675, 0.08878858423431382, -0.0499361314277791, 0.0019597938966022074, -0.005333582380955585, -0.005412045430671252, -0.031443118656434364, 0.030461852113819084, 0.019522506088982396, 0.09255740358631434, -0.03414957425880709, 0.09195755550177916, 0.36193147787637775, 0.5406993093920713, 0.6494705622592676, 0.07181234247575051, -0.505581989976624, -0.5596908666724454, -0.5836886346242703, -0.43461865939578886, -0.3392999606080038, -0.23140534363921475, -0.2507343619844899, -0.29647426675118255, -0.37526148771223966, -0.26894865720741634, -0.06025456164575276, -0.026195481936752453, 0.05057410303111703, 0.00827284929967896, 0.02737139410948846, 0.048124025189245724, 0.008717854236987038, 0.04689270614485454, -0.04484490062448832, 0.011806684088888214, 0.011555621148129249, -0.0703931233297648, -0.07470229877752779, -0.026562097095553527, 0.2513042412382955, 0.6191964533523867, 0.25121432839045865, -0.505101400192504, -0.5037582223113782, -0.37363806714401443, -0.40236762947729454, -0.4625215867954634, -0.26633087914983455, -0.29042291341094834, -0.2831839074771189, -0.2032231027702264, -0.21238812525131912, -0.2921956702508244, -0.08784549424030309, 0.06797425622564221, 0.11588991663323579, -0.01081789035804804, -0.021612726204236543, 0.10993395479109964, 0.01293295220920897, -0.010364079370735711, -0.08722345912449714, -0.002827259197003077, 0.10491487260424395, 0.06078030085381813, 0.0582257366527286, 0.12526848284366565, 0.46743946081906546, 0.3541311702198048, 0.04074330909307838, -0.39803126456935606, -0.0015318059900934055, 0.19298723628924258, 0.2432089435260698, -0.03669413882759848, -0.04141119720099904, -0.07607834480346838, -0.3146405300054887, -0.21021683557285892, -0.1927096656353663, -0.1238090608470348, -0.09528905974314708, -0.07336610659945436, 0.04529428402615461, -0.016210370961815625, 0.007573966804081067, 0.008915289687007116, -0.12537588664718802, -0.006676333168444281, -0.03383889365298865, 0.014988247009527795, 0.032614454934278184, 0.04500119167334535, 0.07956461817853384, 0.2419159705953502, 0.17041773645631267, 0.06661875008513381, -0.007280307433002775, -0.15196853457252357, 0.012178515808382893, 0.09554372329070288, 0.3067588839979594, 0.021392163616093085, 0.20837189746854493, 0.03500797288580113, -0.12845493984729023, -0.0864215342165467, -0.0981388997867111, -0.03692193740129435, -0.08010326697155425, -0.06285921023583353, 0.03596680178738187, 0.06972532436065058, -0.034280906592919776, -0.009369773111436773, -0.0706090539778448, -0.019988006883714864, 0.07235102634328677, 0.018618482374582804, -0.17782471967314045, 0.0661033555108347, 0.08861661551726385, 0.07330785028415572, -0.17873883760380185, -0.054995394248089025, -0.09681683733948328, -0.066099731041145, -0.2552227166236069, 0.07353882405260519, 0.10182915739215329, 0.16351925911877638, 0.015026475079238379, -0.009520547112183664, -0.10463887063304927, -0.043606989532322275, -0.005690121395864194, 0.0070387959022108326, 0.021211033187703614, 0.0725569729452247, 0.0028307612314851936, 0.0012030817964034184, 0.03882915605412474, 0.08954148759891294, 0.07813321578805414, 0.07488904390198968, -0.03185203473596643, 0.005755142653059943, -0.0639523384666293, -0.07361802625566818, 0.04393989087571313, -0.09219784008464683, -0.15228600926368066, -0.029702976137214468, -0.04488560542866026, -0.0504388729680542, -0.12649726895912908, -0.06898408657714206, 0.09539848560256566, 0.0864444302031369, 0.021559130485086096, 0.02611995829380938, -0.10972817880280801, -0.059019826746694065, -0.009145735658539723, -0.04739285810132644, 0.011205138220541052, 0.09181079685936129, 0.017346709620458856, 0.03133243349818508, -0.03693147087726516, 0.050303390000896925, -0.04859518540380951, 0.036004234745697264, -0.009577053507704235, 0.07354703670562598, -0.043487642184198025, 0.005100613454105993, -0.06700825121370152, -0.12340266850685437, 0.08872509197479816, 0.13633281000771239, -0.052747237234486134, 0.15531211875768558, -0.06365486112733956, -0.09272992661891703, -0.012490219407496837, -0.10215047130580682, -0.09939967465876973, 0.015477937289854833, -0.14334798505613383, -0.16429304003457734, -0.055628073306521815, -0.000710451698508207, -0.049918893304148566, 0.11212378499064153, 0.07560698355706547, 0.009657498573996443, 0.11196665228361337, 0.03008440767588756, 0.0999545483686495, 0.10655325385587756, 0.013128446243858602, -0.0008941921595448487, 0.10512233257277598, 0.1527084420115534, -0.061262290575023845, -0.055524291833938234, -0.026998376321810055, -0.05178079906071795, -0.02839015103346664, 0.11035429617310724, 0.003565266879867273, -0.030914886010245498, -0.1195132256722988, -0.07007270121337537, 0.015276230601821046, -0.06517896010340865, -0.017324783377783676, -0.003912164205824789, -0.024627753124879068, -0.1192513825929136, 0.03610534689699045, -0.021395788323619925, -0.109423069748777, -0.0005486061196552316, -0.005744463844489722, -0.06825843722312355, 0.024198901208596718, 0.04023387931214358, 0.19013804245122579, 0.03809555798866395, 0.05689669716012134, 0.07725966375583553, 0.025982404455249648, -0.06893128358702175, -0.13251726341027642, -0.1215707154003844, -0.15365170791386698, -0.006782410014064729, 0.03061426319116574, -0.055480486444818615, -0.01631668677123492, 0.06339748590048101, 0.0869630371575645, 0.026101386306244045, 0.050956839240325076, -0.04357555860174126, 0.021189719408163585, -0.0010562300173805534, -0.06655633027042644, 0.04447336564461585, 0.09306173700668188, -0.005069253092484273, 0.09421970429420462, 0.06080194973112729, 0.049621104363240194, 0.20731429548640332, 0.07545228642275549, -0.1387774571303121, -0.033762362720600715, 0.04289590587479917, -0.043172523797156144, 0.010276732852811388, -0.06714243758298499, -0.09424705599503946, -0.14021952086093642, 0.05124882551402977, 0.022748480410959948, 0.03198429080937133, -0.021840274338302657, 0.03854310816863377, -0.1110164197318286, -0.0960735543086712, -0.07311915446985395, -0.11362888939982162, -0.07628272599779119, -0.0463403355893562, 0.09633363962528249, -0.04607352827109637, -0.07475886177374845, 0.035575167217153564, 0.02644501200413398, 0.04581803804980329, 0.030114073882401768, 0.045215233413115334, 0.09140826869635114, -0.08390868509761873, -0.059176178299717296, -0.02357814272146699, -0.08826056299239747, -0.13033237938927558, -0.1315234958880031, 0.10115477264147449, -0.11290362721991452, -0.07738541407816646, -0.004822765184372746, -0.12863499039088394, 0.0171031580113709, -0.0660694339156919, -0.04971431753234345, -0.14085175862327126, -0.12964714628640736, -0.05248973116972624, -0.020644481350760045, -0.029066134540806896, 0.09938863714139813, -0.06308324557529642, -0.014801147907014832, -0.06453239535396287, -0.09375741955784508, -0.016041013504568328, -0.02358874502821597, 0.08872031136732192, -0.10221929573426927, -0.07413874001241219, -0.16935179812019768, -0.07763416340109508, -0.08323201012507876, -0.024008093263982788, -0.12214342730430867, -0.0956846265039662, -0.14943521643762772, -0.11247961080722947, -0.026671377527207257, -0.06165730148711809, -0.059432944573647076, -0.01294523298895319, -0.07922262081518108, -0.07722002547333476, 0.009936802914272545, -0.007274720687175994, -0.02478274937958558, -0.07032337840570749, 0.05285647496199989, 0.008201592416413623, 0.00570392622299485, -0.07704603604555331, -0.08617282268410706, 0.01844319941478128, 0.005589779508284768, 0.0318897392163276, 0.029236035255835922, 0.024844877284887035, -0.12082544967641548, -0.10683766195211768, -0.11275614156495159, -0.12070990484491162, 0.027885430928478276, -0.019799162369157478, -0.017029616194868112, -0.06726552470264147, 0.06155630807232603, 0.04405233374803034, -0.013393865876999488, 0.0938162607435772, -0.03380156685977349, -0.023203861514185763, -0.016190003334545205, -0.07288930376229841, -0.008507170478464039, -0.04424237937784189, -0.06788903883253236, 0.008364779867483851, -0.04211113615916955, 0.0809381190992378, 0.007410681178167813, 0.06099649711217675, -0.024825974477256645, -0.019522401192472113, 0.0043602775157419536, 0.056768645614073014, -0.08295881880421672, -0.046092718574352966, -0.04324814485732697, -0.018567766563997314, -0.13280550802056498, -0.11518002602653707, -0.13381133070500795, -0.07804498602533336, -0.06756555368128259, -0.03720803555957084, -0.04106981587536157, 0.06877016455124542, 0.004206587682383863, -0.058767744501046826, -0.0884934049290617, -0.053844523600204086, -0.054304534225678186, -0.002534707363111899, -0.02412230624844457, -0.007743394235228274, 0.016059680789000778, 0.05224483456264616, 0.029632260964830303, 0.04362518481960447, -0.009530237029496362, -0.04082728034611871, -0.09565816649032066, -0.034470040382781, 0.01491247820450677, 0.029482835341100275, -0.03270838611169766, 0.10473933528211048, -0.02625434539960755, -0.1170113668066593, -0.2677537283704261, -0.27552220867830857, -0.2286686010323654, -0.1017779746082425, 0.11347043924632598, 0.08009796739791579, -0.010157422661361534, 0.03672894005440192, -0.0001897342277479434, -0.03641856332485526, 0.005249757797767934, -0.09166008651535269, -0.039402969369369115, -0.03426428474017707, -0.013863535176258771, 0.19649799600822992, -0.10027242944446055, -0.06859607649333897, -0.02987293335880177, 0.04922488241562513, 0.009358588392520868, -0.05929576495645585, -0.006477287305234881, 0.1241393065396889, 0.07022152029052578, -0.00829149023107077, -0.008289477477211963, -0.014549014752319369, -0.08338954340929851, -0.017304643107609825, 0.002345863168233753, 0.0021152889255857538, 0.08482472719536929, 0.02853170481761115, 0.04801843171085737, 0.014557505608701496, 0.05412307588837989, -0.0035567451631400744, 0.07827921810081258, -0.011225414298035731, -0.02651376227219813, 0.02241600123305587, -0.009282354072133507, 0.004523088055731471, 0.08050871121640178, 0.026699144159140254, 0.13906660455675968, -0.03222374039300944, -0.015732236527989146, -0.025545407618305815, 0.061543618983400196, 0.04215701551301367, 0.06144042133598009, 0.015429233877988767, 0.055245272512257484, 0.060543751918220624, 0.007607089485546046, 0.0797833209010859, 0.1172800468814251, -0.005001121235829343, 0.0434622356447071, 0.0480534218939413, 0.0175151318983245, 0.08099760922041058, -0.016573512698300052, 0.04990139351592713, -0.08720510858963397, -0.07150631285447025, 0.004738972972861699, -0.10184255058438206, 0.010445180255959531, 0.0033890752141894744, 0.02760766063557176, -0.07340039062396261, 0.01762165029029896, -0.041387486781210674, -0.02164849760498764, 0.1280577214467472, -0.07468490334310393, -0.0480621013539784, 0.060571077578120386, -0.031841851960857454, -0.06553741254417428, -0.01836973007474651, 0.03460384170886981, 0.10541058054739327, -0.01612464850469053, 0.03463325298214465, -0.007413506193978602, 0.000684361337342858, 0.07349597933506685, -0.09732843503444734, -0.013879938648822443, 0.01354840310273121, -0.050277038600657964, 0.009450262573205892, 0.07060323191276668, -0.0627630986823776, 0.03753385189306164], [0.001025961665420219, -0.06922118945198874, -0.058007327213928477, -0.08767816186588206, -0.052906581161324, 0.004307219167236628, -0.030078544011193822, -0.024305041060979686, -0.007384839658564465, 0.03758722552252478, -0.009563342361039878, -0.0018086600280888213, 0.010915237785060133, -0.058181448512108214, -0.09027759515933564, 0.04536277783672627, 0.053664596735436526, 0.08826118931016656, 0.07061879182718746, -0.001300391829817931, 0.007983259586162167, 0.01760598358980895, 0.010311098458929784, -0.0501071934321671, -0.036104068902980416, -0.03512077776299945, 0.052052226369595625, 0.025220172910225228, -0.04996690531776041, -0.12385878967649912, -0.14682369155669897, 0.07345280504394162, -0.03157224269024648, 0.046973189997384715, -0.04145778685192403, -0.05664872200779157, -0.019511742193462467, -0.01542315207937867, -0.03663403474777395, -0.017589793076804847, -0.04497933675745394, 0.0009542604907008332, -0.009398223002015598, -0.03136491371467656, 0.039181391681958826, -0.006365283807951467, 0.0230624276165961, 0.02897563005799539, -0.04485673305773862, -0.048687853176714486, -0.01799117185628364, 0.01491671039701625, 0.026171239828060175, 0.04447442270434891, -0.030063218035375396, -0.04408693267054672, -0.029455300578403024, -0.028760100036287328, 0.05658770595941917, 0.0824195899856055, -0.05959577826787733, -0.06958027406244274, 0.04084730770379524, -0.03279728632151085, -0.06987629711010267, -0.04142584572882042, -0.06453753672981563, -0.012124676781410411, -0.04717911114164496, 0.08915356248386155, 0.06614666727639945, 0.09535197643596714, 0.052622714143529294, 0.0548923096041067, 0.021797917486471186, -0.055927059086163376, 0.04106123701431822, -0.03293497681840739, -0.03168496384338921, -0.0007962050511371138, 0.021456184644758826, 0.002531613816002069, 0.013222878027035747, -0.02986066989251431, -0.05517834509677259, 0.08811574641851755, -0.05726810604254645, 0.035286493669458935, 0.06511853299948957, 0.02734018553257915, -0.10723154896643937, -0.023863310770668313, -0.038945526923550584, 0.09134159853472655, 0.0073961259879396215, 0.03794345179242563, -0.011575509351707713, -0.004247076700828756, 0.1511600809702445, -0.00836144354150729, -0.00937840863568807, 0.002758656942154248, 0.04104674200203107, 0.12850863421587028, -0.04906435346414976, 0.0700719297435906, -0.02632467709324155, 0.029618704140507223, 0.07919698174543727, 0.06502966766045928, 0.003165481636900957, -0.01401673413011952, -0.0449389937875582, -0.013830279114635222, 0.051648862388405346, 0.01586332168830425, 0.009596582241440376, 0.0720947390320265, -0.013106659214182999, 0.022718097552198772, -0.04234471608472539, 0.00401487379364176, 0.09906829212496363, 0.06773016020351767, 0.08343056528377414, 0.08511203701321055, 0.057879964313715504, 0.042934827568179124, -0.005325180901408319, 0.05310081400153563, -0.05020694050559904, -0.025652333619623973, -0.11900653880352693, 0.037224759595629, -0.02308946846720553, -0.014271962593809685, 0.03845744775046718, 0.04971079952654891, -0.03033060919183104, 0.004761184685893477, -0.05201484899283515, 0.0596777450768929, -0.005669884248857396, 0.03321754123163807, 0.0832180295741026, 0.0015336142080784178, -0.062435813781071194, -0.0673894155906457, 0.0004190589213182575, -0.06675328809586377, 0.008782467989599618, 0.019418469351065577, -0.0034420236025480343, -0.01564335648545336, 0.006559215071246653, -0.09540028806545182, -0.08796221091039613, -0.19995041384892573, -0.1260157778686154, -0.061741995817259115, -0.07797451164403649, -0.14778118601015508, -0.04320264208643783, 0.016355327792774908, 0.07072291353794938, -0.07039989691323978, 0.04673083022309951, 0.014839976099479261, 0.1430907120645797, 0.01580857828017706, 0.046974033575745075, -0.03538825576794715, 0.009130295695517526, -0.005019997629749813, -0.10245226758158056, -0.09738747302540003, -0.07312786332010375, -0.1519735047397861, -0.06121050704692388, -0.08911989711012926, -0.0024798449086632104, -0.016116821738180923, -0.07439373867186733, -0.15556981550759663, -0.22152140914369808, -0.18456888361567703, -0.009377191877672802, -0.024364223202219065, -0.06533356005827887, 0.004444542781534097, -0.159870313832733, 0.03972214182708077, -0.034756724743415346, -0.017628740388811525, -0.01406170450201941, 0.008308729578125777, -0.018584402761894984, -0.11530829912488223, -0.035826592293618016, -0.0687213725836509, -0.032160480292323726, -0.02371384595601716, -0.18149126126817963, -0.18854565399273474, -0.2500396569245725, -0.20997519811822962, -0.04199754156006854, -0.06134302704447502, 0.018643180779318095, 0.031826102925354385, 0.05892856030250163, -0.01586465302137371, -0.09811066534743812, -0.07491787148688814, -0.02794196446991624, -0.05738864047795679, 0.028333357430107488, 0.06759755273786586, 0.005748434500501487, 0.01801419156113014, 0.05958160232594104, 0.01275018935570921, -0.053156706342823885, -0.056977450930412, 0.028417740071050464, -0.07182075907235003, -0.09326213603913829, 0.033004781613277474, 0.014781793224915593, -0.022357693423876307, -0.05678084508010795, -0.11881044226566824, -0.028643384845687597, -0.18259163212157423, -0.10405246844465854, 0.022964665862177266, 0.04753950252515609, -0.001196479876660149, 0.20760087810868977, 0.05812333576542303, -0.08857359923016934, -0.08019238930263978, -0.042003595025748595, -0.15321912449463082, 0.03642139664075117, 0.09891039421206146, 0.13527030187410086, 0.05403763791277076, 0.01276053043287674, 0.017449333543462783, 0.01655104939842924, -0.0037304103500288093, 0.04800174730034627, -0.06460634306418535, 0.03173389380798802, -0.017381027504192594, -0.05302156151904041, 0.04521472996803403, -0.07811685369147744, -0.006036438022406785, -0.0712983097176509, -0.07464536967947899, 0.0007891495702859506, -0.05169521366910378, 0.025727603627831896, 0.027419026088415725, 0.1133650064491829, -0.12698828987575633, -0.17136923426072048, -0.10019378570711746, -0.09318865088869263, 0.010355173435603734, -0.07113891424046594, -0.08709710955071981, 0.0730408028707304, -0.02797448941950687, -0.005361578549846343, -0.0072831051914942066, 0.029168658500280744, -0.05539283708228806, 0.0024716126065273507, 0.012288606968328146, -0.07347250860273595, -0.060980257147808865, -0.13381747594806087, -0.007317511107344489, -0.1028461461475073, 0.10430673118176406, 0.11100109402615077, -0.08327545225899263, -0.04035513198183639, -0.15522861466502225, -0.05201025510611861, -0.181559126360803, -0.11062154493884854, 0.013658394324636638, -0.041180198884177184, -0.05750212059607349, -0.08287522726685806, -0.031651390136396174, -0.054018976022520815, -0.07610804833670229, -0.09067375521318834, -0.015106804418869569, 0.02982169461765302, 0.07991573087028894, 0.054270092061559264, -0.017203566591868613, -0.03833969423498778, -0.07308619349796434, 0.008971008068002393, 0.038491731665206586, -0.09367187664383535, -0.07980859069133238, -0.015384118548727777, -0.008838271702795265, 0.0951309960842272, 0.09355349034736893, -0.0475930686170909, -0.19401071440740061, -0.2098777851367963, -0.2687467932833518, -0.15583476236530935, -0.10323186697313884, 0.12470724193047719, 0.043174719234725205, 0.01972172359280074, -0.07276590334865762, -0.02056482776997891, -0.141498247597989, -0.17904607179261897, -0.10916774063515422, -0.019847721903825867, 0.028746112396275274, -0.046675880366243955, 0.012773875249063616, 0.0031059094131287122, 0.009977003897816463, 0.08443354356912323, -0.031214117551095658, -0.13323748129802218, -0.13698337560124538, 0.015865162153316487, 0.13410426582333276, 0.2039877325971612, 0.2760140736425838, 0.08233900600369924, -0.28382006027111, -0.3531244168108418, -0.4815360306012549, -0.39829623737100517, -0.0960295290228476, 0.12505749300000937, 0.08068990025391556, 0.1325001830158202, 0.11355148618694387, 0.0036752860738977398, -0.1432106553102966, -0.12622792168675187, -0.19046626168119565, 0.015771179542834527, -0.013342624014626858, 0.07051331780895531, -0.016948932877077903, 0.008073941351651634, -0.028757955543464102, -0.026713095544587555, -0.11386065198622247, -0.16926303072379234, -0.023445095827662858, -0.08324512139093747, 0.06467829430963232, 0.2228671353220814, 0.3062876360160876, 0.38107868348027085, 0.2286592440647453, 0.30882443221809, 0.06853405246602856, -0.2905291305990411, -0.019927930699019703, -0.10905549274497692, 0.12148681536126998, 0.10986681981445384, 0.2570989822078179, -0.11908948301794399, -0.1851555598149729, -0.09519875819486505, -0.04377720402498701, 0.005638342730891394, -0.0487710040159717, -0.010242503127345802, -0.00853716925825446, -0.0130781161998645, 0.05387999327248612, -0.06822495314209151, 0.06748560839760301, -0.04635658791028085, -0.008146021160671582, -0.09371520996869455, -0.035001341973628704, 0.07099559603207396, 0.25199843260173443, 0.40545932390415074, 0.34349259226229734, 0.5591778529483021, 0.6058590756295251, 0.05762577100224112, 0.10465741947090827, -0.02109078091599688, 0.03953569037843431, -0.06547144893247882, 0.015920737654513892, -0.20238042657407143, -0.19343871967792256, -0.10426162319088636, -0.12168784347831205, -0.13163206265401392, 0.050201557595946536, -0.014743946082483606, 0.014739415946236945, 0.026483216508285178, -0.015886972273662044, 0.0861417760870411, 0.06387509511279807, -0.03750818460709908, -0.20656691723472057, -0.09094438631023326, -0.12464915978677732, -0.07877391707947543, 0.15004184221191755, 0.27321632492707715, 0.3318778476966096, 0.5261434795521254, 0.5067315735158243, 0.14777389828800738, -0.06936575362639781, 0.10427837803313461, 0.008862388871922365, -0.0007013607033825958, 0.0456915984500083, -0.14214365058572195, -0.28222566765330126, -0.11199408228968213, -0.09129080922011355, -0.06484721790027076, 0.027281884039680484, 0.0015464727949663641, -0.008636955695609386, 0.08624933147788647, -0.041983394935904805, 0.049390844757082566, -0.10160085322630193, 0.0153735675594869, -0.05572569682431607, -0.15362790782249972, -0.18421335213651163, -0.2729408815903684, -0.196117383259661, 0.17404630929688694, 0.13733370207945508, 0.4041075259208526, 0.34745387435338043, 0.1297478247728258, 0.11099379538382873, -0.022903892694682997, -0.010851468695158004, -0.007181428973034808, -0.036058409742284935, -0.10374369246353696, -0.07314461757441663, -0.06812533554087594, -0.14370345636939655, -0.02450360301479019, -0.014764701361970486, 0.06241632674625006, 0.044158424055043596, -0.03589411256239778, -0.10134398702240692, -0.027816008050355667, 0.0011106403204653166, -0.044500989154647314, -0.03792208768324695, -0.02904483336081188, -0.07508095785857867, -0.2962169260341859, -0.35971207814056455, -0.05433864052069267, -0.12343598980794589, 0.03275227102870226, 0.30444782466575, 0.19753668516764322, 0.31389838631403283, 0.16070592166838524, 0.11177039456759802, 0.08781243667832205, 0.0447152933573759, -0.08171880945272576, -0.08457664027778279, -0.07618271168421306, -0.04039075316251144, 0.0073843074184410246, -0.04576503213090743, 0.024364263206803755, -9.466851291161023e-05, 0.06789073211214938, 0.01724321853766477, -0.02497334683946907, 0.06483716204027082, -0.06926351652481945, -0.03282466109189373, 0.017657523162700115, -0.03979667428196996, -0.19205603500842397, -0.4481722476393409, -0.5256570389651074, -0.24477297567782727, -0.2848322113838447, -0.014253789044963262, 0.14130368494151116, 0.1757350031381711, 0.13800250077215917, 0.20259428281562228, -0.05688380055259504, 0.008412965811158251, -0.04762437665944995, -0.03206080901959958, 0.0003541857116899823, 0.07919051008027184, -0.048067148208810556, 0.0437465862014667, 0.0434816827986189, 0.0447195985365792, -0.11314451695574125, 0.05773606687132271, 0.11270142488428901, 0.04559344744162694, -0.06335004513382479, -0.04390170052362369, -0.11018578005856859, 0.022706357117762668, -0.17902995441195324, -0.2505521238667903, -0.3269462854797441, -0.3980518819150562, -0.258330694415943, -0.10276483687543211, -0.07750318738009285, 0.11908275552664797, 0.03222874426902877, 0.08110365719523303, 0.009229526665502693, -0.0627698016854768, -0.0019263770951197668, -0.07093314405209115, 0.022412077219455966, -0.021259390822316444, 0.05763728735509788, -0.02705446171481586, -0.02240430938333908, -0.07018490683247998, -0.03936022223903546, -0.08476911352695699, -0.019003386807935105, 0.040645809203084624, -0.04595496051738148, -0.10180120823412664, -0.0644188546762671, -0.10785764247783318, -0.06833773382930718, -0.21190354129426314, -0.30545830281185843, -0.4817951809031389, -0.29315365975588414, -0.21663920174722037, -0.2157472707928144, -0.1180872214552577, -0.1416745725695172, -0.12477270343363774, 0.0791256442817863, -0.1113882302721556, -0.12490846701214756, -0.005052751408116288, -0.004992494325667016, -0.04087732487699144, -0.02935430950641654, -0.04719721763952631, 0.03401791938705725, 0.0028841123001793864, -0.0062000604461756904, 0.06895089612411696, -0.029455582944772518, -0.010855504578979405, -0.02200043946830935, -0.032306324249599616, -0.09209901903996516, -0.0695206466636746, -0.0995148047605675, -0.29213528039176645, -0.30486944559519, -0.34639221329700626, -0.1619476990014209, -0.18478138515001155, -0.20298448363808194, -0.23828746237421833, -0.12912886464402568, -0.16730434233702277, -0.056087498607927624, -0.13742871445710841, -0.08095982823636397, -0.16228678941619884, -0.09817082601592812, -0.07020741461982138, -0.0027403323559445766, -0.02529676190316094, 0.03645586712237849, -0.01402024698399654, -0.02323004575198202, 0.02255167904257169, -0.08577418305577385, -0.04443400553699136, -0.03831736577317956, 0.0036420648814927312, -0.04743784409428663, -0.04206946963464484, -0.13893637213780335, -0.17370926131430617, -0.15914578003679, -0.200167888844803, -0.15048547038356602, -0.1952066740815987, -0.3287984663740083, -0.2383924486062632, -0.3191831000209889, -0.22481890554955242, -0.12122354735127563, -0.17815044051039888, -0.07170632515836431, -0.0652904132722205, -0.01799577666161248, -0.11667908545750096, 0.046627389816550985, 0.041815519937686965, 0.02826617484630519, 0.013683783068971389, 0.026957488082943445, -0.04523604970450249, 0.012649908666962502, -0.01976305505213413, -0.07247761027336709, 0.02815014383580233, 0.0007879846155334505, 0.00865924290021611, -0.10786702994995928, -0.10786544989467788, -0.08275516266027012, -0.2218501096144221, -0.09196076198459932, -0.10906352588738545, -0.22838617619928897, -0.3014006989630506, -0.30444861395548595, -0.1172123233651287, -0.15207462805495928, -0.16385241681242307, -0.10116407934262606, -0.0594742228881104, -0.12282076481615455, -0.06031579895392426, -0.04036912091339677, -0.026253473441020136, -0.009912306095860494, -0.05479975944536726, 0.024199396421460528, 0.0007572109135285067, -0.07490378052341028, 0.04350449331293996, 0.019696820079287535, 0.09538667908722281, 0.12338051889951261, 0.059827799928748406, 0.11189333327420171, -0.06905776288528777, 0.009068371890961095, -0.08459372789282574, -0.15164358000189726, -0.13716894067406044, -0.15253823347848738, -0.19106434494513605, -0.17865744109398812, -0.1524950210872371, -0.07717341898744647, -0.006957135332581071, -0.036583612391657756, -0.009133135252473524, -0.1048898854003709, 0.07818552707138295, -0.01360497658282471, 0.00018667722071494665, -0.026802193967157755, 0.07601718951405069, -0.03562228623380252, -0.08061043329105971, 0.0207490930651841, -0.051326390023102145, 0.00976792472716051, 0.08585072878382734, -0.004502518993051053, 0.027720960089788717, 0.0001361240759921206, -0.016951199080259917, 0.0074377761436222635, 0.013263902503080563, -0.014269118146266694, 0.034503949093018474, 0.021541801244148426, -0.024790288879203516, 0.028309573749788496, -0.018174216698604525, 0.002135540282623318, 0.022981660904782052, 0.04646526391925454, -0.08493381612820382, -0.07440802607231542, -0.025862861976099005, 0.01638957647466962, -0.03163262515160493, 0.04272628991124763, 0.03525795671251895, -0.021834969970268413, -0.10728024384677483, -0.03112433638846701, -0.06675249830874692, -0.04684155762601104, -0.028610159564601133, -0.0300303488940794, -0.0546754041237112, 0.012691293793545878, 0.12341344555125228, -0.020709806501240536, 0.012315006106233282, -0.005813691428706697, 0.03277050022441756, 0.03320293738234083, 0.024082236229279144, -0.09726028323597409, -0.052742947287483605, -0.008300879655863246, -0.13798831667074, -0.03249859091297045, -0.04168195854283539, -0.05901824238021058, 0.0390622599497203, -0.06361735789372569, -0.025231390850799243, -0.11507172212620925, -0.016055503492515708, 0.0815903777955001, 0.022868158752127575, -0.009888980395864567, -0.013860810975942982, -0.059792955202794505, 0.025064929471307208, -0.10987049146090609, -0.029573332721981167, 0.07874624514175281, -0.031947136561167856, -0.004798951568874907, 0.0257321923662499, -0.05963222678682936, -0.023709641516988903, 0.06502625816698117, 0.020795896661747876, -0.040329384960190354, 0.047776953183593, -0.02191928293454835, -0.012654354074464759, -0.055030896524455725, -0.09277976120495186, -0.09305036596480673, -0.010415780590931283, -0.03951303464670182, 0.012413994392695176, -0.11878794003792756, -0.0060822415445847735], [0.02123066661972217, -0.05609268997960473, 0.02457139638691091, 0.06135941449630807, -0.06527622526836055, -0.054793363773918365, -0.06304498715280114, -0.020332173902258176, 0.0517803448625005, -0.03901825853301768, -0.04865798939425391, -0.026052091519657063, 0.006850035968888167, -0.04491551871713546, 0.008063947583706113, 0.10854841934883537, 0.0861232230804714, 0.0632615699113403, -0.009766780459136148, 0.022393610695064996, 0.04394425929970385, 0.0722056007985618, 0.005302248996361902, -0.05384671023268741, 0.021045815955983108, -0.09671456124498361, 0.09348321328458475, -0.0489892546380044, 0.06554680666452566, 0.013891270647629735, -0.01647610869668957, 0.08145863342246401, -0.003495513769141035, -0.03766645523119903, 0.07880882283722121, -0.05218127823127823, 0.013725019127125985, -0.08028395326092341, -0.00960659404934965, 0.02245596413820262, -0.024411399765541908, 0.018386202936949727, -0.013039106160495865, -0.05886556982061001, 0.019594404181800362, 0.04989493238902451, -0.041919803497440136, 0.0831070674800765, -0.032929970352776276, 0.04146037368729908, -0.0037605930350228423, -0.005555676040598427, -0.003955161913179178, -0.011749985651039109, -0.04481474925785843, 0.08286408327359003, 0.058203166095338314, -0.0856524404549991, -0.010500722171998681, -0.11569619647163742, -0.07635406674472706, 0.09243328009773326, 0.006060498333344924, -0.02419698760155906, -0.014021038279939634, -0.010056300684385861, -0.027997992977448777, 0.05484200500901146, -0.02308128885442983, 0.021714274173523753, 0.020653493141499977, -0.04016667834277205, -0.07539766465500572, -0.05737406970292474, -0.016286836019313477, -0.01106680400003567, -0.061400789730126505, 0.014040552726877542, 0.06551999182769477, -0.029164413500620462, -0.13083769495001504, 0.020692355202796494, -0.005293629538615769, -0.08315076969703643, -0.009640821645976745, -0.012619054572932942, 0.07596359376919985, 0.009046005665221178, 0.05241923450107536, -0.01176137857831232, -0.03829145409338662, 0.02885194354753084, -0.07892423248526349, 0.05863303006406933, 0.0018380995479913781, -0.03868079442671505, 0.027171422399301554, -0.009858533839304635, -0.09188722846412334, -0.002000194246852805, -0.017771708987174714, -0.08373663029336828, -0.027725627548137052, -0.028866381239284054, 0.07934953523764661, -0.06339438701245902, 0.08820378055890196, -0.022607565864839335, -0.028017280002905317, -0.058697033141582686, -0.017722167564292683, 0.058801938925225235, 0.06043259203170539, -0.052246489967602915, 0.08886286708977838, -0.02335180740828205, -0.024390912501713588, 0.03784861256045243, 0.01808931494212453, -0.022492115495571327, 0.00032757367791732254, 0.03931736322668286, 0.14769565377877505, 0.06404680689082694, -0.04819115242431089, -0.0763090487522313, 0.0579197345906984, -0.05369102567052912, -0.011353542717351981, 0.03586910962905718, 0.034505398820934306, -0.07108959328867122, 0.0564165483509082, 0.029609375111010573, 0.02838371258798957, 0.01998268203926149, -0.020500928666743964, -0.01431169457208277, 0.011134124764482162, -0.01925604749633121, 0.02962935844647877, -0.0550625664719942, 0.01526235805897396, -0.05742514772094542, 0.03690533507231012, 0.028034625614446432, 0.004039802753042781, 0.07164668982408431, -0.030892023235171217, 0.11158537120382639, 0.060732435099738025, 0.03788863297967664, -0.042882881992355855, -0.06080261626153323, -0.030765737103728926, 0.02493623161141151, 0.03793461881347732, 0.00572805276103533, -0.07025328794415168, -0.06442193332411483, -0.05960208271154031, -0.013516006051159648, 0.10353474712677126, 0.032085562558442034, -0.11497606972456341, -0.031356703547677556, 0.012565276174287055, 0.08957572328447691, 0.10724609545267842, 0.04946783754078864, 0.00950153848202935, 0.06507559274727644, -0.009725080461246751, -0.02098091896192748, 0.06544242475927085, -0.04539811184099777, 0.012731037168390424, 0.010352436737365633, 0.06519813965498414, 0.07097753847783357, -0.01157050240123765, 0.02923335275467779, 0.0985979335858776, -0.0720759735083501, 0.06803831370934761, 0.09277241072435626, 0.10289047209513193, 0.011804035219853879, 0.005577816598850516, -0.007287758938178795, 0.03637537457303033, -0.07229551997086867, -0.15713359857997078, -0.05741158717306571, -0.06225474271829314, -0.028552381085453327, 0.0038037336641120207, 0.021161228492538705, 0.02958750709072046, -0.026747606529715664, -0.04575590519341584, 0.036006821750474545, -0.1408481771823593, -0.07947985646095079, -0.07818013050809239, 0.02213701311770943, 0.008177329092182445, 0.16250029740153238, 0.07638830141180328, 0.015448809367581785, 0.02660786154617308, -0.15944003950112667, 0.09160594925744409, 5.069802002351748e-05, 0.001189392417121407, 0.17778910312832402, 0.09330844935563551, 0.049216496936618434, -0.00280215207652616, 0.03433255666201146, -0.10017297126263922, -0.006858675312603047, -0.04012499295052721, -0.0036906243086997355, -0.07382989897615844, 0.1125718038217057, 0.028182062304098563, -0.02135321827256635, -0.07265854606295981, 0.00882005595386984, -0.01839777844915441, -0.003867264130467552, 0.023125742959411933, -0.04967477720298237, -0.054808972261665666, 0.05932493887196849, -0.09306533248421764, -0.056724907261232124, -0.025137968186870602, 0.0011811950302879023, 0.016546660419699738, 0.21529626155832707, 0.04723226514567177, 0.18449471740994644, 0.043245135486604566, -0.08508717023809796, -0.036221929657743256, -0.10413014500293363, -0.10780535199883211, 0.009799021061997289, 0.09009179838968637, 0.017906443621454354, 0.0934670417675319, -0.0032818557976418026, -0.0016516070056699975, 0.037876742143798214, 0.02436586146168645, -0.05080889808146312, 0.05721294778069439, 0.11660717496496745, 0.13499393771299964, 0.09925938690095742, 0.07027362210952241, -0.0022372982422674535, -0.09754020823365075, -0.14493677085190157, -0.2438460145334796, -0.011935645672206669, 0.06524979323008746, -0.029376963798839327, 0.0016659676262449261, 0.011618550947409101, 0.03220069382590012, -0.08611721445132979, -0.03456948611935596, -0.09981458296709754, 0.03082461686580245, -0.09487862376146693, 0.05400694332749225, 0.022414303565986782, -0.05462466103398358, 0.01826510699475374, 0.02907954727543635, -0.08496469318921786, -0.04075266387538607, 0.00484476274856432, 0.12417295797733714, 0.15424540465242176, 0.29026390589175527, 0.07845364550869686, 0.2440276807377018, 0.10697754686628537, 0.10864804686876474, -0.05669188685394576, -0.13588229031879276, 6.0529278397720644e-05, 0.04874802522735694, 0.04623468847271231, 0.15743219999924835, 0.10250692527870205, 0.006440613059627515, -0.07550777853289307, -0.11178828565426499, -0.04750609271164198, -0.031248178695384304, -0.020098908215418765, -0.10411054994649363, 0.005704673312924693, 0.06955919152613656, 0.038353858190628, -0.11563268294100214, -0.09072927099860935, -0.0591634432699721, -0.02722911951022205, 0.009980553421370057, 0.21211734444657146, 0.22337584505652225, 0.18305158953268, 0.12987565095028641, 0.02529220363431571, 0.08880022654277814, -0.11887191044319353, 0.06993830192189307, -0.05943040294300825, 0.029002567373610302, 0.0033875106358449694, 0.10981018680313603, 0.15156128540408237, 0.07176253981575441, -0.07022225334616472, 0.020242654434039116, -0.03274391662180833, -0.00948122492630754, 0.007620081733182161, 0.03359454066350415, 0.00438126787442962, -0.09950199107254928, 0.04245465754758861, 0.024490825315112603, -0.0894458952335269, -0.09041255796028282, -0.1133091063805978, 0.04902271860559684, 0.1483136052702593, 0.04042007144059196, 0.022104249034060795, 0.050264163595389516, 0.0545413356623234, -0.06732439277803287, 0.1265296900421056, 0.40454923373052765, 0.04109286699871331, 0.12748231780557978, -0.08187918612672986, 0.20931789289735003, 0.21645794537548274, 0.10870264852830201, 0.05577514266733445, -0.07708924719984633, -0.035263318855802535, -0.11299219264034861, 0.06245805697285524, -0.053476170777027536, 0.02842346012412226, 0.05445887085670914, 0.026595441941709628, -0.009271471862601079, -0.10831365582840917, -0.08837294079722544, -0.08318669030704645, 0.022801843057967026, -0.02436224143441715, -0.061565989357843465, -0.019953215951358783, -0.22405204619696015, -0.11179440864144309, -0.21173074927439753, 0.22016891013482084, 0.32325814065873354, -0.09134207690000318, 0.22497246438376534, 0.015371595670806705, 0.22600104993854525, 0.18165857223579612, 0.05095061899339458, 0.028096488221486703, -0.13577777935308333, -0.00252624985432402, -0.02633845958974686, 0.006391957288774247, 0.0025326396833066376, 0.011498662854818507, 0.026851250122860108, 0.02320094380266719, 0.013029482359095745, -0.07612798855106995, -0.09202033549766014, -0.05740438279538704, -0.10412741798121493, -0.09019772197688154, -0.3654068624316817, -0.27114384252652873, -0.4415800375868398, -0.24583390579506087, 0.1876190462709263, 0.32723309705100223, 0.15252166352778007, -0.1196960536070207, 0.11046094014240475, -0.1980985776184268, -0.1189450707995782, -0.1929939596658867, -0.17298696852347778, -0.016363419345460598, -0.10040180563852448, -0.10047102445308918, -0.04059522601888676, -0.02723237430089149, 0.08078517512492213, -0.09706529499220899, 0.059837589441178146, 0.08102356301716744, -0.0253527455470369, 0.003317189715501359, -0.05883396585894054, -0.09998362411357833, -0.10028275554515939, -0.15248917560257505, -0.46248100191786334, -0.4613767613265274, -0.34015865491535396, -0.25107265117709693, 0.36075581132419116, 0.27564192331751236, -0.030414213219156532, -0.3476567914408891, -0.24653921931887937, 0.01912683928916259, -0.13880410294515338, -0.17513933556108766, -0.13852694179624814, -0.09237480153009507, -0.16356088219909437, -0.07246824552116285, 0.03902619698511446, 0.02468676800050612, -0.025232559405660895, -0.09302756930362673, -0.011011706494680477, 0.053773709465347, 0.023274320917543813, -0.09418710417926757, -0.1001161382040642, 0.045478390656850054, -0.13869368080485708, -0.20535063925488184, -0.4594335465536848, -0.4923090248052906, -0.21476518536460473, 0.19269700481098898, 0.6746191516574457, 0.22920352291772697, -0.09556338044808942, -0.5758954219826733, -0.06683014878853821, -0.22151245489528132, -0.1778240976069386, -0.21657859985101857, -0.053883499221731954, -0.08037166314535575, 0.023057175469769722, -0.0008029500893132544, -0.09302491131199786, -0.07256531548926966, -0.06415218595035609, -0.03970669355081383, -0.03267592179342059, -0.02770358427352151, 0.07682990502198155, 0.030123546954442974, -0.014435487434505071, -0.11174109005564763, -0.045527957193108995, -0.22430637608270373, -0.12001105909425816, -0.18869813313994843, -0.031778640635200785, 0.41559621977881384, 0.4687557189477611, 0.572805547218061, -0.19734051372547615, -0.6554995382348219, -0.3220350331460502, -0.3300859110043552, -0.20755352703818847, -0.2605261728370895, -0.07370440947681088, -0.009213139794218044, -0.009004768791128192, 0.07119163277897132, 0.09852957865132798, 0.013411937257781644, -0.009621973173013706, 0.05962399363470532, -0.049067111419699834, -0.011114029762323492, 0.02619538605975447, -0.025968688557338446, -0.06259895861329012, -0.07350710382370376, -0.23557600168874435, -0.00915222315789984, 0.16548545343559756, 0.007594291756686373, 0.2627116620572675, 0.46682698645245013, 0.46757390652393327, 0.5818383310263218, -0.24248938516302895, -0.549345411801877, -0.3730871372842521, -0.32012390223242726, -0.19340703263160702, -0.18505469718041115, -0.11494470069648484, -0.14248383201708348, -0.061844229711475046, 0.02319310376371078, 0.012164362496824349, 0.0503813508022721, -0.08942254037776058, -0.02336728756125278, -0.026326942265781243, -0.02694892375812778, 0.0495401227005555, 0.010507956153584446, -0.01436397167392066, -0.10160160164177996, -0.02296147056184268, 0.12296814265404682, 0.07925095528027248, 0.21998551082913217, 0.3513664037173961, 0.34220677874436134, 0.520665383922741, 0.5068107031594983, -0.2329571412113626, -0.40845968838816255, -0.40811770333673936, -0.26104221323577254, -0.1889433317512322, -0.18522459909582348, -0.0975831774775732, -0.08378102985418903, 0.0031967266021384953, 0.033107301331736116, 0.008840627461426092, 0.0180858352893937, 0.015546208729161482, -0.002109928121715156, 0.07542361870247435, 0.04465461890295576, -0.010561298392017249, -0.08267164470296176, -0.025776483878261817, -0.002155143069665381, 0.11391992033283768, 0.007705883936379669, 0.3015558255711995, 0.23194742289140854, 0.3271202287937326, 0.2999487593177237, 0.3159161504224798, -0.015811082503681424, -0.22914394692819415, -0.4371099402988363, -0.40758179383236853, -0.30278258729103863, -0.14383564827934606, -0.19797621398850232, 0.06921107456448247, -0.028262774824038543, -0.04118357479604152, 0.03735497005416094, 0.08158327104095943, 0.0011839463497330632, 0.010353761920825323, -0.09662244530499675, -0.0070913779335098695, 0.011437191794123456, -0.006862656633279846, 0.04366753493596042, 0.12058960850619485, 0.12697076743929586, 0.05157682286475551, 0.11594489276505396, 0.06911981060339374, 0.24897066836002113, 0.2539520603906864, -0.00027093961515571986, 0.035217370724798976, -0.17941919307179524, -0.044180476397622015, -0.2180819242876542, -0.26260618338797487, -0.23625917174777822, -0.07269451938449158, -0.07520016602656049, 0.08749954076535449, 0.004803265492405147, -0.0029353301298174215, 0.05821695207956712, 0.09473045262676923, 0.08712370010049382, -0.04548714701637644, 0.09089135440142017, 0.016782918561801, -0.013298041906651768, 0.03392919285537602, 0.0010587732531719594, -0.10057317568749362, -0.017967458861263542, 0.19800120075829616, 0.08378028976298238, 0.14807519639878672, 0.035002028509840535, 0.08705665420226151, 0.03766530657463729, -0.021125943659339327, -0.1115753803039802, -0.020839483117227584, -0.11851327729144323, -0.17899911061822124, -0.21948580448500768, -0.09739809204399588, -0.06651397173182733, 0.05504819465341372, -0.0038009149609056665, -0.04304223616360659, 0.10544829046193133, 0.04968813755036088, -0.08958135329707606, -0.09568811582414957, 0.007035040518164822, 0.007960452629231668, 0.11550065048478816, 0.06276924777442629, 0.03713497776984624, -0.0337444704591364, 0.09711745549915234, 0.1240223988406655, 0.061066007650166496, -0.04439949324106468, 0.008896979002944852, -0.024027004887351548, 0.00020784085213195047, -0.08619010102977266, -0.18247276243615795, -0.27214049825415204, -0.35138169213214143, -0.05371831071195211, -0.2189685454920987, -0.08608481893345239, -0.11165922989930346, 0.09475839715570523, 0.01963315406796372, 0.05851461828318014, -0.00848588853852211, 0.0441618750638326, -0.03035193448116728, 0.0028012269439664133, 0.011408680521547278, -0.0394884309266697, 0.015159013346304163, 0.08353107586630364, 0.05370868919077125, 0.032066306730381966, 0.1280522393726006, 0.04416425451112973, 0.05277265937571573, 0.0028271342630209447, 0.004953690675066805, -0.027396534004828596, -0.14843129446321657, -0.0343119026195912, -0.11649823098793269, -0.12095105347086828, -0.22608626181609295, -0.26903687403852633, -0.2286052755014814, -0.06910173461044804, -0.11599140303769137, -0.10686602088674924, -0.03295293142067351, 0.06443714007934377, -0.12556071438319932, 0.05021667353544636, -0.05205636000857209, 0.02657309115996267, 0.03202261835159463, -0.007947676158803357, 0.03213978427097902, -0.02203640209115998, -0.059220483973265146, 0.056156306614177254, -0.0642283053819347, 0.017303226983501733, 0.0753160209327078, -0.041602912643280456, 0.03933060875055234, -0.10839553035627475, -0.11567100190874899, 0.006179655016189242, -0.06883344360744749, -0.06710801308870078, -0.16126376262717473, -0.17794289789636508, -0.1242529638010583, -0.14418632017295238, -0.08278285555588215, -0.04407003215103673, -0.003982075974061595, -0.08560507684926673, -0.03713694648726374, -0.03295234947829126, -0.0036837883687636038, 0.028914973711396674, 0.015283770709425971, 0.0011106659428859933, -0.06490944000136804, 0.0075201971438915135, 0.04351207271332646, -0.021420241442418657, 0.00019015384561846472, -0.017005191023608576, -0.09215573198545139, -0.07082924021022055, 0.00021105242138149845, 0.019692728164560556, -0.05617533921650408, -0.07169908752859953, -0.058872731617036406, 0.03258669004456819, -0.022438535199310647, -0.0426659477775487, 0.04173295600187487, -0.04124729906786994, -0.1293245193339043, -0.04308498533319556, -0.030205072108814488, -0.021444492230312532, -0.02572360806244051, -0.05414179179964142, 0.023720418816622568, 0.012016027097977854, -0.012933834052352603, -0.02115592799470117, -0.008989164401809196, -0.030954024399652093, 0.021628613294738374, 0.010015243621764704, 0.09175894305591176, -0.03210239357585435, 0.02279125276477658, 0.05415793436622872, -0.0503809027145293, 0.02185466067220039, -0.025971839830589684, 0.018603188357254493, -0.07091474461740291, -0.021862900310541625, -0.02262685113667296, 0.00853277460774199, 0.006188633394175247, -0.05224326492253012, 0.07391496940502351, -0.003750640728481566, -0.038358245226170616, 0.04287409099216244, 0.018425406790131136, -0.019582652857619755, -0.047936877842876036, -0.08273729656097112, 0.05396890651099498], [-0.0699490782470801, -0.06874929709962176, -0.008018759798290974, -0.02271434710053684, -0.010799622147900461, 0.04920905220540041, 0.027888696515137534, 0.014085133607689208, 0.07514430537328873, -0.0436175888471486, 0.0443062948425406, -0.03893006664393783, 0.0132555635762773, -0.11140018373595138, 0.019144509883312733, -0.009298084642478738, 0.014830435775774798, -0.04726952555254383, -0.07372635789306652, -0.0005370999734464363, 0.06777128388967563, -0.019143084983551873, 0.08032335887000815, 0.005707133316752786, -0.01898655421136452, 0.0537462376046263, 0.047319736770521294, -0.04115790672276754, -0.019460775278825563, 0.03097542512354777, -0.07813672812244545, 0.013043171446786853, 0.09582615268923156, 0.012751798912478353, -0.0429250559606889, 0.10174194536803359, -0.04377800291407378, -0.03760447985081631, -0.06038373046172888, 0.043066541073208044, -0.09143408677018962, -0.10508717705284572, -0.05537675200643334, 0.034086216333944964, -0.09162596573501516, 0.03138471303480962, -0.056944973321237755, 0.0017787240950416041, 0.02582583721588553, -0.029226254620342472, 0.034379983060952704, -0.07824504589513605, -0.002816315182539884, -0.03793238995223954, -0.023250231061215258, -0.09101669850465116, 0.019240961413151417, -0.006719687527237012, 0.030892324128917997, 0.024575300184659976, 0.0677271932747499, -0.05238041927171155, -0.014249641514576162, -0.005973059105989301, -0.07471567034559971, -0.046798528782570445, -0.011238096696778168, 0.021776886949691383, -0.03168960324298498, -0.10041385251462544, -0.043808156163324605, -0.05062814185237264, -0.017870433166803253, 0.05040767799231575, -0.009159399693486725, -0.0065970273916063065, -0.04078424792951635, -0.12211464906737374, 0.040238930750148, 0.0633681163183725, -0.011165133913440015, -0.005038818267218488, 0.07806972685364053, 0.07722815388918072, 0.04129701289033706, 0.04241608954723714, 0.10973509266603579, 0.053337460723582135, 0.015554944983725866, -0.027849853163452325, -0.09051873991424693, -0.08195618053685923, -0.036031382020735137, -0.07516577143060134, -0.13433511760422454, -0.1141718934700494, -0.09249162970810862, -0.18936054671051036, -0.13853795211451048, -0.1908597484220584, -0.06074480810653753, -0.031192215773719213, 0.08048789118059331, 0.07356678923916428, 0.12164499186115964, 0.05792077278804931, -0.012280383675074724, -0.017433054648044892, 0.06127116278044757, 0.0077585938503046065, -0.0661027396235427, 0.024930368893231563, 0.05314635066610724, 0.047010937954796765, -0.003562724958070555, 0.024516651861477473, 0.09247673051050144, 0.016429617625746986, 0.02152649136771997, -0.061459977602253475, -0.08525438519197359, -0.16087535895642152, -0.2226802786064064, -0.33787095106914883, -0.3439646305583551, -0.18087135384244934, -0.2819764965640792, -0.13594633979606002, 0.028892406945430524, -0.06973852317145854, -0.06872392106922667, -0.016806637604690415, -0.1083606500029077, -0.04519386078434654, 0.1277664914679567, 0.07943550396955677, 0.07631537302311137, -0.007969180178435013, -0.012395814703639188, -0.018643490036846268, -0.010635327958576512, -0.04616702517048566, 0.00486653620224999, -0.052865614341329435, 0.003332067128759481, -0.01168072503499344, -0.07414163366946797, -0.0851279575575253, -0.1731909902561682, -0.183202295460829, -0.3560076226367174, -0.23069032514193025, -0.21289493345343477, -0.17621224738463706, -0.05357894926012512, -0.12339090128346712, -0.1295627663190711, 0.010627985014650345, 0.05655009655273974, 0.02184268163742708, 0.07919312062535803, -0.013347172475826206, 0.09832589786524895, -0.038258142100687786, 0.15534659492771632, 0.005172822275566784, -0.009471336120957035, 0.03592827267262763, -0.052839553827395226, -0.005998434518827744, 0.06337061761621562, -0.020434809078982305, -0.06621540434929418, 0.09517498031371426, -0.024103035937310033, -0.13304809520108954, -0.1898027095322971, -0.4565919214791937, -0.37894293902216253, -0.3483655559311881, -0.16633056091204584, -0.16239844942220702, -0.0670236679437333, 0.017094116797800006, 0.0217132066508765, 0.050651028673431124, 0.23224933154184177, 0.10565608331797556, 0.09800624407151932, 0.1442284854855005, 0.1781464311102769, 0.1255992781426192, 0.042025787192573216, 0.02481368556835614, 0.05664955046371094, 0.0010130079558304755, -0.006273357663972026, 0.017179635552660645, -0.037417013759268564, 0.005616211790465368, 0.02180712626311198, 0.013899446049082753, 0.015396929345565073, -0.08400774700042983, -0.21237584396158599, -0.37109415755125147, -0.3509947080457401, -0.11935930542158676, 0.12711075848895653, 0.03485065951938592, -0.007615530732863296, 0.018428802475684104, 0.020564291685112625, 0.13158620242384583, 0.2664455323531908, 0.06536114447115754, 0.133367320497754, -0.05942095814229054, 0.08612404573787907, 0.11437575219271337, 0.051046435997686115, 0.06302177824228267, 0.08204746676595868, -0.05387327417440657, -0.11332646916830254, -0.0681428965966869, 0.020047072552177036, -0.058073686791167346, -0.13106417687563274, 0.017024601329885664, -0.03366775163168907, -0.1598516946324996, -0.24781041658745992, -0.3639569801022299, -0.3901726878772948, -0.08601567446888246, 0.2001357627373573, -0.07311380606052495, -0.08775683363535429, -0.05261715383225065, 0.1353978236984141, 0.03730623139490631, 0.038087660790659374, -0.0148089892100292, 0.06643487526191148, -0.08544510270685444, -0.02742821351292328, 0.04612767473606878, 0.06658504048105501, 0.06677176980933669, 0.015272984231912177, -0.01399757615568558, 0.026539607993067666, -0.02410114227720178, -0.007179593205288171, -0.031056622069783026, 0.04377626143943289, -0.06590135503820467, -0.15764506419015717, -0.19495834187993313, -0.1654563790399285, -0.3854740961177973, -0.44742738807138444, -0.2546937609276425, -0.0046038825686584494, -0.014734181043192596, -0.035394551970329924, 0.12725229402723068, 0.16646997350698894, 0.01821843786727104, -0.020187585440761192, 0.013999940126405699, -0.034267451714865345, -0.11519361874947753, -0.01639410550891638, 0.09178804611542457, 0.13711200957428968, 0.04501492369096055, -0.09176708178351475, 0.049343316748421386, 0.015404762682911043, -0.01930135001077903, -0.10942185038115335, -0.05429671351228337, 0.00907146368166581, -0.13307671020982245, -0.17981845289542076, -0.21779886419472458, -0.26992184638615335, -0.42977969730768495, -0.43036819078379734, -0.12682138287134492, 0.24968895514440578, 0.28141426371993566, 0.26720773915235174, 0.15063822859608172, 0.09625751277826326, 0.08074724077630456, -0.12208706309318579, -0.11131475861942156, -0.0765625388097825, -0.13129974872163758, -0.010046691219396366, 0.14583618179859528, 0.015964371505893808, 0.012443095341739334, 0.05448582664355389, -0.04318510065215855, 0.026671027516527775, -0.06900413535486703, -0.0067889577788810595, 0.05288753294117122, -0.04494414367645871, -0.09436843703642483, -0.11085189192743214, -0.24507551262921579, -0.3108389992362332, -0.4543226347978986, -0.41849639601566935, 0.22384687119713004, 0.17203934693121964, 0.2954596784697447, 0.09213583131530534, 0.12750347011890667, -0.011545243086047107, -0.1335971053238639, -0.09181262236686834, -0.07739352918886308, -0.13060075562062662, -0.08001879287495818, -0.027260837221175508, 0.06089225285222702, -0.01807008441758482, -0.012814153387756612, 0.024129300724350586, 0.17982946015162998, 0.0725677757338162, 0.07643952387207431, -0.01906533993772382, -0.017298825695154566, -0.04615056925690765, -0.17618501325103858, -0.19692853441406138, -0.3260072488840107, -0.370924268703709, -0.35755705088841466, -0.230464745882502, 0.26178278092591106, 0.24885930943194104, 0.13434545953537136, 0.02552015617264041, 0.3985838466936345, 0.21530379856106838, 0.2222127712140637, -0.029194519109849486, -0.01573207669529694, -0.14198392771371748, -0.1877903989767191, -0.025576994385763982, -0.10520661653403682, 0.00832188902952731, 0.07152873706928005, -0.04061084280386892, 0.003580477434309834, 0.0465101015246629, -0.04339120606201597, 0.02582241618674313, -0.03903868150815054, -0.10095546590903072, -0.24856390485304497, -0.16097966274779232, -0.2197621501549729, -0.28101253114715113, -0.3382356546866107, -0.20741463581287273, 0.27303922737404723, 0.45105602858789257, 0.09945679043792668, -0.11337304191192105, 0.16683817317558544, 0.12481514000320412, 0.21991073737227276, -0.03527301837323476, 0.024762770674402777, -0.11047375103545178, -0.191290220752305, -0.0630120357148741, -0.07031209924245611, -0.0019344338427586029, -0.15982857467468592, -0.05395451423235233, 0.05344674561627309, 0.07292323325581407, 0.03724858075562999, 0.09176362402949399, -0.0905161698368434, -0.13717075946680268, -0.2056232631758787, -0.22827991690506927, -0.3016571756791966, -0.236255749406365, -0.07077941056909995, -0.07636957406612307, 0.21335233113348126, 0.6225258280981926, 0.12728053038449696, -0.370842763448619, 0.14084745565859316, 0.060977639153410125, 0.1424238156273569, -0.10250793526361855, 0.05935184134335682, 0.0351625296057332, -0.12085876727098654, -0.1037387594351859, -0.1079442384650537, -0.09272038766274648, -0.0707372467848627, -0.029244996181183463, -0.06266747342903053, -0.012605151304161675, 0.04898040369021379, -0.0435266985279326, 0.04683391326528228, -0.16999561074884662, -0.27866368415928733, -0.198253233898518, -0.1881555157705626, -0.05399028426467552, -0.0018605179266259668, -0.13734870332238322, -0.13649233910378383, 0.10068667274389227, 0.04885463741415888, 0.0021652392335031042, 0.09857003699818333, 0.18570843490579386, 0.1336967350637466, 0.0815689381399356, 0.057256116944780555, 0.0711424182973084, 0.027913028613152792, 0.004436980721294026, -0.06621725922657859, -0.013421203052135488, 0.03397326331332781, 0.0017562821875242304, -0.04840682899905214, 0.02005167505554585, 0.024634040212284318, -0.042265706614269885, 0.007658273060885744, -0.12388327673333113, -0.1697137041706991, -0.16581182157976257, -0.252331697725589, -0.0012342934405442608, 0.010111726022342568, -0.09326150497119301, -0.09996261237204115, 0.027785015361659275, 0.14531530420245575, -0.01391703277204487, 0.046228955575204, 0.14799371575905748, 0.2681853544157676, 0.07846384808600382, 0.11966823310824105, 0.011749397363160642, -0.028745839833179337, -0.022625895412088207, -0.050772167930770426, -0.05538224772548002, 0.015703050554301448, -0.09385759771577636, -0.03744754800254123, 0.11147578724404418, 0.014269237195103713, -0.08543913760602953, -0.10753001944956674, -0.03952085161171139, -0.009327288527107834, -0.11281033477175517, -0.08241276263292029, 0.022705503598175393, 0.007143049911338372, 0.07967556480380265, -0.12365868842325231, -0.02707024273403059, -0.19286030891361358, 0.008855872195392066, 0.25150183205422383, 0.10775524769134806, 0.16045252072936658, 0.0055497659018383765, 0.08954046333374874, 0.03037917128365757, -0.043740719112161056, -0.04455681050885913, 0.03684785705606602, 0.02595282708796614, 0.029542078787952664, -0.08177993988856425, -0.06639864567693615, 0.052725029292539895, 0.03158801380956488, 0.04545822631892897, 0.05644129682665167, 0.0034287699236273807, -0.09140232626148316, -0.009689867464570108, 0.023268146657320028, 0.07841078033084521, -0.03873141494415131, -0.0852170739400408, 0.02309114403352464, 0.029956372205122463, -0.07887514437424395, 0.06519148634899448, 0.09979293794323083, 0.058428085569915994, 0.0618967699521017, 0.012707806101938099, 0.10553136265180678, -0.05215414579538193, -0.06951452211424569, -0.06103209709373216, 0.04590242538901009, -0.135999826095862, 0.008050568994187974, 0.01769107075095989, 0.017598765966328225, 0.08628508160394457, 0.07079557871990845, 0.003505853442371585, -0.16631175378205282, -0.020472449989825982, -0.17784586867226237, -0.07535734913876194, 0.05456218099734588, 0.0028649432088412646, 0.06758381777407967, 0.08793597248463993, 0.07582610893629223, 0.06967568794012037, -0.009937270462953481, 0.03934071521124889, 0.09283218656520016, 0.06462981848239013, -0.0010801831175591924, 0.08432173230522784, 0.04904999092585161, -0.04914870403578521, -0.17684941645488647, -0.06827517918140287, -0.018695570287329006, 0.04422930812675139, -0.06530068686461263, -0.02820361027540647, 0.07419823175417682, 0.005971092197822719, 0.0201948484446784, 0.008929622543240522, -0.12917498937495886, -0.08118229210581662, -0.0572645177041179, 0.029505031327819654, -0.036390556754806416, 0.06141342526310814, 0.04266104242052872, 0.10267165985431716, 0.07232098522156047, -0.048678769958269856, 0.15192979120083125, -0.0386247513710593, -0.06657133063976156, -0.020032771467577933, 0.21264197668344595, 0.05234573838240958, -0.04556618201507276, -0.14425595039976497, 0.0192764026509103, -0.10786019040459598, 0.053512118040322326, 0.05156408401866996, -0.03888800655877237, 0.0035679245249077896, 0.0015672380937131554, 0.009890039828165468, 0.0625553475667004, 0.0718993881599818, -0.14028396695671067, -0.09599414753737669, -0.027683735008391587, 0.021158949731746233, 0.021801211085768362, 0.022992871365866422, -0.062645472462633, -0.07882306859865251, 0.025533124027581604, 0.02403231377387754, -0.027256880851025386, 0.072220021014623, -0.07205231938872635, -0.012110250297712547, 0.03478557944038158, 0.17861069664754456, -0.0019748246295943385, 0.023224382272190657, -0.05482713360048105, -0.09395556624470293, 0.007381026682187694, 0.03694984836471185, 0.05528765180022453, -0.04997403834621148, 0.024276701243934034, -0.07682440111008382, 0.029251173036884463, -0.02536331130069193, 0.01309280822334814, -0.03710810331582414, -0.10374555197384583, -0.030014808485481378, 0.15364733925893523, 0.08118576927462512, 0.1172842203089949, -0.022652713617365906, -0.005379487320420315, -0.030993364263443044, 0.13529484782277662, 0.022977384754942556, 0.029865604100216044, 0.03594519219499241, 0.11398219409355749, 0.021065632923881163, 0.1303362951796161, -0.10736343162907375, -0.12397176309225773, 0.038238675051750895, -0.06431224671000234, -0.01394169563982836, 0.04630657376633662, 0.03993506638782104, -0.019744053344543662, 0.1395987094735145, -0.028040669743797143, -0.11725272723669475, -0.008275376987253261, 0.005672848855735434, 0.031211597940926507, 0.008313146114293339, 0.013421551803514604, 0.04957883231979594, 0.027761030799182185, 0.128753722465023, -0.039605597189178124, 0.043030634040354794, 0.03319561751067528, 0.15975596018852684, 0.09421438618902667, 0.025509804877255206, 0.12076661307301675, 0.11011275186429827, -0.08597308731744746, -0.04709838608294288, -0.016171203534644428, 0.06013549645367137, -0.018642900561247493, -0.01906508454252039, -0.0601773096188905, -0.014077354213069883, -0.10020962214346321, 0.05993625353458121, -0.10349305316359587, 0.051922764017037076, 0.025103458438991304, 0.04940257058397279, -0.014820967719609742, -0.011676856339344106, -0.008943305961508661, -0.03559462003776661, -0.009542382463038629, 0.17957362270393956, 0.013721229226639117, -0.09709060454285734, 0.14047071189359733, -1.0693936920327035e-05, 0.15469314698681788, 0.08403587587849368, 0.006924142482494, 0.0004389578931362684, 0.04882274203977172, 0.05338043030948336, 0.021545816869025854, 0.01665217124174039, -0.00875163412265733, -0.037429999138093605, -0.029429017428507384, -0.08632554897832757, -0.07996789352245771, -0.09426793071724165, -0.009071686835317175, -0.0019375520667305357, -0.04295132402338729, -0.06996264127274116, -0.04895241448551449, -0.03848636680969845, 0.0405319912970665, 0.11006202184460072, -0.04178247323813641, 0.055670773420902576, 0.021595045644220136, -0.03743061688058059, -0.027774413243772406, -0.028877413818665223, 0.09228230605713061, -0.011906885958831832, -0.026714082102334006, -0.06998008955295078, -0.020458621992308038, -0.019230010491027082, 0.027638722150153932, -0.020097656088488975, -0.02858128554984605, -0.007685398084154191, 0.03802372059179458, -0.00527868808851675, -0.008694722208378669, -0.06204606147773553, -0.13611943835636345, -0.032073787322957716, -0.017759599233524288, -0.004021633664357807, 0.03380995898949055, 0.06101466255069547, -0.006129931238484312, 0.07786914255147012, -0.08734001307025162, 0.05447425098035522, -0.07942653819565344, 0.04007548593191173, -0.05507253125806802, 0.03654433398066737, 0.11582529049782825, 0.0495843171252029, 0.0353882351186588, 0.01796275535279496, -0.032769001331906474, -0.08834146044404537, -0.018387641806299673, -0.04862128261042827, 0.010645844474042751, 0.06053199269113861, 0.004799173213009639, -0.019253023416629777, -0.0561782587636146, -0.040644096816752545, 0.1064218423123142, 0.016096152033080815, -0.0230197560712039, -0.10784967068388213, 0.010548590636947724, -0.04658838101121095, 0.03552227247758726, -0.007815788295058475, -0.018585189675252495, 0.02592094544833119, -0.024237177117909976, 0.09716193129245536, -0.03019866878066438, -0.061076825533790034, 0.008221858633527344, 0.0525616590339056, 0.08387940413332626, 0.05424770524440521, -0.049039906048564876, 0.00182911211434204, -0.048130043625800055, 0.004843657999604966, -0.005873683660264052, -0.0427888271843433, -0.0948572125381803, 0.050717975107458756, 0.07305776195388825], [0.0037537106559470956, 0.009572997450637595, -0.0072425021858448, 0.10415966969831218, 0.09452540068477965, 0.003684425374169732, 0.04182474064300153, 0.04726474431979841, 0.05085280033710997, 0.012756288606187828, -0.001029963210738994, 0.0750437350382964, -0.050752732622593354, -0.010387923735093204, 0.013593779015659434, 0.021350124250272596, 0.02896581019485817, 0.09233887623529273, -0.08472290982003283, -0.009600767414249256, -0.0044291967765118356, -0.004231062988857373, -0.039428155016114345, -0.05298602420893324, -0.027816328536580698, 0.10355371816568314, 0.028179401547836033, -0.06979975866714314, 0.010749006555189119, 0.00921513542128664, 0.019642889867970827, 0.05010467292399033, -0.011884647132709368, 0.01613790171886179, 0.0144435847671916, 0.08759438825010916, 0.06355968646851928, 0.08958354121599041, 0.10325938209724898, 0.04955597493225616, -0.013843401633927787, 0.012053620226160642, 0.017441501774008893, -0.08180139234061641, 0.0025416163462207613, 0.05925355076632281, 0.017743439728455594, 0.026730458609624648, 0.0076400348235039035, 0.09553285408032171, 0.0058162537336234775, 0.06451048202426599, 0.019043607738870882, -0.08486895284769398, 0.04342021307766094, 0.008607276349441254, -0.03637773811155724, -0.01727048566727522, -0.012795370265503373, -0.04539920993768716, 0.0655100346374846, -0.08110496877153238, -0.0393631925614259, 0.02858165972625919, 0.019609167358610853, -0.009110878088663451, -0.06539796774925836, 0.030575777866364375, 0.019558529151884448, 0.032300932645202396, 0.07734678245721495, 0.1148957487351825, 0.008203090619593097, 0.13033460355555126, 0.055867676592843266, 0.054033397329163214, -0.051816995241031547, 0.042381857793020554, 0.03240104087087007, -0.010268351463837654, 0.019134625958236253, -0.016138213122462646, 0.03918005770575822, -0.005437780876578436, 0.0851445427809273, 0.04423451975799149, -0.04419930923402352, 0.07819751687742015, 0.04153126894262211, 0.03149903698150337, 0.023103945833280216, -0.005234428825478607, 0.03674242421392836, 0.07244032348646973, 0.08880839815177019, 0.1188080627382151, -8.966764870086881e-05, -0.030631546836614936, 0.044722502410814616, -0.010973286280100737, 0.041173571089115124, -0.1844909897830304, -0.006332834194499851, -0.02672640754892119, 0.07471400092061876, 0.09707296285049356, 0.0429668700902373, 0.045774156845124134, -0.0049446479255753776, 0.03448254258500221, 0.04098037879898325, -0.02764532487955057, 0.05546549493017478, -0.055758079420927954, -0.05479963062310413, 0.11599698516438818, 0.053145691093895484, -0.02918793543559546, 0.0535460892784165, 0.002096436019594291, 0.0010630732866407657, 0.13316291556798057, -0.04662356129056617, 0.09666018232658238, 0.14202958040823044, 0.00115518985599577, -0.04982611466845282, 0.031213151781404318, 0.14009989587176608, 0.0625061023750177, 0.0993774051946651, 0.027443736451608303, 0.11280466423000676, 0.0872571403394778, -0.0044764118954774895, 0.08525549419881227, -0.007290169686213456, -0.009132338695742108, 0.05732421479340445, 0.03353909996751375, 0.013048454393613195, 0.04781559633596408, -0.01680261372607327, 0.01870433660967258, -0.016772788252852465, -0.04631165354679736, -0.009158429755987728, -0.03670710571825359, 0.04298716484318801, 0.15396687003542217, 0.168531064074135, 0.20049532201908857, 0.08664065095162345, 0.0054406481034440565, 0.03357484644933092, 0.01173435910755464, -0.002959332072535826, 0.18261599344292365, 0.033777003099678196, 0.0941334091011605, -0.081194872702395, -0.004271868995159164, -0.011038900352611278, 0.06124415788696259, 0.0018211671535526732, 0.06014605951167401, 0.059175916308816016, -0.050778859510806344, -0.00769159003716751, -0.03497563461428396, -0.011607356645197698, 0.06534272924087021, -0.038509385937411635, 0.06031010894979269, 0.08480945905241598, 0.17989756469393559, 0.05442371443756944, 0.07407433130274108, -0.02858485230917991, 0.24762099343234284, 0.05978536839066722, 0.04997285079274474, -0.003942220320348752, -0.014479878314175715, 0.13842833051726494, 0.10066305433931863, 0.01906074902198995, -0.042563291653391976, -0.06162526319034968, 0.13405629961909885, 0.029453596074076334, -0.11298793094169395, -0.013368865035150019, -0.024526145288808258, 0.03254694413440937, -0.04718493419729409, 0.08265501377160825, -0.07541337399677932, 0.008966051501079425, 0.01856576429705195, -0.03966689849344721, 0.04670976579313821, 0.0679915301258102, 0.203745118788792, 0.18870050990235854, 0.15409198730504475, 0.290626867825193, 0.16616810846088437, 0.17675512373060367, 0.03422953728047794, -0.12665484538268737, -0.11086661429196797, -0.0470580579575368, 0.06458913343831715, 0.12702985173014325, 0.09314350168135066, 0.12031861678058912, -0.07066581981347143, 0.05748371649525287, 0.10213942049218286, 0.07140848272734061, 0.03907275277707924, -0.0332210908198005, -0.05297789484143279, 0.017187448667404535, 0.019819214693097092, 0.02313349776331756, -0.09250887772323686, -0.08315332181305755, 0.03284645180445786, 0.10407312087859323, 0.15981239276450593, 0.2273883707267442, 0.3259685959417105, 0.15038208218829702, 0.2754507304178731, 0.22108972811388677, -0.10045795680374257, -0.1914881378046697, 0.08286075944498526, 0.03359918416349882, 0.12022642035385292, -0.09825045493955155, -0.049569281338111455, -0.008139386227408028, -0.016728861082243595, -0.0765184034650309, -0.020073383721943703, 0.12241718484076797, 0.056198281359894076, 0.0770433006923326, 0.055269143786520945, -0.0049242628709490225, 0.010209636488070314, 0.056736695517505105, 0.10150860594797685, 0.03948334760415587, 0.16292900740499866, 0.08752766837105978, 0.15938000403709315, 0.16657002415248973, 0.1480654430741847, 0.09072434322485325, 0.26466568536384144, 0.29428122182010225, -0.20185181227330973, -0.12767373329825984, -0.059470362923717456, -0.004374029184190527, -0.03342259587605471, 0.03961343774061884, -0.1262150111034684, -0.016617724203276712, 0.04129920673905991, -0.01452526573109675, 0.0685093378464805, 0.11623822608962799, 0.09164351289677176, -0.013993428634585926, 0.04930073183511818, 0.09580970138482711, -0.05621491764135722, -0.016032175211696646, -0.03129608100822309, 0.12538189090813948, 0.026562892823347027, 0.06377916793360866, 0.20414396981014896, 0.1258758875045275, 0.2193615599632951, 0.25873315785870343, 0.47921371918818084, 0.21269004258845858, -0.2281410397181795, -0.2473335680295237, -0.013911131261863273, 0.06921216812185349, -0.017884930778116263, 0.0133565517755021, -0.17383825078665677, -0.046678045129071956, 0.08452600474166509, 0.22248256630090582, 0.0993821348826605, 0.14836236895540775, 0.035258361547780524, -0.031095011298598166, 0.07703096826364667, -0.04746551628222585, -0.002988168157735363, 0.012678290743636767, -0.018313880476335295, 0.08580236494694128, 0.08547877113045953, 0.13073810167006922, 0.2543858350779135, 0.2946545294272044, 0.31945669126324916, 0.44440423802234835, 0.5568767642370573, 0.0666053158195144, -0.31608049891504714, 0.08924954914337022, 0.27616704336849035, 0.4478989933469769, 0.41825548318733313, 0.11964595443288016, 0.014904764393800297, 0.021320376239524683, 0.10926494255797926, 0.10130049608342491, 0.04263486484579009, 0.07214204785759666, 0.023683606200881644, 0.014921720674193424, 0.04521007852426277, 0.013622692641454139, -0.04156330042663526, 0.024173825371151172, 0.014208293559178912, -0.007010052116794932, 0.08350901555843804, 0.15039463490524124, 0.26572840483887256, 0.20247927153867298, 0.3387657393465301, 0.4485766916756791, 0.15030884239913797, -0.3387091131528103, -0.057274638299618465, 0.09973983871134876, 0.12245692954708841, 0.2750708646154643, 0.19439892490075236, 0.17921890848492308, 0.07043361143671129, 0.10326099651770372, 0.03470132532805573, 0.10187377551376464, 0.09407113371381066, -0.006891322686477019, 0.036409733659802185, -0.05675443289706058, -0.07723314362682024, 0.028697284808453294, -0.048223827575424975, -0.05002266062406772, 0.06664220373178864, 0.0989194080370514, 0.02736368927898146, 0.13517408714372842, 0.20479676627014287, 0.07241868339655459, 0.35301880490229026, 0.42394796194767037, -0.2569018947033214, -0.3702593750799967, 0.021591365505685217, 0.030842032279462656, 0.03399189856196968, 0.15495166541396801, 0.05222819496505312, 0.121125100052261, 0.007927356858765805, 0.0036638115326169535, -0.017272986783311742, 0.1510444202519041, 0.08734514952285653, 0.009054399129096804, -0.039704886072745624, 0.012493217895147497, -0.006968171492341948, 0.04934494559589189, 0.07068041995743617, -0.08713180533311063, 0.026924499608729568, -0.033990977720547114, 0.1747173687918382, 0.18985599010204987, 0.2520415439676483, 0.21170894736484666, 0.25097916700784556, 0.1004095863100556, -0.2678087659683408, -0.2812631692788578, 0.17541595840729074, 0.15850565139094389, -0.004616599307059044, 0.16837409434931602, -0.05357418613476248, -0.018858358578293256, -0.03682903849956744, 0.057456349272515764, 0.11636783006887311, 0.0831464089656664, 0.017622397833286306, -0.0016432821746670625, -0.06333973517294963, -0.017101250808647363, 0.02132832390851571, 0.003212769819132889, 0.0011694330971865668, -0.02982960987831169, -0.05415943521429831, 0.06280216774844719, 0.1023944093626005, 0.17521862135975824, 0.21397015477725578, 0.18865994056616897, 0.02515571121161856, 0.11042704775072766, -0.17576114209529464, -0.3978615351300038, 0.00824622233828095, -0.07280843861778505, -0.25942025395204016, -0.2577197010532144, -0.12401840821110799, -0.11567648733946151, -0.12876400507900618, 0.061732730971555606, 0.017610517107120784, 0.04163797485182434, 0.07322788953610067, -0.12612472464917412, -0.06658981347339502, 0.02333927160621142, 0.026661281354476873, 0.024758423431565063, -0.04622182426637321, -0.015137957286127384, -0.06622744855739945, -0.0007918350150612556, 0.07554621432509748, 0.14334878747436322, 0.1973538163552441, 0.08016759467794193, -0.05869965281963877, -0.07246696477109447, -0.42567781301880975, -0.3016491432643061, 0.11572582057981615, -0.1698801690035764, -0.1605067556434645, -0.4531911713077157, -0.3049601239379652, 0.041399222115043564, -0.10120198727766756, 0.11228922868652408, -0.011593665232373788, -0.039404097613415345, -0.015503877920967524, -0.08596663116645296, -0.0633147901439849, -0.11865257632881637, 0.062250818190821754, 0.016719066217522453, 0.0023741954499126986, -0.026061673001991192, -0.04498606453199546, -0.016295055578107873, 0.09231715014060049, 0.019772557666433033, -0.0021830314155688695, 0.00613434990250554, -0.001093695158774934, -0.11590297496143105, -0.07813052777777152, -0.044413710151628705, -0.0365822548561197, -0.021424721537743434, -0.23358195633379983, -0.2414308718218864, -0.08248290505512758, -0.026511529180970817, -0.09668766788511371, -0.00037138943023170185, -0.05944986572572843, 0.02781921990357483, -0.05592030056347645, 0.02653976869526485, -0.07005984274490741, 0.09315476382473628, 0.00013395094248633342, -0.08778320297293168, -0.08617260247657692, -0.09217895321681825, -0.004444983879116004, 0.16007991498469057, 0.01932888224631631, 0.051034243779767646, 0.09184448826292366, -0.0065126670724629685, 0.0164689400702044, -0.017156183759664753, 0.0056670817642965506, -0.047300414510368954, -0.10113307178254317, -0.0821376974702397, -0.18488226300598298, -0.08078703238019457, -0.0275894211592893, 0.07060804560404788, 0.003603223288372735, 0.1267476892735508, -0.020333669848900775, -0.121807836519285, -0.07340993967644581, -0.1350933294966739, -0.10894743454904629, -0.03474083363693176, 0.016320733872830784, -0.024004418669903698, -0.11183544045473846, -0.03889142913148444, 0.058261205199251646, 0.05806090522449842, 0.007172976685712259, 0.042329311799085396, 0.037456317252281525, 0.026551945332429952, 0.02514326628397408, 0.01296683859912545, 0.04176932907325423, -0.032686073995909615, -0.13813321465229866, -0.013515637369185454, -0.10148867086562455, -0.1576909538787298, -0.012026651526429772, -0.017118250415113962, 0.057990377743788554, 0.06162646182106475, -0.11130263093631886, -0.21981669152727462, -0.057472629859840106, -0.09972911036835902, 0.03661364225285135, 0.0380100797794695, 0.024163448574976914, -0.029651547647490173, -0.043286105708967466, 0.13121709095695944, 0.01161434627005701, 0.020118130942388162, 0.0389965540699473, -0.07940541170812099, -0.2615279561904406, -0.03703912732903394, 0.032656060156000886, 0.03393067634103163, -0.03960956657390741, -0.13727743479442525, -0.09695548922196376, -0.08480618879561315, -0.05865592355851004, -0.15044742905468786, 0.04003997867779594, 0.052070020097181584, 0.16833356994077606, -0.10226973554151776, -0.203183749191599, -0.17281132880214609, -0.16590127454881626, -0.0700564272849081, 0.03397347170401434, -0.07478701684391394, 0.03671764754411561, 0.04627874153298736, 0.03867812856307305, -0.0879575098693885, 0.002699355911830939, -0.043490647190768436, -0.01699958549804325, -0.12112111332302748, -0.18098128949981088, -0.07442447147654765, -0.06681680203484643, -0.05156401459412201, -0.08415424882683507, -0.22663417501851038, -0.231622499819043, -0.0813875199724825, 0.006489988420063923, 0.07621677689398176, -0.13651875935192936, 0.05534299730452255, -0.06135383975389452, -0.15563755153740946, -0.04359640417676618, -0.10396798657404237, -0.09161103033925123, -0.08313342327109655, -0.06470079297221462, 0.01997582582551868, -0.0031469706633032737, -0.030382513503911926, -0.03329050396476448, -0.019824742074905158, -0.06865948182020229, -0.0055818636806516725, -0.05040618591973883, -0.006795413247070486, -0.062457980851734256, -0.016848421790328402, -0.04589489902691414, -0.017876085945869633, -0.18007949577557908, -0.22162763002276906, -0.08060062748242523, 0.17268180203703057, 0.10468731806660575, 0.25179879524872384, 0.0015896069779018428, 0.08631062447304234, 0.06827926458787682, -0.039155466603529566, -0.18315773760708234, -0.03812384073579348, 0.0752447138596343, 0.08531777033889401, 0.04190434134962001, -0.08366351493364804, -0.04278485664133568, -0.09993210165415105, 0.049532482395560906, -0.05278656151680246, 0.019495520443158547, -0.05700566979195525, -0.09617547507781225, -0.042884021797276385, 0.047481386636883394, 0.005871717949480241, 0.006446360086338976, -0.09305510678919264, -0.09709229702834782, -0.16402024376914462, -0.06673165043394373, 0.19639800154188336, 0.11156515282171622, 0.0816463724092023, 0.014217944250221774, 0.0030910729501046133, -0.08028311584386263, -0.0874564023646296, -0.056022167095278255, -0.01632480602745545, -0.006165754797205545, 0.05566922596577347, -0.04494992388707616, 0.014715309456811716, -0.019505278055167823, -0.03949939770001947, -0.03407572629277175, 0.060532236971686214, 0.020194890362659704, 