{"layersSizes": [784, 30, 10], "layers": [{"weights": [[-0.030725609810095714, 0.006966345288715951, -0.009607326623092226, 0.1209882606010954, 0.04769313725514043, -0.00904015107893579, -0.053858104416785714, 0.023921875778390937, 0.04509563052182014, -0.03004755055065244, -0.008203843601637045, 0.03622463340334909, 0.07960345798762018, -0.03536041961286767, 0.0463514426207389, -0.06375414652637557, 0.028634472767161617, 0.009936951570200856, 0.08198726008895545, 0.0038959870151516664, 0.008748922874166584, 0.010860686079870846, 0.08428987241447014, 0.055784199291335726, -0.09197076725350677, -0.03144088679111185, 0.03509631653878699, 0.00963482548846858, -0.09061723920565407, -0.06269087260632146, 0.015407018244697696, 0.021708926848675748, -0.011259308624091986, 0.03991260226038122, 0.006595022386894773, -0.011735515262126187, -0.05717619766977031, -0.04891364985517329, -0.03244542685592879, 0.05515866686976899, -0.036166584243576126, -0.07327503852979107, 0.06397604572893106, 0.07272593033197154, -0.05469878673939868, -0.03722993125713157, -0.09332090940658098, 0.002665692033116782, 0.0044084901368228804, -0.015608347096046306, 0.047818679441459906, -0.025345669104757232, -0.06655532179883596, 0.03367255265355835, -0.06019434523311529, 0.01599342567120522, -0.010905184879580818, 0.08223063930207676, 0.04344303515615127, -0.06595906871205422, -0.010226737335092929, -0.05714427318666535, 0.06031865412042591, -0.04534515564529171, 0.0014521846791372155, -0.04099132297642993, -0.046818288331052955, -0.04132403302869296, -0.03642843846406324, -0.026910061511955012, 0.07191529006172553, 0.05977541471558814, 0.04768295052568533, 0.04473587735989642, 0.10146723831617331, -0.002028006827461187, -0.06144152024239324, 0.006073746184118823, 0.001753098933146917, 0.05415038879312946, -0.008075879329897218, -0.02428795808230218, 0.0029637576715200913, 0.06755008224418976, -0.0616357342727205, -0.028327309610765204, 0.05433391178448128, -0.05790073199469482, 0.015042072193876115, -0.0689196464162544, -0.041883739356108965, -0.010511545051717476, 0.04622067975511858, -0.04613038003488632, 0.011456594929747457, -0.12202618331673083, -0.09951176755284563, -0.11978101811097226, -0.0094500560821661, 0.055457669776064915, 0.0033220588849952356, -0.039468310509695216, 0.009583048620501763, -0.006035107959208517, 0.11744528926357592, 0.0735478881174513, 0.0050170304891389485, 0.021489516145535712, -0.017941727959365952, -0.03144768642746589, -0.08143564831902424, 0.030670321640534463, -0.03164885646324632, -0.0350282343948618, 0.13774260745628486, 0.06146264540265611, 0.01772064670040865, 0.047073995360015546, 0.05818843054103625, 0.029300606933118565, 0.03196568803244427, -0.008856955817832872, -0.03390643102319982, -0.029196067926873577, 0.08237388049850271, -0.04726625261871596, -0.03803471895138362, 0.052382938715908337, 0.17439012542300208, 0.01567721700008524, 0.08510511900870761, 0.1078383300708599, 0.0696972677228503, 0.10231940718557134, -0.05832022790228014, 0.056989569624134484, -0.0737678560051704, 0.047524752277767736, 0.0736643283435202, -0.10391520007962483, -0.034230550791003574, -0.050561212646913344, 0.05606991065041654, 0.048895419897597506, 0.00397396356895253, 0.07997695442133124, 0.001638254103472859, -0.0070062081995573245, -0.1933214157763601, -0.06009474193560986, -0.06386358473027222, -0.12512731683078915, -0.08837975118295818, 0.03643653516252265, 0.031396597362911, 0.18642453950570753, 0.14001104640643855, 0.07624151324591005, 0.0363585133895779, 0.11154355960338028, 0.12126183691821442, 0.07659513637983559, 0.126674643949412, -0.030096811411339804, -0.007520076338793751, 0.08913940655600705, 0.04502863515603553, -0.04200262087837864, 0.01445506685859529, -0.022957908704720937, 0.013020331842490102, 0.03685462628618935, -0.008736958996667989, 0.05886648807519482, 0.014398882135946258, -0.05253061350992536, -0.0453757734642026, 0.05190612607628495, -0.048765389612869955, -0.004838406180881253, 0.08538435959219177, 0.055371996857416984, -0.0004929812701553802, -0.024388794740247008, 0.09847277903423915, 0.05076030299891201, 0.11642899244864435, -0.005373671667720061, 0.0564063256119624, 0.004008874159177596, 0.059963508094272075, 0.028412421039249815, 0.05432265098114154, -0.06969829374318336, 0.05064071624892596, -0.0027566281562655106, 0.0669964530344436, 0.0357251402000203, -0.041755955729528206, -0.022624495937832754, 0.03790139734447868, 0.019140457574888522, 0.01746992164759232, 0.05003608671426658, 0.04923108860363668, -0.08365461560082753, -0.14713645249719529, -0.06506492518907346, -0.03209472851131034, -0.04437786123176264, 0.014392613887053563, 0.003156454154219773, 0.09019123382148661, 0.10930952820389803, 0.059098180669322764, 0.004448977394245197, -0.009916859063360395, -0.0206879674862554, -0.04043972833459731, -0.04869284706525952, -0.046845741054245965, 0.06090940618516398, 0.03222611856723224, 0.01713614577157913, -0.013457531916521433, -0.06827166090753972, -0.013950910241793395, -0.030482145440144156, -0.08517653096461672, 0.041828493579790224, -0.12269849731769863, -0.050354230155058105, 0.012969382286251054, -0.1016162658251777, -0.13271817116366527, -0.08732462294723231, 0.024427935299770293, 0.06838588873919625, -0.00040150953901538894, 0.020604706401474614, 0.1856790485459081, 0.05724150801217344, 0.0648810888923973, 0.035068716878453025, 0.0013221239967916366, -0.06256795667111541, 0.06374745977096455, 0.018737737678057486, 0.006036480217444162, 0.07165018470579798, 0.13538885361618244, 0.01614650288712165, -0.07356245563183494, 0.004781485776247189, 0.03825400021500707, 0.05523855520530154, -0.057657314562804395, 0.030245629744088346, -0.03201323840810371, 0.009110633066344782, 0.005502096428277986, -0.10225773029478086, -0.05454345493432809, 0.040071342472410065, -0.03366447044415951, 0.1368061972009656, 0.1537534722061605, 0.21505509611769474, 0.11914375276748167, 0.06878448495342507, -0.011371772811343432, 0.0071362845505875665, -0.031499679381305976, 0.022106294196424108, -0.01093227691531071, -0.003112990619066702, -0.10642223757533734, 0.08796898460940347, -0.0018525283347784818, -0.013711800267904122, 0.019030393988866856, -0.017400900663297726, 0.0007335293518283986, -0.0063593610625482635, 0.05131218746250068, -0.055641303275928804, -0.018402879581830324, -0.07379453043317732, -0.0832737012159702, -0.10788928073954149, -0.017006275102517843, -0.04892837643531787, 0.03474669849170289, 0.23848362495545336, 0.09008423511870128, 0.2522591176002622, 0.07205543290812155, 0.012228754200171213, -0.033880561249026206, -0.04257005556092963, 0.05660627034269128, -0.009271283413894818, -0.07124530910489871, 0.11555429110389327, -0.005922385161561387, -0.015026887674621915, 0.027206291887050375, -0.017389930809548707, 0.017755693062440382, 0.023951916945642637, -0.10107789186658234, -0.0031626027952202694, 0.058977759888753624, -0.007553819718000887, 0.0005406557487215092, -0.0074848990766686364, -0.10297132591763283, -0.07434976349738955, -0.16133350751426095, -0.010075584653540151, 0.011494993551793916, 0.1613082176402134, 0.148634470788618, 0.08609806535290383, 0.014791613661350962, 0.026389505176877593, 0.04204901373745179, 0.008599769923239584, 0.047980134107223606, -0.06764310603260484, -0.13943124264780796, -0.057969383698403945, 0.03217902665416615, 0.02965009634477722, -0.07300803935085234, 0.05113905041340151, -0.04544959524570797, -0.00780807278435476, 0.01768217818236576, -0.01312588872941289, -0.06880039155882617, -0.021274014297167288, -0.08074848010457332, -0.0953239336842042, -0.058461589939520615, -0.159161010179119, -0.10499045731689005, -0.0251170608783786, 0.18630360338347307, 0.22602280943935574, 0.1806587076232822, 0.14171180850231038, -0.012075837093213526, 0.001287552013384377, -0.019973271106758506, -0.10078190373382243, -0.027443093990476838, -0.06662320112804225, -0.13837016010538228, -0.04002089592674834, -0.10509925684676069, -0.06184680519740437, -0.036791288639154325, -0.009344424203442782, -0.02729377045978832, 0.06584447243926758, -0.04790263463497012, 0.021756715568943853, -0.05491329826086845, -0.01569532807176561, -0.0101165566451825, -0.052809748338673045, -0.0036528764616333524, -0.09128282125162338, -0.13578795463040153, -0.06290698714581379, 0.08567394056177112, 0.163588201852505, 0.15999616992030283, 0.0735931152665139, 0.03318415733987468, -0.041704857740507396, -0.043101949146758155, 0.020659768164392404, -0.04189823690955774, -0.17045807517655465, -0.2179085049024234, -0.19079803758715363, -0.058201803179571555, -0.007040708642657636, -0.13445697311573496, -0.04092912238566691, 0.10232936166002748, -0.034051987695297235, -0.022569018881966864, -0.01091990371903059, -0.034638835852885436, 0.007724791996211859, 0.0008036566815780655, -0.03854443967792867, -0.044028178282352816, -0.10830442671046485, -0.1319019651893036, -0.1660424301903309, -0.008181232067865942, -0.025876419677177576, 0.14319206079487648, 0.1154850280020687, -0.0540976808935723, -0.06629260414483679, -0.06786842803197146, -0.13753459379976607, -0.08098036854266157, -0.04732348521152742, -0.019237640325213225, -0.14143909599720159, -0.06517276367809123, -0.16076558799676025, 0.07296609692488377, -0.022849949062816437, -0.012830857835338846, 0.029752399790643667, 0.05717890031003087, 0.01995289782702982, -0.08702962188573325, -0.0874246233018907, 0.05624111291857481, 0.0025207590398713896, 0.012517374253619751, -0.0996211448232661, -0.08072676092798596, -0.1388282112572307, -0.005569710699912552, 0.12529083394485657, 0.19500552767620097, 0.04984242341074843, -0.06947155637083699, -0.09710111136776177, -0.023620850710793433, -0.03583014294400178, 0.051680747345527696, -0.06614222109015074, -0.06806935155346137, 0.012135783604890754, -0.009811051591421534, -0.07765999433715136, -0.08180176770890193, -0.05035032430867609, -0.02600465000988282, -0.0784935518224065, 0.02477981839721869, 0.0983275558260872, 0.01400390525482006, 0.06674690185250952, -0.09585638780907162, -0.1761495193879031, -0.040748128876875324, -0.06056647431001586, -0.052683785721467646, -0.040593537713134696, -0.06487598098207623, 0.08317743256079874, 0.15557481065540055, -0.0300092571495868, -0.10970927005194887, -0.09522232381849052, 0.003976366136231063, 0.028263484408373424, -0.04391205303815132, 0.004256587960410902, -0.004458379770421368, -0.009116916502874986, 0.016610329877719914, 0.05917179045672031, -0.015186958103532985, -0.07823235623043735, 0.0376970998308719, 0.05912120950543188, 0.01723339947488417, -0.013744387603436957, 0.07727914252929845, -0.04932003946344571, 0.03043614082159136, -0.01977973207324271, -0.05589071123188662, -0.09006050597216714, -0.12421042245152915, -0.04603670607554138, -0.00020027853223437923, 0.07928107842311514, 0.16030022443510253, -0.021185599325914954, -0.08679934000572873, -0.09135394598431976, 0.02892220663769093, 0.14085340371727198, -0.07568576997315618, 0.034944916447020885, -0.023586025174351734, -0.0313605483532977, -0.050747479498237415, -0.1333342267398197, -0.033452941139741475, -0.034263384374685256, 0.06848308416090688, -0.00014601280474163083, 0.06842192405062561, 0.07782222871204506, -0.010114061437901337, -0.027518008643415467, -0.015080355388383163, -0.01337594647295997, -0.02673354064488857, -0.052851214605810284, -0.18796469255882778, 0.09242423382310241, 0.03322715172422175, 0.11522752387745837, -0.036721422006938786, -0.017916907375611964, 0.022363526166240523, 0.01934837158751302, 0.04973620835715828, -0.037157455966418444, -0.024882370117210124, 0.015717122112539127, 0.006941180180585457, 0.03149862257981608, -0.11083699162813967, -0.10037310817679868, -0.013130520921270324, 0.0024795323177442038, 0.03236911357533013, -0.04347552306943909, -0.028746800195291945, 0.008787558193151987, -0.026603163622345622, 0.032512002620047685, 0.03651751764974957, -0.08851433506015864, 0.008080030682899609, -0.023947827611588837, -0.16008979053984018, -0.037355746190194015, 0.04283472087122065, 0.036507164407368495, 0.015825792221022626, 0.06428963984532124, 0.043557252529907095, 0.048085318485830385, 0.09265674095076475, 0.0837118939137191, 0.13206088480387085, 0.035658853217479324, -0.01938163071827662, 0.05929468137029046, 0.0002311699537734384, -0.01760757143772067, 0.04887639744231803, 0.0006912680491487005, -0.031949333453739154, -0.046827125568233874, -0.031079502086291292, 0.06757943354312099, -0.061576351512443214, 0.0682185735587792, 0.030043138076076354, -0.0305754181699843, -0.013904625792144793, 0.0051475906590548095, 0.0014683178340092755, -0.04322918753363398, -0.050083522123742355, 0.02935902842245971, 0.053266827107147065, 0.02715892164361698, 0.02473925750200402, 0.08014931351223817, 0.15922477489691603, 0.1604075729965007, 0.058738653643712335, -0.000239735149166257, -0.0016406602281803624, -0.028337035921663093, -0.0914746121087483, -0.08191542720718026, -0.008964219170453383, 0.02155878249396289, 0.013344468118997352, 0.010086195404829178, -0.07643547834429433, -0.00619435370712192, -0.06088800728321947, 0.11248289979880527, 0.07026320836780767, 0.04501900687064713, 0.07802244461924063, -0.010721033643442525, 0.015361490083232409, 0.015513469252420897, 0.08885513765825127, -0.06384075682733806, 0.12200639712387765, 0.129765824249677, 0.09496872273643239, 0.20278988812280996, 0.21251045520154835, 0.13461686455029132, 0.11420307767477605, 0.013980802692109552, -0.015998633023420823, -0.05546843689242186, -0.05541705627611743, -0.08738654205189691, -0.0557024428310774, -0.00512192948597657, -0.024651413291655388, -0.05593637770847645, -0.09272185072299435, 0.009308253138244795, 0.04490855603066599, 0.03015062166413433, 0.10923779580707398, 0.07095950059416233, -0.01121660838135565, -0.02380355766648868, -0.06567440722496455, 0.10133401818733956, -0.0044039323025945485, 0.02887301327751295, 0.15732091979792043, 0.14149077328276155, 0.0025287157237839407, 0.17933192734017, 0.03365115318765829, 0.09985807426809845, 0.06459812848763635, -0.11584404203543196, -0.06016619331254945, -0.04332992651275743, -0.03646010552450471, 0.023033881414750025, 0.04747378633994267, -0.030264702107386476, 0.045877341116513565, 0.057953289333080284, -0.022882139480431617, 0.06263650213298015, 0.0619657846644977, 0.08528023809197298, 0.06633868306790441, 0.0880893629415875, -0.09226633382790755, 0.03646032365368769, -0.030525193566024036, 0.06399912427285633, 0.03950837151475919, 0.19106504283328876, 0.009116208246807454, 0.10091277290571708, 0.14532356657174628, -0.004662879441594081, 0.12863357422534902, -0.025571531109874694, 0.007444659759201931, -0.19170465381735763, -0.061293373981455825, 0.010378399217611215, -0.10064156543537892, -0.0051779586326277235, -0.01591435927329147, -0.0590529480967101, 0.07620906468719485, -0.058407379594124356, 0.044200022430280504, -0.04842784906835422, 0.011635129329704164, 0.042845829803560116, 0.0324880222904802, 0.043366997636613544, 0.0751313112740049, 0.14565766766385543, 0.06445806124053859, 0.1224533310749723, 0.049301823116602396, 0.06075083281915908, 0.10534317245605956, 0.006868819147501991, 0.01991010021066177, -0.04824510102600769, 0.05921366296057104, 0.010223735936211793, -0.022428957171632635, -0.06348642682697962, -0.033833866795724234, 0.03645675341975824, 0.02448319575190074, 0.06622450543657617, 0.0872432735016515, 0.04055489939207021, 0.07295457707312639, 0.029641626773279056, 0.03885919312895036, 0.032429728268706486, -0.01126106655474189, 0.029915909198543804, 0.11215883016191408, 0.08112680020442292, 0.1391679503290747, 0.04852102949839114, 0.06059788782144046, 0.033479620450319325, -0.012321247719681216, 0.09456797249640009, -0.0196175144552288, -0.031808228176157916, 0.03231654820201518, -0.09725546426695475, -0.116470526590151, 0.10046283002242751, 0.07713500115814304, 0.06376338984394356, 0.09039202676796015, 0.06862190799848884, -0.037277911854363896, 0.07022164867407024, 0.004096204029229361, 0.05924198500417978, 0.04029211131272635, 0.08303548457134746, -0.021931017199822014, -0.047680011877481124, 0.04969178370630032, 0.023248208302475405, -0.015517043535334858, -0.09597947707552786, -0.01577399315849858, -0.012401864840310858, -0.061355913504504735, 0.022009896290425, 0.038221184350359545, -0.08023106375065199, 0.014941219360603254, -0.04385677855619479, 0.054673200712333773, -0.00414066783534978, -0.018780245582022986, -0.02505383807696449, -0.1019517011120659, -0.1218581436609253, -0.012714224701079767, -0.04938193863110922, -0.04272982619304004, -0.027529437576086835, 0.07660923037740024, 0.05993713290675369, 0.08710894704029505, -0.0546968777733479, 0.016596863626966937, -0.037743268556748824, -0.08417757929576024, 0.02026840342262874, 0.007679582837600189, 0.0022564693442584296, -0.05447262211043435, 0.07735995648140323, -0.06442342523339259, -0.021314730703743616, 0.13009029337875735, -0.002370555244094643, -0.0852086617205398, 0.036651873833664486, 0.014142157725693084, 0.07120933344786153, 0.021269750736510537, -0.03743565169627532, -0.08919239912151364, -0.00811974713058015, 0.09841436065196689, 0.035323197390127535, -0.024819946857727548, 0.0017349452642993262, 0.030813963070594877, 0.010945378565090995], [0.07867525647064556, 0.0033276977196698538, -0.026074907944877535, -0.024676115766982448, 0.06201187859003859, -0.011408533169042183, 0.002809162920954779, -0.03642904694736389, 0.01083161080375724, -0.05800767908927696, -0.05900198992371856, 0.028465503306110394, 0.02952309246033168, 0.009782077617159341, 0.12690908353736796, 0.010324169190284036, 0.05970933857334814, 0.016229958636628128, -0.050242954582069, -0.02948827332392635, 0.08499908526161017, 0.03610590081673954, 0.00927392472890178, 0.03253630361084268, -0.0204199120047874, 0.015392041706368206, 0.062171427676952856, 0.000995881028341673, 0.043694090058264634, -0.020577177268842995, 0.10020749624115696, -0.04631313792973232, 0.047183953054851874, -0.02792952626745188, 0.027735500720784165, 0.057127807150527475, -0.05303809916137582, 0.014704800046959147, -0.01028051492202797, -0.0018503568992027288, -0.012345651206295003, 0.04331349294429893, 0.002211787555451491, -0.0460661936492491, 0.07079176133317214, -0.06073329266954536, 0.05630496160710921, 0.005185150729892451, -0.061170263087064296, -0.15072064617924094, -0.0937535823198565, -0.060649559594962064, 0.07365003014909456, -0.011183320362510563, 0.05423665061294, 0.02593194786809404, -0.056034045678738945, -0.043274591365221195, -0.010976857698458445, -0.02457438448094003, -0.07519474191014933, -0.00027899868783322676, -0.024212433312343736, 0.02798680462259958, 0.03386321700279635, -0.020333941720774913, 0.05222259632267729, -0.03141874211035808, 0.01997446552665096, 0.00549673820225599, 0.12646560859006792, 0.1154900704059545, 0.0039542853571461496, 0.10620348387852085, -0.0019500751434423727, 0.13619314279364017, -0.020812216117104976, -0.024740014647186555, 0.05667495840414574, 0.08775493804626971, -0.009049178285429723, 0.06657012374544834, 0.04328495915887645, 0.03827668519692965, 0.011499996202707446, -0.0157222840163734, -0.006790651764628575, -0.04047743429916436, 0.0017088467728053924, 0.08919231523509533, 0.08619942042765391, 0.006340561273107651, 0.0203287742014118, 0.033753904851670014, 0.0954108596671219, 0.1901192342423808, 0.07336541094234081, 0.05140067433449207, 0.1366025460323598, -0.009084556598874596, -0.031377001479549416, 0.028444853031755816, -0.06713708228688897, 0.03599792882807459, 0.0733591231126939, 0.07635351131968213, -0.004540477728895796, 0.1262708756723239, -0.01634142797516578, -0.02685058470303986, 0.009943562417073322, 0.005906058143409078, -0.03119400063951455, -0.02326482775848276, 0.004176535476759756, 0.033243957657882024, -0.028152894162343352, 0.10009415219803137, -0.04017568253272384, -0.025462316412425808, -0.0598453691235964, 0.005399380524331559, 0.04701216990731402, -0.0053404964324231885, -0.012653362661986346, -0.100429748340666, -0.06164041242215822, -0.16524512831432472, -0.06129588393621975, -0.10739009811671744, -0.08221081076393139, -0.09897456451668907, -0.07735010563654715, -0.030978503749797274, 0.004288483660861022, 0.02185234834936113, -0.05210815908152455, 0.027813417474279283, 0.07091788397957685, 0.02208147482623433, -0.08480830624899129, 0.0315658011170473, 0.05076189410530392, -0.02544096160898882, -0.06530566050217874, -0.0842643062240261, 0.05687906678793704, 0.02569054995786418, -0.023758949434266954, -0.036080377525717244, -0.1119825163018931, -0.08421429127250973, -0.04062273160047366, -0.1084800904851221, -0.12170020225393594, -0.06908601591386843, -0.013125143520966744, -0.1336923757294193, -0.130595943892528, -0.06598326285351996, -0.08124240091299037, -0.12377717789436815, -0.06964375446278126, -0.035519179100966754, -0.026183068998776936, -0.0006156822293334786, 0.04027762589915417, 0.015529020532854473, -0.046088289256478863, -0.044863602778650015, 0.010104514046406212, -0.0066816384804841205, 0.00537258667331014, -0.0004963564676764893, 0.02085089878641098, -0.013704432962308012, 0.012382707120922836, -0.008977136434201477, 0.06788983272228225, -0.054929305703940605, -0.08816244997589455, -0.04630799799516297, -0.08033771753342554, 0.03650804224768293, 0.07512967062505148, -0.07909221895701597, -0.03528145039327973, -0.1226060900454022, -0.15807174229932597, -0.06894508907637266, 0.00819348644735401, -0.11115510814171285, -0.07934673908777434, -0.08851486366577564, -0.0793318699169194, -0.03221738187044076, 0.002392261041388799, -0.035903907630680305, -0.012922389763900049, -0.005801859826733534, 0.13165733316540987, 0.08043432654041219, 0.017055623788611536, 0.07444096286814718, 0.04028807511932788, 0.05072259564347801, -0.01695669265290219, -0.05771504197542042, -0.10091023759403041, -0.06857531706228515, -0.007806412530493962, 0.02689693603321742, -0.06716039963807532, -0.04925802814649204, -0.1500112725821588, -0.13394042573714995, -0.1571648584708259, -0.11345503801362126, -0.07797919027448602, -0.060264159356489454, -0.03390575480157473, 0.01871851279532113, 0.0675446209195459, -0.08540776489611723, 0.058051691899083754, -0.05281072155205182, 0.0005241741295707474, -0.0799168666694784, -0.008386518681115146, 0.04004199256031254, 0.011417717855524426, -0.051328030044248026, -0.04844386474650013, -0.08504907397195073, 0.0006830943890579846, -0.17541780699058987, -0.15878997585163843, -0.09939750557289807, -0.11790872951708775, 0.02228501080280485, 0.023532280412768204, 0.028347907747546506, -0.1349175482925438, -0.17776656664375187, -0.021005393174046438, -0.15597627468746664, -0.143502531148477, -0.158848654620624, -0.1740892932991055, -0.07237432352596415, -0.02664195119670096, 0.03739415714562791, 0.0008280515061765128, 0.007496710698956449, -0.030582498405036507, -0.07875241006420176, 0.0893868141471613, -0.11123352879496146, -0.03218297093842881, -0.06406461042247107, -0.04549350109937827, -0.12826435860794602, -0.2261623006956918, -0.2132993189430975, -0.1805717090274429, -0.09282510572315246, 0.08290942781727101, 0.09222268203638614, 0.05447446708496241, -0.06788842018773188, -0.10885518150555787, -0.10340763756514414, -0.004929689748878468, -0.014128744767985422, -0.09299192409789461, -0.11102864426060699, -0.01976913908771694, -0.0776721122562589, 0.01834808064635753, -0.011775198795012706, 0.013396698090285654, 0.05877858576178075, 0.002708257824810067, -0.0006227267093528748, -0.026793341515689437, -0.017168889356694455, -0.01304097638889216, -0.0029904992051855866, -0.0460866972185259, -0.23537356618294097, -0.2478780146801165, -0.1171333596124306, -0.16840971367763619, 0.13775095189507142, 0.12212625707985773, 0.10197381816801426, 0.03672440447958219, -0.09302308284647487, -0.06547508147193605, -0.09167694952226077, -0.015289141079543237, -0.018043118294386117, -0.12330475695349975, -0.12144491360456464, -0.11063238616237152, -0.004270446439661303, -0.1481719739739594, -0.00915208358844484, 0.042226139206296226, -0.002891054716256398, 0.02048025043144594, 0.09065982086693224, -0.0010075675949984281, -0.12474989412855794, -0.12126563127389611, -0.05703042035546843, -0.18443233801392092, -0.21516805728259564, -0.1284183745929839, 0.010487064177773505, 0.10055492386892113, 0.21813155775081522, 0.19457337078678397, 0.09527830612950973, -0.0299099282125103, -0.077390471418703, -0.08827617931496831, 0.08749811546067797, 0.007732701584685275, 0.026763132896496362, -0.0031519232730081582, -0.10971932188024741, -0.2299643637999286, -0.04707910083053105, 0.06798034467980112, -0.06220578547807595, -0.10488611863016636, -0.03959589379445033, 0.0035713979788026757, -0.01167657272420676, 0.03231161619111894, 0.050464440160357504, -0.11677152428673315, -0.1835159131908827, -0.09790688970051162, -0.08898936199880754, -0.00466038896002017, 0.3168867187231985, 0.3011411988599048, 0.2542685454542544, 0.1947721495415608, -0.00021148371501587192, 0.06778815806726826, -0.1223132297819141, 0.03754786067950876, 0.0723485725843079, 0.06622248694026321, -0.01622801780532689, -0.024424809662990085, -0.06273534789485095, 0.010474513563896034, -0.110431463366527, -0.0652887599500636, -0.0530285209513241, -0.10427969321342358, 0.05885658360413748, -0.054307751065522256, -0.042860871203471394, -0.012214953312604759, -0.00892794820298155, -0.012489095513087448, -0.1204455283799947, -0.06823077187894255, 0.037531632734643654, 0.2918542214422249, 0.24866461322593342, 0.2064419048369983, 0.12162200377957762, 0.09820825144788212, -0.03377892175594236, 0.0062921044241585206, -0.05446774444604411, 0.05098515616407218, 0.19013854302677274, 0.08887171670965602, 0.12032904278782554, 0.03200876974845848, 0.1262450894495722, 0.030369689109649285, 0.023847727219088285, -0.061272546899237064, 0.03515014089257322, -0.019016720138121473, 0.017026041592497362, 0.06673730340158276, 0.06135748821277743, -0.04485521290898622, 0.018168521568500594, -0.0333752524056565, -0.10695688375895733, 0.027911143323441204, 0.2013032581476555, 0.25357170497376147, 0.2634989271683051, 0.1578795352573758, 0.04223135661294352, 0.08994194450141871, 0.093282485732554, 0.038960404669916425, 0.042502102368189715, 0.11231520733360924, 0.17245845319478906, 0.10113341985199223, 0.13892074260402193, 0.06999193139566634, 0.11349950523360991, 0.1338314362622633, 0.10772580673067483, 0.03012969638066374, 0.012870419925961121, 0.010369432938871439, 0.03429231651467675, 0.033175630451920415, 0.028587539264689175, -0.05411628556569116, -0.0013202513038503153, -0.08333077984401702, 0.08825439170311447, 0.050401725468100844, 0.1699052693074313, 0.19392542093394413, 0.22335152170793615, 0.2257351013477059, 0.06241976227859799, 0.013026824484338895, 0.04144397783571622, 0.024998225178993746, 0.10466125811182363, 0.20159757288158722, 0.06762991360129048, 0.08499688518839323, 0.09144864503871393, 0.11164498308823925, 0.19106738878408658, 0.07199219796648018, 0.1563674125988719, -0.04860478326250515, 0.008152833025614733, -0.03560138969260814, 0.08498552025939084, -0.0015095177131789616, 0.03529620944710365, -0.07283308205066592, -0.021860911192321506, -0.05251002176953107, 0.06467350229051173, 0.11047336331900252, 0.12158234068444501, 0.07400920170991622, 0.23664108179630006, 0.05395253524427549, 0.09547984855687475, 0.0733707095502198, 0.0608388321395998, 0.12737899010451834, 0.014768216435287649, 0.11315368363506606, 0.18006998430506824, 0.06064575073812197, 0.12836736257276932, 0.09948043016611809, 0.1566616751983421, 0.12092674822857045, -0.009279319045864903, 0.08869189419700524, -0.019724518454303723, -0.13055534962841372, 0.009010348306459222, -0.006901926524115797, 0.06984344621144013, 0.010222516685603453, -0.06350338649444921, -0.04104885111693765, 0.028205939872185233, 0.003750474244062659, 0.017829083560463505, 0.03326685361145958, 0.13003895634571555, 0.11304342662710509, 0.047041713071621166, 0.050238806353741026, 0.1494988968570663, 0.0814882214246999, 0.16269140996518583, 0.0036349852010532416, 0.06856572424562801, -0.059993411241188246, 0.21643301665229314, 0.12026542873173274, 0.05642985980525416, 0.050485028961706896, 0.07772218489114151, 0.017576741452859597, 0.0011731360489304523, -0.013532640075856795, 0.057159959028657795, 0.1006995965617924, -0.061482997950161385, 0.020567561905540852, -0.06940538321115639, -0.062427827739577633, -0.18405618824335324, 0.06831255230722569, 0.034128502083627096, -0.030627404020476843, -0.056912204588379166, 0.03452908642638841, 0.013922516387788391, 0.08604110008962695, 0.030111251497234176, 0.15496583036254935, 0.16069258128429642, 0.10155609197001111, -0.04804360318827533, -0.07979289552799523, 0.07587311716075884, 0.11346057497355679, 0.06414390421403565, -0.03826206046661844, -0.03075486742692464, 0.03526584399543999, -0.013640139303301022, -0.026579972989792408, -0.023298855891466255, 0.023737987288296604, 0.017115082993718403, -0.014994088661820127, -0.10214106295282951, -0.1696152755494379, -0.08851670617194007, -0.17651333938245092, 0.04871891539022425, -0.0663673377966908, 0.08948814783836546, 0.1307731608147335, 0.04877712120816546, 0.13444550030846344, 0.19255021991274993, 0.11072126046024185, 0.09035029845609709, 0.19636542567273454, -0.03643831302383142, -0.09111701521905038, 0.05142776769956559, -0.024672038795402685, -0.00829657606941762, -0.057854882767060335, -0.024511053297265016, -0.04777438435355499, 0.05082399297572302, -0.06575138466866984, 0.06231082368729898, -0.05221385038666318, 0.02412762244124487, -0.09197739684174078, -0.054062534172112146, -0.170205046101394, -0.13107425366850392, -0.16377214016879044, -0.10930257984744245, -0.013622357312521054, 0.04177355476706235, 0.007213159296970423, 0.029236840251727757, 0.16496640189667078, 0.1538048926869249, -0.06350874432240738, -0.029436678068402753, 0.044699650445694065, -0.020049774039384047, -0.03705867439385683, -0.03786494091406197, -0.08351306681538319, -0.10480148633787496, -0.13145165356444985, -0.09321236712507787, -0.02800120350766328, 0.030544617885914057, -0.03366417112310588, 0.08621378068446786, 0.06169680071025665, 0.01535131510870429, -0.03261393845840142, 0.033739228831832654, -0.0951589668262942, -0.09080431662849578, -0.018170770457806854, -0.043041089855422, -0.10309254130152815, -0.10837190881440557, 0.0011761079950426347, -0.010086729015877342, -0.11809233528692283, -0.054899944212883994, 0.06296527119052837, -0.04381774559916422, -0.042144650054330296, -0.07370939251489138, -0.09931803826538253, -0.07446426020660334, -0.08597710727452597, -0.11559759983818903, -0.07899997971415651, 0.0415486567136344, -0.057759052323959725, 0.060058108955063944, 0.04740270158459618, 0.03391823870074354, 0.0422571937382925, -0.007697350994971595, -0.044582966273757414, -0.04916307697853968, -0.09870289111523069, 0.000935723680774226, -0.0004410889706805828, 0.007819238814846871, 0.026327250119547393, -0.06536668753100322, 0.01804011197694948, -0.1469046704242265, -0.13940563931925387, 0.01576390648720763, -0.06086239449816652, -0.1462425183900419, -0.23735798979618955, -0.14350315243202907, -0.21869866980122585, -0.17975346725437896, -0.10229041374941718, -0.08073051890984297, -0.007317632275366493, 0.05627099826383558, -0.047965189799879605, -0.0009096735417111044, 0.02596744404857562, -0.01241101236600731, 0.03654871110930885, 0.05139055964987484, 0.052987424550757, -0.04283785415678282, -0.13151106026964032, -0.0655286174061709, -0.028815983563248822, 0.035617747763373946, 0.09755179335777167, 0.032889432802566405, 0.03070036094885011, -0.05831852601466196, -0.025699697830544984, 0.02609574218649447, -0.16124481178058817, -0.14451615550016247, -0.1718745813644026, -0.18005099237307653, -0.13779508193164752, -0.07263916011726088, -0.13092684868956325, -0.05789735426679277, -0.022697788884363294, 0.019782336192359227, 0.03505145162902285, 0.009824375998874197, -0.0018852434338355126, -0.011337428046388327, 0.05973192009474689, 0.10754560382720045, 0.0003275142298272504, -0.11356743209540132, 0.013638719723466655, -0.05083282193188629, -0.08103728130709799, -0.0013549609861336783, 0.020724565848683353, 0.06479640595227192, -0.002431661144168624, 0.034283520759507045, 0.06603043029206367, 0.011799401484470671, -0.033331946719687165, 0.003019521788619298, -0.07372858141747021, -0.11814595488935327, -0.015558481720305061, -0.0482236658960234, 0.00916402277650948, 0.027944687980148535, -0.0149052716237223, -0.027204272740553183, -0.06429304969820862, 0.035735591956995306, -0.06904414522328545, -0.016132934042371337, 0.0011006518031083817, -0.039224096398838976, 0.04833108117350107, 0.012558767758843159, 0.014253154159605754, -0.012690820660601601, 6.191091184952213e-05, 0.07095033086856571, 0.019593936376702356, 0.042655604270473095, 0.06110193796979116, 0.05707159701495762, -0.05778550481790299, -0.08360403450152457, -0.07278952302614967, -0.19074173769059358, -0.041949442826332985, -0.08430312365863597, -0.11988761815302112, 0.03590715660819985, -0.07542194156454816, -0.00992685832978073, 0.01863459146300899, -0.08095431819911626, 0.01275834096764065, -0.041590986237130756, -0.002404978933125424, -0.06468310440442543, -0.006888746484869651, -0.09759933505808438, -0.02781241529509081, 0.08395872723760828, -0.04679878649211607, 0.02293857738217321, -0.06438529481505818, -0.0016006018269084468, 0.03337192620623184, -0.09178754529213368, -0.04401509944331946, -0.03252911213526775, -0.16090522996566362, -0.005687351599734996, -0.0780493261956837, 0.02306612498346672, 0.0018542143165339077, -0.05262033281642116, -0.05557440285575398, -0.09297844452351295, -0.07513854196974262, 0.05217551965204623, -0.05707877808233679, -0.06393456471746853, 0.04411042431363759, 0.01655316591010964, -0.08451864194672654, -0.05222709924002135, -0.07975298093924683, -0.06537140450365145, 0.014130475403738164, -0.023127080955142452, 0.08453424212240013, 0.03325715130774453, -0.1027647028882757, -0.043304195642408, -0.042196547714512964, 0.06408681042353259, -0.1047928074144058, 0.0768789917206819, -0.03260785348423054, 0.08457170443064302, 0.02639187256406851, -0.12147198995106796, 0.012082075096946861, 0.010503091920878092, 0.023186330482999944, 0.00861987286171278, 0.005422098840765568, -0.0776108571666848, 0.029156331442469298, -0.11382049367280446, 0.05145427039667218, 0.05712044938280404], [0.02998578968388632, 0.06828816204878073, 0.051233567351888935, 0.02827908352388459, -0.004684529308882093, -0.03315987647265907, -0.009482658603171249, 0.061541280190364304, 0.02283948589235112, 0.06570406099479156, -0.05980230473442102, -0.08880120058175661, -0.02286340111500913, 0.015626649583153403, -0.037829865769194955, 0.07041759778343486, 0.04303490254315362, 0.01109385211390495, 0.013128713892785596, -0.029037512064041298, -0.05586160214891126, -0.06679124577396096, -0.06495315978911713, -0.03450022080278973, 0.010569680913288065, 0.01641669678927587, 0.02686705695603443, -0.027310982626212968, -0.08377900478520696, 0.019535331828119912, 0.1362848210789393, -0.08651717090821144, -0.004621728798513774, -0.006773533128741413, 0.03542072130995831, 0.027456680414920005, -0.00726293973397248, 0.026780454404734946, -0.07128516713405658, 0.057175313324367726, 0.003508434282369451, 0.008838748211700862, 0.01583025921649488, -0.0501156536214619, 0.01415979964867986, -0.03700316753856083, 0.04622398327359623, -0.008088350092315733, -0.0420064718301468, -0.013922955665423384, 0.023391869065197125, 0.06710940762020863, 0.0005947246180963624, -0.03392421638717079, -0.0050835621377293815, -0.0677127422106909, 0.05244923601504319, -0.09858124585140426, 0.085490170814168, -0.023711483537685648, 0.05081269980726215, -0.044710267822557194, -0.016172647677582988, -0.008817015243327925, 0.025833223874372372, 0.022144882531846755, -0.03131777232352554, -0.02314810989001751, -0.026642433701368328, -0.012296023853439397, -0.1462062488352828, -0.06917906011201613, -0.07777291851357328, -0.06495882170667817, 0.008931679669335049, -0.046407191243428084, 0.02124870556844765, 0.05012010063542557, 0.005533354104993739, 0.0373982037894027, -0.0539773101477913, 0.02740461616968619, -0.03527592886913811, 0.007069674090939296, -0.06687252703001888, 0.021842881707567985, -0.014547570520591573, 0.001601205006855761, -0.01862231445427896, 0.020279504392696063, -0.07815343826150001, -0.02398450453131387, -0.02063697178053806, -0.06073115726113052, -0.06962364514502815, -0.05941360251234836, -0.0020460907019586327, -0.0761021413273579, -0.12184998977586944, -0.2192120907512657, -0.18874397357405692, -0.15009020967498093, -0.14660981353954464, -0.012702174162818103, -0.015473814068253551, -0.0994168310106903, -0.0014638455495806148, -0.0722916943538424, -0.08391805098009004, -0.005997661173183514, -0.14476085881061965, 0.009682874219088733, -0.02378017860731196, 0.036265849469100005, 0.0053234146583935925, 0.04256084109324783, -0.035536278894511296, 0.052715041398828016, -0.014989853171131499, 0.02227413176613205, -0.01395929822432018, -0.0022068745968914353, -0.18677643653358042, -0.11722561294361418, -0.11757804980474956, -0.175504839148584, -0.22388254903741014, -0.17004447541982054, -0.04681478830357569, -0.06962348238170041, -0.09622017164730792, 0.024052773908796277, -0.06934675850283534, 0.13800081776642195, 0.05512697958375599, 0.020604367371118287, -0.010245809846289883, -0.016618410940286592, 0.02794794833327568, -0.004537112954215292, -0.013711666377527132, 0.014812213862352852, -0.05705799972836618, -0.008069881835693479, 0.002241925839633357, 0.03369950331170039, 0.012611218537882737, 0.01928388786362055, 0.05744572764514794, -0.04402219600120427, -0.054895623028761706, -0.03672342932941825, -0.21609109750590022, -0.3099118128795631, -0.17845372830215084, 0.007300195925013147, -0.08579099456095136, -0.11575841627350594, -0.14713023411514914, -0.2194275877481035, -0.09371408760076198, 0.01035760163122087, 0.06400119667548823, 0.07419161520340721, 0.04393855312676604, -0.15501686387247976, -0.005795416868546951, -0.013065528859005944, 0.06342096850730837, 0.03696537757826478, 0.03609358375234571, -0.009234173106583306, 0.015195739245521084, 0.06099594549816817, 0.028919466866070328, 0.002436618252736021, -0.06276436355656607, 0.024549652853734276, -0.08916158351904092, -0.15811381955529055, -0.16113634948525665, -0.10547314725488752, -0.0957472856281818, -0.11378013477882733, -0.01700954745094531, 0.03132744532952363, -0.030288049047020947, -0.2521245449824138, -0.06678008358463783, 0.02536576080983344, -0.0226723284574171, 0.07309806331149503, 0.0953134774866251, -0.04687670470001077, -0.02096193676963197, -0.014305353926278882, -0.06323201278823402, -0.019766371026085132, -0.03683354505049035, 0.0089567014227419, -0.016305460579722465, -0.00877746286428392, -0.007508820226753164, 0.050868523297646066, -0.004956260562232125, -0.001903414827979748, -0.04285758556570284, -0.014143000957171463, -0.1529192203108598, -0.11073579504548968, -0.0003493845087697268, -0.03250536740261756, 0.02559642520684819, 0.04900259995179402, -0.06680022156998237, -0.07392912799837385, -0.03901906274272735, 0.01136395124184388, 0.04313648343827616, 0.056750738441532306, -0.0003026254751233932, -0.1068907297583646, -0.011800191461178378, -0.07850360296119337, -0.008400824169117532, 0.006421699931980263, 0.0004111925933668889, 0.0023807825715140853, 0.057697983068888015, 0.1193308411982309, 0.045782798374941217, -0.06143076014556352, -0.048709786698010925, 0.12074669075860649, -0.0962189072249245, -0.0909101422984526, -0.16433676250776666, -0.11969710234239576, -0.14129133851755463, 0.08920612299827926, 0.042020487952149216, 0.14086845670972553, 0.07368884473253738, -0.019337364932535978, -0.09365431201240508, -0.07446838036872645, -0.01687739164553919, -0.029163932599221374, -0.009434206812725662, -0.017433758094838533, 0.02924288459440687, 0.01723331318858021, -0.0022858612436867922, -0.07239375142842912, 0.029380923836570556, 0.011445059076032474, 0.0031521061529409897, -0.017922542813559907, -0.1515794851612419, 0.046073025500283755, 0.016576787858082438, 0.0691392527412889, -0.033946177586798645, -0.0765778789648257, -0.11621963867845096, -0.15317833364550573, -0.09002924367442505, 0.14427358787136713, 0.1599235787543973, 0.09737958139299677, 0.1215062412337534, -0.04098981555811605, -0.020595836193564695, -0.12344486517015091, -0.00988433624488846, -0.04800084692251904, -0.07319552262559227, 0.04005042040503174, -0.06310669338055865, -0.05569180111700731, -0.04692358633395748, 0.03838894110916095, -0.021418697227504273, -0.01911067900031644, -0.07147608120039446, -0.07322904297768314, -0.08662418649117705, -0.06304902097268617, 0.01676460457122768, -0.001460122839740508, -0.07978288174762564, -0.16886772673106937, -0.025517765599101606, -0.05189299035062751, 0.019780996283720306, 0.39397985944860564, 0.24910305704068242, 0.21146150865415048, 0.10046624628114037, 0.04892350133089464, -0.062417146417526756, -0.03877915041377231, -0.02742355724243425, -0.008228699672544372, 0.019709291845348087, 0.06517425488658007, 0.01440194114996641, -0.09603506105830759, 0.05668476750157168, 0.02727660274740329, -0.07115493129137301, 0.027849358535243954, -0.0941835136317883, -0.1572008922222715, -0.006695148661901525, -0.018361031039224894, 0.016099693735485632, 0.027786610064141255, 0.028024567449494973, 0.134691200208441, 0.02913787095812745, -0.06887878191616482, 0.11973179039070964, 0.2908043693815046, 0.263645198207175, 0.18099931514048376, -0.02493934517910633, -0.012292650676339058, -0.07664740411493264, 0.0038358649176859446, -0.11092918835108256, -0.06995931638691541, -0.06542962410328826, -0.017320501223305206, -0.00276986074778064, -0.03274495433814717, -0.0022521251558623905, 0.07085885773314883, 0.013293417886766544, -0.05451517517407747, -0.07871681944753132, -0.16814907505923957, -0.00428402117813804, 0.138503674611388, 0.11892538803084746, 0.0878610891861049, 0.13681590788727604, 0.0827189396177811, 0.09465333533268255, 0.1219372943733375, 0.15939908820723328, 0.23741677241757175, 0.19519624458680396, 0.11709908018860324, 0.17370744855927853, -0.016851133107118763, -0.057955879506152407, -0.04134669884347515, -0.048542844824683115, -0.08507297329513783, 0.020439559900225716, -0.05228091292578384, -0.043512744116816576, 0.04030302662843533, 0.026695020802219915, 0.004594047159968195, -0.03259675022931886, -0.02955884923225133, 0.024210826082668325, -0.015916302416267215, -0.045658705041884594, 0.020386703178682804, -0.01181040846053229, 0.08314568926276526, 0.0781904895038564, 0.02904427062589805, -0.001547747827130274, 0.09960728814367467, 0.07529655920018526, 0.10289649165291177, 0.25919798509080916, 0.370844857917887, 0.15140286371064612, -0.10119237895118074, -0.12665835828378097, -0.08956978099059222, -0.13025857584738654, -0.15015260269611022, -0.0766500738233931, -0.003627853227462473, 0.00465572134474662, 0.11354807835701644, 0.04246329483791377, -0.04850222358374549, 0.031024012745114172, 0.014245225002410981, -0.010769701250845533, 0.016616181087023264, -0.06645468335914315, 0.0005014826625460824, 0.029466052068733272, 0.19847738559903982, 0.06858114132569595, 0.09714488591319866, 0.15046050275533235, 0.05385403010399702, 0.09256160566624069, 0.06505411787241593, 0.17741565710754467, 0.3018788246716124, 0.13302372568537077, 0.06252127835450483, -0.01179480873131949, -0.016728218355575947, -0.01956519957968726, -0.06903318554715406, -0.06331528257592195, -0.05157500019736229, -0.042509317694640156, -0.014114306763491177, 0.036113223963264426, -0.003842021154866874, 0.040410246085976535, -0.014389702711223955, -0.016049529329730392, 0.03085797794929377, -0.0269845638387319, -0.024465473018671427, 0.11598056981839468, 0.21310119374658823, 0.07835806624233146, 0.05787020020762264, 0.14643749185125923, 0.026683567030076027, 0.047424767290965356, 0.07262187228207195, 0.22121336649591664, 0.2862913175551158, 0.08762866102853506, -0.05032592511249229, -0.09393284295709158, 0.01768901450426664, -0.007972050126731722, 0.0030625672502062324, -0.04098046556519058, -0.04342066244252688, 0.0320231460255341, -0.032379718975055004, -0.02541358655435215, -0.02599093739299402, -0.01726282455770083, 0.06715759215652513, 0.02369384908317602, -0.06253989037406522, 0.06171988194342274, -0.013977614302686955, -0.00046529003666734563, 0.08169262112344707, 0.021777773186238462, -0.006062065295264929, -0.002011481529997636, 0.09167091631872275, 0.0015799642358343224, 0.124258216033031, 0.11349729026924006, 0.0738053387474986, 0.00381776009196862, -0.11597904705408783, -0.01980653535934813, -0.09372611801515501, -0.05790353453470803, 0.039912961822923206, -0.14608679693096752, -0.04766884069117069, 0.024246898583747605, 0.0010209547412597577, -0.012363385833077946, 0.013940140338795195, -0.08547470454792716, -0.05738255674072226, 0.0025428655592265, -0.05623890005042723, -0.09400290193791219, -0.09988173740429722, -0.0754323998555725, 0.08884966487716382, 0.07554388593584395, -0.03649611059270707, 0.04678885995939853, -0.05900902658443084, -0.03662665857977456, 0.029834752079770193, 0.13807218124108322, -0.0029433144742440583, -0.06118948955651549, -0.21116127896165826, -0.010107005586486546, -0.16686722162047884, -0.07938368158791687, -0.04522218376522926, -0.11213143509039548, -0.011116240810171695, -0.011162466453352273, 0.05179945616691515, 0.03411795493917569, -0.013809596333228624, 0.012369650252508168, -0.071239010403003, -0.006595576803449196, -0.07785088063431586, -0.26342910328327745, -0.15043146326633128, -0.12270449276981954, -0.12332231030594794, -0.13790405595208433, 0.062447376497297084, 0.07299693925385477, 0.034334726934589964, -0.056647485985072694, -0.09223533436379008, -0.1160695914806468, -0.22784446865484273, -0.17684208531984863, -0.18498784206978003, -0.09319704836515862, -0.1333440049333218, -0.13230495915663776, -0.16975315086776793, 0.06347110592654938, -0.031330138446622406, 0.05977178869732606, -0.09541978238925872, -0.04453317465516825, -0.006421617251299146, 0.09744178304961035, -0.044012338135314424, -0.11655464162073857, -0.10445503198298724, -0.15314451037917598, -0.03447324099652573, -0.16524944604165254, -0.11506677358784453, -0.1981100984312698, 0.07190759970618321, 0.0354999092277566, 0.10165473401616837, -0.058200919158404904, -0.13554698579399388, -0.2238761649933782, -0.1801487108689157, -0.2478356316331058, -0.14423442884274315, -0.13300558438068563, -0.12068078100392325, -0.19064737754051087, -0.07460580382527514, -0.00016295756784077817, 0.00947402139813895, -0.023479927560799602, -0.05084135138058938, 0.05089140729012577, -0.08132061169452495, -0.0016025028936652683, -0.04065112340935395, -0.04017513516842974, -0.06465578803760018, -0.16315854965150214, -0.21151804831918086, -0.31130897004132024, -0.07701706623392221, -0.10663878860942881, 0.06792861640277424, 0.02299026788063, 0.01268113899877298, -0.09381768245981552, -0.24268713833936933, -0.1782637119286002, -0.17987544253253732, -0.10663047619714365, -0.17002402996082427, -0.12026807866973799, -0.07435342635820885, -0.09260133218557899, -0.11745776798516133, -0.06475622173551608, -0.007369567257664803, 0.01844560473395766, -0.0035277989531697237, -0.08590635114317025, -0.0013484641243832276, -0.10275634989083127, 0.044145182817025855, -0.01682221115448177, -0.026038494327410077, -0.12787358295894358, -0.13123338803605245, -0.18432415022928494, -0.061313974638694396, -0.12703522134684586, -0.027031757504506485, 0.05570883285666985, -0.11428924613549296, -0.1666609181231684, -0.24859625430316426, -0.20112916462868502, -0.16903036086098047, -0.03627325517955756, -0.19914783199952488, -0.10794335421135742, 0.011398585080712984, -0.08925351890498502, -0.033445006645861065, 0.06642511864335583, 0.03826824859189321, 0.043099115704326826, -0.023445340877519236, 0.09188934834080069, 0.07481128972151271, -0.014692900262000916, -0.0543006990128171, 0.01546770994276827, -0.04434543947716565, 0.012201820161010853, 0.04180581610005647, -0.09720196559049706, 0.015636792288555853, 0.09953585530746378, -0.07092351089545712, -0.12148154226678114, -0.004730455277781363, -0.07679500136801656, -0.15961597772818667, -0.10383830691364425, -0.04365695073987585, -0.17980289913439162, 0.0083368335984256, -0.030935001524207504, -0.02454536220351076, -0.04166332081924827, 0.04470179587215554, 0.06468328895448514, -0.005778982032859576, 0.1547121767733899, -0.023805933461767292, -0.03931518390423851, 0.03525547865448434, 0.009785696172632993, 0.04288343991800016, -0.10399245529618918, 0.057360398723154404, -0.04886987761639209, 0.15161396472558045, -0.0074932414030999895, 0.04823968519819444, 0.033923899130639035, 0.06608539417004865, 0.1163941946465338, 0.06408807847642427, -0.07888507739558952, -0.04206874910334931, -0.051847779326683, -0.012293383770984056, -0.0023375911429691695, -0.0025199387442968423, -0.04330139760505972, -0.030902128928985053, -0.047837182446358116, -0.004033862763473744, -0.018424548774706014, 0.11605077872639621, 0.048617660247983766, 0.010819308148538327, 0.062088903302932645, -0.03457468531456491, 0.013909011734935518, 0.016919454080092742, -0.008685765682316824, 0.05864512920064828, -0.023258115572381825, 0.06657191355332856, 0.017556261000126725, 0.0020873344779545563, -0.0034141963986681783, 0.012786397669291629, -0.08962606610968933, -0.03692912771099027, -0.019375254828689036, -0.055889151310958535, -0.10437247820752468, -0.022244481823272256, -0.015428583673248631, -0.045363677609789765, 0.02761049862863575, -0.012244107719818627, 0.010175518755460971, -0.0005100734657605497, 0.0158017062190259, 0.018733631035256625, -0.07629347554903518, 0.04269739561868075, 0.017595479276379385, 0.09966197238237351, -0.10029162090125043, -0.015118684473155371, 0.04757415167891138, -0.05305216885729481, 0.01754289679133897, -0.083784071418165, -0.042522893954419806, 0.05470842456295041, -0.09331415552506642, -0.11422908646854393, -0.08417614256328869, -0.03260555569442666, -0.027502723190355752, 0.02275898246794374, -0.015441606914081514, -0.0979909696853776, -0.07852020946736395, -0.1871663520500858, -0.03842106557392657, 0.033897633118914375, 0.06565270556517071, -0.02715015824179951, -0.02655416376798318, 0.0019302532892223206, 0.06387462173757855, 0.004170211800321293, 0.039652609655347074, 0.05344390140742199, -0.01887479159885178, -0.05864300893856596, 0.04149568674220519, -0.024324318576916307, -0.02293406619207867, -0.009402466223191554, 0.018468920904539707, -0.0358358955538827, -0.10596945028612006, -0.034223734353777575, -0.04736849597673873, -0.07791496691222877, 0.036601330772756735, 0.012842464741996896, -0.10469701377801544, -0.1086375483706529, -0.06921637900204672, -0.035270746740901096, -0.010186336521196862, -0.004612001030610043, -0.014135147122396333, 0.0221750180773341, -0.0847942926316398, 0.07366834091566331, 0.08589436700703178, -0.019057369357065798, -0.05376589701239678, -0.060848278648370925, -0.006419598269320261, 0.00432033653265635, 0.07058056121479588, -0.016989973383575746, 0.056476038511180084, 0.018795891386851848, -0.06603695874049743, -0.024329823019291093, -0.049462535128183875, -0.11404760767732097, 0.0015757162590379066, 0.03732891845287338, 0.002462273530853731, -0.02274826127193225, 0.06037766501155433, 0.019856326552809354, -0.08123947738535238, 0.02486914314333399, -0.09671162744780953, -0.013221511340375912, 0.04767058369563493, -0.050062731139554714, -0.06381095391407984, -0.06776876721230564, 0.030688033866814637, -0.021891437639212107], [0.0008244466135668813, 0.12041610582664498, 0.08074348235533282, 0.022095312454469163, -0.0753243906254719, 0.08333628941536826, -0.019641706810879865, -0.0078062876375278095, 0.04501093225557204, -0.028886733939657974, 0.061018398924687856, -0.029777943081610195, -0.023641840875677715, -0.043552353079629284, 0.10997798264754152, 0.06945568195665934, 0.023699327615077023, -0.024033346915191985, 0.030736304162728812, 0.0442897440227474, 0.0662896157882351, 0.02990861780437088, 0.014523005634521087, 0.09360174718418171, -0.046336287049356405, 0.012336631695609723, 0.052411024556986735, 0.018089410018382903, 0.05178994984649058, -0.005213758432163284, -0.007863624066252328, 0.1038405906417226, 0.047865817951804994, -0.010945249759224205, -0.04630620933579868, -0.01428816288602247, -0.16218663571808548, 0.08040416443102269, -0.04319534799021939, 0.07421439900451347, -0.049510670018604305, -0.05716913451237206, -0.01587124578602452, 0.09481903882811886, -0.025767129246142245, 0.014282283258296915, 0.03989686534043552, 0.025697025014849148, 0.061157057145923656, 0.07067904290075974, -0.053338809196553476, -0.010521804193155937, 0.10399689960641478, -0.0841140661212682, -0.11736100012335941, 0.005380259826635738, -0.021761697933019405, 0.024276107281143676, 0.0031023654657094052, -0.036390309304867634, -0.062025182972639925, -0.0835174689740262, -0.06900332985756351, -0.027011668727927183, -0.05146580478692168, -0.029232654970191962, -0.14836932132838057, 0.030628633614620725, -0.01723471663996905, -0.1754510577225285, 0.0035448461010389436, -0.02917705168480397, -0.0366388288294104, 0.09167219227242693, -0.06304784740084636, 0.06030570711346714, -0.05128882273658941, -0.011264448310055719, 0.029590735183529667, -0.007034228553797995, 0.03597159872505506, -0.040503943915077535, -0.039514403365699224, -0.02936812853062295, -0.015621131709028997, -0.011177044265247902, -0.03012776940145374, 0.09226127550626641, 0.0453320890354582, -0.0784816976982373, 0.09523631994371445, 0.030907974540365132, -0.07567589209408006, 0.07243247889431044, -0.07302166920986927, -0.01613755724154787, -0.0382905943566549, -0.07570772664263245, -0.003970748153701784, -0.011249646324249634, 0.000333089877987279, 0.07760843292499722, -0.01859923580316315, -0.008284167284800643, 0.12528801638821185, 0.053003572159488914, -0.03464796002499447, 0.012388690669391708, 0.03039392632764147, 0.09721962709791923, 0.012738889659062303, -0.08218201365402907, -0.025412799585207424, 0.04504722080548266, 0.05436235741455359, 0.026979743146762485, -0.018346236601185437, 0.02974338411792575, 0.0030413836626154386, 0.06405068536637018, -0.03635024683740987, 0.056203067401850514, -0.07786579217721935, -0.0217602627201698, -0.1047628231029196, -0.02246781313181047, 0.08141789126352263, 0.09316354881418536, 0.09328126297620372, 0.0739517691344273, 0.0723556543040663, 0.08100567850483799, 0.0020443230346326954, 0.04292315905228928, 0.09203675466209163, 0.01886927335364696, 0.021233634669055583, 0.005518521354726895, -0.06178450497541232, 0.17760845334826997, 0.037651974431142224, -0.0040166244989355716, 0.019819377297308004, 0.026655247424165647, -0.050479870272753136, 0.08945288875490424, 0.021061624420753555, 0.050171175607399275, -0.06277862414735343, -0.04857091170816807, -0.14530357997254623, -0.08371346164545919, -0.14988117610363774, -0.020307280260438227, -0.054906992422981866, 0.04236361034178161, 0.09430469581819265, 0.06174742757158446, 0.06805621320503942, 0.04711154988712566, 0.07058939370040655, 0.06643522981457704, 0.1460932241754343, 0.07017376724625532, 0.06387905435840158, 0.007275626870216703, 0.12986703124692997, 0.06662797067555531, -0.06376031127207234, -0.012401400993582733, 0.07443594123290025, -0.03080930072383405, 0.02970980135699909, 0.0679343668709613, 0.031477388365308064, -0.02568977815503743, -0.020254613113221267, -0.061495752645234096, -0.0718756919201564, -0.1268025051284459, -0.09371842013614318, -0.009177180694410446, -0.07224496858843268, -0.051666205141599995, -0.1046662628341522, 0.04306755591146531, 0.02540686992087924, 0.08434303773813663, 0.12998088542912004, -0.035110291314537495, 0.11690158663061831, 0.1360391601455936, 0.034683494966337644, -0.010448601092493825, 0.031314623609759666, 0.06191595845224268, -0.036481387607829936, 0.038946362026356485, -0.048302565324237184, 0.05094499043748201, 0.05731474563977524, -0.07753461855840053, -0.03359958133807062, -0.06112920728947211, -0.16604599538756795, -0.08942248594053144, -0.11888054860329904, -0.28086966735417346, -0.15690923523753394, -0.1256585749750054, -0.031288115435539665, 0.017086867452240872, 0.06009841408564026, 0.10677113321837366, -0.0023476357175796574, 0.07645037612320787, 0.14913441298992577, -0.005694409990187974, -0.01760500177789537, 0.07723474335224073, 0.033796561492347554, -0.0072633776147733795, 0.06685135312567902, 0.052910502890708894, -0.03385886191773278, -0.0047498446944350846, 0.005258962262736423, -0.014525628028070189, -0.032227810529426165, -0.02638720659997391, -0.004202036352060231, -0.1421931323480005, -0.11875394961299135, -0.10377556766397099, -0.13429645291596246, -0.18743548704901958, -0.14822446316180793, -0.055675036635062694, 0.11354442452984588, 0.024470458236929137, 0.0729413812520913, 0.02718261578272746, 0.08244634975966879, 0.002581664369050781, 0.10085937070874174, 0.056937126826575896, 0.051379432979228035, -0.11980876632868288, 0.017604772234025238, 0.0031756394791863122, 0.02557904032892741, 0.023476422158792268, 0.039922896096564575, 0.054623383760127237, 0.022595822679823446, -0.04300118786634652, 0.0287072342499323, -0.05597300823833664, -0.08275865834655244, -0.007936420100872333, -0.07161020433009971, -0.17194662535937133, -0.13366733017997603, -0.07851057082733275, -0.12706810628290627, 0.0006306921609505031, 0.08882341140302462, 0.08952632071600515, 0.0652810999984557, 0.016750470506397292, 0.03746678118434753, -0.0007410745245428735, 0.10644469027555149, -0.026323595524675832, 0.12162103409479393, 0.014577394719972105, 0.10013359138124991, 0.11799284459733933, 0.017271670322758316, -0.055885016216254524, -0.11708572836034717, 0.005602643695451872, -0.026080087215985783, -0.011400193277592813, -0.03496116245540987, -0.08291092737350118, -0.04493275936988711, -0.07130764525859846, -0.004667649872257824, -0.05777139830463244, -0.0002208412678718338, -0.09124497882494668, 0.025408752874215457, 0.12145163033986832, 0.19410135407018425, 0.17351249557863058, 0.15369499343398912, 0.08595235796161324, -0.02515406768054897, -0.07899620939144066, 0.10774986501696744, 0.03234289656750539, -0.0015004808850744697, 0.09498503239055216, 0.03996541661763261, 0.1620606580036756, -0.06673936849472442, -0.015239679612582081, 0.020642693042988287, 0.040535519148951656, -0.06638574873074422, -0.023044818873344065, -0.03676432639759532, -0.1416373719253898, -0.05081026015118752, -0.07750818133031427, -0.060559256170982304, -0.08216956377375838, -0.029106827525942205, 0.004069637809181213, 0.03311227035228107, 0.1457469827238072, 0.13688446249145286, 0.17157425338885654, 0.14905871093517245, 0.11527860664551201, 0.07945229968068926, 0.04654408245186127, 0.009333392317356347, 0.014790194689479197, 0.060649267929854436, 0.061937596807676916, -0.018873198786046232, 0.05407031934589451, 0.046837261689620165, -0.02860423522686299, 0.06456040710458497, 0.026628775374296185, -0.023549922683862922, 0.0039775120843913, 0.04995093728515952, 0.003688056235745272, -0.03317926920074942, -0.038253039849377855, -0.04200410982433469, -0.07063128123956201, -5.1049143153485734e-05, 0.003092458459414224, 0.06870541027831452, 0.09276229729259326, 0.19179777418894153, 0.12504926196487373, 0.016539655751341083, 0.009812292901511185, 0.0007528231189131527, 0.04910903929278486, -0.04516547736651542, -0.09915214705459016, -0.07899875694258596, 0.030535105894300123, -0.05609413765232596, 0.08495296304983166, -0.0005832698725180663, 0.07755579526892835, -0.05495445391777804, 0.00813235432850895, 0.06544946809188576, -0.07732133542325498, 0.0652984251728783, 0.06320431201895829, 0.02335042769229888, 0.05455693511760418, -0.03651179507814161, 0.023542952724436513, 0.019081474230765602, -0.05380217575757283, 0.033603168212448145, 0.018147664672497336, 0.08981812330725918, -0.0180036519777118, 0.033416984375017764, -0.054868495644361706, 0.07952251190224172, 0.04849245369708854, 0.005367158120451093, 0.035212324707676455, 0.022437316116544957, -0.004562084216423102, -0.009480629170923752, 0.00113347214685308, 0.03467674132035539, -0.0017939883140261725, -0.06459027293903584, -0.043588639713713836, -0.010373092308417726, -0.05566381985183262, 0.06545471933658688, -0.03413584084406026, 0.0015000914248632974, 0.04394296347165529, 0.08803111222274387, -0.013121682875818566, 0.022897287217835637, -0.025932350119876775, 0.18941143702332636, 0.015275879807727665, -0.012765289978442037, -0.1124841420206689, -0.09190056121859301, 0.00867718454007889, -0.06410188870777532, -0.01135129082709184, 0.005952507216220538, 0.06835208829344057, -0.0838907916097657, 0.01256001997339667, -0.015477228462927104, -0.05906887435701602, -0.0334940706154681, 0.012157660073918485, -0.014350324616019818, 0.016990379292981642, 0.02403466868809631, 0.05881678636426599, -0.004039295153641931, -0.021766264621449573, 0.0478750216497636, 0.08611130347192489, -0.05008884526370512, -0.09904386291905846, -0.2877830661701125, -0.1156396873406649, 0.0245148925944393, -0.08457827675208653, -0.1206768443486737, -0.1608298631527016, -0.026822966557195148, 0.04641841185039903, 0.02856236286660079, 0.01717427187259114, 0.04763454731355022, -0.03751773134794725, 0.055155892401292296, 0.11034781564073613, -0.05720874211001054, -0.06818554727815793, -0.0633904320616532, 0.07182928329135947, 0.0836688689922146, 0.021175276500390843, -0.0061120644230924, 0.012517626614600078, 0.0654226258769234, 0.032526873117271954, -0.07341037564771245, -0.023868237533301542, -0.0852027899545611, -0.20638268737433554, -0.2079838848834935, -0.24071872456993068, -0.07672939824429977, -0.1546248226268406, -0.09182630041030698, -0.1422217133261834, 0.048306592841840044, -0.01753945535124166, 0.047093040999336644, 0.07151689411869613, 0.019981906103711734, -0.08647581031146598, 0.019625533452714613, 0.048348936351706034, -0.07417721276118515, -0.02677302035204724, -0.08493627502922894, 0.13483508708720812, 0.03711969724711164, 0.08782704214596082, -0.020651212053714056, -0.030995845235613773, 0.04057741841920119, 0.09507067322224734, 0.08649439796769987, -0.05906028819634167, 0.02970521814517073, -0.11867214919973346, -0.1516935261103974, -0.19219476960754983, -0.004321382231501213, -0.11922556093361783, 0.00483199103059863, 0.07324189167567177, 0.07461015969362221, 0.1397521452035454, 0.07911540739965572, -0.08595070131213534, -0.031380720212013026, -0.042832162800689265, -0.02516652080127211, 0.0762454020724897, -0.06116543411449981, -0.08576664542110918, -0.0431916040118165, 0.026938228156933888, -0.010781448256777104, -0.038206584578147997, 0.017309613318704373, 0.07064533129481802, -0.02487293457312359, 0.05854617641994146, 0.06807610212451379, 0.017940799225858194, 0.0309600068369285, -0.07139804464966253, -0.0014477446267563163, -0.10074629794581151, 0.036705369928680634, 0.07104363774604977, 0.16451049286964164, 0.1527935188304153, 0.14668924171186606, 0.02407013352843528, -0.007669073814455128, -0.13993696082695278, -0.08203520440873588, -0.09005140358807497, -0.10402871083480723, -0.02731607983364066, -0.09894116848049658, -0.12194222775197633, -0.08483607710873652, 0.02304696224755245, -0.09332387671321311, 0.025108415249071665, -0.004137219960409339, 0.05726752834710132, 0.014559058951349147, 0.10228802489938695, 0.09830855884104016, 0.10168495780374573, 0.06424854352018547, 0.14695011425791324, 0.13237398468500552, 0.08031349699976473, 0.07228856702340662, 0.3084946008983714, 0.1251434013588905, 0.11612591694297791, 0.14595968380532248, 0.10167824738541426, 0.039665328371230754, -0.15953638934317457, -0.12089457858313182, -0.10242059634660404, -0.09567374410445484, 0.05594341011440096, 0.0016044322443278245, 0.061429794646463004, -0.029251515062234952, 0.03695485097094781, -0.03770844889868746, 0.11913604177105962, 0.03635099262380508, -0.01493172526657349, 0.0326047437179236, 0.09047776645015349, 0.04064902673807052, 0.03257913436222177, 0.18716259876884261, 0.11194276263716366, 0.17650828205860938, 0.24642392786107364, 0.19248645042995138, 0.19265420727023796, 0.21296781023632289, 0.10062418315138612, 0.07148478178783879, 0.0802360218155499, -0.09320340455447022, -0.0988474434428123, -0.2039869182992117, -0.14753274543552475, 0.0013576590325354231, -0.014522932214773101, -0.018614131335808658, -0.05743463600771963, 0.03320600708082945, 0.006703126626569393, -0.05175090938926953, 0.0772664106441804, -0.03258326435015714, 0.08657054669349182, -0.045612511285376224, 0.010254991127918774, 0.04699531484849601, 0.07549459875513934, 0.13328032928745032, 0.15217518686236808, 0.16031945914307857, 0.11005754211555982, 0.2765467258761277, 0.1081185909825088, 0.11495307395196168, 0.16365545637282228, 0.033546089403082686, -0.15036382173632967, -0.1538006145805902, -0.14280315081772016, -0.08979233488577015, -0.02450758203159797, -0.15480812772960048, -0.1064029957084749, -0.09137701472895991, -0.12318395908146296, 0.010146956603592855, -0.02816217667178153, 0.0012119408573880264, -0.0009838953456678397, -0.055615571556945284, 0.0005552084920293971, 0.06790356146041136, 0.027673584770717595, 0.006713058862411043, -0.029001425457901065, 0.022655543503599808, 0.07294475459492604, 0.0721015256277335, 0.0013298252502425589, -0.011153730312095756, 0.04770786440492239, 0.20355066434417296, 0.133531111860935, -0.01602465576588622, -0.10911119390513989, -0.08572461668286346, -0.1781984145754028, -0.06108416860997456, -0.0901329777270094, -0.021155306102646987, -0.04155922991454194, -0.08908177610258267, 0.01675670426095506, 0.050871046596045535, -0.02559376796269708, 0.06476926167122844, -0.07840718527225253, 0.06624047008107341, -0.03451565903250223, 0.03386811189364678, 0.1248265816920769, 0.04562487888008859, -0.1509014151738108, 0.007115071829820487, 0.05197034714331095, 0.0288927014731956, 0.028030775743755506, -0.012652930236701816, -0.004768358720657688, 0.007807949144406571, -0.09881624986056987, -0.04420036371294583, -0.0943047195795658, -0.04651540147098131, -0.1070442226668878, -0.10929524997141966, -0.005803603544922301, -0.06419916793858113, -0.0606601269145225, -0.059328712763821984, -0.028166535722650408, -0.018985235196070135, -0.07847613271655052, -0.02005607090655678, -0.03615662823089045, -0.012545642762738809, -0.070082528637224, -0.0014147112677431965, 0.06139247834485888, -0.0015910783676056995, 0.048803900937085996, -0.04509869306327449, -0.020726168309520534, -0.034078213729386735, -0.11653511875322803, -0.10696805121883345, -0.08148267320788098, -0.03966888028357368, -0.125299152073032, -0.13428265780175103, -0.12006496449733492, -0.16655270707039838, 0.03815518796409579, -0.07359993684428746, -0.050621217233854245, -0.10250544468198809, 0.043553228132647545, 0.05346981775256429, -0.011927492558740288, -0.11574376279118624, 0.023348341144572925, -0.01877044934316438, -0.08673768606132286, 0.07118028462519607, -0.017186711862179873, 0.012488503063360662, 0.001920462395388444, -0.008914170085604483, 0.022278164628739335, 0.031054652318703267, -0.0637750117335051, -0.057010653017750025, -0.07747854898406767, -0.12727615139517348, -0.04176214247863148, -0.19138542516287307, -0.15338265757050185, -0.026141889035251983, -0.0038681571091596263, -0.06036900584206684, -0.033230791510108625, 0.0029726281241285167, 0.12371841511879522, 0.06933249278777608, -0.06240802827623387, 0.07326702241192276, 0.03508406459634023, 0.07314610582703815, -0.009724403994885231, -0.12949607314953254, 0.06371332044494842, -0.011674281098483947, -0.06528350457620387, -0.02256400926137501, -0.003927564353765835, -0.009070587282229939, -0.028257336317275162, -0.09535116477863385, -0.05729802094905651, 0.07388825054596816, 0.09733627278284995, -0.07907178197534014, -0.060545933847077404, -0.07959789858956674, 0.002690430495274098, -0.0615071110588434, -0.022978941762271766, -0.08062381022398564, 0.022351698217586393, -0.05620919332205983, -0.01194178524516869, -0.09751071738191126, 0.04741274699242715, 0.02924643677288483, -0.0663506550606008, 0.12381708052452602, 0.02157491737024958, -0.062327152307363395, -0.012987778238647827, 0.030842307228414207, -0.04989927951047881, -0.031958964702652665, -0.006275002614090009, -0.17910106190475064, 0.03888280777009345, -0.026724150162604834, 0.09432017065384252, -0.005740165455523157, 0.012054627606666181, -0.09801498422022054, -0.07357079842878557, -0.025097137780307546, -0.06692710114038908, -0.05040212208297975, 0.0003366052150409218, -0.05100656288001652, 0.06057432941086629, 0.03994766370735541, -0.02124529153684558, -0.03649798726515245, -0.0548669803172923, 0.029962136693474018, -0.06052649102373528, 0.03541692847690817, -0.055905449728525486], [0.00835790076187536, -0.059223567446487164, -0.000410161666552466, -0.007252047390319415, 0.00296344161365641, 0.06601425215762478, 0.0473717413470258, 0.02925007050530302, 0.06509636764097346, 0.06869585799393145, 0.023053564825705718, 0.06288812480715497, 0.012069738653977986, 0.04636236976593344, -0.05949225677483812, -0.020839648665861445, -0.03598307919464857, 0.01092703527573049, -0.045510060925847355, -0.03225124580366847, -0.00017877456159292587, 0.03798400985757851, 0.004899550446726391, -0.08887651917666009, -0.004564314778060786, 0.035006505173008115, -0.0038649529742871887, 0.09251515281512451, -0.0002407383872365468, -0.05698087822442968, -0.08303397324917998, -0.010017984203481918, -0.03773777830216039, 0.10873756827176206, -0.0442959956411675, -0.06271011874702503, 0.009913907888454107, 0.022028301243444178, 0.027104525802651384, -0.05621422808661574, 0.049145946697821935, 0.019742995028472342, 0.04210881453707708, 0.037094117391679934, 0.02065493878105857, 0.09358160381183707, 0.01939989568630433, 0.022469058099400994, 0.06492631136346183, 0.14775420259183802, -0.0009828145370505503, 0.04696732944805104, 0.013601683261717889, -0.0015242172778865831, 0.0658305822030907, -0.10787131378444358, -0.029173576517887746, 0.03354387295808994, 0.0704301035608287, -0.003352157234412678, 0.0045458697562740765, -0.009211580153350647, -0.07863306848386278, 0.07868192019845931, 0.07786597896780949, 0.021656829017217622, 0.06469779484548044, -0.019893861896702655, -0.04762076969393529, 0.01564867506533676, -0.04375355582531189, 0.0017829004702977185, -0.07619295641919756, -0.04885101977404346, -0.09858399407506632, 0.05716255867809863, 0.013323226422407458, 0.0376849289916317, 0.03637802482392041, 0.02954921055040255, 0.01387271477083812, -0.030346213739951392, 0.055230428710363134, 0.05220891898319612, 0.021122298580176686, 0.1560111106443758, -0.03525326246493534, 0.0362592113016344, -0.03277001535098385, 0.14031564943472363, -0.07799134197717053, 0.011376328614477512, 0.006285128359885583, 0.04170471470723541, -0.013019706972806256, 0.03536427505314188, 0.10137216614636069, 0.012962548658975719, 0.026001718636613567, -0.07568375121255973, -0.10647448709839345, -0.13828236835096155, -0.18006798808685337, -0.19463249674539448, -0.058316242599670214, -0.08419478567996706, -0.01932449150861848, -0.08904798818924697, 0.0019501891038398468, 0.04436456093825701, -0.06490670979151403, 0.04583688686117243, -0.07121732967430501, -0.045749489953848164, -0.07372863605961212, -0.013660457621963206, 0.02939121240767729, 0.0328191522826544, -0.018845043032174207, -0.02962206333809244, 0.1465250080116492, 0.15783400945834758, 0.16626658175764428, 0.11877365008621653, 0.17493551117310704, 0.11584781981207881, 0.05003287639423542, -0.09544371099441827, -0.2074846023011803, -0.24081636372561055, -0.30962775527455316, -0.25937671330692497, -0.21110468931993, -0.07931450223902477, -0.03745143316967265, -0.06272701403538065, -0.04843280958215354, 0.028314156564466935, 0.12505225066622247, -0.04549305666799725, 0.014839684940426739, 0.024801833657094284, -0.01662355259741576, -0.05208043285946636, -0.004009317214813078, -0.05020190370888321, 0.043434745919949044, 0.07129456714931587, -0.07401236061616935, 0.033365796926614205, 0.11761529236287566, 0.1522258840007568, 0.21497825206503293, 0.09314445623422853, 0.009099088425196418, 0.03066746287697484, -0.09910170821222876, -0.23473105217831297, -0.18898109253728174, -0.0655513768467692, -0.1664441003847465, -0.14143668562350986, -0.13253159084555022, -0.0201256709648679, -0.049116558898105414, 0.035082572555785625, 0.06682092824424961, 0.013562825516853495, -0.08265909276160974, -0.022790520859463606, -0.0022922277648099315, 0.017447813418678227, 0.07685795327580522, -0.02490778271535304, 0.0016858608847940357, -0.07115912388179176, -0.038548564580493765, -0.011605455041273416, 0.08376702793229288, 0.042603626881648746, -0.0024217605306437033, 0.21594291188425832, 0.14650427753946638, 0.16311079948166055, 0.14905457433445937, 0.0919978947219248, -0.0877425052607806, -0.3178098553794585, -0.22651987828655545, -0.16914672493894353, -0.21634566971524669, -0.11240370604289963, -0.13270635978763307, 0.03949422607041104, -0.07452317684487177, 0.0338194372262977, 0.04905264786696275, 0.025147807628090928, -0.097492819732712, 0.06972317335188591, 0.012444510629984225, -0.06206165762023782, -0.012292459758927536, -0.043342589512885187, -0.08055071630078284, 0.011451357282406033, -0.0009109428643051445, 0.013090003547393165, 0.07826240467134307, 0.2053954447625198, 0.15930781679779016, 0.23879481663337676, 0.20841942947937206, -0.013265135747367818, -0.03478170591305204, -0.16325085279448653, -0.39236622852813563, -0.24211386806403576, -0.18510048209737937, -0.1745175563764578, -0.1790208534256925, -0.04790365657024766, -0.020255945295228832, 0.05844398347864256, -0.05864364204853685, 0.01794145988619671, 0.036440294747939, 0.036886004190230116, 0.12676211969322695, 0.07631306246176078, 0.026771764862344397, -0.03250383879282087, -0.00763343911000207, -0.07743309376022325, 0.03389210745907897, -0.00045563299111172674, 0.07847166764604224, 0.13776695905254857, 0.2191546320721717, 0.21794870460611468, 0.3359209330390002, 0.16339363773366516, 0.13586116999752657, -0.07727434351201107, -0.15564656069210656, -0.20210982374827488, -0.11721753170329467, -0.27637281292882093, -0.18074821705927524, -0.0504798457115115, -0.04550704538095842, 0.07483678634555682, 0.11656155285216901, -0.020908489085372642, 0.05391908418797175, 0.050809713808222065, 0.07252150872767824, 0.05623918572953093, 0.008314108147198898, -0.03632172168711274, 0.055502468864615045, 0.017214857969636475, 0.20904426370015233, -0.030163257634799514, 0.04432873316268072, 0.028395182301979117, 0.25270052878859833, 0.31856675980198246, 0.3113352270571076, 0.266440378923164, 0.12491228205916437, -0.06707883037477634, -0.03719097140654852, -0.2651804959514978, -0.10450558342758934, -0.16459391804923956, -0.20206226412659234, -0.04503127308067295, -0.07954220395406682, 0.05072304969298723, -0.01676009223039389, -0.04943811580872511, 0.05260350857173108, 0.060977999222948276, -0.10782015269767665, 0.08632450561049863, 0.018884985081105424, -0.03899351322190576, -0.08697321962631092, 0.01097569892602453, 0.01825441350947483, -0.07566746169376423, -0.06964259222918684, 0.03307906179244324, 0.22674127109003214, 0.0728727153520038, 0.3031874456035521, 0.19175456123232557, 0.06409860848325184, 0.001377097906255193, -0.11687620255570524, -0.14994994528250447, -0.023142412395887824, -0.12280006289558024, -0.2594663873452645, -0.0610154053659141, 0.017458137888345396, 0.03647146398343809, -0.004075138873281906, 0.03784476708343055, -0.02953467957384563, 0.04368098208541107, 0.13601119544223023, 0.10594893889421388, 0.08096546471598619, 0.06867689786987535, 0.022108615687712233, -0.16907380963404467, -0.0727058465050431, 0.056979712164112836, -0.16121265219138073, -0.009004942070836443, 0.07642133005730137, 0.05223150541451101, 0.17061805842339223, 0.23159677602713888, 0.27610939232117504, 0.13941005118089056, 0.17406429654290792, -0.08140271550169069, -0.11095626380547648, -0.13347682690214474, -0.1273748772838666, -0.050338584590792934, 0.005813440250827637, -0.0864945485434097, 0.01881826742170273, -0.002588241230804607, 0.01164161976109952, -0.0041864349361213525, 0.08513497662938677, 0.07976086954616675, -0.014151222805925946, -0.06131290916614908, -0.12849781051075312, -0.03252718110054068, -0.04367199098473024, -0.1309279619945821, -0.2665202528336001, -0.06082641162509127, 0.1896973114022916, 0.14537652902565867, 0.16230963525198022, 0.33220013030455914, 0.12521540005212137, 0.13634394073729358, -0.07033609023556249, -0.11074753188420032, -0.23941788806561665, -0.06883957546087069, -0.0184113786488741, -0.07364634652496882, 0.04159358963988523, -0.014217934526111836, 0.08945894493310048, -0.02758803935021248, 0.03478307855248429, -0.04732743577143344, -0.048314421921878445, -0.0886452869809928, -0.08117780140986722, 0.015412879638408558, -0.07961796723754702, -0.058787700888879496, -0.1962989341596884, -0.04104360908871516, -0.119350217998099, 0.1468753216344842, 0.10966481458443869, 0.0459810346937629, 0.1600481006787279, 0.19350464051677105, 0.15952305482103607, -0.055415358726979565, -0.09990890152463575, -0.04535304190950371, -0.1152803404274974, -0.11505588228460878, -0.16903037148665956, 0.05361184541186623, -0.07255817913973749, -0.036282616363187935, -0.0023364444575475563, 0.013783924148543795, 0.033334012675190934, 0.036596233418187234, -0.0019142877560812393, -0.1814323561548052, -0.1433783298682804, -0.14211016791625034, -0.037581663313096966, -0.08607527803929267, -0.1965027816980611, -0.06992220925246372, -0.03937001857112706, 0.048451396061461864, 0.023836489564006285, 0.028196606964837504, 0.03854383312636765, 0.007840783350218353, 0.022111804287124875, -0.1616427499701869, -0.14732085390640084, -0.0383920351901169, -0.2152745793430743, -0.11625751706300266, -0.032097747749881896, 0.018872899353164142, -0.10111515285218167, -0.007401105202697821, 0.017182204116205278, 0.01990257531395578, 0.0340291703343114, -0.04404620398412536, -0.11304207659299167, -0.09704503419506137, -0.10007725930012751, -0.14802111811693067, -0.09739469044142182, -0.06831036743604192, -0.002032127880997107, -0.06348763114487772, 0.018579554756641005, 0.025283655015450823, -0.0075170067461973146, 0.13176354978964522, 0.17567505019332183, 0.08289520984976688, -0.08496981247514858, -0.19995779509479278, -0.10901938577338773, -0.23240053656885062, -0.13260583934420792, -0.04503963301354803, 0.012962155842900351, -0.015352513470248791, -0.01609472679650243, 0.02026774908501687, 0.010823427302269283, -0.008896173963723962, 0.012352340967888176, -0.03792706653580924, -0.0035093230072902257, -0.07038073904511243, -0.1384062689548481, -0.03814149532047165, 0.06657389744114349, 0.09520231761758141, 0.17303789385890858, 0.07677975158417842, 0.06249747490024889, -0.02526550810952019, 0.041863482210525146, -0.08039911822752983, 0.03220799135664826, -0.08185111097750147, -0.18715849315026806, -0.21945977819498086, -0.1209820983450212, -0.07119928247576923, -0.005661627881650179, -0.006269578499004707, -0.04264859481156109, 0.05051318744270556, 0.033567182851205316, 0.044134198424174216, -0.07225713671573923, 0.032843335959234825, -0.05942462411874056, 0.016748025294301562, 0.14908177439720482, -0.12767108672349003, -0.18365177547827244, -0.11986715564255707, -0.051875356619188115, 0.03722450556433049, 0.0638387189027287, -0.03862561976863916, 0.10651116993460934, 0.047853444924932265, -0.17545796869497335, -0.09880605261466466, -0.11286522736298278, -0.07635662939984668, -0.23167989319631438, -0.03681939594055292, -0.11244340220120252, -0.12317169301778533, -0.06419995309650285, -0.0399035606833616, -0.0801741203591555, 0.1059271755349689, 0.08438405234686328, -0.020385490939728988, -0.036230359847555925, 0.04589718122437772, 0.00913392628839287, 0.06811840675854407, -0.1578152487402715, -0.08840747854800228, -0.152177768883867, -0.1586891775129484, -0.033779009755244435, -0.10048553861565981, 0.03000979815923428, 0.03730242575692819, -0.04653264586223559, -0.08861001321293455, -0.11033399162962779, -0.18850002361632848, -0.09265456843769591, -0.0714510916906878, -0.03678205914433934, 0.04040051118345127, -0.03890327141186872, 0.016478115690008108, 0.07338246345182063, 0.019888971996125736, -0.07084973078092947, -0.03551596171351107, 0.05233696914101341, 0.05561995790299495, -0.03655960501092103, -0.025397209521502023, -0.0887554054517137, 0.03785551374780557, 0.06376851373998753, 0.05287294422559739, -0.14511125066889088, 0.016180263868748504, -0.08049984417981158, -0.07395448777692035, 0.08990625654227069, -0.11667654095010876, -0.0654838243930847, 0.05068946430250133, 0.022198118323797672, -0.08783958991740795, 0.01616590648234502, 0.06888335285847419, 0.04820792400922184, 0.16216691851120335, 0.032348859143329495, 0.01925491327769389, 0.0683979105083876, -0.001224044558380368, -0.026391619375413573, 0.030178922403679767, 0.012252258937015646, -0.043036563091494964, -0.037399637455356016, -0.0533900548070215, -0.03942714236446816, -0.0013122894177197606, -0.06759778884304873, -0.06292992420492148, -0.06569601505625143, -0.06870982184881032, 0.0073024894532678205, 0.012228898415654667, 0.04581033773263351, 0.052189076933486726, -0.06624406652254261, -0.06190269754843083, 0.039848156263513144, -0.0575006347767593, 0.0272628632178107, -0.04082296823623494, -0.012856595954573632, 0.09496619623570476, 0.1958463134975964, -0.034159298080309215, 0.10699407992772345, -0.048885263624627244, 0.004232819742923682, 0.030027385144315452, 0.01782844392384083, -0.04349558819798597, -0.10157901831208226, 0.006331791260963592, -0.02523959265001321, 0.011614161215297058, 0.019112545810603294, -0.13381934609593216, -0.05639511201181038, -0.1212250708712029, -0.06270452728142109, 0.01165854985663783, -0.0406119207836834, -0.03265258763403403, -0.05425953810126819, -0.07544192143025508, 0.029915890797235358, 0.010997679653557024, 0.08561367987393843, 0.016637320198473624, 0.09078264189934145, 0.06557179415625583, 0.06898232834418767, 0.015665366767920328, 0.12397958892937218, 0.060694697646627986, 0.02262858835543091, -0.024547288780307198, 0.015626243531596765, -0.007596252191739661, 0.06308558792996465, 0.026024877255594533, 0.07113425348006755, -0.01204898409873827, -0.08068838013633595, -0.024130790250920898, -0.13350446704954394, -0.14377263773188861, 0.09526983435856491, -0.04867881988741853, 0.04852009939631454, 0.08811296840569587, -0.0035144536525418173, 0.06638261198019502, 0.10790479911952493, -0.020769060566860797, -0.11864924289476399, -0.038627534279205476, -0.048617804129518584, -0.070889869650117, 0.12968449882671876, -0.05399118639159877, 0.06825549922996112, 0.004489618441285705, -0.021512756738573648, 0.013112561983302911, 0.04729612686752817, 0.022028436363894757, 0.023806189243780692, -0.08625450638967168, 0.049270687332367946, 0.05278816152282224, -0.0055149562818216525, -0.02966391008430966, -0.03527759179623236, 0.00395606046531425, 0.09060125739282532, 0.011837342810529323, -0.06410492465385158, 0.08393349680208542, 0.027893446995872574, 0.05587254459879464, 0.008813031980524577, 0.005368535293780118, -0.026659656912327377, -0.013227853677894653, 0.023400421909208175, 0.04271558635037743, -0.005275664958039971, 0.04487651459264562, 0.016555764869435826, 0.08523609811415876, 0.026477714552886878, -0.03353869150705391, 0.06652236000980474, -0.06265119313480977, 0.07516059216630745, 0.057074604333185626, -0.03850427035577327, 0.02940192125464386, 0.08932080899930463, 0.11013349916010541, 0.019546324675777344, 0.06376476275640554, 0.08646099261571519, -0.05895977634177466, -0.054383748217518506, -0.12469962862334588, -0.056530330316210554, 0.04616265068389427, -0.05864414921226123, 0.10577497368587949, 0.02919598135560145, 0.11306019899125838, -0.027298800256176196, -0.03921043689294817, 0.04556530371711074, 0.033815433263510906, 0.12083697733268578, 0.005729597950575344, 0.06993533689195988, 0.02840197647972134, 0.03352895016672184, 1.6956033612860232e-05, -0.006238250575179054, -0.00033706805565693836, -0.06282342080261244, -0.021649122849744976, -0.00300844724372743, 0.09091969846422383, 0.11876506879688868, -0.03373753402865603, 0.18155894071575385, 0.06200796785252463, 0.01760784722564869, -0.044650872640598936, 0.09728275090298133, -0.03660569930634639, 0.14552418408107387, 0.032948273352135876, 0.08962506250035335, 0.03552678552208547, 0.04530279305764335, 0.1165182677435039, 0.16359643151435285, 0.08860568035682852, -0.0939867908506308, 0.056883386428194155, -0.05468630829702344, -0.007461938414662131, 0.008219977054851472, 0.026221250515262372, -0.04740186436004936, 0.022539780069604186, 0.03400464795229302, -0.027781977484382502, -0.04799529074745534, 0.015316070346511492, -0.045516094662434614, -0.01571570190953118, 0.07250829670604017, 0.06185303881455833, 0.1626417787418655, 0.09711317713726333, 0.07710762157870875, 0.14821461958026028, 0.10029383841432356, 0.11094488278299387, 0.10603808581008296, 0.176444311147764, 0.1143515757847647, 0.041571112277229746, 0.0175813992645245, 0.001247290600933127, -0.05620710366651289, 0.0506550267330518, 0.03524473886384284, 0.0644478508299616, 0.00684886742479171, 0.012806697551195142, 0.07599149231144886, 0.10325651652041393, 0.011890974761982906, 0.055487398638636956, -0.020608869859728457, 0.024096658889647113, -0.03317104926201124, -0.03958538920927889, -0.008103171018900988, 0.05537616635464151, -0.10076032966710538, 0.02124014656586386, 0.10188345234231738, 0.045612021085344345, -0.050555762396776775, -0.012037366970277508, 0.08320602978257854, -0.04314915856628347, -0.026909491883974422, 0.06958965949923551, 0.04884131802950091, 0.02808043959178359, -0.05654643641164616, 0.018181724744582094, -0.03552134469150276, 0.021644607532295523, 0.07164903188068326, 0.01564545489687603], [0.06133449178739569, -0.012221606168658528, 0.0267304801410241, -0.09540272412700773, -0.029462653981068596, -0.07208787622461209, -0.08844328922827799, 0.032250941349623787, 0.07649336930567512, 0.028441701812757552, 0.027366616257787406, 0.0598520197764754, -0.03280651198865949, 0.032079508487924895, -0.0124519681202799, 0.08950123159654574, -0.040933389933926395, -0.04800922737287981, 0.009032162379699364, -0.018253334935757815, 0.034957664061498805, 0.0674762780126395, -0.03792078705011666, -0.02328367741212479, -0.04296377326151126, 0.004385477407342009, -0.03626929759394497, 0.003844955310328692, -0.07101106008051462, -0.006327244266025248, -0.07098414449506485, -0.006700209046161584, 0.013367692466762629, 0.0002604922183704044, 0.02389205218209746, 0.04241842131864231, -0.08397006345400009, 0.04423993092084375, -0.01873184217194274, -0.08857539029806123, -0.06641471959980506, -0.06000824000402237, 0.024210153017666176, -0.018907831136973138, -0.017425561845177788, 0.02983641129264918, -0.0028406969754911447, 0.058836781524568546, 0.03971190115917248, -0.02219179237592245, 0.04160831178550659, -0.05285292603286183, -0.05062099994446948, -0.03947675895735384, -0.02766225403441854, -0.013668365794841963, 0.045618716378172344, -0.039238212629172875, 0.007758771923167601, 0.05976647794287449, 0.013053238931881483, -0.008204321728787546, -7.045684629274732e-05, -0.0735374423093005, -0.07313782416081338, 0.023400831881848123, -0.06771544927772603, 0.018125556147681767, 0.1055252268477167, -0.0025710815018865412, 0.10007733727328963, 0.12258293632456081, 0.1075579038175953, 0.03766034624282373, -0.06743337625312354, 0.017823127748579883, -0.00857581096745936, -0.017661391242823548, 0.10543876759285595, -0.04447890757093869, -0.016483800144483956, -0.10175671298018117, 0.04718580259123446, 0.06091300744623661, -0.0050185514199147, -0.01741408620408453, 0.04382493486942746, 0.031704134642186244, -0.043907078471494464, -0.03443809932569075, 0.06840060448181663, 0.05705064293470388, -0.06444897485672721, -0.0714650685297216, -0.04058990780110672, -0.10859816782614813, -0.028197075305768298, 0.055316855910048576, 0.06906776937586083, 0.12766967707464874, 0.0697866589912614, 0.02644401864945257, 0.08765969256294298, -0.00043311225742426163, 0.025318098695183443, -0.043142148234009636, -0.018010311855557792, -0.07352714535799411, -0.07545552515721757, -0.025580527820893064, -0.07931208189399283, -0.006777695577550281, 0.04511673045458611, -0.007165138649726464, -0.0723202621191727, -0.00124767243949826, -0.04092888550876968, 0.03274373066150674, 0.010797275065408007, 0.0007214384898572071, -0.04160120201351706, -0.0627753584634827, -0.17993072620721667, -0.20664198093285435, -0.02934253993116421, 0.117035958484523, 0.23300442326886947, 0.12077615579324273, 0.011169646951431241, -0.04207238325517157, -0.03951043618612695, -0.05734085932472933, -0.08148635921573329, -0.12293431246787452, -0.06082334541159572, -0.03956075848809856, -0.05051100820688183, 0.06545397862358518, 0.06703691191128167, -0.012151717616725713, -0.023970139273527927, 0.07484380357407927, 0.07275030209855429, 0.0008574575208766094, 0.03211746558808689, 0.06411160577827972, -0.0589078972133696, 0.010908967660316682, 0.013620690085054742, -0.13059555105837292, -0.09835570379014184, -0.048107551322613164, 0.02785061888883912, 0.12865968938843264, 0.14365268781093155, 0.29119236171713625, 0.02639147868875683, 0.04697731753152561, -0.1232674142160714, -0.16951694510533635, -0.26020910513209816, -0.12531328302790923, -0.03876300065130432, -0.004431111630342821, 0.05802592732538754, 0.009812640828420061, -0.010921658120145795, -0.020412284585798766, -0.06220594162509082, 0.024180609496595097, 0.040815675333802016, -0.08947919335669083, 0.011672900485491746, -0.006896843085095839, 0.043605523326798595, -0.07227101875931732, -0.1523509557411064, -0.0619602800953084, -0.132506451554344, -0.01844718510788231, 0.03670798551551074, 0.18603984421477215, 0.07879721292776937, 0.16110690837981867, 0.10357917536403612, -0.106101052112484, -0.17703206931356644, -0.23102593171621055, -0.12344243232337661, -0.12155630636669118, -0.039444961021044056, 0.025449262544464515, -0.02568355595312273, -0.010201640849498459, -0.05197919004365706, -0.014995689869448485, 0.03914884612088408, -0.01808992289202939, -0.08342953539593552, -0.00031029122265015686, -0.011026538758335877, -0.007859142752729968, -0.05499068914723555, -0.049720260468140966, -0.1519468667243394, -0.06540842164640234, -0.03233275781927165, -0.019897240808023273, 0.09947639350461966, 0.1395239731256701, 0.21962121154083816, 0.24560724872581224, -0.013316161095270992, -0.13921794334697413, -0.19609123686897612, -0.22473146581339498, -0.09455937116812743, -0.06904774067399169, 0.0007282160644229681, -0.05019444543404908, 0.07159453174472903, 0.011966685421049776, -0.05456023222223167, 0.026009163398101304, -0.0152222952225056, -0.04144555995582032, -0.07174489068723999, -0.03890369812003, -0.06554511607421092, 0.06047918215030643, -0.06952471930738838, -0.1039342691784903, -0.09556533238531618, -0.062253860337052935, -0.026766325703865244, 0.05944833097185591, -0.014661416715233867, 0.22529170429967815, 0.3327112345078972, 0.14050401578055507, -0.15461127570390618, -0.22140727846445873, -0.2825764479537294, -0.16684572077368606, -0.049653350511171854, 0.02662522746042993, 0.037482337996522196, 0.004314005228263237, 0.044290283067000565, 7.423262319032747e-05, 0.07807643848390611, -0.01263520237175421, -0.017398874826360045, 0.017254540807899225, -0.0897363664206684, 0.05289624893597347, -0.02034095497990002, -0.10691158678935643, -0.03550029692203921, -0.06902990285349382, -0.03396770539074794, -0.1036799530005653, -0.07732281438358209, 0.02834227606737525, 0.142223078395625, 0.3378651668950432, 0.1725840992731836, 0.13924641497358214, -0.2754245822073395, -0.24229484509131538, -0.28970183753118595, -0.08405414608255676, -0.10528077543638396, -0.12214493373352585, -0.024991795646824626, -0.05566873450753065, -0.060000774367664204, -0.07798089917066858, -0.09098864009553052, -0.003984590604455092, 0.009568850842156801, -0.027994989819255876, 0.016479225899095826, 0.015005522400425013, -0.0210198708268467, -0.1322174287680222, -0.0719931650625554, -0.09766282706358324, -0.12148470811034259, -0.14528830605114743, -0.00829817361523232, 0.10369214874155122, 0.1616588507312855, 0.3902452939034381, 0.2839793667664088, -0.03758351703619279, -0.1988423011708156, -0.19085916409524814, -0.22024186041107666, -0.2037792384548168, -0.07449550719625493, -0.04997948668673816, -0.061343341078537256, -0.07772980050361246, -0.03042285484496907, -0.11956061742013693, -0.012324400469250808, 0.011801259031898546, -0.016684702330168884, -0.01758788534692328, 0.06642696630792155, 0.07006600398703039, -0.01725013888393211, -0.04161292534713824, -0.17072945259330022, -0.08356050740331539, -0.11728573238272381, -0.041839498603774436, 0.05706210596030741, 0.13066537320331592, 0.19973037910365393, 0.23645153977405867, 0.10965451825809035, -0.1431894191359773, -0.17634357473165677, -0.09243169391560052, -0.17165918216953122, -0.01184902072164154, 0.028759522711064425, 0.047732868007865394, -0.14670030487775015, -0.05137553012456094, -0.12535319885376797, -0.08438750141040204, -0.08461414830526728, 0.0174192452274773, -0.030128553723795203, -0.06489262654863694, 0.00012540599722533587, -0.11075837929926245, -0.03752601004939361, -0.1891053188228974, -0.030793300979838283, -0.03489070340196221, -0.005186647728163085, 0.18605571227478637, 0.06963802134276467, 0.28386776041013306, 0.2616287080490589, 0.11654213664850045, -0.021364922393773845, -0.13289371087553292, -0.04168191925669779, -0.16509150833621614, -0.022135232088793356, 0.03767789352733164, -0.0041558308745476965, 0.011006404919680057, -0.04931837663028559, -0.14692087408470764, -0.07730722517197336, -0.11865045281964633, -0.053656444334567004, 0.04163569366210888, -0.07294200291595468, 0.053335126757460403, -0.04031333293890749, 0.10997937152573302, -0.1237332881646203, -0.054845292770153625, -0.08176859269429217, -0.048726569423700836, -0.0054167444513613765, 0.021028812990649896, 0.13642459808390386, 0.09606535358516485, 0.09640201525376242, -0.1422753956419809, -0.12389692200928977, -0.053007147230833496, -0.0172303659345904, -0.10842614328156716, -0.024407404169637024, -0.06823034147481925, -0.05672600380024766, -0.08011042131083701, -0.0006597382146152117, -0.007751732220211919, -0.09574759030689003, -0.08085051166571537, -0.007976609274179619, 0.001114000542749781, 0.02789313315414538, 0.07566846142213747, 0.04481011542968086, -0.04762843926141213, -0.054180192607288416, -0.01759005373090572, -0.04909209624395868, -0.10351258874037372, 0.003561683112854578, 0.16557825036682552, 0.10506255741469286, -0.10840546838970078, 0.04244256759242263, -0.004454581305674598, -0.09159421048233095, 0.08532940059339254, 0.11278198256044313, -0.0938925383040796, 0.05118615946700054, -0.03643376676969893, 0.0035923894787831317, -0.0795463516073614, 0.013571943651081768, -0.017060013910915214, 0.02841322642824084, -0.06204978945945493, -0.068752421047687, -0.007816235845112, 0.030489574436236223, -0.006312849978709707, -0.009712218189734634, -0.041143769669519256, -0.06430290456870247, -0.046009844727012805, -0.1318449395722727, -0.02339766042945147, -0.0020112568701722267, 0.056606841335528235, 0.0023943453770490833, 0.021600623680072786, -0.12897825853656453, -0.10537104173114097, 0.0141388778208756, -0.04737863113776627, 0.07068648475496175, 0.09683787655096587, -0.054957875860823256, 0.004174450053313064, 0.03264627166023134, -0.08305834090155163, 0.024944671007406577, -0.05929424865619457, -0.07615321450953214, -0.058861759955738314, -0.04951756807381627, 0.0046589532246734495, -0.03022747042288315, 0.002371507516963989, -0.040306990177682626, 0.02312770991703607, -0.034741550705560294, 0.004463453103645043, -0.0039064792814649365, 0.034330953095868956, 0.019764054608243653, 0.023856676400576173, -0.06156081136320191, -0.017356105311107428, -0.05782082867796307, -0.12026242014618592, 0.0397696347111037, 0.06324865704235462, 0.1580196852330664, 0.01822862235809171, 0.06918394279720973, -0.020800377288936238, -0.04738155762599814, -0.0693106294483556, -0.08234913440326558, -0.016483674976577066, -0.016507196433051388, -0.048668617767933235, 0.07293891104978624, -0.021877572816262365, -0.05355035651404641, 0.08642983255330212, -0.06560143039392567, 0.06190738391387261, 0.0465449988893904, 0.0870858986217505, 0.1151586378360415, -0.016543347741914877, 0.10472679199894668, 0.06424722091706725, 0.013180034862604448, -0.11100814512373264, -0.14637678562481263, -0.09324392912291425, 0.27585211436812057, 0.2534985671983945, 0.06135948369153813, -0.06321200286535775, 0.0297221103253419, -0.09613072823977332, -0.12736102469977015, 0.011507006155684184, 0.027232683735425537, -0.031233580111961326, -0.06084676612749847, -0.08169192011837807, -0.12100279233146093, -0.016884774682382312, 0.03846881404857492, -0.04166755975454882, 0.03734300644987134, -0.03265720504345636, -0.046355756899481675, -0.025186858058164174, 0.02845126756118103, 0.03540000982246629, -0.026744370244745234, 0.13202069174744346, -0.028027922749749804, -0.165774436266128, -0.2192407402717494, 0.03931997991213387, 0.29125402626240504, 0.18711127052665646, 0.030041870553587282, 0.006246036667472748, 0.012164005747771918, -0.05495681347208692, 0.040017271667267436, -0.02080349873796665, 0.059448392330516735, 0.05949170540440804, -0.039223430120536425, 0.018692742202889447, 0.0065581024000173896, 0.03826818850196264, 0.0709244437028504, 0.024495223289454863, 0.024304303716189146, -0.039154333442471594, 0.015079715366359592, -0.03149574902090706, -0.026239751829180404, -0.019923677602757563, 0.0634872226392798, -0.03682898449470212, -0.08701819025062778, -0.10467998742008955, -0.14962480229587605, -0.13539919503418626, 0.26391388080164396, 0.02970329743409185, 0.08876692383549702, -0.03918003337047743, -0.045292408313751004, 0.05913653910958666, -0.00905545788235915, 0.0022877852461869637, 0.046003304647563685, 0.025597652088827208, 0.10930306419073382, 0.044924384010803876, 0.038362604435815746, 0.07689600400889228, -0.0028611613159375982, 0.16023564239389798, 0.018812730480922163, 0.057762428636224925, -0.07737796980898234, -0.05197374481656722, -0.005516430804673649, -0.01386620299840287, -0.15562776299960313, -0.07569078777867101, -0.18648244569484115, -0.05584468315666608, -0.07783560000978264, 0.10311936234767428, 0.14115292315934522, 0.10743693226726853, 0.03807914669923068, 0.09387048334794314, 0.03967173630547035, -0.05185599621454519, 0.05849153754197526, -0.024435481098492907, -0.02665628238297078, -0.030289067264959998, 0.12891923312756515, 0.0006829192394978788, -0.09679984347289125, -0.04827945157074648, -0.051146991365073155, -0.0193264630191165, -0.11609568071837296, 0.025026324267714416, -0.052827564431252846, -0.03419821092266677, -0.12545716132827975, -0.13276315033130726, 0.010118226701683644, -0.14710062227864437, -0.10465331801917381, -0.12679813369777393, 0.017722702935031868, 0.04389885600552926, 0.19773952580351145, 0.10695206987344588, 0.01703686907970627, -0.06419433833124479, -0.010544277028005599, -0.037152465362178505, -0.011651336275798774, 0.02103761394241743, 0.0017848278785258574, -0.006460308929702377, -0.043812811266288686, 0.08804803696425112, -0.014200020902990995, 0.049024480442057296, -0.045867556739454585, 0.0827869674814351, 0.05650009170320122, 0.021980867924666005, -0.07357296110550422, 0.0510336403920888, -0.07051470446609409, -0.1736609314230568, -0.06180603856544159, -0.028540206174415488, -0.045043269589024305, -0.05883622897160019, -0.02016253420366437, 0.10163855706867163, 0.08460882084576764, 0.11102137190846012, -0.03728884057741253, 0.07230956193260085, 0.11919646076506739, -0.022308754624083355, 0.00983457729196265, 0.021943463664553475, 0.03066021580080284, -0.11902737305918801, -0.008303481109130149, -0.048869106480507254, 0.015753742334417783, 0.0399010494236332, -0.015091208754978212, 0.06507565879426243, 0.08694830399935378, 0.04936696548955386, 0.07035049084196691, 0.025061161932667986, 0.04302657788292807, -0.1129127247174831, -0.18774563931870802, -0.10404664952564725, -0.06458131606766915, -0.10537432835349017, 0.03543606252233718, 0.1272006488754052, 0.11137051949630922, 0.012452998006139731, 0.07004960309767146, 0.1166802946282628, -0.019497433704234127, 0.0513516574489447, -0.04076427316262371, -0.057460971450918504, 